{"layers": [{"type": "DenseLayer", "input_size": 30, "output_size": 24, "W": [[-0.46389753210018103, 0.07805627225800031, -0.0125801451848486, 0.46225256293480543, 0.10971719103703365, 0.25156146024499615, 0.27092029272809853, -0.2665872847317964, -0.3703600521762828, 0.003968112658845482, -0.060385669650465254, -0.04979288937329465, -0.15846908510887836, 0.4580622113450857, 0.31055195013904263, 0.1799929001241228, 0.04320810787521308, -0.14070916150386564, 0.12279458187151741, -0.39895285500369776, -0.12858880283280041, 0.016542999896383102, 0.34151238882736545, 0.20496166928364035], [0.2196066509457444, -0.25832194846880907, 0.15955470382843398, 0.44054220652482856, 0.25180175512820074, -0.34867844239735496, -0.05185037577752663, -0.3940099752292686, 0.11342231360573782, 0.5460768378692138, -0.27555471541718246, -0.40393649970288925, 0.31892993136413805, 0.47759163186324843, -0.11803358534586506, 0.28244590138012615, -0.26820583847294877, 0.06971788225987344, -0.13565861037091212, 0.2397323342448969, 0.2148310435352431, -0.005708895458644289, -0.007994487812726851, 0.4674776799047885], [-0.1003117927093474, -0.4624424297470843, 0.0017268842339459559, 0.004659094161936055, 0.18358995215655513, 0.42300504925367044, -0.1238207160071295, 0.12696956866901674, -0.41226531677094264, 0.5529933719759681, -0.40106120792112376, 0.17424017744254566, -0.282006923963541, -0.2658377338214908, -0.045466260460544985, -0.026147130880498172, -0.46511795450788973, -0.2900858451338696, -0.3245385961944901, -0.24855244232361154, 0.08861655211319312, 0.26761025603175576, 0.16862710724204033, 0.3984043387080508], [-0.20804028149511766, 0.2502804771420579, -0.49781579774539153, -0.2706514985390811, 0.4168307309863685, -0.094571756055233, 0.1296568704353037, 0.3629205333964722, -0.27984940546379033, 0.5503489199761079, 0.3530206746745467, -0.09917418775952079, 0.3475364007162879, 0.06166516596789643, -0.4815105670986043, -0.2893771530000058, 0.12270272671101552, 0.1021971127454065, -0.24848600722929645, -0.049487581254886434, -0.41679737200354966, -0.2792403280641126, -0.2027332272612868, 0.0836645843617266], [-0.4094359946318112, 0.05661976983393364, -0.3967212448914725, 0.351718781245403, 0.19084158777455196, -0.22633182871866195, -0.10205092180388137, 0.1324401857462487, -0.39456450625987793, 0.32287138766121637, -0.3665009939789159, -0.21843138511228397, 0.05244936307633873, 0.18231943228312458, 0.19431999770420397, -0.0802629970871569, 0.3358623205669157, 0.03532733099779397, -0.3035580661146058, -0.26802753603013746, -0.09521831460369476, 0.1652835369580927, -0.047695339612262, -0.31866334836030663], [0.20560637974336024, -0.013673068910866613, 0.18379154904194225, -0.2906949859478492, -0.2820483081819156, 0.051812797992399004, 0.27091208070117717, -0.05528642741124085, 0.16978796868782314, -0.1299534548360702, 0.047972493461820885, -0.08172555061693859, -0.3327126014167366, -0.06231127487792986, 0.06697891239630673, 0.30661460481365055, 0.006849533092868456, -0.14055863907586985, 0.08455524174162533, 0.09324292473491454, -0.017253805637371243, -0.27229177737083726, 0.2152600924601481, -0.17932722331703874], [-0.08678863513853703, -0.16465209749531548, -0.19728323450876806, -0.010200597768551076, -0.1759777422520188, 0.25352449370818697, 0.43269589692316524, -0.28555402271594277, -0.06255523322208976, 0.5039706182710921, 0.09020005251629465, -0.5443374182654084, 0.06418768670778671, -0.20825932361829552, -0.2391813022095252, -0.14799258311046648, -0.4725832468855457, 0.054829339882502645, -0.4231603839134816, 0.13978241149611592, -0.34476733426422096, 0.045195438425067895, 0.3241762163053801, -0.07235377293347657], [-0.07529643985126241, 0.20401102637184174, -0.20619421190593532, 0.4758751068794635, -0.291007517311803, -0.34381455022205315, -0.10613858797215164, -0.40416838141205924, 0.24902581285487685, 0.3024408348490826, 0.20434780063059116, -0.5036817529569577, -0.40080635237205847, 0.5030368881923385, -0.12408509944517442, 0.03834125555401994, -0.2096625350835248, -0.20243694836596587, -0.19889775279029487, 0.08367563893651037, -0.31805727677638373, 0.17728313597709328, -0.14334137114571677, -0.21075344305023141], [0.1119852951435371, -0.17495684261092953, 0.3164954085710836, -0.2430584465229097, -0.16502788418854403, 0.11745693449835205, 0.23835262341145175, -0.20627990561920467, 0.2325238289408669, 0.09670763138335547, 0.11062376954875132, -0.14122730018194415, -0.1261358068832599, 0.03234481593957982, -0.3249711061401834, 0.09118084049604017, 0.048465709312593044, 0.04126123050091405, 0.24003836765535763, 0.276882981011037, 0.3796116171306597, -0.13903751577931112, 0.25865471494516634, -0.4224743078012905], [0.21129615882704783, 0.17639536695062377, -0.36339864697090024, -0.30348707099320305, 0.20855772548310755, 0.07007386833839574, 0.1704449383706903, 0.054529195108956485, 0.2961889364289259, -0.522083615598976, -0.3007247361837645, 0.07052858261334406, 0.30976315346975425, 0.15831692586341323, -0.08872977949371874, -0.05074922045322783, -0.12055738682083991, 0.21001104312628646, 0.08600429288181967, -0.34852852867882544, -0.0664456187042616, 0.3487610748868134, -0.36535856909812414, -0.013402173291839809], [-0.3003866192935728, -0.3362962932065147, 0.062160570663471984, 0.6473646070907811, -0.21498136467257295, 0.19298303540453146, -0.07418219631369885, 0.0842235169788038, -0.5279769546800962, 0.18135066226302948, 0.3785270173211018, -0.22981081767999179, 0.19938510681086155, -0.048782402388515146, -0.5429728334030323, -0.42730063719747857, 0.18156373790457686, -0.03228590150227825, -0.5406685152267988, -0.31069374729813787, 0.10937650357490383, 0.6200845723057947, 0.2644656662364113, 0.21217999782923572], [-0.3203614840155924, -0.08925123404091678, 0.08551434980597625, -0.025521927254922912, -0.355710748494379, 0.20791714526173283, 0.32074849863654364, 0.023811815729804123, -0.02261462248982694, -0.2952947443730836, -0.35148287485758983, 0.5302610776214787, 0.05531821515226678, -0.1933497998224301, -0.1397412565042665, 0.37220823803895353, 0.5149925858884205, 0.07424452864286005, -0.4248920675312305, -0.09681755483621945, -0.16935229522649264, -0.03033890164745895, -0.23695796160886223, -0.42462592740756566], [0.073843301124011, 0.09990229797463862, -0.0683351900928949, 0.06725367639001337, -0.3199008783142834, -0.018918759016109253, -0.24523396611535658, 0.36040528648422954, 0.029246095256712137, -0.0019757999246989007, 0.22944739880846082, -0.5707518818036447, -0.07752486390828564, 0.04092934949265553, -0.22469342179247567, 0.2509637750917064, -0.18022733142087977, 0.3650227362843557, -0.42842815978272014, 0.1137337607541918, -0.3777598304445011, 0.5505255110359973, 0.17528292175603968, 0.38945571256622463], [-0.07669609176226135, -0.455659671200804, 0.09536968548877545, -0.10015473677470378, -0.08556030690997347, -0.1668937137201371, 0.13396396597666563, -0.458406035786648, -0.45813349343247073, 0.01998052212061714, 0.3317477486892062, -0.24545937369561632, -0.2711470314940507, 0.04267504248290524, -0.4300369660238119, -0.07298575077874145, 0.04305281075375202, 0.609022415022136, -0.4074677340523116, -0.15624057287407284, -0.12321680054038674, 0.4443206656853852, 0.12651609780171277, 0.16613475394378305], [0.05582478993634645, 0.0069995928787987384, -0.19605197120566936, 0.2350803189460642, -0.3764477997846327, 0.4551298192097934, -0.4806635982354213, 0.3069623259284987, -0.25639532232595297, -0.10334428441631703, -0.422623556640078, -0.30651907661017974, -0.28579441357825247, -0.3012224932518449, 0.25344303826500203, 0.46687252045773064, -0.12489176666775598, 0.38058696049382634, -0.3246221496805179, -0.061423250642740616, -0.17089340884126483, -0.6827061881775798, 0.1315825260851413, 0.1973662644003389], [0.03412492183898148, -0.23112418457677422, 0.0869410353508205, -0.060790363887478764, 0.16816120965438422, -0.2298535214490906, -0.2709572581848255, -0.17691686654432973, -0.027074320750015646, -0.11170590756504377, 0.25168137397686213, 0.5025037137380256, -0.2499930115337299, -0.2662067541591044, -0.22228241681275676, 0.07396264932206173, -0.2866534798872161, 0.11080324214651983, 0.3088734721473635, 0.3945336093504387, 0.3210594163266049, -0.5728044234894646, -0.03828982566377027, -0.2973945979838183], [-0.25877631676989454, 0.1486771428714985, -0.3222448383464151, -0.1401033602429928, 0.2310562166884906, -0.3914079962270006, -0.36605937212545875, -0.3609563030814611, 0.31468922716592096, 0.388203632129637, -0.4192473627875154, -0.2627017732500667, -0.2820619402387062, -0.1914473053977526, 0.07939603526819403, -0.19698437375390748, 0.018672840509062098, -0.32564526417981315, -0.4525382571772589, -0.27940248847394117, 0.36579140765314117, -0.2602904365405969, -0.13411592975065223, 0.30471989554066564], [-0.40488791893536674, 0.1642421087737445, 0.3100511189595287, 0.2664056137015255, -0.31029637649473946, -0.17673689673137402, 0.09513762054815163, -0.30620570165905625, -0.02014838932573538, -0.26389072338752556, 0.1359305951128607, 0.17049770841548634, 0.08857169466903943, 0.4558300270000096, -0.2885415517910757, 0.0880825906200367, -0.097140984258929, 0.41888397479585077, -0.3802525020332636, 0.14190008497632972, 0.2798415019402671, -0.1400183153489893, 0.12636860568508584, -0.24906554333352302], [-0.26661412443494176, -0.04644396394899175, -0.06660235915904313, -0.5246539364933056, -0.06760945709378975, 0.08253960755569828, -0.1478942358318403, -0.2880556693633113, 0.05358850162200069, 0.0934178918569926, -0.04539318388584024, 0.08336653461489428, -0.25084714533556446, -0.47613090472490627, 0.4474900517145634, -0.023640645991701858, 0.13166764298168893, -0.5647845184229817, -0.3901471197930127, 0.4003161774735315, -0.26572285544803464, 0.1405644008160946, 0.1132973027968992, -0.23728910866745992], [0.4393349783991289, 0.33199802161167485, -0.051042943140736076, -0.47171424574871534, 0.04087892444389927, -0.3270350139681952, -0.09698964773979595, -0.15071167255130366, 0.20255590026312675, -0.1124505958448019, -0.5465214176679293, 0.5929573146274931, 0.404982794851307, -0.05142805494679753, -0.28299494703874456, 0.6370185058519753, 0.32807490420108587, -0.4893500496761708, 0.07310897673514609, 0.011658023247354947, -0.16678127337845552, -0.2919751873068188, -0.3785814236359871, -0.43170934071816974], [-0.2528695681982837, -0.2722883817019283, -0.046698025883880404, 0.23833864885824363, -0.2818524496835511, -0.2750943066006357, -0.2392438372495065, -0.11006668184710244, -0.341555675711516, 0.46382570153231495, -0.17017763803705446, 0.04986772019312178, -0.3339112283496343, -0.05503005488114396, -0.3789089375122246, -0.698381837974345, -0.5228533109371976, 0.20172589918641926, -0.3436379143485899, -0.08487879855830027, 0.4322822445844484, 0.2692726618571804, 0.24808183891639954, -0.16523438733827336], [0.035061622741330185, -0.016992635278064317, -0.26854554518775087, 0.457428257597996, -0.2975139504735195, -0.2365118187390232, 0.4477132933766603, 0.048731638368335786, -0.42083685171758, 0.22820930425489197, 0.5057182845331455, -0.41662054054691844, 0.262131949947276, 0.12188306581669608, 0.2074346449908727, -0.6530200861266099, 0.09134279370931737, -0.07050645953248633, -0.23365246562705738, -0.39228540343782164, -0.3384307618350442, 0.4261170847303158, -0.0670813513811715, 0.027506419320157165], [0.07078163944881538, -0.3652350212629269, -0.34479878073184594, 0.5233963358743035, -0.08825740460394019, 0.4277281879050342, 0.39186222281380667, 0.030450735690583416, -0.41777079995148014, -0.11583951464984976, 0.2909953354670719, 0.036637531157583274, -0.0340418158569899, 0.3235681068129173, -0.01881321443778312, -0.22579818283932926, -0.31345745163233174, 0.5259146718863245, 0.053873040326473345, -0.5193044842524693, -0.42296396091328997, 0.2706638834166002, 0.3422686258546072, 0.5169861685117493], [0.22611937015408548, 0.08835318545701938, -0.27752565670497636, 0.6248880195957797, -0.4704831335745015, -0.0969204388221335, 0.3433001405202977, 0.29891376404047093, -0.5587246481890517, -0.0808398019227158, 0.1261695665205507, -0.38351265770373527, 0.18593098808152334, 0.4845667057894856, 0.08637855552235267, 0.07898657169473261, -0.24865629411965431, 0.3539423955103311, -0.22678631013345021, -0.41335785880536013, 0.144668289837029, 0.28880414943670724, 0.6040506634891201, 0.08554201158762474], [0.14072842781903802, -0.059831188028662864, -0.08408745936391235, -0.1305411777556765, -0.17561377345960907, -0.33166411107917565, 0.3910160659532088, -0.39647282341589707, -0.16969751138021913, 0.3451500440847282, 0.3403440738110525, -0.10133723700642733, 0.12279949313949629, 0.01546674226377247, -0.37005092630349773, -0.4443871816002999, -0.17027217040022272, -0.2475143323751939, -0.6629121460282378, 0.2691207670826485, 0.4426422091153645, 0.5394772940408868, -0.1396364215846028, 0.328208607802241], [0.0333686513163834, 0.3922608014858113, 0.11982111214835585, 0.25180136635315814, 0.24207279734885634, 0.11661037071006063, -0.2019728142135241, 0.06941529667427984, -0.048281025906337545, 0.32244112435948563, 0.21083485234061694, 0.14911073796177207, 0.2462340777299602, -0.48084988208378837, -0.07820927396463304, -0.1482675919299533, -0.18634467489478138, 0.39567920279774166, -0.027001954697481213, 0.3795064037336115, 0.24811956952176978, 0.29947474718654093, -0.18642221253121566, 0.4416839258995575], [0.342540927115785, -0.4666294644937058, -0.4412899951948115, 0.4012721437516531, -0.5330673518656837, 0.22758614022366452, -0.007777650368810697, 0.3262432521642648, -0.5562284791024613, -0.04744831401992705, 0.47742951035721726, -0.25707007429785217, -0.4247776562097911, 0.12178937906233636, -0.06477668400871092, -0.5451628191710693, -0.4117687458078322, -0.005307179474760026, 0.07950133363200246, 0.1419061109173798, -0.3715706754278597, 0.07849453417900108, -0.2663685579373753, 0.03181637731885847], [0.09636248321642477, -0.0605146911235432, -0.49028237538060115, 0.5584908942819893, 0.0787608641040131, 0.21665824633764683, 0.3999804544433916, -0.19011257270914697, 0.0006377680996860315, 0.23567476579487265, 0.4491924904517364, -0.024226435788533004, -0.41511704702576346, -0.01279632581976297, -0.2559682696294137, -0.20306296824737025, -0.00580484799849238, -0.020889479337221156, -0.46332859178914304, -0.37878210489057934, 0.3208489564507938, -0.06699330771868008, 0.47942021005386276, -0.05047245783794751], [-0.17174534623523482, -0.2084184731801419, -0.09493684662498603, 0.670983658674903, 0.038044495530934634, -0.1042975770324022, 0.41841142143526433, -0.18333387728445039, -0.20535856709260344, 0.14363576994365845, 0.2208007083056645, -0.1730388675669437, 0.3661742127493811, -0.17631353561203877, 0.2672677372850992, -0.4441561532753515, -0.027570847958022907, 0.4104825303255213, 0.22395974813684058, 0.17864940499598414, 0.22263066038606535, 0.22651104923219695, -0.15286809794531694, -0.3168879502430301], [-0.4552986548713127, 0.03806354328465804, -0.3116296134434321, 0.21416037653471698, 0.02583723393454668, 0.07298457311321437, -0.3225094835359064, -0.12959214904823124, -0.05729952194635925, 0.027380237466391635, -0.12503902472025488, 0.21355442385842846, 0.3354050428069793, 0.3862888603743727, -0.28904819736255344, -0.13838688595514198, -0.3281863240171468, 0.3909162608940389, 0.09145890508822126, -0.21006515444407936, -0.39112642286110477, 0.31265774103373895, -0.3100979629079073, 0.3186988923029128]], "b": [[-0.003304172516920987, 0.03671064535466546, 0.09496328614484181, -0.17326646638988116, 0.050564551853791745, -0.011213602632481062, -0.10417611107225991, -0.009324590151105164, 0.0328381625461325, -0.1325552355345514, -0.06728722735410514, 0.07884315611559804, 0.03588566637165572, -0.0346042824662992, 0.07050420531843889, 0.25137509595096214, 0.048497108332043105, -0.0567119308222799, 0.1450444787715843, 0.00663087297662119, -0.0029509069607844825, -0.10721012200195709, -0.03006907690915664, -0.05515457650050284]], "activation": "sigmoid", "w_init": "heUniform"}, {"type": "DenseLayer", "input_size": 24, "output_size": 24, "W": [[-0.4092171420213432, -0.26715498897838696, 0.11995251353088894, -0.3789627146374978, -0.4449347724364245, 0.3323548000588002, 0.06826946118302152, -0.1742120190916734, 0.07809395778338776, -0.11804357379187715, -0.12839360192990656, -0.10796409751447127, -0.47354851999817943, -0.4152378358361802, -0.20126591981209405, 0.4160410846629853, -0.35457212626996387, 0.10781252833971615, 0.3441393540408118, 0.005802603732730841, -0.16296756120506886, 0.15742915914637112, 0.20913712666824472, 0.030804972982664058], [0.25312167427040577, -0.13248584461640855, 0.15355087193448588, -0.001329092012953104, -0.33757191523579333, 0.5536574047554821, 0.2491403571295959, -0.5406653591384011, 0.001109915016765352, 0.5003976218319631, 0.19870364594982629, -0.36029923806356207, -0.10184184022230754, -0.3435347405357652, -0.22519044382274286, -0.2845735842842227, -0.09776811144297964, 0.3285208316059404, 0.404977334302598, 0.27240982451827334, -0.2595207051171222, -0.39329994565114407, -0.26569558374522007, 0.45964048579471434], [-0.08209407812325181, 0.4609051271103908, -0.1356226546234458, 0.1521801477852291, -0.02900631334234145, -0.1132479167368693, 0.3046686250040667, -0.13839694741736347, -0.0953859543159845, -0.14672918304008695, 0.038267540890384324, 0.1836802184464848, -0.5014500162425413, 0.3345034319495178, -0.009159091308550343, -0.056678012237386485, 0.3220792771475129, 0.4303898535633438, 0.6380380684884297, -0.1574078420316389, 0.01292091855359138, 0.631396665484451, -0.14953985116248925, -0.17005656962553223], [0.5264767316214828, -0.13540303331723355, 0.5543319045308858, -0.46128756494212264, -0.49491129550821816, -0.1934621460812807, -0.07166889128807634, 0.6228190017015914, 0.6044462188308104, -0.31315315928148607, -0.014009778677662513, -0.430181346734388, -0.015418936456935473, 0.7015510728414104, -0.29529414403739535, -0.6423522862762648, -0.7168323149729818, -0.46592416472855636, -0.7598384655140457, 0.18797984900164977, 0.1272882601505525, -0.6488813808729146, 0.7307354010993289, 0.04502984203215265], [-0.4185956382201803, 0.03541734605719268, 0.08918063694613854, 0.3518043486066727, -0.17261101764349782, 0.3382584625364779, 0.48837266730950324, -0.33150308408212675, -0.030260534314772658, 0.29207613930167486, 0.07409512604790837, 0.4230578932743298, 0.31509067886709846, 0.04047966689269354, -0.37871101050097844, -0.33849468993391946, -0.20828324278338517, 0.05754880010965365, -0.11668632084739204, -0.20957184980112964, 0.1496239747502818, 0.29311564497274684, -0.5727550537606574, 0.46004496280109797], [0.411468253729592, -0.49984361461783927, -0.1824393075625762, -0.08994573825017982, 0.022716924224743903, 0.3828134129718314, -0.2788048729687897, 0.22166851818585964, 0.0415354573407427, -0.16503423840671258, 0.22609469179135477, -0.029314502120329003, -0.3882418757098105, 0.35476922356147483, 0.07519602919876694, 0.11036362726577639, 0.17563647436820884, 0.04014575873086581, 0.17530915816676973, -0.33369527581609765, -0.1482892440907308, -0.2201475680565116, 0.3602089224184942, 0.43644704662368783], [0.40360788084596166, -0.07417529110355416, -0.23735886952737245, -0.14220796882326311, 0.30724023140137463, 0.22771615620067578, -0.4277610172560282, 0.5757428830354012, 0.4503195646902286, 0.1793654522436574, -0.19736419119273563, -0.41210702678496913, 0.14126021195877753, -0.0007761959615184013, -0.004608382525615302, -0.2922736553436112, 0.18685420850021586, 0.21745620927549356, -0.4588439099705638, -0.1030555873167285, 0.3693226122792186, -0.2826126294486429, 0.4560162046684979, -0.47563154082401365], [-0.3096434722088361, -0.14408254172676552, 0.1298747725271423, 0.07075253350790035, 0.40729371161204514, -0.2132860846960146, 0.12428225403998316, -0.17479800268871745, 0.17910057463884194, 0.011064675777327277, -0.476126464038627, 0.38992295502867885, -0.4246621087700753, -0.27294613379713273, -0.27128595456739485, 0.45469712739129864, -0.006299982147739256, 0.32507982238958505, -0.3151160601479516, 0.14183711141078656, -0.4057354153270795, 0.36719189712588146, 0.1502760190275439, 0.1259267158352521], [-0.1482375037389745, -0.33977637832706103, -0.6000288668248775, 0.013946743285346898, 0.3985182156945487, 0.011780741808417603, -0.1219622427163437, -0.5620690428403947, -0.3429850430039261, 0.36343235808837165, 0.35359929015688496, -0.5142993665823159, -0.026857108780560083, -0.6070167408899643, 0.10106054528871983, 0.3256623318241755, -0.15760953546479478, 0.34543164500691786, 0.5829034854197767, 0.3405657350574835, -0.42764135869475944, 0.2793696272562344, 0.014691537080749774, 0.3508458303794998], [0.17280179465949533, 0.17591612947990287, 0.470511721116132, 0.049603856265025704, 0.3501774071043444, -0.5668525679514417, -0.2894164891205771, 0.2194260298275651, 0.07121573122486391, 0.3178802188329541, -0.6654698690350926, -0.022888003707446817, -0.011768929300159277, 0.34536673504929505, 0.10385720154126886, -0.4111969288939368, -0.3809564582200881, 0.06386362349642727, -0.3172162449888491, -0.3270121680165043, 0.4407095499957938, -0.04360274312884978, 0.6829479008448436, 0.19801921227016936], [0.029436276391049947, 0.3989999373377465, 0.7564262334527126, 0.23364736390310523, -0.3198065765303995, 0.05447789093995606, 0.24291749359953405, -0.06128034582681036, 0.0990061567504416, -0.27485378366106594, 0.15567633525979616, -0.318596783604395, -0.23925392532287945, 0.550380060493027, 0.13039859548916502, 0.2619942036133495, 0.2538293364518737, -0.5306967894544657, -0.1316171082895524, 0.5439147873455668, -0.29072330899265275, -0.4523502135128021, 0.7143123963160368, -0.273174293047675], [0.3251680588611034, -0.2691845998112811, -0.5548204308843802, 0.4480310522573347, 0.07315068619887205, 0.18048707200630915, 0.4249262377660936, 0.11663958133930699, -0.5783186819459315, -0.03844332100378223, -0.09972683521236851, 0.2567814288696576, 0.15988108989260888, -0.687490916804277, -0.00047023613310970107, 0.5368295148143178, 0.15245490639711923, 0.1075659988530921, -0.06569713144399993, -0.28398616257976994, -0.5552377303110938, 0.3637988664021495, -0.8610417726001631, -0.1178711455765756], [-0.3098969551404606, -0.4021891838687235, 0.44032114986157594, 0.23994149645011023, -0.30145214275219245, 0.186350831937086, 0.06533749365008394, -0.11031655717448076, -0.1403381190386915, 0.27002670109464844, 0.13221480024515758, -0.3844509988967538, 0.3266586403770787, 3.1492270058872396e-05, 0.42021611580020807, -0.12370531775086249, 0.44369220150003635, -0.14976144329307772, -0.1253752482360768, -0.13474833617294732, -0.32586046469882113, 0.03959668108799712, -0.2928059375492696, -0.2305269245794541], [-0.4127755040375601, 0.04134858374132463, 0.062514799673496, -0.47651990607141365, 0.4763494418864601, -0.26674936598751553, -0.15110716952146194, -0.04473191604013668, 0.5557169097181545, 0.014127665033840095, -0.26718821053022035, -0.4426905778476287, -0.22688024731075696, -0.05138990638663512, -0.22409048873330142, -0.13748564847106895, -0.43096416106165053, -0.11812605351960348, -0.06744465330228198, 0.36219046176449554, -0.37108311526972787, -0.04708174238377791, 0.18257627351769573, -0.08142479511191866], [-0.06676738559193288, -0.2913417438594868, -0.4816780111569577, 0.13043701249477893, 0.1641512605792346, -0.27665069735730646, 0.0838238943404359, -0.22244615268704065, -0.6116628633696494, 0.012947666009621498, -0.03588850249653227, 0.39279499222751285, 0.22011289040799792, -0.5661702226579562, -0.27222797546501015, 0.11432296868412753, -0.2962763138523322, -0.2882970332008819, 0.6830224843933235, -0.16750678615049028, -0.4079279332081835, 0.21724756796655673, -0.2668848389005602, -0.35354412064777846], [-0.4040098264640541, 0.08338050974135632, -0.3149901688234561, 0.2408706240013818, -0.05972194133793357, -0.22495368314407546, 0.42692843917518475, -0.6591726978173863, -0.3183154429075031, 0.4620046974404652, 0.4953383579069547, -0.35371995203024753, -0.26210343102924333, 0.013432738306985579, 0.3139081999856398, 0.12916188624236077, -0.18121560168698866, 0.1431795591027153, 0.43402188339053704, -0.1242477726245845, 0.3322905920497387, 0.682474979056356, -0.7412393389035369, 0.30409855609039127], [0.2696460267547337, 0.4152752119815955, -0.5165871042907855, 0.015453468368245056, -0.26698477385295866, 0.20946607417103466, 0.4452332466899227, -0.32826420403558176, 0.24185913868472733, -0.2410583331571644, 0.5135943303612401, 0.1489984235518464, 0.041321360209425916, -0.41697087419005385, 0.05229121891486323, 0.2328614718604865, 0.28026207649204743, 0.449919225449557, 0.2635357196892724, 0.3481944671762842, 0.3792525132234203, 0.01983807177684649, -0.17336140683923415, -0.39266968685335674], [0.4420975431970155, -0.10884695020830723, 0.21395000537380743, -0.22549557373781204, -0.3301113354921812, -0.02263038304944664, -0.36812638486689286, 0.12822615445303492, 0.33781212636738484, 0.015863030154657926, -0.3117643993322156, 0.36210783099470023, 0.40244747069056547, 0.5441094552478204, -0.3855603623947274, -0.058331061918600415, -0.3966071630176051, 0.19808517155858177, -0.4558127102417213, 0.48023662866344496, 0.1387723700664961, -0.08239159637343958, -0.246445852576547, -0.3832422756508944], [0.18090827293644024, -0.10685297460064674, 0.1526157301589459, -0.10368860039411384, -0.21629069309007354, 0.5477321137092659, -0.34154463651412803, -0.1552310025710965, -0.18843922089352716, -0.23385067177165686, 0.5583064793839134, -0.5127164791959458, -0.10262104122781493, -0.445655491353287, 0.369532098345908, 0.44662187150419513, 0.6317263441803177, 0.6469821658119714, 0.06400520768089749, -0.1477652461999082, -0.33918840460894234, 0.5242594746483116, -0.4790653810442193, 0.0023807955490871887], [0.05902162648270578, -0.02598861605445386, -0.5400061740544146, 0.5828126054471969, 0.09371769733546133, 0.1640324290421887, -0.04705498438951702, -0.10119127285895343, 0.11195551137316506, 0.15797197431050283, 0.47390294553465984, -0.12947845571496439, -0.47183104448045504, -0.40019647957919074, -0.06537662733306115, -0.05764513210658481, 0.463882377653019, -0.12778477338699124, -0.14441329410770518, -0.32119814866308694, 0.47426425344509077, 0.3223048739065585, -0.3954105008876906, 0.4964557926341013], [-0.14286152325758977, 0.2910954412926515, -0.4385596858719008, -0.14997366189083072, -0.13609263016963474, -0.22745088624681442, -0.22440351025435512, 0.12393571234786224, -0.2987221269221247, -0.3457797202809242, 0.11369874016236223, 0.16713197688886378, 0.19964079949177313, 0.3501702018217409, -0.18458591432019114, -0.18848668234685348, 0.04675979332542533, 0.08202328082831792, 0.09750554041583367, -0.08660108512791337, 0.3373556810852362, -0.44617120809411953, -0.5119211469509537, -0.08051795712248426], [-0.3855114175456386, 0.31224218474606874, 0.32762143651545766, -0.5622073015672815, -0.4400579002916057, -0.3068192160791689, -0.36857869498484425, 0.7214904823588617, 0.47625425594291715, 0.06701522762497536, -0.7756969394261964, -0.21858792646065395, -0.12852840864144396, -0.08624106683637461, 0.11424919227552828, 0.30401326456655986, -0.3516335051783456, -0.2534021521779269, -0.48026391162582416, 0.5190020378949994, -0.40309828168512607, 0.15511209163311201, 0.7911245734744606, -0.32395400688526377], [0.46812999858082815, -0.30629745589683094, -0.3277626065663393, -0.4234794345998, 0.21005754310184743, -0.3656952123527148, -0.5554915547654582, 0.37243309695868904, 0.003797933795381349, 0.39558685159826784, -0.16203532064582418, -0.2586162087632926, -0.10607686970354996, 0.48309278081410395, 0.1883437699361579, -0.5009661261768995, 0.21764036068761386, -0.4404632430605589, 0.20111438083186509, 0.3422258296074317, 0.36038049474144274, -0.4937313042878969, 0.16008337191125133, -0.3001164540913298], [0.3069328034012427, -0.3082731390985306, 0.22462686801296985, -0.31748393421635546, 0.04063420753342254, -0.38061041103235105, 0.04372221645857345, 0.34412080148125845, -0.09304393589159378, 0.1732733638989064, 0.09562466434072678, -0.4584136250312151, 0.20112720905686116, -0.0860843187698223, 0.4678713017574553, 0.38369287366477317, -0.2290047763170404, -0.4930389735824649, -0.45475440118293287, 0.3673937122609406, -0.4151994301084124, -0.3763203360378848, 0.46786608963665877, -0.08839903208168301]], "b": [[-0.006764177241927302, -0.012433551336941724, 0.09596773979496227, 0.0565398229665625, 0.007119222043725974, 2.9728311753268732e-05, -0.0014740598124471185, -0.02770985192995957, -0.09300243548963996, 0.005965407940247918, -0.08965438619712277, -0.04097350545408877, -0.007767530330197923, -0.001631084655393688, -0.0035498712388042923, -0.05150959119370171, 0.0436491141013363, -0.07790494348896346, 0.1111464532075287, -0.05938848960245069, 0.009451173845895647, -0.013687389564117292, -0.10756474642660471, 0.00786026398004894]], "activation": "sigmoid", "w_init": "heUniform"}, {"type": "DenseLayer", "input_size": 24, "output_size": 24, "W": [[0.318017625046172, -0.20271352034655385, 0.1974505763619797, 0.4271009561778967, 0.123504344313127, -0.18962482829070404, -0.4348679654095498, 0.054569953733359676, -0.13793262329154005, -0.4240003851580352, 0.14967497068963456, 0.03644593396573181, 0.20311118157691121, -0.24838834932755763, -0.4272851232380762, 0.14217019124745278, -0.19553914307243822, -0.23910558278228367, 0.3942655556225677, 0.004728624186437168, 0.49357458201324406, 0.0028318559216381806, -0.1434861083344524, -0.5078460555607901], [-0.28475885219680963, -0.2236424651496332, 0.010372003762039917, -0.012435429873274251, 0.3062335163819647, -0.45739964709699193, -0.38862241807846787, -0.4429719656873426, 0.2758876297941357, -0.06991114603685207, -0.3141730054021282, -0.06732146082168901, 0.4469417551622697, 0.45191644399166053, 0.20946861456098856, -0.2773301434259667, 0.4875160086447438, -0.21270416087669694, 0.18354839749114607, 0.20521569124001468, 0.2706835925614683, 0.14763604715886072, 0.25902054132006375, 0.2566430853295065], [-0.01776553902370412, -0.4564249540615148, 0.4338439932253934, -0.5336825538022455, 0.44422688270779925, 0.4849264336437126, 0.19686172326090845, -0.26514150592516544, -0.1727631602799576, -0.09366176128595131, 0.3692507837337202, 0.1871457127051839, -0.04169439821604444, -0.18223448663483274, 0.2797518641505046, 0.058037017027349126, -0.13339553263945578, -0.5535631968280997, -0.5026493972518845, -0.542443448809218, 0.9532679015463827, 0.22661531179956207, 0.28226451645313466, -0.4247022278918053], [-0.3185106454048063, -0.24786473596235417, -0.03564041358999944, 0.5957260685783463, -0.18461533419956108, 0.05955604347706751, -0.49528397768774246, 0.018644836231759478, 0.38125181054078483, -0.11548482919438574, -0.23205921145963596, 0.4556807560530779, 0.4933604907681329, -0.11919553078968016, 0.2914551174692558, 0.4482340823809166, -0.07651203809212424, 0.5152097937433068, 0.6424443708066674, 0.3709499270892089, -0.22683729331596258, -0.23548758576683645, -0.43338734768085657, 0.015366513850278716], [-0.01701032654873611, 0.3552428344968349, -0.18173326275215715, -0.014472771933433597, 0.29377119301617627, 0.13092975482341798, 0.36304854757062527, 0.1645639755339796, -0.025763371084085992, -0.021914578781358347, 0.14287629624872325, 0.14476143934934774, -0.14413922850449312, 0.14934425918278996, -0.4199562286545996, 0.40853918974343784, -0.258815484379413, 0.3478182623439454, -0.26388944891684596, -0.10369420468468216, -0.2186669979076862, 0.36082691235852676, 0.39537121783617923, 0.2626299013667243], [-0.4926945972043465, 0.5335496668825799, 0.05997375176773087, -0.2896971970331751, -0.10715719711227878, -0.08954754317892909, 0.30360123893915547, -0.07472658869684744, 0.33432922195303877, 0.3472307064734313, 0.019134558034607476, -0.3846741438689761, -0.3588897484621969, -0.3257536393008878, 0.2805390810717138, 0.2947913574959853, 0.21516971206370436, 0.05798005413487404, 0.01320753690254716, 0.4706253648761954, -0.365077787211629, -0.3527203006158759, -0.00011318118092600611, 0.24174767553237891], [-0.47428431864971043, -0.08405951771651606, -0.10003914590744988, -0.027814745241808082, 0.13933865219842703, 0.03664405010063183, 0.1417580111731198, 0.47758210371096843, 0.2992359752260392, 0.34342605981062435, 0.41362927045092507, 0.3532558558309567, 0.3197699914806886, -0.22957045063565734, 0.3386549346576994, 0.043795450058564174, 0.35475241445112576, -0.03759551776221053, 0.7058718392242718, 0.3942352828831014, -0.06404701452379442, -0.22265463924203321, -0.13075610203145033, 0.4743103755968656], [0.18971831309577838, 0.2043910697381249, 0.7627671169167664, -0.7678565079042868, -0.13936751552027893, -0.09486198233214009, -0.36418113275238645, -0.10782846271270674, -0.02027878989478657, -0.5326498645659853, -0.16505135015545833, -0.3776868874478628, -0.198929503752101, -0.14854433760261765, 0.2231339181780096, -0.2667032426466619, 0.209755009970923, -0.3519271289982475, -0.4682673180977713, 0.04587217527251885, 0.8050653130184263, 0.3755626065739593, -0.3486183840129823, -0.214614285725151], [0.4443003080332652, -0.2373732516510536, 0.23602328431397093, -0.5251503602402252, 0.5768143821137915, 0.4851931783998252, 0.0003467337677818335, -0.2177063239826113, -0.4052988971005898, -0.03423508228070003, 0.08819467852474029, 0.008622879904706926, 0.0008989394985083189, -0.3224886741174546, -0.3262800588753278, -0.5177050231726716, 0.5997060124182617, -0.17776574493171912, -0.6059184069617208, 0.11407142713428102, -0.08209441006807185, 0.5860796779444848, -0.42099859957738056, -0.5294775555979002], [0.40044283690962257, -0.3083348358273359, -0.4248806179161208, -0.08070901961849362, -0.06963543876524211, -0.05304754326896789, -0.3262680478286329, 0.3280793718727573, 0.04620082393079723, -0.4643958062938152, -0.2769549486111972, -0.23848678056910638, -0.24414855486665682, 0.1670867787711611, 0.08587965431297927, 0.3973285899000928, 0.39727582924560156, -0.035352518376788995, 0.20309400781717651, 0.04777183561278126, -0.5592567749280709, 0.1269884599994317, -0.08468458532296526, 0.050190026330278394], [-0.024125643843793038, 0.37518780886393904, 0.1694954710705497, -0.23928363827026758, 0.11823621812741067, -0.18420552951122854, -0.17674716409794247, 0.02982785566492208, 0.5261709381488046, 0.5886072949525252, 0.3599776347792334, -0.18714649459942703, 0.017263190825354296, -0.5243729875814208, 0.3684702011408122, 0.3106376971905649, 0.3113463032581886, 0.5227722668290963, 0.5731418018504687, 0.29408016783012053, -0.7004741813475118, -0.5627643917029806, 0.41173887489755856, -0.2992280132582099], [-0.5138018677957936, -0.32553260384796306, -0.3210767122313883, -0.09064617479844109, 0.38390261536018827, -0.4632683936102139, 0.46995982609154235, 0.2907235874233667, -0.36612827747693943, 0.5444911665909892, -0.2861689099609646, -0.4279149945627034, -0.42157463241925897, 0.15197537011657875, 0.5213782277005048, 0.05382770629705952, 0.3812747015125076, -0.2870935014727846, 0.2577687525947755, 0.16748163985071263, -0.21706663550979594, 0.2342984080545266, -0.02619218007541369, -0.2700686026508013], [0.1465227716791076, -0.42860201251519814, 0.336257160640659, 0.4651754550804586, -0.2644418996387829, 0.2167887424477768, 0.4959019446185268, 0.4609399457244746, -0.14209313569798035, 0.3820550477933712, 0.25016276737601517, -0.4539074911000919, -0.20653574541829875, -0.053294241435047796, -0.4165511908447943, 0.13135825336947773, 0.27987720742979155, -0.3885346828485206, -0.4811306127274943, 0.4659999439976004, -0.02245499729225946, -0.27924519817528876, 0.42014238185315705, 0.4366624298220004], [0.008018596014787313, -0.5466139685254722, 0.5086301248602253, -0.11948692174027364, -0.13280934920362053, -0.43808682113052383, -0.33054712206301673, 0.07067878069872632, 0.0329250631191427, -0.03237880061710719, -0.2321713293646855, 0.10703866236703696, 0.32585142679456497, -0.2748101859250054, -0.41854737967348654, 0.07998289316244188, 0.029711962770803773, -0.7290065997117633, -0.6372606505568373, 0.11396494516773585, 0.8320217777054633, 0.5442785314774514, -0.09083429952821336, -0.5168580331751396], [-0.44715871493156956, -0.26719072635018387, 0.35541191260401533, -0.13292272450922613, -0.39336375620954156, 0.06336793639520359, -0.18742837263830045, -0.23324601975850728, -0.0327509733673222, -0.2433145246163419, -0.09295333768060043, -0.08939357166249508, -0.11188861472700701, -0.06535040995820426, 0.342442022389717, -0.04430277775862563, 0.15156820171564642, -0.3963528742519706, 0.17075881827993125, -0.1714485135543642, 0.16445966010411403, -0.358992763217552, 0.4778145145286276, 0.1182736134182281], [-0.09777710663466682, -0.1852903918659431, -0.38551917611627184, -0.2132022635599563, -0.1361713114349882, -0.05250945525275862, -0.4562077955837904, -0.2558331356028068, -0.003037182383418561, 0.31526404659789303, 0.42100274315255487, 0.5081439565319958, 0.4540840733354823, -0.14105246087707876, 0.22194045785125902, -0.015173186074716924, -0.4763252548628015, 0.29494907756108085, 0.2125342729742458, 0.5012478008545462, -0.04282894535394132, 0.1708988893642789, -0.3689778947677633, 0.16789401431032785], [-0.22271585069575653, 0.12403577190748742, -0.29913328508254017, -0.11876431141043148, -0.39559042499780606, 0.17984414563571074, -0.026247941463003622, -0.3854414824483202, 0.08860702494064944, -0.19849762102089588, 0.49163241070692376, 0.1590262693923748, -0.17005914377465173, -0.17166942016458164, -0.0010417962954114924, 0.4790149089596677, -0.4808967394235331, 0.27295377393569475, 0.07761705311018875, 0.3801878577662307, -0.3932770480160523, -0.26913190717390634, 0.3522665102733505, 0.30975975145880985], [0.074302910894154, 0.053051032125743365, -0.45278131296344126, 0.5333641274266365, -0.248360105424259, 0.043325640829574665, -0.03626473215687707, -0.14891096809469845, -0.06915950438894314, 0.5219661369419307, -0.1940327591462208, -0.4638847669235711, -0.2348188641299249, -0.19787379456550033, 0.3029482845355846, -0.03664254140036752, -0.25017910131769533, 0.6116316675384765, -0.21770589772038415, 0.08010888344257243, -0.8138887191975445, -0.12878744464678868, 0.11113737496426224, -0.05430132811958739], [-0.6135887515295894, 0.49274560723788446, -0.6629197974040323, 0.1728027782452661, -0.4457433920130219, 0.40098862181498407, -0.4172941321558573, -0.13393921609936477, -0.07410708682571221, 0.3930251284900268, -0.11934951570039133, -0.2748947979878124, -0.03826049633711069, -0.5467335986966463, -0.14937529501132518, 0.13155849122095428, -0.3991493376163197, 0.5438835809827104, 0.7539923666928133, -0.19238882459562295, -0.15184203964964849, -0.5215268890186627, 0.31171401573909796, 0.4284253905803061], [-0.02499006066800352, -0.5043291921062766, -0.29490391059771404, 0.38329202487840114, 0.3029555349839691, 0.13313878665924034, -0.17529621654301578, 0.35599255304117733, 0.1564354617155687, -0.5113731561147781, 0.23951951574029942, -0.3046800252632763, -0.4828142353964073, 0.4898413053392564, 0.15798078473940463, 0.40185363528947265, 0.41246993768740764, -0.1211900604324769, -0.6027618187852524, -0.36356369344097117, -0.1359758923017928, 0.4587595449398543, -0.532496566875194, 0.20588600477060245], [0.5279574437762016, 0.24567622508188874, -0.0428470020789567, 0.17845958581114052, 0.1988451719878708, -0.2962948668660832, 0.2930266342450663, -0.26632221690353675, -0.22273154162239653, -0.29100077537791763, 0.22216338395479915, -0.37532701169556193, -0.11333179057423212, -0.16826032943603417, -0.5275347458264528, -0.11241322413484806, -0.07018432435967141, 0.1015381894902171, 0.12471625797363817, 0.4152028823975944, 0.5302317890352718, -0.21489640526835319, -0.17115523352383613, 0.2578546044923006], [0.13231528509398754, 0.5821742615206768, -0.1895841102836595, 0.2384440319058026, 0.22335848202330472, 0.14156614947180737, -0.43295543836084166, 0.1983358251822029, -0.1685494080482692, 0.6023956664711492, 0.22379328530296527, -0.4162848600693367, -0.39079053354503424, 0.37961542697714923, 0.1456799310672149, 0.28817465643881707, -0.5231042944568485, 0.652222419059169, -0.007750364581315048, -0.2344521446667814, -0.9113316214118888, -0.5501012943487075, 0.48570132103884867, -0.27257539213626614], [0.658191922546913, -0.2943565948901183, -0.047369574268644285, -0.227418686278741, 0.5675409718435233, 0.531729934051892, 0.1703666788419035, -0.17760779087051626, -0.2568202247785911, -0.8009474507079832, -0.2679189764700488, 0.0969844396866225, -0.1806615649598732, 0.4211137818617966, -0.33362241809925275, 0.44128385432861983, 0.11061789242423681, -0.907276154741177, -0.7675712577641521, -0.03504476585819393, 1.0941325492976341, 0.3259340829327983, -0.42242651970559847, -0.6517963620120806], [-0.27887807567094736, 0.38944943059803355, 0.3420117610847362, 0.15852652087671495, -0.5302520413976203, 0.47433346356493633, -0.1640936030578091, 0.3189130975079107, 0.05943518589303294, 0.5030413764584551, 0.023626749622138062, -0.050021718388763195, 0.20550477472247025, 0.022460764346866214, -0.24634909200229166, 0.31541953503296505, -0.45453517795033427, 0.34932178353695853, 0.3045862177640768, -0.47705101783090736, 0.01774876998225547, 0.2419357559369553, -0.451580575002568, 0.44969769774496554]], "b": [[0.0897484632954027, 0.05205673330592649, 0.0895181779052685, -0.044535350410313944, 0.009270929966987744, 0.000979824786126147, 0.03118979493847286, -0.008313270310243101, -0.03416641299790298, -0.08901175689417679, -0.02610435815043286, -0.013385697523939232, -0.0264640545097898, 0.043967755419010796, -0.06883607833127438, -0.016432590605479292, 0.01377115812219401, -0.04103364652474809, 0.020295555462810894, -0.06914581529380175, -0.04218135418559301, 0.004222578459116042, -0.006544563230821762, 0.00602080603877077]], "activation": "sigmoid", "w_init": "heUniform"}, {"type": "DenseLayer", "input_size": 24, "output_size": 2, "W": [[-0.4632937915684468, 1.0005468565685722], [0.6343979019377696, -0.607734881677106], [-0.6910452455564287, 0.9842953429896525], [0.6046330031813669, -0.558654136675839], [-0.46823429939403743, 0.8023898227995584], [-0.010252616794596518, 0.3794916078481523], [-0.5471575305590742, 0.056377037335744895], [0.2169789564627015, 0.12028962409933301], [0.30759021293238586, -0.16010479850052636], [0.587388565684018, -1.0960409972770333], [-0.32343118246364577, -0.48928191092578976], [0.20711182857306168, 0.3000863629159003], [-0.0036725326660486716, -0.12815434472060333], [-0.27203207427224185, 0.42510674763633827], [0.1731581391478237, -0.5822614136363597], [-0.03321069031222487, -0.07337110916593485], [-0.4691474170385175, 0.6927526477114049], [0.9773964264794014, -1.215718584130819], [1.3004700143027947, -1.0187326195914377], [0.25334675047145516, -0.25365701361774406], [-1.7057959575268826, 1.7075283497845752], [-1.135708725542351, 0.844840051746682], [0.1837899560943645, -0.5269430954634914], [0.5239211051788203, -0.5524033155811231]], "b": [[-0.2707448126752043, 0.27074481267520406]], "activation": "none", "w_init": "heUniform"}], "normalization": {"mean": [14.208841758241759, 19.326835164835167, 92.56975824175825, 663.3659340659341, 0.09628879120879122, 0.10550999999999999, 0.09042328725274726, 0.0497001054945055, 0.18112153846153847, 0.06275017582417583, 0.4087145054945055, 1.197063956043956, 2.91916989010989, 41.21023516483517, 0.006915367032967034, 0.025620356043956048, 0.032305889230769234, 0.011834327472527474, 0.020381775824175823, 0.0037776534065934067, 16.37098681318681, 25.66505494505494, 108.13145054945055, 892.3428571428572, 0.13193323076923077, 0.25901665934065937, 0.27713803736263737, 0.1161725956043956, 0.2904171428571428, 0.08418265934065935], "std": [3.5877033373034073, 4.373059793993258, 24.829069398475255, 362.89532339313917, 0.014204302245273703, 0.054813662979505115, 0.08292877782588133, 0.040079238292177896, 0.027602631222048177, 0.006983729156841554, 0.2873194535025765, 0.5588951425546324, 2.13166123049065, 48.11977777386588, 0.0029132469645184243, 0.018034527025261322, 0.031995772909142926, 0.00625771405199199, 0.007921061026044214, 0.0025302674685669883, 4.909371058825427, 6.204410549899669, 34.384936404220376, 583.3204836321144, 0.022549515096795137, 0.1629190706793953, 0.2152739404787926, 0.06719942135673804, 0.06091984043700133, 0.018338820523758678]}}