{"layers": [{"type": "DenseLayer", "input_size": 30, "output_size": 24, "W": [[-0.11749847206682429, 0.11018006055570548, 0.140169430391424, -0.03978438243272946, 0.1329161457661439, -0.13509679462996976, 0.3241764117607199, 0.0316213497403066, 0.22957128718111786, -0.05122368580710022, 0.027820097159884837, -0.11789499590649594, -0.030466330075592005, 0.09106068991236504, 0.30639898958490686, -0.21761557922927868, -0.035723557694051916, -0.20894684102407474, 0.09766118466356691, -0.045237975582480036, -0.31817826799229054, 0.1281907614768611, -0.007875475293000372, -0.3765141192727682], [0.21530998695287057, 0.23437445064304446, -0.15620853333534016, 0.11146323308278802, 0.1802832270400845, -0.07620543342376807, -0.07155127802855388, 0.02788572551816273, -0.013879500168798901, 0.11443568053787001, 0.3285689995080491, 0.14672239438577844, 0.1140501771614402, 0.1790125063491034, -0.03139160722456144, -0.078895260362313, 0.13445930189462516, -0.07743117233917945, 0.12653914165013436, -0.2900321170686454, 0.16517330047468215, 0.1528444073575053, -0.26331405565201277, -0.2230188832091559], [0.32883531151344436, 0.059391543991724666, 0.116039207209762, 0.20683027557184983, -0.10763200315461952, 0.11632044546991469, -0.006183607026242521, 0.17605416511588146, -0.06166049665610961, 0.20147847366924265, 0.31022656452719904, 0.27531299275771254, 0.3632417862231166, 0.2374484445684698, 0.18712032569341258, -0.13381656218772245, 0.1803145954194593, 0.16652621402919446, -0.09517170844406743, -0.36432674392142045, -0.18593831429507038, 0.1492125458942782, 0.16241977914630945, -0.13821223825220202], [0.2643624096791848, -0.10632745411176057, 0.07873302192142156, -0.4169268619853398, -0.22522760680303286, -0.16636373320195227, -0.1407382044854546, 0.25988477973809343, -0.016787022615560827, 0.4140439779476222, -0.02841922537838861, 0.36415366797869275, -0.0475127998827291, -0.07498562206733976, 0.0701678587607937, -0.44780940496172045, -0.30678946330012413, 0.07805094521751355, 0.267328774599143, -0.14727949542145924, -0.03228303996455872, -0.10550976279141396, -0.23978223966812512, -0.46604762138366185], [0.013859212799341212, -0.08671368523632109, -0.04355965799474241, 0.19365763261853267, -0.1487020485585553, -0.08652443596305395, -0.0046103472713483395, 0.08774007921517303, 0.004509671503948228, -0.12179251677600465, 0.1020935106624461, 0.3016187146794931, -0.20627787005984494, 0.09708869789710282, 0.2140376970768612, 0.14697943380301706, 0.17019353169037377, -0.3064072925510622, -0.0125511357650983, 0.047046494580668216, 0.2523863136204343, 0.00016012324845534018, -0.25564964676410423, -0.15844360947474354], [0.1441419118036632, -0.29104974975730297, 0.2900966953594381, -0.08629163228805926, 0.2036934763122791, 0.2374566809418122, 0.11740836274038109, -0.10577827918338081, -0.00451279599857426, 0.10537860414318773, -0.22718092940022414, 0.11635372403937179, -0.07439810134015787, -0.17644369218505845, 0.1287712603445821, -0.16013806602951736, 0.26287622871694294, -0.07958665904889752, -0.26373786598081056, 0.10634250959351198, 0.057915281998357084, -0.055158563122839746, -0.2322388330338337, 0.22690528664163637], [0.5020894692055043, 0.427397884205517, -0.3139168775903035, -0.41407709397051645, -0.06112783471130262, -0.03430402992650449, 0.14114051545379325, -0.12555689260193217, 0.014633369788339722, 0.1561621744692506, 0.06246396551908619, -0.03837424867429323, 0.39448539118168074, -0.03281398769982729, 0.1498952082983756, -0.30479034793878906, -0.2863446900941878, 0.09174902448254858, 0.1926942886737747, -0.1361223194013305, -0.036805972134086505, 0.09897691807222392, 0.1251095419760631, 0.0792799753631324], [0.3815279546727266, 0.20783195313193295, -0.07363972220086805, -0.45376668092700306, -0.09578453726102656, -0.0813265614674193, 0.3258531113705966, 0.24372495128036595, 0.2441742729429237, 0.30837531899850595, 0.2742900307839856, 0.4294374349588283, 0.2341979802249865, 0.30631855859370044, -0.12013097724961909, -0.2019186455013748, -0.28747949396851585, 0.0985192522243287, 0.11470936168932598, -0.31087632951850486, -0.11707451794499028, 0.12269268522813707, -0.08424680435863052, -0.3177348278269442], [-0.16459093688565227, 0.029884694118072944, -0.242060197158162, -0.14439157877415143, 0.0504460568755785, -0.02699127240179572, -0.21110981808694404, -0.06823163418833965, -0.06141684077521837, -0.33581834495998025, 0.07026825654353862, 0.20829457491608452, -0.13790015309343887, 0.10618609601703424, 0.1969302071261404, -0.21039746271288307, 0.24890695464922982, 0.13070483191524238, -0.0670896142560853, 0.3849780606042414, 0.2907495512186403, 0.08129077262087674, 0.18161730650153168, 0.037622617133371845], [-0.235762328424494, -0.14838384509839683, -0.16218031843113898, -0.2723725984996051, 0.1409702599280947, -0.25755205675512816, 0.05290565155986434, 0.29874360683780377, -0.10563137233256652, -0.19136943694550043, 0.094890642239201, 0.0152691752697082, 0.27917706702171874, 0.05509446970449047, -0.19011420060002476, 0.28216625712656823, 0.23080684041442834, -0.30587075286724996, 0.10652777674725092, 0.17099378813528496, 0.115067080864366, 0.3361302439804447, 0.3281540031337181, -0.0011253275551643504], [0.1360933366488492, 0.007914216094625427, 0.14094750407856296, -0.2097927500134288, -0.00970439742547384, -0.18823426514157723, 0.13629903392949866, 0.41385188159676906, -0.0229893483040225, -0.006334404300188339, 0.30492674839999895, 0.37291744291747475, -0.11070167122929053, 0.48629155943820407, 0.4892862954883986, -0.21562626797652804, -0.5476595297778049, -0.044187157198431706, 0.1185442860328841, -0.3446198052213217, -0.2853312796918136, 0.10295763912633928, -0.015734416950749893, -0.4739203816657619], [-0.13822119965620602, -0.3466490448642871, -0.09896890771367423, -0.08818999971657311, -0.07643858720885627, -0.2777496419761898, -0.2308175618367743, -0.08089516072500831, 0.06973104323306799, 0.13523052030742141, -0.2521445976251966, -0.011826722235215682, -0.21387377172050506, -0.28831549453270494, -0.33081629178995076, -0.24981338327808073, -0.22867675312115593, 0.2583338844463833, -0.2416405103096922, 0.24719972521591468, 0.257149889069461, -0.18069250149058097, 0.23373642097224043, 0.24549159700586567], [0.38079220230263533, 0.178274838517068, -0.2846447333377355, -0.07981627905333301, -0.38518994725528366, -0.2839602794639506, -0.24101573205058432, -0.1620598005103423, 0.24808838860868057, 0.37069893082806227, 0.3282160040969606, 0.21984619049323478, -0.21612717728070321, 0.32990194739166717, 0.11286798411937495, -0.39026272140503077, -0.4720581768719041, -0.3533648322972387, 0.5105193474766466, -0.05498360494657198, -0.22424893411523103, -0.02923848692417317, -0.2492794535510976, 0.11886982152564808], [0.46369323497209275, 0.17318420093454476, -0.29367479473796676, -0.32173145745975384, -0.5134226510063395, 0.10771226211232393, 0.360071689335801, 0.0421969230890258, 0.22090898864616199, -0.06060766319565354, 0.0933293758563333, 0.16788596825079394, 0.08662047232437219, 0.23057358800272149, 0.534497761940356, -0.23019662008915545, -0.13761143471229614, -0.2560395472426458, 0.22455861329411136, 0.016120463279256283, -0.023547331453512826, -0.24956249192713062, -0.07271871875598661, -0.3220655702009446], [-0.021143660149056064, 0.23338668758269615, 0.06977969544285907, -0.09264236901050092, -0.0299241902209579, 0.09416669734473154, 0.13578267605062386, -0.15091561398792258, 0.15225600336144854, 0.0636050184198154, 0.20778149209767668, -0.4322187447022493, -0.2854632883923586, -0.35907119679967614, -0.10832511623645658, -0.08761157371007701, 0.025550201648472406, -0.05052839767544141, -0.3161465007071902, -0.09991470200194105, -0.1477370622780166, -0.25351489868060895, -0.062449663247888296, -0.21660557994850296], [-0.12275832433740963, -0.23416116613829352, 0.07114690788692678, -0.02379130343753684, -0.14916126916626177, 0.14835728589030814, 0.03192933023212946, 0.02854359158995813, -0.3562908075472621, -0.11025864727412198, -0.3232169593178627, -0.14486095120078732, 0.017596605665277303, -0.5433207017638233, -0.059200007414551906, 0.30600866831210866, -0.13789231679942385, -0.17889453126959634, -0.2054357813002846, 0.09907556193373097, 0.48317755301779647, -0.24323603886203204, 0.14766537702201546, 0.15040701514512494], [0.32462230910127887, 0.05600996141304173, -0.34781326661627093, 0.24333956515182362, -0.059382476431298126, 0.048820929159259965, 0.18157182388605775, -0.2828725524874974, 0.029003576001059666, -0.28356494526992077, -0.018175585273098507, 0.0454722012000902, 0.10556155393579386, -0.14452327260800238, -0.07870600508287066, -0.3373998547939489, 0.16048704826511054, -0.02158177708372031, -0.1447296523853792, 0.14848259578560669, 0.04458371143933737, 0.08240044707172973, 0.11823746804524338, -0.07202830292379511], [-0.06884050903371906, 0.12196467275616892, -0.08534253391152213, -0.021711773992180244, 0.04347014884261821, 0.056816765312925566, 0.07913139145930816, 0.16105831479677138, 0.1077724077038469, 0.1732330980620986, 0.13588086207419622, -0.22726877764970113, 0.0018518157706528897, 0.024735774425163073, 0.2400998550800173, -0.3014038401963811, -0.3052542077282108, 0.09322590206136665, 0.0037532386582933308, 0.006624168207082231, -0.2112093002593837, 0.15489772104406788, -0.19238512613934203, 0.17506745196192156], [-0.19419965720360954, 0.16782466433678322, 0.14500765586906728, 0.391442605507817, 0.24769919700185278, 0.041983796219110685, -0.02122677025967194, 0.13980853088016382, 0.014745037849597763, -0.05717075709463215, -0.03251659364000958, -0.09631627091718997, -0.209118444905379, -0.0294449180169203, -0.3784896300603946, 0.1292740653144256, 0.06324331735346256, -0.06680637096007354, -0.08069421061504711, 0.21242035244963697, 0.3838568428584245, 0.09104365132807926, 0.367833893057686, 0.12132279646177566], [-0.12724481819713787, 0.07286170387688538, 0.311969689202603, -0.14320089466403177, -0.04749267734585145, 0.41934874769739877, 0.2343371609792744, -0.3367402740577771, -0.38593421142575673, 0.0017779550328335305, 0.042808590264182614, -0.5872292395761608, -0.1169949254528604, -0.4160124598994568, -0.34377399639513506, 0.408150256994836, -0.12119590086927463, -0.17003756664080796, -0.36179189136702977, 0.412256387275842, 0.10400617082945299, 0.3708551591392644, -0.07152926840947103, -0.03648025403350567], [0.0847832467673561, -0.10167710246302154, 0.21682613315460222, -0.30981910239326355, -0.13125184654358918, -0.11386282339076781, 0.1782540471316157, 0.3165933244368169, 0.23753043583604358, 0.3277118361315331, -0.014962454530072796, 0.3252215618873524, -0.03970642000791288, -0.05903306043917251, 0.40779206532335044, 0.04213142351167799, 0.005719722064125167, -0.14302398919071055, -0.06556446964775178, 0.17762758286048394, -0.1823684538568964, 0.13432084116312173, -0.42988995880807823, -0.1946542670868088], [0.17898326048932375, 0.21625152674003448, -0.173834391912703, -0.1925059787267139, -0.4828526213971239, -0.09209326664900244, 0.19936424717497037, 0.12294869061155671, 0.1972152199543866, 0.43796905182824614, 0.1563679817783574, 0.3698580536264647, -0.13126879880497147, 0.516691372577641, 0.7139091247350322, -0.23491209134354676, -0.021405445670274685, -0.1262683235552139, 0.21730594837094117, -0.33511267837796593, -0.23666653095915807, -0.07632889178137246, 0.08344495242915853, -0.3283576077082709], [0.02714224559886918, -0.011772835698735657, 0.05630315388833611, -0.3572307505124015, -0.4765337320275571, -0.3534827586622022, -0.146527515407348, 0.09172018978961999, 0.032341501997178175, 0.1501988767262124, 0.4235235836647042, 0.046956790543256355, -0.14792958226844766, 0.2832124853365887, 0.5006561110955187, -0.26421147242858156, 0.16274793663190862, -0.1370518229270571, 0.23132007932490536, -0.07622546604700546, -0.35031230165376415, -0.23637304803395048, -0.03138218651865358, -0.3034736731990597], [0.2803395025119498, 0.13051755101953919, 0.049405785976224297, -0.28556506671025705, 0.05516559099410802, -0.008034548638378186, 0.07072394180024974, -0.019477262447192348, 0.27518351659629475, 0.316368870124511, 0.48937660261767835, 0.5808620739064847, 0.11989498229933232, 0.49943735652577087, 0.3039009102075232, 0.040538384167400465, -0.23196443556416188, 0.04270846368587573, 0.14130298307917227, -0.19320155677353054, -0.2795028589704964, -0.40639092966646995, -0.163652269492295, -0.04542428814236938], [0.34057129121720464, 0.22231988861059132, 0.07707464887231551, 0.15472285783910067, -0.30906970629231983, -0.12836418168692537, 0.3659081766433872, -0.14493717893354732, 0.2627590445879424, 0.41728946661384037, 0.16054102309553633, 0.0029386374024117493, -0.18676011221849723, 0.30259593597707396, 0.130102882824941, -0.4110239356618765, -0.48579039306937083, 0.023692398761310934, 0.30633079279000314, -0.2626811537456608, -0.12956646343846326, -0.3150428646731184, -0.2402506339229333, -0.21899739572038562], [0.31265546449452375, 0.17987011648285028, 0.2298552896878666, -0.14506015029773736, 0.2081004622464277, -0.0658399864802879, 0.08084616261019263, 0.2990674446035591, -0.11177961008289956, 0.3030654521489445, -0.03316821817801488, 0.15696791909028998, -0.07964077895292855, -0.10558771816437179, 0.03448296625040498, 0.2056894470799418, 0.07604560647516641, 0.14993103848357384, -0.08213768838418097, 0.330242576892999, -0.09848375497961968, -0.13473317288488967, 0.2252717133054734, -0.395785965042992], [0.12377649739654185, 0.12032049344499647, 0.13627987694272903, -0.012260443787702021, -0.10458368856468739, -0.17633774852212963, -0.05825376965212438, 0.08038089945589996, 0.04991040477810868, 0.27130802333854925, 0.26790584715925314, 0.04519143658418262, 0.30193696957082594, 0.45240364029431235, 0.33209403672663745, -0.026677359263037874, 0.01417933402562595, -0.21159641417169345, 0.41860026147407864, 0.026175571290215707, 0.09846030080310011, -0.42044653876678023, -0.06821779561279112, -0.06798408749791933], [0.33346494571549884, 0.449105606871138, -0.34120034378284303, 0.12532507924747047, -0.0943663392128187, 0.180818410554514, -0.08965032702387843, 0.09649743719022362, -0.007381928601045469, 0.27996583067676367, 0.17525387904479178, 0.19449940168555163, 0.3711623408050033, 0.41632009069654313, 0.05952677878408085, -0.14950390817750936, -0.15111687177119323, -0.35038973087634284, 0.44388374634524136, -0.06242980746843271, -0.23764814770801793, -0.16970881847818237, -0.2278390447308347, 0.02767082589368742], [0.04716062648055878, 0.3023681944746254, 0.2414651824228347, -0.1671404296364946, -0.14168034958502362, 0.02355619436155429, 0.11577645388001818, 0.21876336885917064, -0.04886528714215679, 0.25402134427368944, 0.4009997053046796, 0.2307525473001757, 0.25962419810007764, -0.06032842117482034, 0.3125480945774567, -0.2080458880549668, -0.44492010753452044, 0.0643923673706522, 0.418969970118024, 0.20304733340789194, 0.14833865647038105, -0.16475730827960836, -0.29580693959250715, -0.3116562639740663], [-0.1055135461922718, 0.035510933060830537, 0.012244189804397412, 0.07292177883092515, 0.2189466961440938, -0.27873479478530766, 0.21679029638629932, -0.21067807488530613, 0.262066851981304, -0.15550077569299636, 0.06899415070401227, 0.27614566839984306, 0.3162103433409684, 0.048958290373944835, 0.30583767588353755, -0.41042116758756136, 0.019456477155867735, 0.010197478198571214, 0.1191506703782446, 0.03588699568702653, 0.0049534445286557776, -0.212657431119144, 0.24969494465624148, -0.12286823948430674]], "b": [[-0.14382157172630317, -0.11050978432907796, 0.013800867113040403, 0.04389488555619478, 0.08011823403278873, 0.030325184475372833, -0.07785660748500951, -0.02858648966644717, -0.0011845969109844988, -0.10604771520928226, -0.08372956199866637, -0.12218873422841237, -0.0377430143149442, -0.13184721148239395, -0.1635714768936517, 0.0682175452734014, 0.06326620272703036, 0.028550594552469527, -0.12661731109409807, 0.06195101586686357, 0.05254024676356713, 0.040744145476314636, 0.03810633640514475, 0.11125900402671847]], "activation": "sigmoid", "w_init": "xavierUniform"}, {"type": "DenseLayer", "input_size": 24, "output_size": 24, "W": [[-0.009829864398190282, 0.46002948743511707, -0.07326146686999502, -0.2659540508302914, 0.0219119383517649, -0.030774829202671352, -0.14153940444015536, 0.2724731780228747, 0.03115581561293838, 0.16747709496824298, 0.5081640240228186, -0.30253809909003293, 0.29021868976762494, -0.5135256318832948, 0.13767826358971164, 0.4211645154655444, 0.34918875501349134, -0.10302980162275345, -0.006728241150864409, -0.3829875437659577, 0.27418697605328124, -0.5600908694060256, 0.08773495671473536, -0.3892641667918544], [-0.22765490224547247, 0.3365983848483804, 0.2607302935247984, 0.22754859864883487, -0.2649585005742632, -0.1692530822893908, -0.1000161425848109, 0.2983324028620631, 0.2728190637765728, 0.2812154062059547, -0.0828774167593771, -0.37749245056439273, 0.3716549445566164, 0.1821651077893877, 0.2710176105589637, -0.05845411946194362, 0.09687641373303435, 0.24590631852131195, -0.16668999202352974, 0.07265213829301273, 0.06428257809492383, -0.342178098531246, -0.16829174068340544, -0.2974153512697735], [0.184565152104852, -0.22475668676501243, -0.10266372068300114, 0.17566057450552452, 0.09334934252443422, -0.21807559343890634, 0.17363930483860904, 0.04064100311025478, 0.2985172494242638, -0.2702958417525903, 0.09405038955836413, -0.1846172058828419, -0.12261874149919509, 0.16191688213040842, 0.013599026297793764, -0.33802257794389456, -0.155713662423039, 0.17511972667435705, -0.2514214195202434, 0.19878839539263185, 0.33653224329608344, 0.3566547173872707, 0.2946640954722439, -0.0504418970852062], [0.31561553490607724, -0.26433594889156514, -0.16360410866186462, 0.1780009890324466, 0.2518836589378474, -0.14936859665433694, -0.0012229988963195421, 0.060563554862537124, -0.243014971392302, -0.07788514314495189, 0.08583286890897522, 0.45016654328752836, -0.04207534579331459, 0.35079180657613057, -0.25471800073946216, -0.3145926605403602, 0.07194143553046399, -0.3256460642401014, -0.12322605384753416, -0.16146167231976083, 0.1420647523338642, 0.5282059989586607, -0.12035525960260401, -0.07253702555078648], [0.34859213046252957, -0.261950173413372, -0.006204507155483261, 0.058166807869647105, 0.2541941559892611, 0.35757135521877875, -0.1531706022798021, 0.08699579107767716, -0.013356157305317112, -0.2770740209052266, -0.07782864948334318, 0.44469453689555205, 0.06912171201082874, 0.32501162357449664, 0.02554673984698614, -0.2634910125810625, 0.024611063696361558, -0.24290415355305875, 0.2519022533165649, 0.40201190853844965, 0.01097488362782907, 0.4804848620622656, 0.2710567896701376, -0.2634887406724275], [0.4024162282737287, -0.188918073108038, 0.1930837397956274, -0.12978316779636678, 0.009489072172095775, -0.03110465682064559, 0.33587360324564536, 0.31529969812550307, -0.2196558156324603, -0.2926086253655626, -0.2606081518139508, 0.041004445008176536, 0.003439284631001281, -0.05124444483118905, -0.05442795904502385, -0.1271300460359542, -0.1783518019742135, -0.4543716847624037, 0.08421605535333283, -0.14843412160917602, 0.3282785683320226, 0.34461205030497427, -0.30356552256309993, -0.08011706867159264], [0.12724385997746915, 0.2405395748039941, 0.31912425473797107, -0.022589359167168345, 0.002814773514644702, -0.08534601477816485, 0.03322200982760604, -0.1750681544410337, -0.15800900967522474, -0.3227215202849585, 0.29685563537010434, -0.3101846492080889, 0.24802282678326326, 0.06663350041586868, 0.2733309072816098, 0.1563203441325387, 0.05859871717656208, 0.24426764352058775, -0.27389265831512166, 0.28464156899032445, 0.32516459778743995, -0.22233027963702082, 0.1042333467883209, 0.2273802666393845], [-0.3914844542241084, -0.17972399601247313, 0.09501697215439173, -0.31530062721215746, 0.17475968074726067, -0.15184764506982562, 0.14310042185179908, -0.18153054260494958, 0.193412062622969, 0.22669937257985534, 0.037424375069478086, -0.2437833398700689, -0.1957690992194313, -0.3420757194476968, 0.09182148472808026, 0.1865110512842467, 0.15915856083746382, -0.12707415408161984, 0.27071370424051955, 0.054755219414165376, 0.06002260503923788, -0.410899341945384, 0.16749880230311512, -0.22914586856382316], [0.01834894079687276, -0.028899381632237948, -0.2766338084547416, -0.36921358648099517, -0.3848811576244722, 0.16510270948585193, -0.20551451401085769, 0.05704496962174075, -0.0463021938229402, -0.1628012731134681, 0.055508744378744035, -0.033459530222353935, 0.09079981682048142, -0.48163673242760485, 0.3129746938056658, 0.12308769822536564, 0.05135321101408716, -0.026007538105363607, -0.0034314555407654367, -0.25600288909697155, 0.024585114089508114, -0.08202682379631518, -0.3729353210625455, 0.2438309096336007], [-0.3542496124535859, 0.5383632525596116, -0.32978238127306514, 0.1713154166611268, -0.0853243528123438, 0.175259869433879, -0.4026339105352055, -0.05071997515959317, 0.234726617231244, -0.11947771966896177, -0.02091470379586293, -0.38449608489472764, -0.05766761544510255, -0.3502694167149415, 0.06040712781496177, 0.3432693240235277, -0.1851193970969052, 0.5223121625842378, -0.27958459486416537, -0.3828673790645652, 0.2787715437413563, 0.021528720450139913, -0.4326571496960343, -0.39225781677853044], [-0.45167020906547867, 0.20407872797477947, 0.2744297827161623, -0.2898306901323965, 0.07230117539543758, 0.01333732973276908, 0.12479184604101533, 0.3029855046738888, 0.531206377258474, 0.009983189188967548, 0.09597100735188528, -0.444052915901337, 0.17243490563241526, -0.4594376948228205, 0.23805992719235788, -0.07417269208784302, 0.29420428471906834, 0.40652405208898973, -0.17997183916559048, -0.04207817899367394, 0.1645782920015296, -0.25809624892401983, -0.17785144052638546, 0.10680898879111093], [0.10854218720323172, 0.4920865346575425, -0.2312085926221844, -0.097166700353453, -0.08899018778845821, -0.05274120088632482, -0.4504546898548891, 0.1943445873153925, 0.25334731963574414, -0.3919216609751817, 0.3402750405548742, -0.5056104642669623, -0.02036714944621033, -0.39504409923206163, 0.08280731811739693, 0.42421786742636414, 0.5069900064303654, 0.47901623449821296, -0.3631474640081852, -0.04947047793247945, -0.1123214349655546, -0.3253964242762163, 0.05549924286351007, -0.451683424292099], [-0.3225763842843746, -0.10600335718215578, -0.32522328065834477, -0.16621055875244656, -0.2557809690486983, -0.06138520562705026, -0.0457485720831416, 0.19881767793369465, -0.16536280895786037, 0.02459932163411309, -0.12096514644756656, -0.12438921423711312, 0.23449388894869141, -0.01611768640808672, 0.05668052366387665, 0.07866579498120382, 0.341923766669749, 0.007753165867714612, -0.2196198182734955, -0.4006280954198429, 0.32642348475426985, 0.15132221333349102, 0.22388118452194655, -0.31605603139623223], [-0.25020923878095613, 0.27773995351891023, -0.17803736682287719, -0.2905231105031334, -0.5039488302802778, -0.3550829166620199, 0.019393329385035275, -0.18562067223147313, 0.6007220763351991, -0.12198599343439682, 0.3451206462345714, -0.11633982982335578, 0.4188209328824142, -0.1619880714182283, -0.02434758655463027, 0.5370172108317162, -0.02358371146683497, 0.6527591545347152, -0.08414087382895491, -0.4108115268016057, 0.345285335248176, -0.34089444413723374, -0.4391315363600117, 0.1971828022112969], [-0.49731872846173186, 0.33213413351841714, -0.25771615586272206, -0.3359801334871119, -0.15417689027268375, -0.26940789761704403, 0.050491175198345756, -0.2656594051196113, 0.5372053860430748, -0.09263796180826975, 0.5304859961200433, -0.027571315930675296, 0.4401248825083392, -0.1816443263678889, 0.14571492481917533, 0.506651369669629, 0.08349186325727634, 0.5643280714746665, -0.4145501944926789, -0.3432188086229178, -0.3282936073256832, -0.5190215526191502, 0.03317328706037978, -0.44341419942421895], [0.31323903873975273, -0.03154825583292567, 0.3656782326344711, 0.28046369068517163, 0.2840972140165953, 0.221772940605585, -0.10767860773876489, -0.20556058008708214, -0.5511620864029086, 0.10182514411547847, -0.47450707462740477, -0.03361816218297039, -0.15237342809877666, 0.19032513808120866, 0.04567079465323645, -0.2780906499607046, -0.3118701801455472, -0.5751273274875548, 0.1132068003552554, 0.4136240637296466, 0.3209958651169782, 0.09377438935739413, 0.37321663914626363, 0.32854249232682153], [0.26935598031250907, 0.13328378675198205, -0.17142242263448934, 0.3665652321433819, 0.27796100830032716, 0.3561611664339582, 0.1226972372360701, 0.1285561191480881, -0.18999317751309075, -0.009191404212423718, 0.06706088642453059, 0.2920620180490953, -0.14107202643379155, 0.4768174530663072, -0.360286308189102, 0.13058932545052107, -0.2999721227718722, -0.362923330849562, 0.2391706996123812, 0.033718287837862716, 0.14220457722301608, 0.4018405072638587, 0.28181194915740154, -0.09241065015397129], [0.23118757987017718, -0.18210411885427139, -0.2529628861856836, 0.29317909269663267, -0.11155766145150689, -0.030058989915389647, -0.054566719258699097, -0.2563787291237959, -0.34991397306951855, 0.17077380281888999, -0.053088546912756475, 0.20171174217199916, 0.028991769535320143, 0.23446046923398187, 0.1129430609437797, -0.10307399279712841, -0.05570646056050417, -0.4078185621345309, 0.07217420884214262, 0.06306085666728257, -0.08496021247330518, -0.21359992671402073, -0.31089596946682135, -0.13861495734928692], [-0.32371755820299225, 0.11476429351841787, 0.24124500527216092, -0.4651697730266546, -0.26643247493479116, 0.2518299073681641, -0.07368795360165017, 0.16700606617434866, 0.1937335595705316, 0.18383796109328254, 0.21273127704923245, -0.4713731401302995, -0.21369303836075218, -0.42195348052518955, 0.3981906578034205, 0.10787198290094266, -0.08011178639736315, 0.48467502574216687, 0.20094163351848307, -0.41995139808059134, -0.15673340508670056, -0.47557950201042215, -0.24923114953154674, 0.20608286438587725], [-0.15735366294534694, -0.4852588392939448, 0.02510844343910172, 0.0022981771943453608, 0.01617019100479889, -0.0669835166794048, -0.09247109476804564, -0.3595551241270093, 0.05830730461011057, -0.2677287892013885, -0.429566727973971, 0.5308145176964202, 0.10896747334894374, 0.349085923923429, -0.2909413416374308, -0.1839222191435259, 0.07610025128988084, -0.4189366379476765, 0.044496835672539106, -0.024165459291708175, 0.30731820370718854, 0.33014689521415547, 0.30641402335612233, 0.11087057351572803], [0.18195900244636587, -0.4156642816883594, -0.1756660545046882, -0.1160529303560806, 0.09953333416058847, 0.28594578574443824, 0.01021245465780538, 0.27497044998969955, -0.3658138172105259, -0.05471640865541312, -0.001715734408027093, 0.36510240974442, -0.10453911918872229, 0.46050819178594615, -0.04213392760332316, 0.06951181424013955, -0.44015158478039884, -0.43676856128278907, 0.24252530246060083, 0.4227163889661332, 0.11388418564725493, -0.029884735973676024, 0.2698036473110735, 0.06332391735595105], [-0.16339116231044984, 0.0485153160499687, 0.2886406832984167, 0.37306393486906186, 0.36576855589610435, 0.11583388163339095, 0.20543621962901237, -0.013257340117096353, -0.28780994137218463, 0.12035362181280047, -0.15378575810069495, 0.4545841963534781, -0.09684083399985864, -0.211192235835761, 0.11496301855743121, -0.3603750967674158, 0.15189512126688193, 0.013234830671172537, 0.07611410397563706, 0.2749147619880706, 0.299395555877112, -0.039123344621705636, 0.12527519984591198, 0.2010724843059654], [0.17358332746418245, 0.07260394277647828, 0.05502154614298562, 0.20574118427868893, -0.13851092545062985, 0.18846113477205906, 0.18995916623165665, 0.30895304018341846, -0.256883256500633, -0.3318558697546787, -0.452215766773625, 0.34818047058512225, -0.20993830734454633, 0.10580415682678002, -0.18123880800686942, -0.2591406333326647, 0.1432724438001632, -0.11664466738204592, -0.2033319942939425, 0.13528516435602364, -0.23167799791254945, 0.1517074778666198, 0.22395121640198665, 0.27664195363721816], [0.2931445707657906, -0.6024722262932286, 0.17487152594983038, -0.12895851584260334, 0.23013034341238925, -0.30246404101851465, 0.03536155755583383, -0.22539281583095983, -0.5555039361672964, 0.20060385490285385, -0.294756370818569, 0.22782320133513348, -0.07968615572031089, 0.48403915046230955, -0.22444547931745912, -0.44658538915454654, 0.06125318710834946, -0.053798610314299986, -0.12772725670386018, 0.4098816402046653, -0.20396534541405079, 0.2701494197893213, 0.17604070637794694, -0.234588450884684]], "b": [[0.005757240170340224, -0.08191221583311772, -0.006962273611118438, 0.036000608830499284, -0.01124415336647365, -0.01565628393154818, -0.00042353118599137307, -0.005619660104962574, 0.011038160861308592, -0.0020891591686141952, -0.040103410992518844, 0.13018872055892708, -0.04105899807534834, 0.020854361227072366, -0.0447187005535746, -0.05750959850578519, -0.026503912386198068, -0.0915835525601839, 0.02428917880743192, 0.034176612810835644, -1.7815947472584474e-05, 0.18543177033461292, -0.03325261501006692, 0.02797656322202404]], "activation": "sigmoid", "w_init": "xavierUniform"}, {"type": "DenseLayer", "input_size": 24, "output_size": 2, "W": [[0.9626500321897158, -0.23694561052209545], [-0.9171566404761766, 0.9691717188388199], [-0.24876163474332924, -0.5872417860877559], [0.21987917411576047, -0.8147936097236395], [0.5729123131077732, -0.33890724900482566], [0.23606916199784025, 0.0058433036028966165], [-0.04518545263023468, -0.5432664295188651], [-0.02159256755842941, 0.19376088383606352], [-0.9917526048747, 0.9825911150970099], [-0.32619370371915024, -0.3594641211700018], [-0.5358369162375152, 0.9812614738500758], [0.6498451565937432, -1.0449180796594149], [-0.06496715400114406, 0.8034133702680848], [0.7479554592888964, -1.049501244876365], [-0.38885938745331644, 0.5531172749881229], [-0.89429841331687, 0.6772225137500913], [-0.618329578223383, 0.35359688685044394], [-1.1832934507668158, 0.9840250939802522], [-0.04818844975014436, -0.6886603251001489], [0.6767359600751713, -0.6962133706752119], [-0.4110322563448119, -0.26178858361214263], [0.9244389970790126, -1.1404625741849812], [0.7252329212699256, 0.0056453797158392], [0.27248854171595627, -0.31235655290116215]], "b": [[0.03393770136311396, -0.03393770136311398]], "activation": "none", "w_init": "xavierUniform"}], "normalization": {"mean": [14.208841758241759, 19.326835164835167, 92.56975824175825, 663.3659340659341, 0.09628879120879122, 0.10550999999999999, 0.09042328725274726, 0.0497001054945055, 0.18112153846153847, 0.06275017582417583, 0.4087145054945055, 1.197063956043956, 2.91916989010989, 41.21023516483517, 0.006915367032967034, 0.025620356043956048, 0.032305889230769234, 0.011834327472527474, 0.020381775824175823, 0.0037776534065934067, 16.37098681318681, 25.66505494505494, 108.13145054945055, 892.3428571428572, 0.13193323076923077, 0.25901665934065937, 0.27713803736263737, 0.1161725956043956, 0.2904171428571428, 0.08418265934065935], "std": [3.5877033373034073, 4.373059793993258, 24.829069398475255, 362.89532339313917, 0.014204302245273703, 0.054813662979505115, 0.08292877782588133, 0.040079238292177896, 0.027602631222048177, 0.006983729156841554, 0.2873194535025765, 0.5588951425546324, 2.13166123049065, 48.11977777386588, 0.0029132469645184243, 0.018034527025261322, 0.031995772909142926, 0.00625771405199199, 0.007921061026044214, 0.0025302674685669883, 4.909371058825427, 6.204410549899669, 34.384936404220376, 583.3204836321144, 0.022549515096795137, 0.1629190706793953, 0.2152739404787926, 0.06719942135673804, 0.06091984043700133, 0.018338820523758678]}}