{"layers": [{"type": "DenseLayer", "input_size": 30, "output_size": 124, "W": [[-0.35275456925877346, 0.22306477522507334, 0.028327330400445994, 0.07026852167605183, 0.0011977588574533847, -0.12645019196444587, -0.1772964836456781, 0.405161769237094, -0.2227325302356789, 0.1808819153424419, -0.06729338379409293, -0.16034653138798935, 0.25470031723247566, -0.4199491579563078, 0.04673998526336996, 0.20821552428644136, 0.04089549142343038, 0.47011109699112363, 0.3031042747257094, 0.36317379701228075, -0.15085783859071525, -0.18742282804397598, -0.16869304269043492, -0.3652553957225297, 0.0008710899354930262, 0.2981771699060768, -0.18676378623863965, -0.40005524231345724, -0.33184467505104936, 0.12846291677881846, -0.20041957676465869, 1.5520110766628878e-05, 0.19689962840002523, 0.21849668469905695, -0.40385316663697934, 0.20065363479755885, -0.016374651502918502, 0.32892968661991334, 0.003571767495274446, 0.3220779227642108, -0.13687454678620073, 0.28391941843193924, 0.03734087072375693, 0.39012581391465967, 0.020718012457601392, -0.12441803873462882, -0.09906512600246957, 0.264910368454876, 0.45114539870785264, 0.2813591397458052, 0.19120590310675356, 0.21551603452583407, -0.4234705735252204, 0.43875366554324696, -0.07751343495980782, -0.08761817512849505, -0.19829748561000515, 0.43682163829887194, 0.3399542676180501, -0.20003902128345652, -0.270482742304754, -0.43056563199315656, -0.14869781193075637, -0.2637871637975827, 0.45369432568396995, 0.395545835091567, 0.24938399952562013, -0.05373244202000887, 0.0004322813537256529, 0.29276624232980974, 0.32953050331748085, 0.27378992661471335, 0.017175888757074716, 0.3236454614446386, -0.025202865268675108, 0.40027628441617363, -0.3346030432866022, 0.2492913578949494, -0.02062513856239024, -0.26390637363132796, 0.00505450642679038, -0.32241112369008396, 0.11000634586424113, -0.0233192453772947, 0.06929745735918454, 0.3763806456285356, -0.11920642470315272, 0.3101588236874197, 0.2173947065899391, 0.3641235937068413, -0.3678966830821144, 0.39115179130908434, 0.36596531184071734, 0.09049735063898355, 0.3688860340397298, 0.17534908506946956, 0.028489167374878815, -0.10263065718277949, -0.12051836494647375, 0.0674921846420703, -0.13805429157931917, -0.3538628835353817, 0.06564850795556916, 0.0644689436958941, -0.01826005491976839, 0.3375480398681454, 0.26556534915455043, -0.2673551064425571, 0.3173567468209499, -0.09937295634115385, -0.150535472996985, -0.016086494085141827, 0.0005384010470286639, 0.2774448147919704, -0.08694616661340092, -0.25327543353482695, 0.09613955781628525, 0.31559346919871456, 0.2569178160761111, -0.16244236835240017, -0.07074698386440345, 0.35490811637577935, -0.020584741839892635, -0.3230553889050056], [0.20301957429200182, 0.14993398611364608, -0.3715019162337448, -0.0918416690999067, 0.25132649690163156, -0.03769274418300773, -0.11660146466038378, -0.18170609569644694, 0.06684929061177342, -0.06453966672179072, -0.3359389289985469, 0.18584490870158699, -0.16600334411118536, 0.2792400300882439, 0.04387018223419915, 0.17792684441991277, 0.15587275607355322, -0.007487042321944745, 0.11410767754749397, 0.29402872841106203, 0.1325321665048873, 0.07466812442912343, 0.35970030791405544, 0.3799377522085402, -0.015207024803992452, 0.2937029982792631, -0.38037354928542727, -0.3870486374626177, 0.14030650391761323, -0.34710995310451004, 0.3169573082602265, 0.025102590884822022, 0.012322836391282168, 0.40850452277187843, 0.2762741522785381, 0.33733413420773123, 0.24934315415446945, 0.35602082849833827, -0.33746932386146405, 0.05305965148792589, -0.21181313958541342, 0.19655151698324252, 0.05998543795824762, -0.2474478161492124, -0.404882417950443, 0.264728780973043, -0.010908732324188049, 0.41238276826731884, 0.2537417823426972, -0.012905953417395706, 0.09539193164708268, -0.13000928467915202, -0.13351243260142856, -0.1945412691263889, -0.4060169399955019, 0.2163721742054986, -0.1362810072958201, 0.05142023629504221, -0.050965814651830386, -0.1347769649586052, -0.19576254912341512, 0.0893592182892006, 0.15331526444618684, -0.4012687575536732, 0.3572114770358218, 0.18243557551811923, -0.1642191438510781, -0.3502635557933111, -0.3120047532583969, 0.20811758851216827, 0.11461474090416232, 0.14305695860146392, 0.018366016162471258, 0.26827570640357945, -0.3129277598874135, 0.30367569100353403, 0.06293159774862837, -0.4280412010336747, -0.1532461392315841, 0.1852262112845102, -0.10265876909392306, -0.2694556791717278, 0.31950991143788565, 0.01126219084316785, 0.39973648259881456, 0.5060058428347576, -0.016071577989942548, -0.15528302600071386, -0.31824464170169176, 0.20583375759730524, -0.3604798664185798, -0.010768871333477358, -0.2882971097197955, -0.02981815767094741, 0.4084649045055387, -0.32773054010773495, 0.07143667024848879, -0.44453412493589356, -0.27779686874620957, -0.13741227097494788, -0.05943884697509879, -0.11188455123628537, -0.2901825518856387, 0.10347539353993034, -0.32057860124692256, 0.18311312249376957, 0.17631530323707884, 0.11878451885229224, 0.1666311743830166, -0.13070279535887633, -0.02697951435318237, -0.4354411694212339, 0.32823497653739775, -0.12869150154422807, -0.4099094745854343, -0.4627872377156672, 0.15784671724316304, -0.38000373376627666, 0.35024815732699743, 0.27920269293559313, 0.20452586754643143, 0.022487286189235765, -0.03851835232013911, 0.03475321561714897], [0.3645928833368617, 0.016693462903540277, 0.37123582788628406, -0.263767271344519, 0.3263561447908438, 0.34903274251266214, -0.44078947574074395, -0.39464431559796836, 0.17008038772950976, 0.1084488523262495, 0.28300346184706937, -0.10404185267279871, 0.15519996110311732, 0.3657128691350551, -0.39324769489210754, -0.21334405428985367, 0.10443324287714928, -0.1916674486456919, 0.3984771990996932, 0.18663590229785806, -0.41614059324543756, 0.24731903787105627, -0.07363419906605471, 0.1731884615629614, 0.23619270534823666, -0.04104493313330899, -0.06340911717942017, 0.05769049433481874, 0.034448677894318214, 0.18246050431364316, 0.08138269872282858, -0.08297877231007875, -0.06408204089525542, -0.4057644755290892, 0.0027060626896437453, 0.17492323011159447, 0.14534692926243095, 0.38484778112051743, 0.3323272521397533, -0.3919439117326147, 0.21845844088806024, 0.17450618842452104, 0.16957741855782424, 0.07498719417693973, -0.15777460560165174, 0.4096160066656375, 0.31082993870574377, 0.15950448780165807, -0.18153972198999097, -0.384106408507443, 0.19238761200285812, 0.41091820519021655, 0.34641697141029476, -0.29409654217902825, -0.33818120076865593, 0.000182301633920743, -0.19008306274309197, -0.2655269103650768, 0.08422133709602939, -0.36567874786335536, -0.41335570035534963, -0.24610799900563463, 0.25276092073520745, -0.35830945803706044, 0.06533036391991685, -0.09012806481975164, -0.10256260345576637, 0.06717925258444546, -0.2863814726740706, -0.34929595828824533, 0.2766363947548212, 0.2018884685160823, 0.170866121513353, -0.3158174572439729, 0.028065518606877737, -0.09283905537086462, 0.11981212066614604, -0.12501129079887136, 0.4238941660113827, 0.2554924438336562, 0.047409392157486865, 0.3140038081952142, 0.006184714977315386, -0.3729214076143814, 0.1587133611446428, -0.1164341783271629, -0.4147919384615579, 0.1235111519148351, 0.1684322699898924, -0.31766347954454516, -0.27352091774816734, 0.18758481339276062, 0.033863702016245584, 0.17046540049748163, 0.09104217222600555, -0.4073657379136769, 0.24855510149226007, -0.1491010824650769, -0.16482295500698826, -0.1454146170315812, 0.3947998024288397, 0.42710433157515243, 0.03861220873753934, 0.30070400532160885, 0.014658340971481963, -0.4101749187366813, -0.42130431127505713, -0.13318235203726445, -0.3967823602707913, -0.26283136505646365, -0.0398335723537341, 0.10060583466372952, 0.24555236256897703, 0.39013200764380873, 0.3934016148893526, -0.07729751776057708, 0.39704283904433535, 0.2124392331008059, -0.24071611103801166, 0.003631278246008025, -0.17233490374879756, 0.2001383669375749, -0.08007347305811463, -0.07290393987833337], [0.12564586927151972, 0.18303991387687588, -0.02675649730299889, -0.46321195021624384, -0.17937895291466, -0.050288521565077314, -0.28079263568956664, 0.21777510858843607, -0.4311553361970419, 0.3371209703208192, 0.08937286016970439, -0.3131376261832768, 0.12709157843372007, 0.01775526409630781, 0.30168470887126275, -0.4178713418807689, 0.17366601208931123, 0.4590528450457054, -0.33221252997281964, -0.26551684036168993, -0.4395706549877484, -0.10945613419206036, -0.3646370572379126, -0.08559437523347602, -0.30634961488619755, 0.047995547861500544, -0.4243872547317912, 0.10296374419944114, 0.18244456923365646, -0.36790512774918144, -0.1752907148016743, -0.466096128579548, -0.19209809138757936, 0.32601774937312594, 0.26469035132398877, 0.3905906135631659, 0.4569838359186384, 0.2228076790331031, -0.26635968335555754, 0.45057421301781664, 0.43287231723932296, 0.22011147095151865, -0.16077051365590486, -0.3017091205697953, 0.3766513251186048, -0.41655131296032705, -0.3633011164686932, 0.17262440294497383, 0.3269247825762957, -0.2798053794248579, -0.38762458219940554, -0.23747272893590615, -0.0511353250457974, -0.20294597248259866, 0.07083217269808417, 0.2493666569865773, -0.3695420747185602, 0.4293952199023089, 0.09809835325938963, -0.2250147538430258, 0.3697122806585655, 0.40435526275651146, 0.2873349155173942, 0.021275980040242146, -0.2561315516020472, -0.30571468216742687, 0.4418369343008458, -0.2870899900787729, 0.4089500681890911, 0.10554005698515617, -0.1486275195826053, -0.29976506091157457, 0.4586807170951009, -0.2123255707261339, -0.14650840243567184, 0.3814570580872914, 0.20465489691030372, 0.30696174278375055, 0.20060632334363623, -0.3405479465372666, -0.3926431187149904, -0.41577364765784225, 0.19783626805843882, -0.34337324987763285, -0.36958298740414086, 0.1024582477339328, -0.29153293019187876, -0.3176323703853419, -0.26031696955364814, 0.22506795246391145, 0.24225012006615002, 0.15754609438358555, -0.23232967765817142, -0.09956961581342626, 0.40951287005021586, 0.2113249026126959, -0.024967334276785876, -0.3220510766854082, -0.40948627602103943, 0.4396266130571484, -0.2023601639930283, 0.25482865441577934, 0.3395679894507959, -0.24878152509086546, -0.254445335378009, 0.16998692431759094, 0.40959425857528153, 0.398200791262277, -0.41944603242668876, 0.09091222496692472, -0.23679587946480965, 0.2415319276784939, -0.05150499454469389, 0.027121802734906768, -0.23245391836482354, -0.16322482530357552, -0.197817473189622, 0.30712374786302205, -0.12936560176889972, -0.24695652828472928, -0.012540222539024965, 0.305632115423751, 0.018192241399034043, 0.21342472557864575], [0.03454420890729663, 0.04356646937730108, -0.428476061487245, 0.2269098115519971, 0.10594474495063558, -0.24564466676278984, 0.0579251796439009, 0.06391150340236885, -0.1345181899434194, 0.17841745258995237, -0.39539816146210244, -0.14017734147521743, 0.01879649607952686, 0.3792523521159226, 0.44992202107082385, -0.37817645686319545, 0.1152169286816297, -0.28816261883578603, -0.34576093833080324, 0.25462258593598397, 0.26890351637945337, -0.3863015506176539, -0.2609211833132533, -0.4275494998466893, 0.22333702695337357, -0.23338010141933196, 0.12980219562704223, 0.09197749141941933, -0.08216022282145685, -0.1690986216970114, -0.32494230970447047, -0.3508267656300584, -0.012564751872909084, 0.16808079263179176, -0.01362899226291266, 0.2670258875428443, -0.19694443240516418, -0.07495942977328851, 0.15718639281525013, 0.048805097157349854, 0.021626208408440952, 0.11583190357531412, -0.3469253456497655, 0.3053285047127943, 0.1545797683238738, 0.31940022565474097, -0.0628516529104076, 0.2598036801369673, -0.39524192727866264, -0.4164226692784666, 0.21781727128198236, -0.26785905668366994, 0.30730290076776895, 0.4218135276894705, 0.2977299003021071, -0.13425452246321812, 0.1944509010071525, 0.3241500601614786, 0.2671069800647775, 0.2653828661757372, -0.24015535721785533, -0.24738882499671772, -0.1104212540810773, -0.18618181450342577, 0.19929745284747752, -0.2147232609227002, -0.004553732038378876, 0.28747189960194064, -0.25716242064787065, 0.07092784724964012, 0.1287233459526848, 0.3487563492524125, -0.15338565598456017, 0.2722911922704108, -0.2819871542319439, 0.35160527122357954, 0.31566537542304096, -0.15869426673701, -0.010610299607326444, -0.009294305425295378, 0.16077818996048782, 0.401062546724452, 0.3642465766607883, 0.019172787261082777, 0.2019789575524924, -0.18937440622860674, 0.07247614396412205, 0.20895673602677653, 0.04857167241876471, 0.3463196164118848, 0.08417742343945117, 0.10658079791418888, 0.013654989255249161, -0.17056917702599328, -7.090323781919478e-05, -0.34473074116998004, -0.1821200028883702, 0.3359535238941006, 0.26950380215954467, 0.0116553072379114, -0.34466342721801224, 0.11973155734741217, -0.16647974941144775, -0.340419655890487, -0.11178564184956503, -0.3385553189178233, -0.08934875277045831, 0.44012014993793014, 0.10542636269243882, 0.09189716701980956, 0.12876425598219562, -0.21923004866746715, 0.41874650470120295, 0.3594461580015041, -0.32087066037363404, -0.4236252757179117, -0.34637336696186877, -0.11377011814690821, -0.3824083270436429, -0.02427774968371545, -0.10265417945669716, 0.3404183526545763, 0.11020341913987267, -0.11874062367312714], [-0.2403860449086906, -0.16789010222329998, 0.44641414507970073, 0.0011774821350074962, -0.12001195872862037, -0.32083508204374395, -0.1517775206422136, 0.36889229965210474, 0.3303458860264514, 0.20207712042431314, 0.01782754337488656, -0.09150659997215972, 0.049424479124874354, -0.01982639472839403, -0.1488039150578941, -0.05677241706054494, 0.32261014300040747, 0.2686382702660955, 0.20698109270026308, -0.1197474581210348, 0.15133326369527797, -0.2524535061915361, 0.4051701825659766, 0.40538708798170525, -0.0762817077219656, 0.3552350317287695, 0.24399287156823718, -0.025416225331366227, -0.07948410557577153, 0.43928849487595595, -0.3594169148786195, 0.3275496081326213, 0.048748988377227805, 0.19838614698029775, -0.3014875922969648, -0.014926058379824825, 0.23175334473388148, 0.21051480607831505, 0.12806508668751249, -0.2984658700039179, 0.005008698890958775, -0.4606200610500769, -0.06064555576027108, -0.15902316286027302, 0.042631587311608876, -0.044157202023888724, 0.4171325647600587, 0.30211056391165914, 0.2931269260286151, 0.3628272812143939, 0.04101047943613303, 0.006566858829140918, -0.3532059302927967, 0.4234990156999624, -0.0944385238942542, -0.32430629263014465, 0.4329953240963771, -0.33155303162973665, -0.060893546719660456, -0.024253177066801482, 0.08652083082606743, -0.023220805235716492, 0.4291828982849257, -0.004077862045035794, 0.20558672889292284, 0.22421781719385384, -0.18727196579651378, -0.07449917083461807, 0.09268878102420929, 0.04453785089884966, -0.2555937752221561, -0.2858465386176655, 0.23454552558259614, -0.10263477164729043, 0.04236146944349348, 0.41430384947452215, -0.4252282957945427, -0.11757627276327012, -0.4433458505013119, 0.24879960150741706, 0.4240693876059001, -0.20315028250660686, -0.4198716442084131, -0.02226310446423412, 0.4253122448495203, -0.28167261704218843, -0.3615094732887561, 0.11654970688271644, 0.2734658557868062, 0.12124434549311836, 0.36635951859999516, -0.05909200183702569, -0.3750988881548283, 0.37108194790971766, 0.1365764996016115, 0.07762373027479615, 0.38056658258160836, -0.03589182089401934, 0.1489347303965068, 0.03843677368090883, 0.2720228737933611, 0.2280804136412797, 0.30148164096773145, -0.22205484939312292, 0.28221594010360795, 0.17531219032982193, -0.40309622591766464, -0.29001372195441216, -0.18405901766608246, 0.20430452495754378, -0.3259241848565597, -0.20706158012588863, -0.027269086585258187, -0.005981162946147449, -0.08965087446260869, 0.04903710174463802, -0.17495896937680602, -0.353122892379113, -0.4307857356887971, 0.11180119733438548, 0.300048052811109, 0.4498130070200319, 0.13385660230979282, 0.2001426244017669], [-0.06562784860459722, -0.09496655690483505, 0.26529551481585006, 0.05329876128886628, -0.2754517613223992, -0.4091466571487327, -0.38427560367736036, -0.015473041782555477, -0.278539648294799, 0.1646084790739593, -0.19862078782768097, 0.10398523216996258, -0.26664835659544645, -0.14803032300877697, 0.4692133788760598, -0.08523218915504581, 0.2786304748086778, 0.15166795469541905, 0.4849107448271888, 0.03212671089307932, -0.31591550227252807, -0.21444253622225803, 0.4409396558154364, 0.20671474680931165, -0.38178145747493947, -0.031967922623286335, -0.2580835086095537, -0.16021624498768886, -0.13883185824138627, 0.3778515800704559, -0.4701595773301436, 0.3434572262693342, -0.21136967749431548, 0.184067306255839, 0.27313681361962944, 0.332360193305545, 0.0898840202210762, 0.3994164076759071, 0.42079766060688834, -0.03202579802764121, -0.3854591249225128, 0.031286423889398444, 0.4631579298174842, 0.31618617904980684, -0.36796505089937115, 0.4036955449819881, 0.28067820323331294, -0.3138988113064483, -0.2203888797986219, -0.4089496603089768, -0.09365015070473576, 0.43643709713772416, -0.3401933685723028, 0.35224402937351873, 0.0563046476605964, -0.29405312814603757, 0.3469527392956678, 0.005510804301048534, -0.09613039922760504, 0.2141761188564161, 0.024544837661867075, 0.4544407422423714, -0.3371272474015973, -0.16928249251652305, -0.264580774161514, -0.15382554544385163, -0.1420035556870949, -0.08744827424652134, 0.3013511839016824, 0.22692477079117004, 0.05149617519014688, 0.08926136188282621, 0.3771243496116361, -0.35794643847110624, 0.036219177445490316, 0.34811253486998167, 0.09503182224530451, 0.07492530596086679, 0.3397187280471101, 0.05722295207718842, 0.17588642075410613, -0.3336035847824181, -0.2659207052343219, -0.1861582737107995, 0.383327875056219, 0.04958216148856546, 0.07863662869426849, 0.06412934906522685, -0.3377212380393137, 0.1755427215087157, 0.08928004111208405, 0.32126482495786085, 0.4877017685010135, 0.2720911033664198, -0.0732423901172856, 0.3792009452098034, 0.275342901848611, -0.10561045289614662, 0.44462949988570133, -0.262419352617207, 0.30841438161839113, 0.12280109746694663, -0.1266381575215652, 0.41044940556049164, 0.18511550103327007, 0.3303988986362644, 0.35753852972148514, 0.2607317791091292, -0.10588288408445344, -0.22665959579387926, -0.46650787694697393, -0.15930821549149266, -0.07813827947917151, 0.23338897169221004, -0.04738731117852828, -0.07202541937888493, 0.4645435869104694, 0.15125852963509256, -0.2958250437313032, 0.38321086741764787, 0.27596254283119764, 0.29238931605271246, 0.31254899060029306, -0.015596684619998693], [-0.2981460130851074, 0.052616231639473446, -0.23159206622301595, 0.2872834949440927, 0.05063832394872368, -0.030271989901024223, -0.0737356347149536, 0.31355581453672493, -0.027141235781800607, -0.421744051221664, -0.09471247867470636, 0.30183399840392, 0.4420646027475311, 0.1587723698883657, 0.20102537391241337, -0.4080792981627595, 0.26957502638640674, 0.3788799450813973, -0.37937218073453294, 0.3856081108978468, -0.21643885401897237, -0.26889348142666974, 0.07219595337794422, -0.11159820913339677, -0.3805912473401892, -0.3596147372565639, 0.3225552021161367, -0.39399174591334607, -0.13503419010502485, -0.34525084995506783, -0.1983025426941679, -0.03889057915410841, -0.2195873036724268, -0.03397179460602191, 0.11018225998211006, 0.43851713368791173, -0.27729741728559876, -0.17093782942961183, -0.02900006393953137, 0.3508151803340817, 0.3434838536519978, -0.34957489236050554, -0.3791851544996955, 0.11416263926295624, 0.30751399552920905, -0.022853462037923277, -0.04392164150564369, 0.01945913520089752, -0.013131661054161043, -0.410737563636882, 0.27129390565282063, -0.2790460426755828, -0.28649780593569557, 0.11329083077609793, -0.11328149374221956, 0.3014700811384919, -0.4535049086367716, -0.2666336059511115, -0.08838967321049167, 0.14582766770900352, 0.2939750197531547, -0.30968208699127214, 0.28178384694890396, 0.11193356705663289, 0.16476166185536564, 0.4424510775278316, -0.10041361735492252, -0.018089567744717056, -0.039032064775627096, 0.412127341894921, 0.11599288318992046, 0.06223234570515388, -0.12401481672148612, -0.4013068160562592, 0.07246685437005661, -0.03553622344620226, -0.31162332152442734, -0.29216389638535123, 0.4435086812838247, 0.0061807587019607904, -0.4196893388141211, -0.07844288075568887, -0.17390382968897689, -0.21470292341856545, 0.23061220413833902, 0.3452149975027243, -0.3011978958047562, 0.3867197896071627, 0.17466405978677083, -0.11942788659879003, -0.2202580887969123, 0.35528943063532636, 0.01697147383906064, 0.07769072375012498, -0.28777407845697595, -0.23711823719022782, 0.19883334926070764, -0.42640768325097694, -0.3518227716738925, -0.33752422989093755, 0.3909706909543063, 0.25411891003246406, -0.013538445303783092, 0.12972490493103425, 0.13724578854100744, 0.1519725374285018, -0.16322896667053363, -0.034562777999339954, -0.012408702092966349, -0.25878918721720706, -0.25383521162936074, 0.3529448482906257, 0.103855278527135, -0.3638289396359903, 0.2328911426123444, -0.49240766443296186, -0.36990572132547517, 0.043908840830100125, 0.04607029759979663, -0.37552970543810527, -0.15967674621302497, -0.17043940046121922, 0.38678686115573385, 0.05496011414378702], [0.11751033757605064, 0.3883229516117606, -0.08975400576212228, 0.22750466472233785, -0.37460460916967514, 0.2446698049179689, -0.2592072715874898, 0.07490101139773184, -0.38802815907513183, 0.27345509058935386, -0.1442839619899744, 0.34208945081526226, -0.018057577897474895, -0.17681160305609572, -0.3727140342757192, 0.32437841178902027, 0.017623272645277334, -0.13719680011172386, -0.017146354992110056, -0.40419975602568664, -0.13708093319041806, -0.18827793249777283, 0.2765164050585099, 0.30081459596705196, -0.17984733290570368, -0.3481218214282783, -0.3577715808425254, -0.39580723964341913, -0.07334015708702779, 0.14110493922028136, -0.37307756639717315, 0.29367489124876395, -0.4106233072246093, 0.2910967931832612, 0.115304259299967, -0.13579682299979792, 0.02371767980548382, -0.06265955556894562, 0.15130273150966062, 0.03256224987512206, -0.36625597952192157, 0.055004077500019455, 0.16334386002098275, 0.3729568971988497, 0.42205126645803, 0.18414325302042084, 0.41407812607650524, -0.17357021796552566, -0.002984802002247222, 0.3077838162997416, 0.2682381704584935, 0.024458765345083247, 0.2238142711701577, 0.1625692776048772, -0.1454428602093446, -0.31166775488976134, -0.3901098575163056, -0.01096329768484872, 0.38699136635854087, -0.18440824102857595, -0.23208905721495854, 0.13195663982932931, 0.1273961662521569, -0.45222600675754715, -0.321095350723816, -0.2742725533774235, 0.23184712570142668, -0.1667501734930388, 0.26933903161688816, -0.4440829973302963, 0.09347759118031508, 0.24200608118801012, 0.005819296987167856, -0.18150219494472933, 0.03514236715223822, -0.14350925621416363, 0.07719981218294626, 0.36953837719725113, 0.13557063798697766, 0.17207371451358233, -0.06699596418762718, 0.38646590571898076, 0.4190475729747498, 0.39449397994309193, 0.2563997743063176, 0.4468404178686327, 0.12598308103300615, 0.324781444639173, -0.2199382631199182, -0.06740146680699173, -0.2926665599755021, -0.23144060650252019, 0.3691699917244092, 0.10732941013829804, 0.15552067934146369, -0.05694792534952, 0.19011607977626338, 0.1425994482883299, -0.08388336269291848, 0.15288204159958643, 0.3000051250478966, 0.33837756404481517, -0.33050034736018624, 0.1097039207499192, -0.42270231205906633, -0.33458866441821833, -0.04835576015117143, -0.2575015598949549, -0.03311339104692324, 0.24537082225134998, -0.20482016255502955, -0.021264317051034133, 0.11643980428437137, 0.10830855076896512, 0.4550241452413042, 0.4177329549444713, 0.2822179897160913, -0.0686862450988099, 0.20394606827831957, 0.2803335782607307, -0.25563568057804253, 0.25872799635021226, -0.13896943363676822, -0.36675417309203734], [0.24067287812457092, 0.04811441128031374, -0.1750017581618867, -0.36059024688183694, 0.06921899104452661, 0.38575088896657095, 0.3797962056665833, -0.009981992889967303, 0.15900934912108783, -0.32157119817780744, 0.005977119589792581, 0.26020253996841963, 0.21421496231743287, -0.26180871784021664, 0.2774399127395479, 0.28768790042122544, -0.39272903589629404, 0.28569711685859106, 0.33217513889777356, 0.41333876907048794, 0.05336982614677755, 0.02794211382343751, -0.0359900058915315, 0.12598560481412144, 0.037744083828721846, -0.07323577375969646, -0.20471334373362446, 0.4272549658694097, -0.09091432189889258, -0.2067224551973795, 0.10761696497576767, -0.2904181327396794, -0.10733235854859055, -0.13497844827666025, 0.26109108601813436, 0.13244234924285403, 0.13520362796876484, 0.20586432541743743, -0.10243227830612261, -0.34232949554080055, -0.03804659561549613, -0.20092996296522425, -0.09009562109002495, -0.4239236462050092, -0.26109426491870535, 0.2644229300066376, -0.15011217156677714, 0.35321730654213784, 0.1607976084231137, 0.13947300736187337, 0.10569038618636267, 0.36656013491777845, -0.2786490561959546, 0.0019627841516280274, 0.23324774490630837, -0.3184901249488247, 0.1194848459409069, -0.276635359734428, -0.28438448972454966, -0.275705774689478, -0.1388044996218675, 0.28338430392816416, 0.05900670153505723, 0.42083511567285903, -0.10842664219206209, -0.3211345344668801, -0.30802102725482305, 0.11023436471597335, -0.32609329223931055, -0.22584392597406291, 0.4118961640562413, 0.29616874762378204, -0.03266385902503694, 0.23970822034413122, -0.3705593096628161, 0.39435066224378335, 0.3552264339729086, -0.11070229610666828, -0.21630131968534855, 0.38968406290541924, -0.2823404103784528, 0.1838641444629144, -0.22351532788663311, -0.31999109255578384, 0.43378993232731866, 0.1784079182200107, 0.3806865488833479, -0.3903651161968936, -0.10740743587840426, 0.32748858088940375, 0.35240196748830993, 0.13306817081244232, -0.284098475801316, -0.07670268738035163, -0.19439730345329193, -0.3091742552510957, 0.13272863629247428, 0.23519943869860818, -0.20136287451137405, -0.305516780851876, -0.25451535315312707, 0.19290410934795177, 0.23919394679655093, -0.034918760044554936, -0.38939300139314326, 0.4513321323335842, -0.27753467647099045, 0.27723111207057877, 0.06776473170249216, 0.10041757064077896, 0.2769979086127981, 0.2702010332066615, -0.39597717811478167, 0.10870452811263306, 0.11483154416469157, 0.13111723343709925, 0.3154078189532238, 0.2566451558988476, -0.15851193587268672, -0.40995674051600095, 0.3333982841033503, 0.26313765082202495, 0.0468252289832387, -0.4102074828649837], [0.35652381020241153, 0.11962501136643283, 0.055498103868387626, 0.013528955239118226, 0.3043944105601092, 0.4615557837749209, -0.4990771553692445, -0.06663389163117221, 0.39376864190451266, -0.2324179673197499, -0.4381999195400465, -0.3910515206916249, -0.24037051964793252, -0.12104863029965021, 0.06953494842983735, -0.49433077466139164, -0.144941467562699, -0.2510266236063295, -0.37699881986951306, -0.28894185673001693, 0.22659707447336658, 0.2476255960145938, -0.2776478816785798, 0.009337081350353963, -0.094199703760925, -0.29635245281697725, -0.1825039262381694, 0.08271752341423065, -0.4479702428951898, -0.5064279538454337, -0.3399169892547926, -0.06374068124148782, -0.073177525671262, 0.2540835388576086, -0.13924583295803558, -0.2623964266245016, -0.3018223450242703, 0.3706873246206167, 0.324530465810749, -0.2282608723702463, 0.07651364725205693, -0.07948049929969743, 0.5316148529637048, -0.31206347092723213, -0.28740519100396933, 0.34107109572149363, 0.044940041602937804, -0.3560606667228767, -0.072963147177134, 0.049389684573947115, -0.14667710244996784, 0.045797352440028284, 0.07662062121610072, 0.1756432851723608, 0.3450051202587604, -0.23131924227500206, -0.10699409302190639, -0.019550777387399795, 0.28008110378571965, 0.24220371338459684, 0.3728440596511715, 0.27346033700217304, 0.41236026851330954, -0.09717920800485855, -0.017747501767142626, 0.35212600359672525, 0.3577315034357165, 0.3207478507477434, -0.3556473884933259, -0.10700168236363193, -0.3547996826641922, 0.4404011743254051, -0.4161421487932478, -0.46574403796547553, 0.3636097750187713, -0.37041311282026457, -0.016899321265004423, -0.15257260965463845, 0.07081069934073156, 0.18134553899937703, 0.3262300160590457, 0.3054431166403793, 0.09757791463673635, -0.2327227612361393, 0.01633338888082246, 0.47030101303033217, 0.2557558743815814, 0.5082587707542956, -0.09173446447217258, 0.5119705328978857, -0.13963753565592874, -0.3529224466382323, 0.35535133636085925, 0.28732843716403883, 0.3653746363320899, -0.20380889955768217, -0.09324508967091055, 0.0016948203189660212, 0.2735145307375136, -0.3473917692191743, -0.16692391041569848, -0.3075831104325073, 0.06799926168578224, 0.3262104284146438, -0.05144681422247334, 0.5105972417046853, -0.2847365951077685, -0.418045680805156, -0.3428408123570745, 0.46757422347260086, -0.18860649480412767, 0.3697539484006024, -0.076203273682075, 0.22718665562522292, 0.23356981846962063, 0.26083364485941274, 0.39600874721861473, -0.24608533310041078, -0.21803558300512008, -0.012306653017199074, 0.2048025207933954, -0.24059945512244407, -0.24646635224753838, 0.035031792706543], [0.07003552500303634, -0.30567542029912814, -0.19155556023049072, -0.049999905204456255, -0.14774701804626755, -0.31637080405181933, -0.17442457424324764, -0.29414595039175506, 0.04543345978959767, 0.48682100483271684, -0.1495459094681718, -0.37726438390905304, 0.03273549406049619, 0.3631416575345996, -0.16577210816757437, -0.24403913404636618, -0.47583963504643284, 0.02923176322481352, -0.2390195865413132, 0.12430129356867828, -0.14791882730486178, -0.32444794802106225, 0.23320086561276898, 0.28510187376861024, -0.009058825075213679, -0.3118965311757376, -0.3604029761713736, -0.08670495291653997, -0.20706708665979687, -0.23539107337599244, 0.5215537747438359, 0.044756963343957186, -0.1521338200951561, 0.33514615291436173, -0.10332203774319723, 0.2353386692113565, -0.015397233049086346, 0.07379678074195076, -0.24641044420862104, -0.4629983053995181, 0.31755728843797887, -0.2671170601517245, -0.355027149569164, 0.34778402809955433, -0.10071602679671396, -0.3409373665100716, -0.09022782704695423, 0.38701019103956225, 0.1616938306307985, -0.07786694363054057, 0.03822725070085818, -0.10259718621056826, 0.39797866591196973, 0.3639846755393186, -0.28214647144112376, 0.2622803218600049, -0.342903249195822, 0.020563813897434467, -0.1780723055246882, 0.2951715166013322, -0.04245946994206995, 0.23834738399047353, 0.1379563475167923, -0.047096625947400286, 0.27493802448109533, 0.15342689154869124, 0.34958826031488344, -0.1863785042593228, -0.18421231408591812, 0.24316626414377812, 0.1334189987333229, -0.29409335411737725, -0.0778114080639802, -0.15666044996139056, 0.19883051771494648, -0.4258121367400058, 0.002669407518516147, 0.18027379041279878, 0.2583086118916437, 0.31920592609878745, 0.1787892486148902, -0.3858950973386923, -0.36200294357827856, 0.2510583104107664, -0.36399389635718743, 0.33568621782367286, 0.058123893635278284, 0.2752021655286691, -0.06175471160669132, -0.4860392679078047, -0.3463722348155336, 0.35500451217869955, 0.18529623171956808, 0.1350324919177411, 0.39011039685060206, -0.31090323697839645, -0.3065520380416669, 0.4878272631959628, -0.04686954597202882, -0.43551766659664315, -0.3289527413927228, -0.06227460304377023, 0.02624669821777276, 0.3157867076971321, 0.3361976918007059, 0.16163981423520563, 0.3863301671181122, 0.4157108325421171, -0.025767619522670895, 0.13984702963092252, -0.24126964906693082, -0.11326416537163046, -0.3766469426862978, 0.010141011700284338, 0.4166521132684938, -0.07395324902098849, -0.2544504942219042, -0.2647009624882851, -0.11458114905454997, 0.185258017368604, -0.213120011155487, 0.31171768161222363, -0.43512850366729033, -0.11718227129086242], [0.18675696662942312, -0.2005228750722915, 0.12358038029516571, -0.38994457800132143, -0.3419221305939209, -0.03118386654068476, -0.47374910825614763, 0.3954116332422581, 0.10565572366856735, 0.35931784360439795, 0.05744042497336882, -0.2440435310339132, -0.36460951572202427, 0.17006276789909713, 0.3214049749983832, -0.4806115924025144, 0.21745141618445746, -0.324554596558167, -0.11548054229353236, 0.4255102485943346, -0.3714800423287798, 0.4106545016739563, 0.20175275235688517, -0.437010295150389, 0.20020668072504563, 0.11983508233262632, -0.2548092519679103, -0.2697471370439753, -0.06131272171813675, -0.06821375693616048, 0.05911227718990846, -0.05140646968739692, -0.160274646419414, 0.12098213972435741, -0.3093107622168213, 0.18040787763413185, 0.34844000869210157, -0.2254432178268836, 0.23342471209287635, 0.37698443891255096, 0.308738595393758, 0.24528088666909564, 0.33528327882169684, -0.27655628267984933, 0.2509174003002653, -0.37584664402094214, -0.36899823386030056, -0.2859330602906609, -0.18011404561410843, -0.28422581004557634, -0.4067758065242775, 0.10378413408653732, -0.4275865973187991, 0.28257816924458806, -0.1733257430438357, -0.4461533330572827, 0.07573362244639173, -0.010859396809321326, 0.42747787270302834, 0.1962031739359385, 0.41843602104419425, 0.24958818945057895, -0.2549132228246491, 0.07742648874376308, -0.2034471622825929, 0.40068328809504183, -0.10171804071922812, -0.039826276017225645, -0.011193575882867174, 0.4884018520580696, -0.20527272420373147, -0.010907029688689859, 0.08007045994764148, 0.3021685624266098, 0.20325498742484555, -0.07780772633834032, -0.14103921282206527, -0.43921646114329627, 0.0757774720002873, -0.037044913302418186, -0.2913810931535328, -0.21981911039830027, 0.12540338536286452, 0.12403627106061822, -0.14319853856613193, -0.25217500443550134, 0.19634744671201845, -0.011776684583220516, 0.13370553962857007, -0.25391439193232795, -0.2270935048013442, -0.15457350657365762, 0.2389999038164555, 0.020712617832239325, -0.051436902811001536, 0.1971856865271073, -0.3749227345750185, -0.2708465336152138, 0.335965683582345, 0.24627998253014663, -0.38356254491760006, -0.36462554208764203, 0.2315583857735534, 0.3907375217686078, 0.3081400272564821, 0.43303001448797246, 0.2222258659626794, 0.1541847347723707, 0.2753516645195443, -0.15379851960624738, 0.26688900690234585, -0.33998404430649437, -0.181879934370774, -0.07656312061565913, -0.40041619066014766, -0.5016216170579936, 0.10891094521286544, 0.3703872969106529, 0.06572010678381324, 0.15657027307857915, -0.34550926844794133, 0.42319514880850456, -0.39405486614967533, 0.32954262028674774], [0.011174234860506253, -0.09049964056917945, 0.012099899449903999, 0.11115376028408652, 0.3724194514234561, 0.3447735106294777, 0.3366138757004628, 0.17157779971211584, 0.25676980846712366, 0.26999850730362973, 0.369478885870984, -0.31857797764962364, -0.07417069356031177, -0.11717328077770785, -0.20583477675127707, -0.28524334927993084, -0.05007562963719966, -0.2735116425127798, 0.1985340320654573, -0.2597799682847525, 0.12052871275075423, 0.2884032934730849, 0.18287004610904103, -0.36301200117750215, -0.4506854697289744, 0.30682508360073113, -0.3109650937479259, -0.030944859971288416, 0.01638598207583641, 0.18272880718650594, 0.2831586328127018, -0.5203725940679021, -0.34356625944076735, -0.06676904597898549, 0.023792598180505404, -0.057338165810812254, -0.2347673541749119, 0.4033288966276812, 0.4507255144874751, 0.24559377771116495, 0.4593956903604471, 0.2681571918237468, 0.1011850570194006, -0.348550400848287, -0.12271157361968064, 0.2718723877551644, -0.0707772841934269, -0.3769416241133036, 0.1168765749648231, -0.40065054258757127, -0.3141426980449, 0.03722782291084144, -0.17193072114281957, -0.20049041539920864, -0.16148225614879164, 0.1041811761585859, 0.3288751012268385, -0.23366100106397364, -0.41613384935314207, -0.22464580018689095, -0.012979664745394907, 0.40899686679718805, -0.19116971343425657, -0.4809846479415962, -0.17196836594896717, 0.44355982863931737, -0.4288822084573541, 0.01470552651011773, 0.23971479123463105, 0.48134137280599015, -0.0802765137603392, -0.07662888064527817, 0.43496597237649376, -0.029612012167536183, -0.07539184477039386, -0.4009215530821811, -0.1560417567742989, 0.09673536401788847, -0.3568659286836095, 0.10720482620645866, 0.21002492028105033, -0.07184762869568749, 0.27599138782239374, -0.37304110691392567, 0.2652851717277896, 0.03475835069837162, -0.39926379363928544, 0.24253542135209452, 0.005086796324041154, -0.1641960025561932, 0.13339146198387683, 0.4652835573991196, 0.29415416421533097, -0.20184808163388274, -0.17767755755457212, -0.4958902095898896, 0.38335533537703176, -0.42603413032486454, 0.4411313303832939, -0.3912674310585124, -0.227069094680084, -0.2353691835377972, -0.18287722452095626, -0.2186731796388993, 0.02664534930392877, 0.09471062314749626, -0.04750384008441154, 0.013566611398864697, -0.40603546688646786, -0.2066942187719054, -0.31826210513552333, 0.01157760222765815, -0.027205128791638673, -0.353242554664193, -0.2346135698612594, -0.4587741883287541, -0.07420055534800853, 0.026299389203548542, -0.049701686353558754, 0.17098715762024594, 0.259187138232702, -0.4066519898845423, -0.3824703432122376, 0.03113157671606936], [-0.4835584205146927, -0.20276590090607233, 0.023755801123657366, -0.26359637963068505, 0.07523229297722776, -0.2828109878193573, -0.2845942627956115, 0.14547897444450597, -0.4372814989950553, -0.22501680779568742, 0.12924304409130583, -0.16608060182002982, 0.30104718120612833, -0.23531595299373914, -0.13030394495322728, -0.37060760667260617, 0.20650299320431453, -0.432393004528894, 0.22078884989061126, 0.29617755805380197, 0.2165588390968457, 0.2882177718039173, -0.44975940196173764, 0.3055159528112092, 0.07870013601531663, -0.2028227521688942, 0.30834286493540486, -0.04162588073204999, 0.16132391949681352, -0.19390299583596118, -0.16823340425251698, -0.32654579896218733, 0.396766086072748, -0.12277471672834832, 0.4433945857250253, 0.37927492986974065, 0.13074745757490994, -0.2115454104624555, 0.1990692525312976, 0.41677973558254494, -0.0013735561878439131, -0.23096766396084364, 0.06344888902584486, -0.08598321637677843, -0.2185795381247142, -0.28792438105734175, -0.015125728797700102, -0.22465650031271875, -0.043936419717833734, -0.34869386454470763, -0.19459479353502204, -0.016908711789992283, 0.4245792447525224, 0.12992839843122142, -0.25503025895644094, 0.3804943838839158, -0.07743975274181517, -0.11944652403002105, -0.2345477802677286, -0.23845395887819296, 0.2744940618148618, -0.4499367999309167, -0.25754698804029896, 0.17636025292318586, -0.37471347122369686, 0.11882153858951952, 0.1021697993160257, 0.0501917425886529, 0.402448392532774, 0.29144555239856645, -0.2892056967192557, 0.1044194055462644, -0.2658910938365896, -0.15953738587095223, 0.08567405793395803, 0.15500448252627833, 0.09785438722763438, -0.10774190898849689, 0.31843050520640576, -0.35768897721831394, -0.2444177492044831, 0.005608505938766096, -0.42512904977152705, 0.2820966702427901, 0.2489740315166755, -0.39525865028842544, 0.10059711242765368, -0.08763260104423323, 0.025790978032348612, 0.16522333092202376, -0.1844339614950771, -0.38776179292898777, 0.09359681025801099, -0.14234913504906618, 0.19661501822331195, -0.15106307806355118, -0.43944853774735565, -0.30950657829171113, 0.16111328760504212, 0.12434917266338583, -0.037517283957802024, -0.42050282548160683, 0.34861098130883955, 0.2310358801208174, -0.06926204324347064, -0.08335959360563659, 0.01743770469808164, -0.1141330345530634, -0.10566570342883445, 0.09521013629279765, -0.06856753512191602, -0.1060257985436986, -0.30474602195493095, 0.14722097549220037, 0.402983375946855, 0.02913047318485488, 0.034718383048382574, -0.1331173588609314, -0.10524405659343604, -0.1734915355322868, 0.14017298683508364, 0.4110009459983086, 0.27084708820388, -0.24556299797127845], [-0.109145591085461, -0.172197719904581, 0.3631233052428036, 0.4177618483974949, -0.1626132061538338, -0.3283711182894703, -0.24645824777698222, 0.07250288634830093, 0.40230906842319997, -0.30392190976896677, -0.43183138147193173, -0.222669875140645, -0.26907950841739936, 0.2676823275789822, -0.19505678131094242, 0.13093228351316044, 0.38663423596753965, 0.36395457122132285, -0.16435472292781983, 0.1703021725167729, 0.25450531423626954, 0.15987568243899625, -0.4019113751969704, 0.3515725442086392, 0.0723506752132952, -0.35869006006782217, 0.2759442397774015, -0.2126111164360668, 0.030733353917230543, 0.4127448290651912, -0.19604243537382826, -0.16913926063084175, -0.20918692853449017, -0.21050180427166215, 0.06222258938348913, -0.41959465908606214, 0.3533606044097214, -0.423948185530581, -0.17027560875120004, -0.3771794662113581, -0.31653750874154646, -0.2369226130243186, -0.28986435202662547, -0.111253306834949, 0.24684894037633132, 0.3675462989994632, 0.25670886945806576, -0.32690358741404113, 0.0350137151577771, 0.09858479672639968, 0.32044195486340693, 0.05168914102741736, 0.31826583482824783, 0.3361478158847858, -0.27205219555666516, 0.23632899303685276, 0.18601054558242736, 0.16860166052452674, -0.25975844317464825, -0.04236011965341166, -0.4003876704767448, 0.13138678664307996, 0.055547083153360155, 0.0020800438825393465, 0.2777465292568775, -0.48159627526537674, 0.12734707625164046, -0.3358610545452114, 0.1828543513244379, -0.4838248878298901, 0.28001312345782875, 0.23215550502919444, -0.044303438473855934, 0.2617413189840158, 0.4667615823538631, -0.14631625760365075, 0.34141084324773446, 0.37178176106565747, -0.28016476864070533, -0.09112677873400722, -0.06239231169206842, 0.39543705312881894, -0.3163763118282877, -0.04615064496338762, 0.27241477601411124, 0.24844515290975655, -0.226650830880798, 0.11321102725532667, -0.40362286150999827, 0.15689979513962884, 0.34123430209863775, 0.06850287945721825, -0.5721435203964658, 0.07497749678172198, -0.37382744067594376, -0.1160293670134778, 0.201939380366571, -0.016207944669489348, -0.13038666493599527, -0.28826041544926195, 0.4276692680589315, 0.03576225835461328, -0.2743239432570726, -0.4683650417095905, 0.20625383730431548, -0.45785948898098267, 0.04935807465683622, -0.3989287826782547, -0.1014637243044273, -0.2461715409001908, -0.14145829154247255, 0.0966224523615955, -0.05361410011076269, 0.19706455265560743, 0.3281754905122825, 0.09130801493544428, -0.4128338609172314, -0.1627509279138642, -0.14324459213569504, 0.15342838715132698, 0.38347379831347034, -0.3857774021888893, -0.3206035188749354, 0.08076476692916022], [-0.2755773786473952, 0.08640820376894351, 0.28614484118489264, 0.11474631986094846, 0.25795501641784674, -0.11346972758409167, 0.05639038802617504, 0.011701260910009536, 0.11801234042596397, -0.007734386756551568, -0.3081985031405348, 0.2356013465637976, -0.1619426185386552, -0.33324466637258277, -0.17312500078446505, -0.13271848447572557, 0.279613014751718, -0.08873683739348473, -0.34845899410180636, 0.34766311591752336, -0.007303555416334835, 0.32550320047282855, -0.264779401458456, 0.43132390681194216, -0.3959840327091026, 0.39496316200280107, 0.06338286484399712, -0.2611568675259314, 0.008146678012671648, 0.3685588105906196, -0.4401269674872451, -0.07200026727984894, 0.3479333901107382, 0.2543081104166138, 0.2665908301286404, 0.16756438533477838, 0.16143511136710323, 0.14060924346760395, 0.18914104310469199, 0.2171997846716258, 0.12708521424842295, -0.4237763131292516, -0.45637926397482653, -0.2895761595223971, 0.2944500554546569, -0.1542945965016289, 0.2005194232762568, 0.1595727941196038, 0.468030853593873, 0.04725725167880951, -0.06581593004630742, 0.324780028974595, 0.20248831909878243, -0.116919678680676, -0.13227858600507186, 0.3943179550016248, -0.20662983170393182, 0.29028055520055657, 0.18061760846509395, -0.11877001960695989, 0.40080391297922624, -0.04434838290121156, -0.09501694282757511, -0.25443877343990445, -0.45717439414666583, -0.34743216114397124, -0.259276001121695, -0.3929028237171981, 0.3449319050565947, -0.10369651868964981, -0.041879519703681714, 0.27017561914547666, -0.31755132448266987, -0.3351558618236305, 0.3285923226859887, -0.06490084448528947, -0.4000047348232528, -0.3688629551514519, 0.11434883438932156, -0.1034458594892784, -0.2648009130678749, -0.30017925193152223, 0.33925883899411197, -0.21729193730248164, -0.1393629605851363, -0.24669417214948158, 0.21293263395303097, -0.41888465590116264, -0.3500139218208199, -0.28087349653927896, 0.006888198361478112, -0.11967269785832385, 0.20248931047654134, 0.38738624924945936, -0.12059548381723711, 0.3136328600853881, 0.1327691945888658, -0.11945824109461678, 0.3777354716675444, 0.4119142167404535, 0.16586670946907314, -0.18871105848495637, -0.25561254560615654, 0.28410811989070095, 0.13255987831938057, 0.3925246423630825, 0.1782212999212771, -0.10436054407309563, 0.18980647918880028, -0.36055834147834165, -0.16167115780740934, 0.0935077396510397, -0.3914459590578658, -0.3337893914617576, 0.39920153544019665, -0.03395346404281095, 0.25710041583505355, -0.356296755468862, -0.17395490453330922, -0.050550177694057126, 0.17687244871542154, -0.1371412959942002, -0.32915820028532433, -0.1185869059834631], [0.03209274268609781, 0.18307986489662312, 0.32233054400622235, -0.19973613078337632, 0.3573200954082023, 0.2896962252283824, -0.2716631904439444, -0.3209164513475317, -0.2930049829451337, -0.10450740917551966, 0.052745552641894435, 0.23238163008098942, 0.18632024731850214, 0.16426658513883874, -0.18308014310134954, 0.37322304681177526, 0.3538641229604387, -0.17398998558018997, -0.05593471431039395, -0.4132290064199568, 0.15407919053737162, 0.42668373967466233, 0.27357466063387337, 0.35977729849356116, 0.02264142220158617, -0.006509980666919932, -0.26291558538530097, -0.010776636588361834, 0.020506886203497405, 0.2119921599484263, 0.06316889484709697, -0.2251612641327824, 0.052048176827432124, -0.0029204167977131, -0.3086666546315164, -0.43588345436145753, -0.03452743217743155, -0.4330971437611499, 0.0952183787281403, -0.051822894858648105, 0.30871001151141364, 0.10061841372503844, 0.04665801876919309, -0.24364413841692606, -0.40192444261508004, -0.38740833331093555, 0.00022414220064749413, -0.1125452512482739, -0.3839039158419655, 0.320283643197738, -0.3780739903591922, 0.36362864044539256, 0.2616010921210562, -0.06834924672731375, 0.32391671531510213, -0.2010503233738155, -0.3867702275969029, 0.2797826392761453, 0.23618234726144177, 0.06803652949966643, -0.3894611978337012, -0.11423232869346078, -0.4462399162352284, -0.36845528168987907, 0.07779218824471766, 0.40190633691549726, 0.017725956951196997, -0.3955156156360921, -0.31034271697379295, -0.2247537675734555, 0.11839804243575235, 0.06460516691545277, 0.36626081301483326, 0.3690057684601001, -0.3232914394495789, 0.41713152534112696, -0.16833435404457284, -0.2842221667187469, -0.3115820901770916, 0.3133633472940202, -0.07286637297825581, -0.38504089942028835, -0.3967353459781092, -0.25254249940004786, -0.12461724512517323, -0.408216836695344, 0.4093865601686921, -0.11650550502196845, -0.38502282202144195, 0.08008127172385278, 0.4263387241045689, -0.0008628937530876845, 0.2333210886239269, -0.3190421474354023, -0.32206067580119624, 0.29159319149195445, -0.14136544441583052, 0.14882328619105323, 0.3466693408359923, 0.41078219390640686, -0.14693204045580494, 0.3661886187116864, 0.06300293543229586, 0.16612903386690653, -0.23480643195948273, 0.3187599795542002, -0.35907833502696024, -0.2377817263018516, 0.1684305544191356, 0.35940816096549394, 0.16331842428192847, 0.3107569346368966, 0.3353218876658307, 0.237732685423086, 0.10303376140453749, 0.12590966189048564, -0.18969471352299294, 0.17368923024161537, -0.0195774302739188, -0.23524589751518743, -0.11536238148183672, 0.34197589706669146, -0.1086613688892424, 0.22587797163059695], [0.1924555040712911, 0.11740274948082675, 0.4107152442039435, 0.06894441086681462, -0.42562083919382365, -0.02339834996637111, -0.38932463604989037, 0.24239807090449328, 0.07548954285645645, 0.13792788187933738, -0.0262750498819604, -0.002444786245563823, 0.053519186244556455, -0.4105961835855786, 0.32974450627339813, -0.2760440883300074, 0.1282670928402385, 0.27319429678913204, 0.04758711593642734, 0.36843244014363924, -0.1770146719651821, -0.33266642483188297, 0.11657170576124737, 0.1037814340269822, -0.26230552160189, 0.07741487679291983, 0.16942700801256078, 0.2701990147515887, -0.29037897069336277, 0.3501010754415639, 0.41381917034661403, -0.35732812439389483, -0.3028536932188961, 0.38242040863493226, -0.04689802897244562, -0.4260964816544763, 0.19279057718988316, -0.35822512376208554, 0.33437835023883183, -0.4165929500050352, -0.11840710853879952, 0.37572252216410706, -0.2579836868618063, 0.15815277002895176, 0.22259899967390537, 0.2447559559636568, 0.30078435242490315, -0.1455657262537686, 0.26728095238401917, -0.004463076533050891, -0.0038173143253997293, -0.12122684153794679, -0.18704991382737696, -0.1988186695262074, 0.1399369224850022, 0.013204086841477006, 0.14681221876166853, 0.30063811308105537, -0.2127047144284277, -0.2288897184332194, -0.13557566825499845, 0.24292523710621125, -0.42798573468142304, 0.43941215439258996, -0.033416057500907245, 0.2753848291572871, -0.05797785475991072, 0.453034730606218, -0.1909084525610886, -0.3830092862771924, -0.1692344902173213, 0.0898092409106722, 0.23787900540233076, 0.46969283686934704, -0.1951522548782049, -0.43442162385977595, -0.3759233721030372, -0.020284354379593507, -0.4444045567341193, -0.25379756366411993, 0.4282280801094149, 0.10769826813169818, -0.08565503025899911, -0.11906408094209511, 0.2883414422657332, -0.18869168531865407, 0.43807756790196767, 0.17632461418291842, 0.3652407888615215, -0.30411580045506564, 0.2867526873813243, 0.19969746293878757, -0.31995402934202505, -0.3429514180492732, -0.039487292855381884, -0.26795071018159117, -0.17001641108876445, -0.013322788016562885, -0.13955418253019133, 0.1877577037138161, 0.28460233073627167, 0.4293614141990538, -0.19492482627508986, -0.2765515806016053, 0.41080027499768584, -0.43182033266426595, -0.17563079462860434, -0.19635122601025592, 0.20344262950353353, -0.35690021179134696, -0.01843138763992181, -0.06792757417354248, -0.012597477160288799, -0.13880552012651037, 0.0303724100752171, 0.2021554595615948, -0.2233033183277363, -0.0741009400118788, 0.26008033574416967, 0.36852659377660457, -0.19741314924061895, 0.4167585651777547, -0.014865724155472786, -0.06815301001179322], [-0.40489995536125933, -0.2414087240931506, 0.15247388005223603, -0.24911569978641712, -0.42264450604539094, 0.2975543725420831, -0.09942318154264897, -0.396600586305219, 0.05808626186475009, -0.13750956342350226, 0.4224303405505788, 0.032976433034910616, -0.02673285120779417, 0.0941024194125206, -0.1136324870147179, 0.3634431677774098, -0.13370007705968864, 0.2949579334333849, -0.5390830084851697, 0.2523414800858244, -0.2140765068300317, 0.28936268313009356, -0.09313011888609084, -0.11452144777230164, 0.39854100185759145, 0.35052830046963196, 0.5249883439774469, 0.2651466486369681, 0.39265723858168544, -0.2620477318574208, 0.38857531414409135, 0.32795108157939484, -0.048226285886430714, 0.040036311413799305, 0.08047628025716938, 0.17587466808454896, -0.31833779795921024, 0.1562556251536717, 0.16450220709128063, -0.318695885514484, 0.16630745375376924, 0.3249058812374646, -0.5175558343329223, 0.34386125355585206, -0.5177621549042896, -0.05748718849015234, 0.4310955249183129, 0.09915974471270972, 0.2513214560844439, -0.1542515683450351, -0.252921351358868, -0.2667340753978114, -0.16692910182946175, -0.22586217065406305, 0.03970493380732329, 0.14092959033317218, 0.010972692731671277, -0.3446029658604871, 0.044939137030705435, 0.3317084819198052, -0.2416132754819018, 0.12394322958025365, -0.4313776483406471, 0.11058315660630509, -0.33344321409193056, -0.3019908414554915, 0.4201039509078568, 0.39373736193216996, 0.4357284142782078, 0.07478978697434582, -0.17813992181660263, -0.021601894431628587, 0.4398540511582206, 0.23958759584334535, -0.08012469830170972, -0.05412555016241883, -0.34141131248494205, -0.36337953629653197, 0.060636140258296764, 0.05332581158373051, 0.06329479903108096, -0.3724582754797298, -0.3991071078733122, -0.23452578623878953, -0.4348349414041581, -0.2140258004603593, -0.3627088457254339, -0.20829551602347485, -0.3285171773144565, -0.3423010130212497, 0.14039358600400353, -0.48979040203757396, -0.049573971672808276, -0.33389710542117323, 0.2136663461668533, 0.20781761303855667, -0.21050844394954446, 0.2733109459976619, -0.35365176759472305, 0.25170571562020627, -0.23294104116445752, 0.2581551136397827, -0.0762246548931349, 0.019915933886231398, 0.2779493680109682, -0.1307112654733788, 0.17182424966997922, 0.1402141134364802, -0.00046409692039740564, 0.14563585385499997, 0.2836781121075218, -0.12755161045383992, -0.23363901956267571, -0.33018280570226644, 0.2139922821039134, 0.3519285320084884, -0.10206592766206446, 0.0689748413550935, -0.36604120631071096, -0.2264317936524106, 0.32506207258348063, 0.19885284248137616, 0.31966418638471505, -0.0671415730411182], [0.006851833028042899, 0.0901204904912747, -0.1216115278216726, 0.28256866713661155, 0.023199145405344797, 0.4082091739722993, -0.2449585309502821, -0.0008247538556986809, 0.3675031953415466, -0.09142154764443924, 0.13741414904125251, 0.07122105650898125, 0.3463806063182942, 0.33344097710617365, 0.2529762011857861, -0.4006852342824591, 0.13936799696406177, 0.10747798883846922, 0.4071834304722551, 0.38090816603795535, 0.40167202985866124, 0.27060378100918986, 0.3485820883390903, 0.36881200682309634, 0.2930646495350114, -0.14767589887333557, -0.17656437612773784, 0.0708563623217621, -0.1558133771962437, -0.3383064406992182, -0.26934434598098034, -0.3454387960165628, -0.4512447997395754, 0.07501840963870778, -0.20080093141778188, -0.0799609813106927, 0.3794845193049008, -0.38811010723434014, -0.16445937490238197, 0.41322592696529353, -0.017994781442762602, 0.38713852692668116, 0.3799485975238127, -0.3067338315756848, 0.3743737444928371, -0.2985695961307803, -0.20416856971794356, 0.37300752662013437, 0.42596825429166224, -0.4995387538931101, -0.3090521151619442, -0.2157176227717218, -0.29365692872488386, 0.10858651660533977, 0.3226921007948761, -0.29383719279238857, -0.3302423663681597, 0.15944708095452084, 0.29328740882685056, 0.0987729852231125, 0.31206761469483657, -0.2607359557016829, -0.16994051801229026, -0.4965088015393803, 0.13608330472658964, 0.4746974022714461, -0.3139815775629168, -0.38448312413186675, -0.34333086872920665, 0.5141032120765865, 0.09037289116681953, 0.22299356100219705, -0.11003317554854813, 0.2659640684665579, 0.33402456642121214, -0.3095594456081303, -0.18306602596918206, -0.24391160724406513, 0.3604171298139409, -0.31970889497854504, -0.34085287290852084, 0.4250692644812106, -0.38754913163128396, -0.07531457707041841, 0.44205669133680076, 0.20614300919575254, 0.15703747158590048, 0.28870360166259007, 0.37253095322296625, 0.5208354074558048, 0.3575883661968983, 0.42502079610811916, 0.2984863468562112, -0.25465337698325996, 0.4198643135578014, 0.34666557168409873, 0.4418227173001875, -0.3802580159385778, 0.15722748709307804, -0.2944705333997517, -0.409661762252861, -0.3433990710814199, 0.41108002778683334, 0.2344726352902752, 0.06142574924529172, -0.18408933461568022, 0.12857674322205548, -0.36545870418662424, -0.4675949381280711, 0.31435677505449316, 0.10183327030599683, -0.3934641509998193, -0.40734152323009154, -0.15066780891190665, 0.31813806637614184, -0.2295202235251743, -0.12761136563284176, -0.3913489400203153, 0.27733916039332174, -0.4982684146784718, -0.12693379967630833, 0.26170426113660783, 0.1494509152649147, 0.3215049696801421], [0.43196126327963386, 0.2327333875699233, -0.3052658488982985, 0.3471311563685455, 0.04686907805773057, 0.3144434126426313, 0.09341879960027692, -0.09253779735962724, -0.3767291018890248, -0.2853727414540533, 0.43304902811337964, -0.06989410940727522, -0.33117160061264656, -0.18560303323955343, -0.06251516544051586, 0.14061398558302554, -0.1495481353666234, 0.3753596154029322, -0.20011416685431438, 0.4139690913231082, 0.21303402606862376, 0.3703367367281802, 0.06840421857133874, 0.1442117300814805, -0.13697390889613653, 0.3569010699720531, 0.10100995972751628, -0.3447317786446055, -0.026611876131642072, -0.22275171937471958, -0.395718081510436, -0.3965858639172095, 0.40450074305024086, -0.23321787456854168, 0.16274162932607342, 0.10462061435810141, 0.13351640240266843, -0.40685984669279235, 0.4449012145144905, 0.3650068409667439, -0.0380495388742, -0.050362138592471364, -0.2027199039089273, 0.30703326441729706, 0.29951834930777393, -0.08773504775978169, -0.3726122653451267, 0.29589534202860795, 0.40661323268614663, 0.08198345111260773, -0.10885345649303989, 0.45881288226926403, -0.2377743320835527, 0.2420360512290098, -0.284017673024533, -0.41714773757747237, 0.11562413474507598, 0.35278215597749163, -0.034198593541636055, -0.3832514856387079, 0.10344838370786878, -0.33174421744345, -0.02315333841466429, -0.3234000361246936, 0.01830339806417042, 0.36638304689236617, -0.3230094443153752, 0.09456867914677275, 0.1980872451331664, -0.15183171622207328, -0.41258690620123273, -0.3260685563983004, -0.3088137131280167, -0.48808062558250703, 0.19082897492710338, 0.42170932136878175, -0.0911455137844293, -0.12219571985887186, 0.16500027279427903, 0.2678029521360113, -0.2850192801175051, -0.13836797539998108, -0.14444867866842098, 0.2060243265475655, -0.2955488745388432, 0.4892233043547279, -0.28062171154524057, 0.34517687868128377, -0.061292102765825855, 0.27235520313836, -0.4261896591252189, -0.21907942478299564, 0.4336513914946929, 0.13771962611847238, 0.38791272234207347, 0.05229087212617274, -0.263067553839555, 0.14312935108916877, 0.23004181717701191, 0.34611701758338037, -0.35890308270101917, 0.09369011964821262, -0.3157244304031752, 0.4418739357431592, -0.14073183800678016, 0.11910134741636622, 0.39156604341390205, 0.23908704088986735, -0.0016185488420194436, 0.4271690318660713, -0.021484427600485995, -0.3479458347664645, 0.4027327456763647, 0.3158332954388862, 0.3773535178978992, -0.3974552000201989, -0.1026362096976234, -0.16578251134670158, -0.4355072645617192, -0.02721458081408627, -0.17328835178832566, -0.08031508760804949, 0.22068309549137113, 0.4045847928631194], [0.15923989240150804, 0.4697634476665984, -0.1427436658426346, -0.4756370825527608, 0.35233917872885173, -0.007633228909899039, -0.010437149206475104, -0.18534436341938573, -0.2130247077965649, -0.4182958502376137, -0.3011330003342386, -0.2447547038003461, 0.12432408707151563, -0.042346311221361774, 0.26556758831427085, -0.38316426916553825, 0.014875981750891751, -0.03339119418321142, 0.4777424541396449, -0.12376732006745557, -0.3581993851462123, -0.42794317738359516, -0.14933472460126304, -0.373650567618686, -0.16137613392981984, -0.37491579436041517, -0.25883368289580666, 0.3977332998230532, 0.39292396105027305, -0.1364550239800621, -0.3285099742948499, 0.11741460109250386, -0.23882434312739115, 0.264828839416528, -0.037040446940203545, 0.07213035165958376, -0.25124130489895036, 0.45011420630136, 0.23165808974141278, 0.2826157435518136, 0.243534222138747, 0.34928322591029654, 0.2961551267031196, -0.4829350797645171, 0.1840626843226596, -0.44266438628093374, 0.3529398365623727, -0.19642895038168634, 0.06570353897065279, -0.4645206018447047, -0.4832569025095838, 0.2443104552332721, 0.1333467331838685, 0.10263485163045807, -0.25613028260681725, -0.2547738150747797, -0.3928754799430003, 0.05527431544309438, 0.2999286046101798, -0.1515777198502011, 0.15780747058044584, 0.360396611688192, -0.41983628855305327, 0.23337309888097377, 0.4153207153551166, 0.02323308564687188, 0.031573201228218085, -0.23903923369047045, -0.3546901907730374, 0.3416752056017199, 0.04842216989763984, 0.33319977666305883, -0.08864903792717087, -0.47460852379008517, -0.29508257792877246, -0.2768500141376404, -0.03570027511443421, 0.12254997737542157, 0.2349599608223402, -0.36297567616332294, -0.05949601026759842, 0.15122295251130502, -0.25185178689222315, 0.26300296791607447, -0.29870091588239855, 0.2513344267983046, -0.13951396332607358, 0.10049838014485912, -0.29571201492087157, 0.46558964874765796, 0.30605379481742834, 0.1380516767503776, 0.3312305098717494, -0.21818631969529614, 0.3687221044718605, -0.11095997961008057, -0.0662006946992278, -0.43471091445926663, -0.24172994839215803, 0.16368846925844657, -0.1076744742969435, -0.09430835144895615, 0.43103789572731394, 0.1397149164089474, -0.4342294673475714, 0.12737392386668694, -0.2460601402342701, 0.21586728171366942, 0.32156568593594315, 0.2614199886175614, -0.2548816517072605, -0.2137824539179403, -0.24519500011441867, 0.02586062223548683, -0.27960165308999235, -0.19793721107710008, 0.3713725059823873, -0.35716173202084767, -0.3672954588288022, -0.03387853189749575, 0.3923629324699165, 0.2537663095699635, 0.08268219514326218, 0.09826573632603117], [-0.15462292441208325, -0.2168430399877666, -0.28162514522751114, 0.3732216011020723, 0.43936045289832015, -0.08312900997283301, -0.23225367705393166, -0.19360635008528757, 0.06972850161645446, -0.39538658470172927, -0.11084334534278134, -0.31719334543357336, 0.35345401639163887, -0.19710401166048394, -0.20078097229860437, -0.47483846545756137, -0.0956632792944394, -0.2912920957887703, 0.4328360403200858, 0.1509619304555768, 0.4105501850278971, -0.17987602762106175, 0.2876230650454935, 0.3244704643746865, -0.1572651321204017, 0.18840596305168644, -0.26489242817023534, -0.2881991319252021, -0.2343519536511208, 0.16967934071998203, -0.19372627634494513, 0.06410501573918238, -0.16653793902934494, 0.30493434748945625, -0.1996469494569119, -0.0824716870753236, -0.06852804080369833, 0.2517414337758191, -0.04917628904074218, -0.015174693822023123, 0.2148079876928834, -0.3040938821094849, -0.1398386758690837, 0.27654345314153267, -0.121127147643522, -0.24688044813776217, 0.3007154409709372, 0.36724202168933434, 0.02408752469764978, 0.18025271651350303, -0.12067726528723961, 0.10933023886514157, -0.540284135185208, 0.3386898221109954, 0.15792271358093632, -0.21694355605351093, -0.3112659664381981, 0.18521486655811034, -0.24192490394315866, -0.32264359666259845, 0.09769715454459481, -0.0005990102350222111, 0.044191016930203594, -0.14333893900938288, -0.1869745629691534, -0.28384638388331496, -0.1387584430759133, -0.3928185258068867, -0.13261600079722255, 0.0523930082418217, -0.4493213751337084, 0.04737160751455603, 0.27853195876078585, 0.11782417785727074, -0.04732561595520884, 0.007367133013927665, -0.23235163440384232, -0.4290453379770731, -0.08971369785940281, -0.20748458388431626, -0.2744349918014064, 0.31729976780997166, 0.08984337647447724, -0.35776932109813914, 0.3819039650039763, -0.15430929994788947, -0.24921165754423305, -0.08277651141399084, -0.004102114163385083, -0.12250878232536129, -0.11263159210687632, 0.06920886437020744, -0.09677423052305692, -0.3767563248506841, -0.06578169121285153, -0.3912106687626782, -0.343779770744696, -0.4288006148868045, -0.1958478475743937, 0.43373645551964324, -0.05945904927632282, -0.17954445862329793, 0.15671248502272392, 0.3204007709689187, 0.31322223387301, 0.1337724973869356, 0.14832358423165667, -0.44453887377069334, 0.10701293067605996, 0.21777328129401266, -0.08265139225488137, 0.015791208901807102, -0.16794147235846277, -0.002836077518908472, 0.30473134972273636, -0.06487040542419752, 0.4648576322427633, -0.2697693839375106, 0.3927522515535505, -0.2558539313575667, 0.33389471486944045, 0.06676504989392112, -0.24742823369576378, 0.4449507473646894], [0.10869894421211002, 0.38583562199993826, 0.04558417371759081, 0.012575167885920635, 0.030422090616658688, -0.3266617756059021, 0.07596301269699321, 0.14915344406530437, 0.4400993489642829, -0.4800559058222153, 0.43313407382366204, -0.352651025815423, 0.23459054298827153, 0.3694233150508524, -0.09484482922410835, -0.1463500139546502, -0.12867075085389854, 0.052455611855115804, 0.4237348185064976, -0.06743240307997801, -0.38988321655018726, 0.025660937017987946, -0.1599402604176605, 0.07535757057258993, -0.019668482216581372, -0.2831967352003088, -0.050763121986778376, -0.341634171093202, -0.47879962863884223, -0.28673089438468763, -0.049096682445481134, -0.2667514940855821, 0.34360139027619696, -0.06318711121281238, -0.4767535426123413, -0.3401412713051881, -0.18416706128125945, -0.2098405005410324, -0.3678546097153359, -0.07000590318525324, 0.3873077469817231, 0.24388378064402988, -0.2175052498408401, -0.4308336529115627, 0.3815611356026407, 0.24187373536892476, 0.34785418941764873, 0.28087306469466816, -0.27283452105565964, -0.2330697483842867, -0.5536589114481227, 0.16042824874951078, -0.5961795143609928, -0.13362210746864822, -0.09949578383229958, -0.06687534826991838, 0.24287462574523214, 0.33064467435002565, -0.17212823801932564, -0.10434209142824946, -0.17676559783938314, 0.12978995234459012, -0.21468188416089085, -0.3283458870453034, 0.07233851331183218, 0.11428792206692603, 0.028374988229130007, -0.3093874508962281, 0.13533850925337323, -0.10216224818327273, 0.302903486142868, -0.06027541379179033, -0.24095471093320192, -0.20740213970235638, 0.11079223577982023, -0.060944400570524145, 0.1700192758880269, 0.37459428234305114, 0.4753664992187659, -0.2422753804634396, -0.31700967846729233, -0.19331093229423071, 0.44935632141953546, 0.035199252595665136, -0.09374071388067058, -0.17386177810805323, 0.30337992986631557, -0.32998263412923556, 0.010374142372094983, -0.10569017413581075, -0.152193776898316, 0.31173582346107676, 0.34143255074585405, 0.32958623840203394, 0.4732369170308961, -0.2725979296070309, -0.3774894640658171, 0.051652822500274836, 0.44291707331876484, -0.03953420485315165, -0.028765212146346805, 0.21709137429464437, -0.42185423696771585, 0.08262852889970246, 0.2230484051537582, -0.2901411822604834, -0.3804000237261139, -0.2019098942158385, 0.37884680150837197, 0.01485227101287458, 0.2704607769743437, -0.3810693102086804, -0.07429623502338693, 0.19187116756639383, -0.30109708869440194, -0.36677653446698555, 0.3519781073548099, 0.03537477046433533, 0.41598767457407265, -0.3940537166738335, 0.13288223908226868, 0.15848125388153014, 0.4053676668177025, -0.17457066953206166], [0.43483324247783595, -0.4146700422982348, -0.011871146088966392, -0.27303212892468504, 0.387707096022198, 0.15534576677452278, 0.32565747790378563, 0.4198352083980993, -0.16130712678681278, -0.32844030646258005, -0.007521416130530923, -0.22455872696023838, 0.1533029902801575, -0.1635748990726282, 0.24520605916361557, 0.11356663883087853, 0.39143250616229763, -0.2646007362237618, 0.2968377521877194, -0.4290563597503307, 0.42954102006110534, 0.30199811448340064, 0.3653515357082004, 0.2929060771524873, 0.33059161108999185, 0.3958897615094287, -0.43215435499791904, 0.4693501662887929, -0.3934015647922354, 0.05291083403891663, -0.029017236204562338, 0.17075156945924397, 0.2491138695337832, 0.1383818501475416, -0.38754177090938685, -0.06480919472286231, -0.17856418776634786, -0.11333379693224031, -0.26162288502906306, 0.24921988904640927, -0.05818615923333245, 0.2770873932331631, -0.1785413238328369, -0.32468302983776876, 0.07033689861557506, 0.04760997498813384, 0.38345507247475324, 0.2758256828357994, 0.28343437494744506, 0.2500062678246011, 0.2963324404273134, -0.4422341328991036, -0.06472632859892187, -0.05413643395106782, -0.3763308591844371, -0.3618506334682878, -0.10015605617113212, 0.23617053526648712, -0.22230870812472164, -0.3865385375453707, -0.10996733390386094, 0.18625263797407782, -0.42343630051128783, -0.18353671402774605, 0.3109103892430438, -0.12681074793577887, 0.21708465459357068, -0.06104301758345704, -0.00039442216624709596, -0.18137294814790614, -0.29025090822435584, -0.3780189114996053, 0.26739333488450695, -0.09121601703264468, 0.2016444337581607, 0.21265181388246987, 0.2180409556176439, 0.25415735318746685, -0.338106781750555, 0.07652784878581635, 0.08464534019358627, 0.06023744955721302, 0.3634760525614215, -0.10054371823061553, -0.22889120050430842, 0.044299625582438704, -0.2113511766342518, 0.014731251804427893, 0.3146772135371643, 0.21619668474686413, -0.41208430744626207, 0.2943291190290238, 0.031974406286949204, 0.125099041067531, 0.15588504093419928, 0.29747536465915153, 0.1872879724802067, -0.1704664777418462, 0.19396327708167793, -0.025078897249357447, 0.3336823318135037, -0.37317470781019635, -0.07120785720728921, 0.32755495382280786, -0.43769844615928766, 0.41192832439293436, -0.4040501745997667, 0.28298921293779716, -0.4180889662256806, 0.037642268205040644, 0.14920223305513614, -0.21726338132123357, 0.1309818123307219, -0.0016925617997657705, 0.06296451888327843, 0.4260601669843452, -0.021585224252717722, 0.43677207428226816, 0.27557025779682454, -0.13358377227292112, -0.24756989446625768, -0.041074182229821406, 0.1935379494804895, -0.10160216754736583], [-0.1831565430564795, 0.3721533295404839, 0.37339510552133875, -0.24169933113565573, -0.1033393660091629, 0.0898070389281118, -0.016276702855754166, -0.429830592585281, 0.12748898500006622, -0.2134254677933019, 0.1853926888912877, -0.3365686095723857, 0.14869118544432633, 0.46588203577024584, 0.4061212653118031, -0.45488020463138534, 0.08104227477445364, 0.09361731339401463, 0.36942246575995574, -0.37363914187553293, 0.24017696154011417, -0.42156821887148843, -0.2286344986976577, 0.4197179819148453, -0.056529217484348665, 0.350334031824719, -0.3266152678756855, -0.3358365986500733, 0.12287308189927906, -0.45465447371678275, -0.47950315839017593, -0.27642509991134895, -0.07573795130462004, 0.18277150035279513, -0.38691569448058416, -0.25024838996312854, 0.2286591058256357, 0.11396848876697134, 0.23259024788865992, -0.015458245972115457, 0.023100058517084528, -0.36903255909866933, -0.10667368813741691, 0.17322436289783194, -0.034030280941771233, -0.2873609282809418, -0.3257700645951906, 0.36292937879481735, 0.40553090627685884, -0.05080558320521399, -0.367468006375525, 0.355399028536272, 0.2645085267576244, -0.09397305558740554, -0.04213632408514484, 0.3456674980698951, 0.3782191002030819, -0.26773545379069763, 0.3857083042525967, -0.09878808210314428, 0.12787125245248385, 0.4205752590795332, -0.07835616174606927, 0.33324159783974666, -0.24199540550886306, 0.02338710442520955, -0.2583176163553018, -0.09159530765247113, -0.20684182307050625, -0.24855894764595032, -0.46343729041338705, 0.3278234117930549, 0.01920564213950917, -0.3182076995439979, 0.08607456175876868, -0.06131763270035883, 0.22935411182307203, -0.14925518315493844, -0.1972470295387152, 0.008155508177295325, -0.19682635613450541, -0.25896216760476237, 0.4065979164439488, -0.11563694856258337, 0.25911595296699325, 0.44464427373411264, 0.008091603189568032, 0.31270560599930264, -0.026655946200442694, 0.012321420507198677, 0.2793768708025447, -0.03295929265200985, 0.49736897975240246, -0.0018571667026662615, -0.04328077807493463, -0.3436207817675363, -0.1388070841245519, 0.1388676822373082, -0.22281874770209428, 0.25268977099750745, 0.3332599493043871, 0.2616981386779701, 0.14145240167043008, 0.300580111778952, -0.17049100989225505, 0.06933313919937965, -0.08920816230692333, 0.0809152648107271, -0.15374711206176273, 0.130990542605283, -0.15837288911128977, 0.04615679590153691, -0.08563429211411484, 0.3039645788073932, 0.0570884248314985, 0.20484525018273642, -0.3502961537407983, -0.4602163471935618, 0.24098839252696688, -0.44701617238067326, -0.2064309722181641, -0.3633699940156708, -0.002517130289831736, -0.21129472573554448], [-0.32920953966423827, 0.0774233123547231, 0.1778660410505231, -0.33432634933290933, 0.015358025042247843, 0.39704262087583053, 0.20772365866099135, -0.23333217897816932, 0.4051932378543072, 0.20072299979082467, -0.41904129477280405, -0.14244729970040046, 0.23242390087156584, 0.2204120584699971, 0.14474468928453985, -0.08402229933105018, 0.38946676628895743, 0.10815706920873594, 0.4049862472537253, -0.25102878459311023, -0.3672427078052968, 0.3940645613276369, -0.3163217036635556, -0.02168713010862404, -0.42972329628205785, 0.2679276804447542, -0.29834648210215087, -0.08261393529295277, -0.36359110313292914, -0.29380659049550034, -0.36409675472377945, -0.16736536082843942, 0.27288244409857254, 0.07136018855628107, 0.11276338416868613, -0.12558580473055664, -0.08363653593588655, 0.2737330016871086, 0.4044021644653798, 0.004293760610966595, 0.1034368164589636, 0.15091766106344154, 0.4129243595017497, 0.21663339760351544, 0.08395898765049777, -0.1548709065156457, 0.3703859311217577, 0.09144437277010975, 0.3079890476950753, -0.3074413268365878, -0.16533228887064286, 0.09094783925021063, -0.4711745024499919, -0.3697143225024651, -0.46333053161979754, 0.24384952269725288, 0.08302517781131882, 0.31052623470867285, -0.3333110546934399, 0.23770388851264, 0.17998232576980597, 0.4542054677011774, -0.23647756705395523, 0.29201078859481766, 0.4740790756386961, 0.2101429089262189, 0.11555906237910728, -0.2398189501045138, -0.33001910667517415, 0.4139216701291749, -0.42759687465550855, 0.23268066153738806, -0.11624452219878759, -0.11313672847910869, -0.3927602537592035, -0.31274808756370526, -0.4136807606685158, 0.3182934661877585, -0.2205807291666043, 0.39915521852037117, -0.25544476156647644, 0.18305220920389312, 0.22325157494718847, 0.12067128090625358, -0.2960223520568938, -0.15509425593598594, -0.3539735202316995, 0.3006171744387212, 0.38600800946981423, 0.36320053992880774, 0.2813078177991562, 0.2313087215029067, 0.07084040065405817, 0.18658074878328845, 0.06964357695005549, 0.16036437766908165, -0.10999016368592454, 0.16592528775867632, 0.3163977105607142, 0.26872148592227435, -0.35340507837707874, 0.3875808559815157, -0.18407773889840084, 0.13378077826965082, 0.3689870406471135, 0.318718289290855, 0.030346243986443366, -0.0761115740319477, -0.13926208285010952, 0.1165291350168066, -0.03986209928041748, -0.22858477270387878, 0.446783904698845, -0.16810377893365583, -0.36842007514702774, -0.41300030161077655, 0.2730769263677238, 0.21090144431582866, -0.41236162920893765, -0.3645247888941592, 0.011728557385983033, -0.13578230639877034, -0.2830432951404033, 0.02510158114253753], [0.032336312032218636, 0.061277548331685326, 0.14864188933357783, 0.1630448381796678, -0.2329353825229318, -0.051674440629279124, -0.03164600036866225, -0.01653693294084524, -0.31899293460269873, -0.36307252944779883, -0.04669472378951861, -0.3716798095899666, -0.35985166452004813, -0.30461654269774235, -0.33651877176039746, -0.4059108625866881, 0.4512085610442236, 0.423142168176446, 0.4823662139122149, -0.09615778196222047, -0.3846623832721053, -0.2889489884078181, -0.10572083069785664, -0.16986148580433189, -0.28305945653392284, -0.3367009282973333, -0.28243975305466346, 0.012727856274713444, -0.03541009478116305, -0.2338040606673169, 0.26051710812257467, -0.36973645511455244, -0.07095694436188657, 0.3461602817184976, -0.15076179036108983, 0.45722033674419466, -0.24556107602864669, -0.17905101928174652, 0.204189149311623, -0.12087068267075132, -0.04071159654221075, -0.3073444776432742, 0.29427554351717505, 0.2631406049685367, 0.21535087282866033, -0.04958909511889471, -0.1366269547795869, -0.25555785397257913, 0.4442465893506199, 0.08928759030726022, -0.49040449117092777, 0.2711013987922306, -0.34883519796124224, -0.1982323496225778, -0.06504982909334692, -0.14359735277200408, 0.009784273018659351, -0.11838121463895557, -0.04770527822231012, 0.09663806443334702, -0.4312467915378851, -0.009414125239206268, -0.35937553632348695, -0.24461780954155837, 0.29814096263652556, -0.14346371421986917, -0.1325824929886094, 0.34227125711527634, -0.34923925737347455, -0.24293290711020993, 0.093345639000057, -0.20163662279759725, 0.1934635818065726, -0.44899220832245845, -0.46734045089784515, 0.30328624191606374, 0.4224880946845862, -0.13338362800738002, -0.2842256609260818, 0.32988769484372943, -0.42544605230478044, 0.40508336112462917, -0.3519150433793063, 0.10120854487632659, 0.0071584500864232715, -0.037906058605682996, -0.4218785432634027, 0.1924065095201125, 0.32429621176859347, 0.21869190053167412, 0.35894042708342283, 0.11825226421554812, -0.18323900119835765, -0.27224082522025445, 0.41357967885348246, -0.30437755881684064, 0.3748179909853487, -0.08071759282495661, 0.2465461190280911, 0.08869119036925475, -0.014334052865561912, 0.17738928665373654, -0.2705881901373102, 0.08780427974725798, 0.4216549229547429, 0.21117036191439936, 0.18541623919346154, -0.3720256372835775, 0.2307783073951666, -0.07504724822616696, -0.2069143453576515, 0.294948562513314, -0.14419262269905342, -0.2811053579538274, 0.05651993781859777, -0.02564753400105555, -0.15930743430165026, -0.40168633455923064, 0.22137723464532097, -0.30149289638699495, -0.0380553143039583, -0.39232666302941904, -0.40577760088008885, -0.3910500275703466], [0.35193785667578903, 0.40393528251152616, 0.09147126368018385, -0.1272904175661011, 0.24965887974421108, 0.40286047694163796, -0.20927211223424258, -0.008588125736242805, -0.11537235434191814, 0.3056584733784478, -0.14512468299240364, 0.3701723375313645, 0.12041475207287324, -0.35836877886423346, 0.04140177515593697, 0.15384982827560842, 0.11362691809592435, 0.3713730280494464, -0.077980336359311, 0.34798478901473995, 0.3664392760550993, 0.10177820641851028, 0.1289672090568059, -0.2724262874295442, 0.3559470736406626, -0.06159596433535017, 0.0343828029475581, -0.3307873421979405, -0.27665634865758565, 0.007952663088433688, -0.3905407327476151, -0.20591543557408995, 0.09070008030805392, -0.2144097022563241, 0.3198668147841292, -0.11738651818369675, -0.3678577295604452, -0.3604313756072612, 0.27314433780138064, 0.043151539710588833, 0.07474878486632225, 0.3964047171898837, 0.43547678630171205, -0.24621476060739558, -0.1662547534792497, 0.4148083844380111, 0.14677334233536632, -0.23629305596933226, -0.3495031817449708, 0.3615415498058205, -0.32379939099104005, -0.05686398967632268, 0.02510816637070361, 0.007522345239146667, 0.361018699068524, 0.19696310886761176, 0.3254280704181979, 0.07058405477677931, 0.0019562817360877075, 0.18203373404057066, 0.3507106668518155, 0.09157060935004366, 0.24500886710426695, 0.05178346303357121, 0.3342863564146284, -0.39233977037185574, -0.3326871158960937, 0.185085640192756, 0.31573196866363445, 0.42997319915182475, 0.1766435769085284, -0.18217934508969014, 0.28232697991835615, 0.024835572105028837, -0.10200552414275717, -0.14605044211102405, -0.3625137021939832, 0.09550865722247592, 0.042257978946445084, -0.06379373067267119, -0.2803335257889863, 0.2697230877610654, -0.27528348028433125, -0.010778132639465306, 0.20102548371520335, 0.21207288473198044, -0.459296770161353, -0.22341185414181064, -0.06435072063060668, 0.02342911535532042, 0.387218243869442, 0.07716254803162398, -0.0031415119406157568, -0.347027308926697, -0.31732236969360067, -0.4152473199495869, 0.02463285251853853, -0.2993796299589765, 0.30513234776951714, -0.2754419009396757, -0.1514069423429458, 0.4065205138863437, 0.04393984364362125, 0.14273353479647316, -0.04886607786668082, 0.19020454785736798, 0.3357010866134283, -0.21455170414666283, -0.4362685144300614, 0.20183861240521092, 0.26537506975648156, 0.28208415425420025, 0.142061679682007, -0.3317710715149646, 0.41084836426721416, -0.08075178295699403, 0.32384674751226683, 0.12363652463669814, -0.358255835373967, 0.047936750208957296, -0.06616464530935895, 0.4363481127338622, 0.10194310559322693, 0.0961167751248185]], "b": [[-0.003441495224212228, -0.038295968943986215, 0.018797198596533154, 0.004121430974178337, -0.03338290208598462, 0.0051346178015658885, 0.09875230218437628, 0.00013045003961452919, -0.0036701102679117647, 0.01758318208457457, 0.0028993446826798943, 0.007678410084905955, -0.007478069126071536, -0.01579487096662811, -0.016471903184968373, -0.08358877831985526, -0.026960766101205253, -0.009763612030113953, -0.09922036440059491, -0.0045975984145377536, 0.0038415275736266748, -0.0011654500840549186, 0.004962332860483722, 0.006186390305237334, 0.013349277804207898, -0.00785792610330376, 0.028388438857335354, 0.010783657182386587, 0.04707090585181976, 0.0016673458805814328, 0.07496280728512639, 0.03864510224798587, 0.002660320493609926, -0.013717261834517592, -0.008086837332419664, -0.01470572189745422, -0.007782737783267314, -0.009428515795592715, -0.01843135531822649, -0.05646288570102347, -0.022241808070174222, 0.0026002860740718405, -0.024727000170465724, 0.016866758472819356, -0.030421745030953767, 0.022456790467493642, -0.010481792867337511, -0.00539930901346406, -0.021941829656681695, 0.0035944864923475165, 0.041168814710578615, -0.01317234346411107, 0.0783821382155821, -0.012576120293276115, 0.003886492211486382, 0.0011565170388094653, 0.012716905736995016, -0.021903703145451495, -0.004918099308348599, 0.01151396685756101, -0.01259749998893555, -0.00289486449428908, -0.009147825167586726, 0.018721984578642655, -0.0379493939171601, -0.032846477992509435, 0.0017305143384743274, 0.007212814755514735, 0.009028604328035587, -0.025827215508909075, 0.007739142117219026, -0.01376088281564529, 3.3551027042468245e-05, 0.06684649032886447, 0.026806495611633417, -0.007403616520784405, -0.0052581211533754444, 0.0022611505589592166, -0.0020983419555089117, -0.0027884123300870797, 0.0450806247869057, -0.015592243964098881, -0.03177702488429038, 0.003958143976733031, -0.007207921998552133, 0.003245315491261341, 0.03193570852616602, -0.020978975435103756, -0.005056086582899336, -0.07074466707533474, 0.0042599071910509635, -0.02355550929269306, -0.04340345005536046, 0.0021055508602183344, 0.0028305189864236357, 0.008811503130859412, -0.008465890487916693, 0.02536928056683204, -0.012596722018847909, -0.015081031052232465, 0.009266727437686825, 0.016451970097334068, -0.007847378839494741, -0.010620959329473599, 0.007372013325716724, 0.006244912663150806, -0.0037721888789833723, -0.0019992225111258263, 0.002207293073764275, -0.005966849935206022, 0.016572820459543322, -0.014984532770948205, -0.00503466867542154, -0.0054756504863984826, 0.0020135233745221456, -0.0075057168886991455, -0.014594829677365589, -0.0029982134693857234, 0.004976819093340425, 0.05388421528815686, 6.059553668181562e-05, -0.00883741282478528, -0.004425847298362357, -0.0071312501927371]], "activation": "sigmoid", "w_init": "heUniform"}, {"type": "DenseLayer", "input_size": 124, "output_size": 124, "W": [[0.047529139045648094, -0.21217737004912976, 0.020305583481528947, -0.14263925724376056, -0.2112398377964133, -0.009652616168857148, -0.08474585084675448, 0.0767313347621567, -0.005417741046952449, -0.14422972876670892, 0.0016978797991157367, 0.21199164697635964, 0.17322609328300662, -0.03037501343870177, -0.1869464980679531, 0.03288811921986776, -0.22421267394381056, 0.1208457531860188, 0.23019733522028182, -0.0975208801575959, 0.21167083086009283, -0.15661463858013935, -0.2421890858716474, 0.205531782065952, -0.1351290233592533, 0.07805592579915248, 0.22117337263154926, 0.10309088029983925, -0.04616689090184702, 0.06182459547975508, 0.02149701470297715, -0.2090607832432714, 0.08622432237705817, -0.15906756351988263, 0.053439992931352064, -0.21186309316898067, 0.10837666361907548, -0.24499814754581503, -0.11538390276647924, 0.13279656124459066, -0.11186771300759678, -0.006566842685593776, -0.18783366361437026, 0.10764372526574492, 0.19170799985881934, -0.0643101776274557, 0.1358848000359114, -0.17419512942805335, -0.0592004021828427, -0.09385640323745638, -0.20421831046927727, -0.15345710803429982, -0.12001093346774536, 0.014008415593993016, -0.13449363825126098, -0.01765136228426235, 0.08428308774371614, -0.0990263858393334, -0.20532980870816536, 0.018511510091529744, 0.057398401970881426, 0.05040499691314815, 0.15506216585480442, -0.05640570493655988, 0.003531657658569071, -0.168692696468008, 0.055682944726824474, 0.08060836211368196, 0.02978513517034009, -0.16235355934853807, -0.16347710895819825, -0.17012893791014203, 0.13173844131427567, 0.013944623955343363, 0.08411115184542341, -0.009636887173807986, 0.04057240911706898, -0.21185516963106618, 0.1613239705272154, 0.11233137343390177, -0.13438974165343023, 0.08895581483492271, -0.18349471779664492, -0.06500090057303977, -0.0868793766192418, -0.07520584689800475, 0.037335703307814896, 0.037565309920973296, 0.055526069254141545, -0.1542693349030582, -0.17463001719750912, -0.1536175333916208, -0.08411775294060204, -0.21101396065235006, -0.14010891548551055, 0.2267393565665456, 0.04615422851007127, 0.1467252330810189, -0.014308236328697642, 0.0056424164589333105, -0.11141134351336288, -0.032606859017842264, -0.23529189709953358, -0.14738257618035763, -0.22745186469033155, -0.09730808545519386, 0.06218002610506369, -0.15315178333690607, -0.0887698518488341, 0.055839035781226, -0.05168425263834997, 0.15811899416745384, 0.009729437003906443, -0.1856547559282985, 0.14504831340527127, 0.09982444732048193, -0.05858933024504584, -0.06202650652756688, -0.2071048213779257, -0.08555875018796583, -0.14024515723609485, 0.19569078224439024, 0.06168226958429209, 0.09392287688589104], [0.1600290738190347, -0.04219517580833356, 0.00114576779718701, -0.07211114989007958, -0.24395016552492463, -0.08216687443687855, 0.1346025795617437, 0.2003448209886694, 0.05812594577167344, 0.12846165290116604, -0.18764235987227595, -0.13696410362664202, 0.12595285877688073, -0.17806955048726644, 0.16303593466189803, 0.20752031304180904, -0.04245663782067237, -0.18667577305199173, -0.12056474765867564, -0.16697287707622113, -0.08103875979290297, -0.13935837081643834, 0.10358671206989517, -0.1707789859693264, -0.03961453080985206, 0.2174859758227497, -0.09608232504486583, -0.16958959730308157, 0.20242672859060606, 0.022493130097520478, 0.220366402960379, 0.11077800629606958, -0.20054981054222668, 0.16974963056926362, 0.15052516845798633, -0.17905454744268823, 0.131624229126047, -0.20074958184817468, 0.15767488039082972, 0.08001932019158961, 0.201282973199846, 0.05634385731001454, -0.07953436807330465, 0.1470904313157838, -0.0053276351721796966, 0.14228392457623165, -0.13962159178139627, 0.15066991164154453, -0.09337134318908172, -0.045497715688135126, 0.0023465314633473234, -0.01045883536796527, -0.17652125686544382, 0.017520659935577377, -0.04519038269216619, 0.017863987206798257, -0.13079853153972357, 0.14770580072062928, -0.12421143895970804, 0.08724456813198528, 0.07062997800776866, -0.036914345809721354, 0.13199918379557457, -0.1208201512163206, -0.15907586196015672, 0.035756380923819484, 0.09876449775156093, -0.1416049046006176, 0.10180528818170924, -0.18950181037724947, 0.21835934636140233, -0.09356123086036106, 0.19850072288719023, -0.056024694108259686, 0.09819629073437343, 0.029362469355533074, -0.10623840328753806, -0.06331477541726613, 0.06065962671469862, -0.16716301867176522, 0.052669570009069355, -0.11746225239513697, -0.151579229190508, -0.18571381246559512, -0.2117933224517538, 0.09703557625387334, 0.13579810271729253, -0.1847827104812307, 0.19578847506488598, 0.11669207255717151, -0.12192863501506343, -0.1465473700682277, -0.14773127171944872, -0.20887545308219752, 0.11015046390215248, 0.2206417239805184, 0.18098423346919004, -0.19344513740426927, -0.04397725116372195, 0.17175482161027286, -0.11188081202536236, -0.04938292104783723, -0.16305763186517933, -0.0029439407224703244, -0.30128842398313416, 0.14401099446393026, 0.1975236128981172, 0.08192680957582751, -0.15316399951686802, 0.0393496457701186, -0.18303758487312985, -0.026091219872048696, 0.17716096548802854, -0.06815735370329482, 0.1352921445911461, -0.019316843441300115, 0.19369427243952028, 0.0619466412255992, -0.10329053123874585, 0.2214222363033285, 0.09104566218734668, -0.13244068068313086, 0.08826513260445296, 0.02074923284151356], [0.11148651482405723, 0.009512643223741644, 0.18341834990082684, -0.19745290940278315, 0.24261291570432306, -0.07403335781644438, -0.018464137350603985, 0.12777657392280659, -0.15859229054940488, -0.20836020609831685, -0.029885626845737874, -0.1699680450823012, 0.035993318984430686, -0.17898049875919314, -0.09579065390044669, -0.12753657885384745, -0.05219078837380843, -0.0713606056121806, 0.15559942390249504, -0.13633855276213871, 0.13110699653292196, 0.18992029661335955, -0.15097230703149037, 0.03197274680438964, 0.032483172614505916, 0.19227679155094707, 0.06194724303210173, 0.15605703767755888, -0.2021908899575866, 0.0005081175659648455, -0.1709022054652841, 0.02048621952236576, -0.14842689651527036, -0.0991504813419815, -0.07695580963622922, 0.03914049281169412, -0.11299315846989016, 0.250702453707865, -0.09028787961060049, 0.1540152322335553, 0.030380777385180885, 0.12121022512793783, 0.10512999979849422, -0.03419739672964075, 0.11107759461956966, 0.1369107542366374, 0.12471999449270212, -0.14107647762615935, -0.024574052912044387, -0.16413573028659978, -0.15054066185536918, 0.1681710438904456, 0.06884435567076153, 0.0007648271563899143, 0.06651098301412207, -0.006257898064970301, 0.05558698493469352, 0.05408843253553424, -0.1396267953711506, -0.059783903530321696, 0.21665160408965828, 0.0786549845262966, -0.13013754074423278, 0.12520010088136654, 0.04230401785341359, 0.13530731134681553, 0.1005417938313721, -0.158713406810038, 0.09682531306232478, 0.22989884945875577, -0.18801255596510014, 0.08963468506549123, 0.11627660685493747, -0.09551233946743434, -0.12054321711219712, -0.1694523556139864, -0.15234801727896002, -0.09596508067440239, -0.16482732722914198, 0.18933014523333128, -0.21045660551235806, -0.04068692043230563, 0.08350629072810838, 0.08935309557680901, 0.07795296064720418, -0.22144429428915235, 0.10895543892552521, 0.008604461215312314, 0.0143632756554338, 0.04861741549220167, -0.18095899499537765, 0.1593698556181534, 0.039344418940664004, 0.10223271456608277, 0.1571572002505151, 0.07620242507219405, 0.03042793464192227, 0.09788647848784594, -0.13185699649616228, -0.22068518487381714, -0.08699588125073811, 0.20719097043583082, 0.060468426372051624, -0.10918530685343728, 0.2525268712626423, -0.11088341301786481, 0.1432053817071613, -0.21529116386617206, 0.23692518283715377, 0.18330195620176598, 0.06503310606110899, -0.14498024550606603, 0.1586556492928377, -0.22947540084343687, 0.05599448510643694, 0.022083229516835674, 0.1940936045887286, -0.09568426451824474, 0.2023269261653205, 0.19662172167643208, -0.0766558340336092, -0.06316642916975675, 0.17396566324245977, -0.04771672774938484], [-0.18085589946622843, -0.04309536582269937, -0.2147886569154429, 0.03849287247819666, 0.2016511166086353, 0.08993180260033076, -0.06306543683531668, 0.10078267511782546, -0.09832553009846795, 0.12317570751917464, 0.1165744918264849, -0.1980245262579727, -0.09191749835936644, 0.17890706431477776, 0.05771903004693423, 0.11153007257541436, 0.15387909832229532, -0.052691290181489894, 0.13388006564731894, 0.016620066674552545, -0.19021999465678385, 0.11230257812485335, -0.1521677197262138, 0.06014817951521781, -0.008403382166853273, -0.07645403145886184, -0.08196223960936716, 0.05707800122647922, -0.1956568745609027, -0.07345816791003817, 0.16741862560154278, -0.0590777122748215, -0.0012163400472849678, 0.19940003492403777, -0.03185369270035151, 0.10436402179657656, -0.11945686877798065, 0.09120640016853182, -0.196397533486924, -0.1191621600402414, -0.14885822635124124, 0.06866150912873811, -0.10271007847209855, 0.12241030561399072, -0.005431643558429578, 0.12927045797991288, 0.21298170662676177, -0.02714581123946894, -0.18824687807659365, -0.024290338091982465, 0.028790720067920265, -0.09848846422781521, -0.142395183338957, -0.05614465629978071, -0.06835074036825503, -0.18749489246503098, 0.040692600131102145, -0.004577017248392749, 0.21441343050085385, 0.17608446448185144, -0.0548819322507649, -0.12054981328648534, -0.19745990994143145, 0.12811907128918587, 0.056666001988421776, -0.06879673097337327, 0.09260845594438907, -0.15532125072434252, 0.15519098019583413, 0.14778980087555152, 0.08336940841488609, 0.01552510120933406, 0.02323912406288102, -0.1464316720793706, 0.04512887962372332, 0.18876065415907858, -0.17406518211181135, 0.1860615209032875, -0.16503239595302366, -0.11251520085905535, 0.03990756080506335, 0.16032770055655046, 0.1048821201957885, -0.026158507948304568, -0.054583050250890094, 0.08546768732881596, -0.11400722762789312, -0.025949356024632695, 0.050355657470670105, 0.10772445321372286, 0.1601097773971028, 0.17139735725987332, -0.18811550989163875, 0.11893919863275493, 0.10606481156868328, -0.08831734506424715, 0.03731130514386178, -0.15714750940948674, -0.0953351262520603, -0.06459680285092788, -0.0642493300017355, 0.08210217595842993, -0.1073506226897151, -0.03083576954325674, -0.05841040084899666, -0.18439972061161952, 0.19202958155626, -0.04663022830364745, -0.17927356846296794, -0.21055648119931356, -0.09974346444119618, 0.0722831522971694, 0.021794093970643334, 0.020991630818182512, -0.06107341067812043, -0.15758206658286017, -0.05253321996775258, -0.00649342694355495, 0.12553899601274507, 0.07694451431982356, 0.20676372521943986, 0.035411136073292535, -0.07945169615676136, -0.12447573602479231], [-0.08288081718735982, 0.17668536984224456, -0.029840335090269995, -0.03854944549246279, -0.10294792621974733, -0.2219904201291468, -0.19163175466057092, -0.059972495101241224, -0.22710876344226694, -0.006707942771758009, 0.11790356462321695, 0.015012172485581269, -0.10170137277647251, -0.051555086783502034, 0.05925258633428276, 0.09988197202544036, -0.22668929389731357, -0.19230267616862654, 0.025928606932236812, 0.10308659955729411, 0.09013977013158062, -0.2061518038422184, -0.12120902611773982, 0.05200435976489677, 0.18570921965417989, 0.12454419531161144, 0.04204243188824859, -0.16602901562297706, 0.006131408384149304, 0.11201557779121074, -0.14073892343838046, 0.21564820374569346, 0.0809249499854265, 0.1994413812507333, -0.07498637063885179, 0.16643758022455404, -0.13316988236483815, -0.2143454480843204, 0.048283779024963884, 0.08920677365226772, 0.11015648118832339, -0.10937316219733186, -0.16692829208665055, -0.008531252593446243, -0.1939450706828209, -0.1577432169553151, 0.11825545612675724, -0.18648016809689696, -0.03289494230820344, 0.21628162854874255, -0.010522392713691065, -0.1872866728294318, 0.11134551958484788, -0.09480200178349608, 0.1662780014778489, 0.09249259589134266, -0.010238942062018884, 0.011780391811423572, -0.08071162100758143, -0.2477011292135631, -0.03393928396631386, 0.06513935427042992, 0.20815696276742202, -0.1352716253238619, -0.1633610065300115, -0.18435880675473756, 0.09588861828002418, -0.04970697165631924, 0.06058700909727987, 0.14288365981673404, 0.17160814252307677, -0.08990272355515745, 0.20372774960706994, 0.10060925955051302, 0.06655247667974239, -0.20882277018900272, -0.15988778277038157, -0.020844942772252538, -0.1389468472194762, 0.03189322957865601, 0.015035966366066631, -0.179825765587489, -0.13798000419279033, -0.18275019710741627, -0.09778174487471754, 0.026614843328986382, -0.17686273777577982, -0.13456128370082987, 0.043546891687432795, 0.03679851942352359, 0.15691360464043683, 0.12152768104526214, 0.02112314734123687, -0.18391172564736832, -0.04031650272725434, 0.029463708993107643, 0.1078011188070555, -0.03451806686479074, 0.13565191546604258, -0.1669180722601441, -0.19151717273795607, -0.06708724984537748, -0.048911970761021224, 0.14604590545066215, 0.07728934471030463, 0.01872576745334985, 0.009872659001805704, 0.02139312613488805, -0.23241241453889055, 0.09028677513697951, -0.28249095177893696, -0.10066636323108005, 0.16719075979788514, 0.051100330955016024, 0.11498217518284402, -0.06779263680844452, -0.1735425176098602, 0.11609430612720939, -0.12375287612555312, -0.15342933991394417, 0.14655297967650385, -0.13939870994954903, 0.12170181182233508, -0.21340240656714854], [-0.14855504698954908, -0.16485902847547168, 0.08887550684611305, 0.06477311015930198, -0.07532489036028382, -0.23081509073927853, -0.23898677275229255, 0.00137131151449788, -0.21777029957836969, 0.16913245975422242, -0.019799344917029785, 0.13307155165314039, 0.12310834028470238, -0.20642932210062498, 0.1247045366347292, -0.020938912901284662, 0.061496770823987794, -0.2050350524992118, -0.13126819469414924, -0.17501456773626206, -0.052017077029132455, 0.0250245312770093, 0.11979440538484862, 0.039222059078626026, -0.11366522513468491, -0.10041866955485833, 0.10901502048429669, -0.1757268210899042, 0.02026765728670517, 0.10195456284067482, -0.18619944738988647, 0.04285134981441002, 0.061792665562025464, -0.06540127677094781, -0.04360974177849, -0.1388838025783005, 0.11892491231353677, 0.1298224745799523, -0.09292957674853831, 0.009570622909193941, -0.14530658461807336, 0.10106002375480791, 0.10456786072137118, -0.016864530242735803, -0.026470088021822023, 0.20863295341401394, -0.21226146885838268, 0.06849396259093118, -0.11221346553787305, 0.17861017754319136, -0.13763630308066646, 0.07508890374099711, 0.0002683088334389951, 0.07166415255723424, 0.07480665556621477, -0.005773755173825446, 0.023684450918133138, -0.04499288600868681, 0.09968472931837803, -0.1799904806146852, -0.14300603031670894, -0.1420170724516607, -0.04262180962280636, -0.21665522545465085, 0.08400606434873469, 0.08015437652472673, 0.05202769320145792, 0.1551093977879181, 0.20756491956254697, -0.05340750895305892, -0.11306954264293739, 0.13699278449119934, -0.2041164485710033, 0.07492505969411813, -0.013779167531193074, -0.008063574467542068, 0.1542776297178557, -0.10495988376965255, -0.0008120992927473237, -0.06339736296545798, 0.18365689555085465, 0.07199702876369217, 0.1583806578115362, -0.19392392740137235, 0.021712370696723816, -0.13774202865287205, 0.06931419910635582, 0.10728740367357036, 0.058663329216057956, -0.09442372420460253, -0.13619130922871145, 0.009168872547951342, 0.1441066390697262, 0.08618127984033734, -0.012744539383238886, 0.007479788995013005, 0.03983676007547836, 0.09273262631002231, -0.21323892289469715, 0.017428154359713312, 0.0010740621359394409, 0.0599972226820135, 0.11106019645171598, -0.11461527054041618, -0.06365848240116098, -0.05276695177875448, -0.001467285198761908, -0.019172942675936028, -0.0035986042434835077, 0.01379261015252973, 0.05394352998941216, 0.009136522946692463, -0.16447865933964217, 0.20337708597399978, 0.15875438705701328, -0.21713579424958557, 0.11107120134683578, 0.16457356327272046, 0.10345990191903837, 0.13419880787921948, 0.1563073747027051, -0.19666762022604986, 0.14033838629744, 0.041218374164034656], [0.002603563042477697, 0.012559729905603159, -0.07039659905784566, -0.07693561304729893, 0.1334725762650921, 0.21964275964149924, 0.1182996722108547, 0.20410884900254408, 0.22235613458850761, 0.09480605242446867, 0.05797173161213913, -0.13251838243153308, 0.033170093783511566, 0.03864584046717752, -0.20553458376072745, -0.0007473628306549124, -0.1194501444266334, -0.1906557161056435, 0.032774701160280834, 0.0308161636087656, 0.09745848416668904, 0.08481819072695033, 0.001271126012883689, -0.022695445920252227, -0.21347810472919188, -0.09896628155300732, -0.20126891952551632, 0.09471780960835323, 0.07322508241883845, 0.0444416071015058, -0.15155692100345822, 0.13869759009843224, 0.005548398988280716, -0.07097020616469984, -0.09456475585540908, -0.2192603893929082, 0.16330365709672034, 0.18919839145720851, 0.2019496653204647, -0.011064322933395368, -0.09213152733433516, 0.16931573030626992, -0.2235989532411968, -0.0012002513523942558, 0.010597347041091118, -0.07711646316098893, 0.05369133854319137, -0.14870312591400497, -0.08160694419965073, 0.17336848145357503, -0.14736288939160974, -0.17334279081021758, -0.1256738316805501, 0.0020779864880756537, 0.06356662629036716, 0.04852870573412233, 0.20539063573926417, 0.1656199348427593, -0.043285626826737665, 0.0520696569070983, 0.06752462101163575, 0.11910158095234212, 0.12360884966319452, 0.14645585021303278, 0.1226695502927222, -0.0871811610604311, 0.14998443720270566, 0.08697295816382641, -0.21673380478511206, 0.09878398654240708, -0.09449487874596915, -0.05773376167355664, 0.12173736286734325, -0.21786329628060008, -0.07573122399834055, 0.16696756655898404, -0.17104021915893775, -0.15981374482193683, -0.1281693770615291, -0.06176927174934994, 0.11289066139937577, -0.027211565125330874, 0.12502122951833902, 0.2015498148711032, -0.06838788591119087, -0.01801607821091703, -0.11913920302979436, 0.22559341975182703, -0.0772699918260536, -0.17283425117804818, -0.22223787522294958, -0.07388077723769342, 0.1107115191738381, 0.18345851407507094, 0.11856287674921631, 0.0333442428441969, -0.03781103976568305, -0.19461447351004124, 0.08576888809041197, 0.016225933287999404, -0.12522269975657285, 