{"layers": [{"type": "DenseLayer", "input_size": 30, "output_size": 24, "W": [[-0.1404950922474911, 0.11286478634177678, -0.3739772110671615, -0.04732157074344802, 0.26655713582204665, -0.24264390564729219, 0.25030686696261567, 0.3431613505128489, 0.17741284810923738, 0.22583333765090238, 0.14150881667810614, -0.39294791146242686, -0.07697591135139661, -0.14274987795553085, -0.2332720670758367, -0.27026503050992284, -0.33976302368322714, 0.48021225132381656, 0.2651695727028202, -0.08630062548391498, 0.09634638038372233, -0.24427911693542567, 0.2688849728931821, 0.24020122325046508], [-0.18410382445326373, 0.16758307807806408, -0.019021371507140065, 0.21142585380946902, 0.15647034135444643, 0.11343874848595963, 0.061569467172905394, 0.3730648172511685, -0.3107340242536669, 0.1418127486570848, -0.0036288096778316617, -0.22002543795886018, 0.20298074678070305, 0.03088060199708388, 0.10391191282633899, -0.2474376468204112, -0.20018465113878592, 0.44030305008849524, -0.18927755816011824, -0.14110637774898482, 0.2628619651669836, -0.04168235953521, 0.2728793866509196, 0.06354479823632007], [-0.22337871056525882, 0.1841738941419051, -0.07463861769327218, 0.30592206235690783, -0.175223696219055, -0.05265727308890672, 0.009041931605204114, 0.19654577773656995, -0.07578631157603345, 0.3578509578148689, 0.16967013504578518, -0.01656884665544595, 0.09970388682487877, 0.4036826484667473, -0.03891856326553069, 0.12219620321223108, 0.07902964229304998, 0.039915933369582005, 0.044939746271935074, 0.2991642431950218, -0.09387118285634487, 0.3091734032786717, 0.25447935121006543, -0.08601927100272821], [-0.29133458254370603, -0.11881966193129088, -0.015713096850106006, 0.2960735479525995, 0.026595215735056525, -0.202615229374003, 0.2949641062526717, 0.26439971575076426, -0.2891848444344996, -0.2524835817406825, -0.27527128990101896, 0.027148733123968052, 0.17916407031676887, 0.19556829189175587, -0.22143811664855367, 0.004287544853386711, -0.3922271543565432, 0.24739911296763403, -0.2502670936344914, 0.07186065570237217, -0.1044154106217362, -0.26334460802374743, 0.22723015821952927, 0.21649100723019357], [-0.14123302776427518, -0.3024072363740792, -0.10442566595043995, 0.13792086180549368, -0.06977436052665932, 0.06101884691521711, 0.10652180708608927, 0.03659861578318011, 0.09314021995081107, -0.07652332032348061, -0.0939009665667284, -0.34981122625637606, 0.38597333605915923, 0.0007167689993645506, 0.29669015193639836, -0.19939874552721673, -0.06274284142092579, 0.3827368807802111, 0.3149355164991044, -0.13939395366191576, 0.18557581502671772, -0.2263244735517792, -0.05907719056477222, -0.06393135946318623], [-0.10569389364231908, 0.048337850264322774, -0.1182541601618567, -0.07206518078082948, 0.19945480293046366, -0.1692105915063647, -0.08118760219871546, -0.29703541230770586, -0.2852458501335611, -0.1715021884350101, -0.14062903654925213, 0.31573496705664134, -0.012142891842623748, 0.2456741604470834, 0.001017832544410991, 0.213847427025479, 0.33743889462617577, -0.2474322604847957, 0.15268828224727216, 0.25612440040189455, 0.10785517051115266, -0.008151834158693154, -0.05103187216174098, 0.07699550962398005], [0.09439840040923823, 0.16766513209886802, -0.3080646979989118, -0.1882581099622411, -0.35393254081446296, 0.03896569453263553, -0.043756653466568145, -0.23661373424641177, -0.2571433605305717, 0.3455640978194167, -0.2757155988242129, 0.013820356106369391, -0.23704288983478816, 0.09869073624700093, -0.332927564997045, 0.08724006310516084, -0.25264907133861664, 0.19729197749999777, 0.09265352680086651, 0.3301372854919956, 0.19789824945271084, -0.32605411972447496, 0.25818513972573875, 0.42522802440852236], [-0.3379205355988221, 0.09212910156513994, 0.09897854435930516, 0.024027574558390444, -0.07558775535218029, -0.21466266297926223, 0.41669515868223844, 0.04235365711156769, -0.24398196064280728, 0.3689666193795274, -0.10797678576809307, -0.2826825962179392, 0.3782856102549855, -0.009391232248813972, 0.16641636480834207, -0.4378274724013835, -0.3854763990466698, -0.0064647966665142805, -0.24612405474844082, 0.0436700989833687, 0.3893096132564624, -0.27272850588418274, 0.3745442862149844, -0.10472208290482633], [0.16664088532465615, 0.06675132722117469, 0.06530762202587403, -0.11848644376774994, 0.19576066920392848, -0.1781595102420726, 0.08403993040352867, 0.02410798417197876, 0.07858932038425702, -0.10021646588530293, -0.07077472604850722, -0.06244459692915671, 0.05055359276016776, 0.16806437696711288, -0.0773600753960723, -0.0008447291671900053, 0.04563028581620989, -0.31435394792135035, -0.208881308734441, 0.25448493025260394, -0.14065666829318468, 0.025983416054157216, 0.17185783269621452, -0.014410113185099199], [0.34244056421830876, -0.04901575913518134, 0.20832241321044442, -0.2331871179270149, -0.11816661266431713, -0.22597109821624936, -0.13956697017604683, -0.05800040287885129, -0.03181248817666999, -0.27471360188705274, 0.27876282175784367, -0.029330653285693363, -0.07137549477083496, 0.2679370627145279, 0.0875875635602798, 0.12306041092105152, -0.09330244228343516, -0.0626754565408337, -0.1434441419332606, -0.2585674770724282, 0.17815137567387926, 0.2532150829375331, -0.004634486403161449, 0.017494279258221165], [0.10328148251840653, 0.3252048930226914, -0.39441693729631694, -0.15437172007651856, -0.3748093359304037, -0.4753007074801537, 0.17164418981883023, 0.42572887866598164, -0.3618025802165634, 0.5547822307308431, -0.28378984576583094, -0.4933508633172871, -0.15128742752943228, -0.0719757065204756, 0.09824796505736509, -0.44005768231827525, -0.5775518374595913, 0.5931494370073622, 0.2067865780539537, 0.3666517366691601, 0.25543329270410037, -0.40792416672955534, 0.2341949017572851, 0.4683841311074826], [-0.16679031301130298, -0.24455321010463682, 0.1963715745949705, 0.22288612470625016, -0.26254242763946445, 0.021504028354881154, -0.22503433255934155, -0.2563166658557385, 0.2177998031062909, -0.18429155179920415, -0.03626187156284648, -0.18607349135522225, 0.12603204572246504, -0.04137177708293598, 0.22475530962414728, -0.07793522024488833, 0.22784006839440024, 0.12988927878081297, 0.1883804780200423, -0.20182289961780767, 0.1962939895228709, -0.23245315507789482, -0.24702794542473822, -0.1991568774668761], [-0.15719633831381513, 0.2409380449690154, -0.06118086830787248, -0.050909957101826206, 0.11082885502773779, -0.3754011268776597, 0.05552584415600498, 0.1550620271069711, -0.23749570989290825, -0.05147226655318114, -0.23658646607239361, 0.04503286858012813, 0.4036352714871241, 0.17538325053744316, 0.1704260528376035, -0.1517585902644655, -0.23558630508440653, -0.02653549086637509, 0.31656611877937113, 0.4521221975774384, 0.29951206012407056, -0.12361741669846532, 0.2713015107909514, -0.10291053276688729], [-0.20667086151409286, 0.22616191009575096, -0.28401864656928594, 0.12665154412716262, -0.07118035340376995, -0.07958144170228267, 0.023361983050077653, -0.17920126261585306, -0.12482818115096098, 0.3927037640965177, -0.4520095776457457, -0.05218041621600961, 0.36655082855589693, 0.14083407768154887, 0.068854051801041, -0.22924242004901774, -0.17738120349503156, 0.3210571236330458, 0.14714401168511448, 0.21630764288198034, 0.12011053742247264, 0.0835494315335522, 0.4527074859279959, 0.07299565690163408], [-0.19097933039164067, -0.1809597154988998, -0.2790853514271237, 0.031476068562742425, 0.10821576972963033, 0.1499711521289463, 0.31030081471639775, -0.18243210461500853, 0.207464445576756, 0.3511158318851794, 0.4138312143971959, 0.090438671079777, 0.3219383563152222, -0.10554655085520025, -0.01624115571012149, -0.12859723680501256, -0.09560859477666718, 0.023274384721752136, -0.11145541406101393, -0.3698118825047469, 0.07962305788351134, -0.015466475012304656, 0.14048979921168722, 0.18477542775641922], [0.12351117344808465, -0.044601405945849056, 0.4151711330104183, -0.15471643828832002, 0.037402991154591635, 0.5408282359621343, -0.12562433920349936, 0.019739401882517774, -0.024626353153063368, -0.027084063032202836, 0.14643917590967237, 0.20466434346129445, -0.3312259127814054, -0.1981600870252077, 0.0222575361901608, 0.398678564985884, 0.2236984056366373, -0.011016668910376086, -0.23698125765352407, -0.54883790173212, -0.19111646140936683, 0.026530016991501246, -0.2733880736549815, 0.1389774823681854], [-0.1095469417595606, 0.050401490467518274, 0.21636727871238004, -0.06163676474428756, 0.314106889913236, 0.025426122915980797, 0.23883881823323086, 0.3069244810157294, 0.08084890327378859, 0.057558683423900484, 0.2921366765881292, -0.22792507518121294, -0.19842950402074339, 0.028107820240829525, -0.2647745552222993, -0.21542474411662188, -0.09414706061401688, -0.15374207724820205, 0.11867061044717449, -0.23320297581345487, 0.3009010087404303, -0.3231432155259547, -0.1510548372323956, 0.2817909785812827], [-0.05818390762556791, -0.3260512584402286, -0.14417274527765986, 0.21737509008891637, 0.3538782180509313, 0.36918876192673267, -0.22397908862747964, -0.08573072749722944, 0.056986016418508326, -0.19595757223107446, -0.18661063265689315, 0.022809897494813675, 0.04261205595340127, -0.057821131416572254, 0.06514485917546821, -0.011533186823744533, -0.16049213746055618, 0.09045679775330036, -0.14027341633051119, -0.15574288517261467, -0.11776383960541471, 0.02686078133842041, 0.17845002498570545, -0.15935581274354838], [0.0016589103343125663, 0.07600390793311566, -0.198906685072094, -0.12898289848997926, 0.19981688903773528, 0.06231560238543917, -0.14214822392745127, 0.1058303789509549, 0.32410312704700817, -0.04246520866244639, 0.212541247848955, -0.017709795237893535, 0.12979746642780182, -0.388608851644181, 0.3152804883502378, 0.04292545716484733, -0.007522184889348548, -0.05513880841437573, 0.0010982469733510183, -0.4902293549171893, -0.37270039945283295, -0.2871976456646291, -0.40120418215746256, -0.28347358667262684], [0.1792284776131336, -0.08181553171536753, 0.03135157846411979, -0.2751889741853189, 0.3544459912991217, 0.3139167288530221, -0.2914277968064264, 0.07650935274607162, 0.13997501570186757, -0.4769966826917665, 0.4996831902865699, -0.08997749046123242, -0.10632402183129455, -0.11794265676790767, -0.20262564351140788, 0.019070040689988767, 0.01726947520508791, -0.17469501476360774, 0.053856628901844755, -0.02717986692641578, -0.3151273390536822, 0.3034176485799899, -0.07575485173029835, -0.4154467336624362], [-0.16908794121985163, -0.3086612186393126, -0.008267563236628602, -0.14552571989570023, -0.25785201871507624, -0.22623333302162138, 0.10971186087244732, -0.030761832140894056, 0.1336315232059131, 0.35741408592555696, -0.3469398740117219, -0.2572613946488754, -0.10825932248890714, -0.15913830588750827, -0.19893401291551802, -0.10447655776206101, 0.048235524405831225, 0.4621080718438365, 0.0085200205793445, 0.4221441068176718, 0.40959633786735233, -0.09102638450102024, 0.5344685876544543, -0.10980353453643014], [-0.3485977416712305, -0.2336364305645191, -0.18335188172861933, 0.3243404662192336, -0.2643871123048714, -0.25791612373262446, 0.3827636558840757, 0.2734348677969723, -0.2592163812364697, 0.1595666265972406, -0.36260582919386347, -0.15667584031984266, -0.19635894851175092, 0.16002549477161224, -0.4483804790100214, -0.03136274723619274, -0.4582026494596731, 0.07868767930743004, -0.09042325211196406, 0.08877482613796452, -0.08135662027255593, 0.13746523412817344, 0.48792439260934817, 0.24157191447147036], [-0.07758840933783222, -0.2890804363416588, 0.07164622114950304, 0.42100909619117494, -0.24031496046904477, -0.274775182853144, 0.26060886351846085, 0.08689765401709283, -0.41805496428988603, 0.06675155710098658, -0.13339577506472072, -0.4250745674203769, -0.1420662431694099, 0.3318901703983195, -0.44026280553452724, -0.36917603589224324, -0.3403617361740905, 0.08918938924840583, -0.30810748462702175, -0.026153016974962133, -0.2527778787276196, 0.18541887005278618, 0.31493552787597007, 0.39270737483832574], [0.1614882078189389, 0.32359885531147503, -0.33299051245209704, 0.0030549534268143087, 0.1644429476306317, 0.19316404901350792, 0.4330512073207118, -0.15172794793625724, -0.020793309369252132, 0.030870335057945866, -0.5289738070333634, -0.5116376793035519, -0.2017897378751938, -0.12491011422884901, -0.4852954361541194, -0.39276180156432144, -0.32799954804688036, 0.2731721799972527, -0.17751878531857188, 0.18984492388513272, -0.2202469704869571, -0.16568505724265595, 0.08200731063366365, 0.3669339998093118], [-0.06262636996805131, 0.26218917253953505, 0.1693304947291111, 0.191979422658348, -0.23932008184510495, 0.07868687122849685, 0.3694214044086244, 0.08885175382677414, -0.030724921584722398, 0.31046803742767065, -0.23420316119356402, 0.10306821587877502, 0.30319584962116275, 0.15297978758388472, -0.3573115642946983, -0.2793924905950065, -0.18027921900155774, 0.43864042266124625, -0.3218446079315507, 0.026164508006341066, -0.009914860103745338, 0.1515366311317968, 0.26512059126143445, 0.3395408211162549], [-0.14782999142510073, -0.2775117132990656, -0.20894061069442002, 0.20867958883603804, -0.06955627359003218, -0.1684474636992596, 0.2883482654238809, -0.03460864245447713, 0.17764036832318986, 0.17497977018825722, 0.23183990802141738, 0.016443011735767343, 0.3004423345100389, -0.12659704857971363, -0.2093342209045196, -0.1841075052556224, 0.12590941860776805, 0.11360048658780846, -0.31491577146544203, -0.13311874176410896, -0.22061743331281797, -0.06136085279330679, 0.32295910939665035, -0.05661180490441186], [0.13293505067137276, -0.2801279747976495, -0.35756552526174423, -0.20116136769067275, -0.17611912851070352, -0.39505814017666224, 0.14871581262689812, 0.35303604717171555, -0.13659936807602646, 0.27810957360612515, -0.45313119684722364, -0.11711854560275438, 0.2582243499569793, 0.1703631095095338, -0.08716360349705668, -0.1626596136469664, -0.48910851125779325, 0.3873189700895611, 0.30396076223568447, -0.0011503770767689954, -0.11558486399868899, 0.15402777568347825, 0.37046640067214354, 0.2520094463260005], [-0.006276871842182216, 0.3144395119266123, -0.10491379385196274, 0.38939209269641384, 0.1982840784158105, -0.25576171193722863, 0.0818569881070872, 0.20957717088207253, 0.08602458095699102, 0.17614919856424463, -0.13075773084745584, -0.1734411416934174, 0.003167341180180063, 0.30747245005163465, -0.415766116165775, -0.4429471340914372, -0.35881313183529784, 0.17793877539208092, -0.0686685381941162, 0.2549093059553759, 0.09632108765069267, -0.24994995423100996, 0.3248882002968485, 0.25035956441917506], [-0.2952952853989614, 0.09016033657238454, -0.3099451070603048, -0.1614205919244652, -0.33452196212856594, 0.018329936069721237, 0.11913072593408894, -0.038105516350091274, 0.033462354944897785, 0.26017181507810827, -0.49939083147535274, 0.014976401654404213, -0.24334493506367486, 0.22753023309929277, -0.32143970042971254, -0.05161001752373324, -0.08767746809490652, 0.43033000743254723, -0.08611551483006336, -0.09932738381967847, -0.15111503472881677, 0.11095354983952672, 0.2756479406914152, -0.049108956903270995], [-0.1130123622972292, 0.14388600003636337, -0.09655821973909096, -0.0459414009856102, -0.24637358046673688, -0.1335313804327915, 0.05313274746174429, -0.23322633979680366, -0.38467066492203267, 0.2305921514444216, -0.30273923565484934, -0.2226164221125102, 0.018046686145971717, 0.059063140484804835, -0.03775485326954601, 0.17891014509390468, -0.1304792429333767, -0.2055559336244682, 0.22855030208849017, -0.20474346408569835, 0.24532899383178627, 0.07480492506435565, -0.09475154790595477, 0.10407117414329449]], "b": [[0.029052554595530716, -0.002695400559666609, 0.0321482924190333, 0.012678480566687128, 0.03135910047706206, 0.03670006128014902, -0.09085115079150594, -0.030930718459495247, -0.0029297607846167973, -0.08036072101938146, 0.10610308568889737, 0.006543755377045958, -0.022679156538093704, -0.06929375961980529, 0.08223492505981017, 0.06476303897281885, 0.10850223371977957, -0.11343548246867824, 0.0001826327560418267, -0.04690415486633167, -0.037885225855632525, 0.015621983885693901, -0.10477424661014162, -0.06960797261785939]], "activation": "sigmoid", "w_init": "xavierUniform"}, {"type": "DenseLayer", "input_size": 24, "output_size": 24, "W": [[-0.3705959926304501, 0.3587487696002377, -0.18993675198308396, -0.23647789913565792, 0.1941305962219059, -0.0013546516323783664, 0.29679316011076134, 0.2389827113309209, 0.20486740703806441, -0.1750594746878363, -0.392374446669225, -0.20636263358530427, -0.3189906867647396, -0.28555484527926317, -0.11296412313719426, -0.23343392921125605, 0.20865191536549468, -0.0181341457173645, 0.05240312417986697, 0.32910996411823484, 0.13241818959657403, 0.26628350786801375, -0.44073563699275214, -0.1011550795345376], [0.024820825040364456, -0.26805575465685, 0.2264111772292069, -0.15223610814810562, -0.13841506925296368, 0.13008429780357025, -0.22152731245600485, -0.2121532370756768, 0.06124386915977425, -0.0408285584979283, 0.2169703055511404, -0.11276217563826035, -0.15895813422957747, -0.32099666588414755, -0.24139031979174347, 0.01874168961975341, -0.17514154633441475, -0.11627177209960451, 0.3121801325380833, 0.04028157087718931, 0.08967127150742518, 0.02511395978086553, -0.033047684713689573, -0.05702454215568587], [-0.5392222249009653, -0.018117268053534193, -0.11158127968832945, 0.15647545005655367, 0.04663108508001843, -0.003578856477018426, 0.23303539446427896, 0.10653410547039832, -0.31580273605536524, 0.1489169132685986, -0.31107684550912823, 0.022370815617160575, -0.03148686549072416, -0.17180640061301064, 0.011986008540532882, 0.25988564246524265, -0.22862392846253385, -0.07665584779760022, 0.23212564610305544, 0.20539515740180384, 0.20662486555277543, 0.06946593556670634, -0.2557920248216629, 0.20824683100393493], [0.1609645330865611, -0.4320601010047606, -0.06827806695315822, -0.18864892218094315, -0.2966956544241663, -0.12398350375149073, -0.10701938104825154, -0.16855491208906012, -0.03724428769424473, -0.061093647801473534, 0.18875982483307682, 0.05334953890666542, 0.03957401182799089, 0.09784599643688513, -0.05643260028975943, 0.18028829960478876, -0.13449641330385748, -0.1508641150203596, -0.17319065304849574, -0.026667316285575587, -0.03882333023784364, -0.4049259343241467, 0.3948267301907, -0.09890443755417151], [0.11100060055502066, 0.3259639041520753, 0.11323799562861309, 0.017780605357695888, 0.2096577324104221, 0.02617658552313242, -0.18758931660495312, 0.5135073925243597, -0.3978592119705687, -0.17173051769063552, -0.36209470873128274, -0.11412160473005405, 0.3656509434920342, -0.34239257379331817, 0.10830295518293274, -0.002411481718324581, -0.29661333382099614, 0.10745009588670515, 0.18558549397586563, 0.17834339135676427, 0.17946385171595128, 0.17872042584407136, -0.5141695894467393, 0.37609782063168734], [-0.4318377281462795, -0.09880432099195247, -0.5517142479381936, -0.4091446987892996, 0.20261032141503588, 0.03516735967461005, 0.2463137920774627, 0.5195676782952633, -0.2549143657928728, 0.03859738819114928, -0.28088881809237426, -0.1069905889066261, 0.2736543218501168, -0.12946016751885356, -0.32321034157580464, 0.16025147893731678, 0.23735373440478447, 0.032503676396583116, 0.16202853552556784, -0.2825288713738584, 0.01121400299799169, 0.3558612801375786, -0.4235268632064988, -0.16595093568676664], [0.5415078100915902, 0.13602378062263482, 0.3081158261401909, -0.09688376059194781, -0.36665589478971417, -0.1552406348860101, 0.16108482377808142, -0.48915893897611884, 0.18356328377756428, 0.12307609867654506, 0.5354378621308203, -0.12303455671357855, 0.18487047405602444, 0.23895654113394343, 0.20519559443176028, -0.35760297143299763, 0.2224062330454894, 0.12389393493582021, 0.09261303867710333, -0.18713321842982342, 0.22524846988349617, -0.08996391684772616, 0.45170680992805007, 0.024988651552971773], [0.36655553573932703, -0.036455273563832345, -0.22789109939459265, 0.16649227120271295, 0.07148539331245071, -0.03357815428856168, -0.11110096839506436, -0.17773871114664727, 0.10892421133168353, 0.10744692698176483, -0.03514973433016329, 0.23795583121483743, -0.1163760383896097, -0.13669061089557, 0.35797230256553664, -0.2672168593748757, 0.059447626373986553, 0.19483978702811947, 0.149794748035693, 0.16640895419536406, -0.17404693553856473, -0.41344582574853206, 0.36782913902623976, -0.02462040290885259], [0.009341788496707068, 0.10386503251079486, 0.0464749661233045, -0.03695309401764433, 0.3878795477357934, 0.22142238953200427, -0.03125917954953034, 0.5116745784585224, -0.42349657244011185, -0.058332776466620204, -0.23483463180109926, 0.24780773383348362, -0.24212748713199922, -0.3318737270436303, -0.244192489618352, -0.022893856356190102, -0.027490273957888334, -0.28038421174761, -0.3089791153972019, 0.24048353824390234, 0.11033130190097623, 0.1533890531501241, -0.3620589768593176, 0.3573995285762393], [0.3403880430752725, 0.06568204046575261, 0.08083074812565016, 0.39300092531487213, -0.3767712864937746, -0.2851859056420158, -0.4646884111098071, -0.5088035098061595, 0.43276254307559947, -0.34842394070428784, 0.15412791382885377, 0.11409468341848764, -0.09740321855881925, -0.03877209860637106, 0.092757679697227, -0.2566294897224252, 0.0884236330411281, 0.0672860107743431, 0.24555353698589158, -0.3729852862381419, 0.08004317342432714, -0.26692590573023944, 0.43140774268758764, -0.23454186938734872], [-0.6733336249443849, -0.15756648832110534, -0.4164366832356591, 0.2372585382266981, 0.4028352380861382, 0.5735733446121691, 0.16541439192758267, 0.3776816075541209, -0.18015405083423752, 0.6248325238183661, -0.03874773819233621, 0.32023682849058666, 0.02370364945795375, -0.06562907607975703, -0.4443230396355657, -0.04022386421523937, -0.19281908037134637, -0.4631176966044449, -0.11898452818838469, 0.35874793655391773, -0.45837399796790784, 0.43865793913697954, -0.32644353408349386, 0.472400945156644], [-0.2722199878195257, -0.07326815425701622, -0.4361032341799402, -0.33760729108191034, 0.26496754686644064, 0.1640536173297025, 0.36613957238520195, 0.2040709979279899, -0.21427725841872683, 0.40857593321766006, -0.082623563772477, 0.35536241746007935, 0.0492344730908988, 0.01588975235914256, -0.4235900291606893, -0.019456043124949536, -0.3974676687796564, 0.2030317646367983, 0.24151830260646942, -0.022753847730428326, 0.21205710792953977, 0.2822978867395194, -0.3913087524427221, 0.09808641798042794], [-0.11605832018089737, 0.26520232213177425, 0.34928605228600174, 0.3820531214527819, 0.12145832392335007, 0.057572349467723674, -0.39999654926337724, -0.3520145471625212, 0.09056778351621167, -0.19364522144852578, -0.18851095932478076, -0.16039380301284856, -0.07777763331007527, -0.3286685862815214, -0.2040019249961056, 0.29576399211892085, 0.1344338191863833, -0.23973214857972952, -0.24268613238717482, 0.13634179911414748, 0.3145434761542004, 0.04022976633306835, 0.34647188716266814, -0.1884940758009037], [0.354030838378502, 0.10942669263047944, -0.11790827690709717, -0.15699272676612533, -0.33196448487808305, -0.2444509616270886, 0.0809299591327861, -0.30364130859174465, -0.09800478036058617, -0.23490016670520603, 0.2566135704663491, -0.12320355620726094, 0.09974324239841476, 0.1985515891227244, 0.16222659280949348, 0.24575483855671784, 0.1272576687232999, 0.23847134003688972, -0.050886379591007135, -0.14381237704240188, 0.26305275284022245, 0.2477349684343315, 0.15784891434208664, 0.0659289732284407], [-0.45900416031872515, 0.28021811269589775, -0.0792127823634921, -0.16152228331657847, -0.21397022833842172, 0.27236081891206954, 0.0031364971428748155, 0.4949730470808392, -0.1812844374987131, -0.07474728484017447, -0.4043066858726011, 0.42789797576905514, 0.02040584626491286, -0.31484015684987776, 0.09281690378776102, -0.07483106910241184, -0.1640857418259989, -0.1541437436314564, -0.0850577845729406, 0.27606693236983837, -0.2139270033222108, 0.07828958930296352, 0.12204128774683548, 0.3455815840497742], [-0.2758641277822418, 0.08409875169072138, -0.11919539011924464, 0.05562857509137516, -0.07713949418395805, 0.42075427356142386, 0.022766762949706736, 0.34661689290517506, 0.19910277337595877, 0.2789521760720646, -0.5150884407803885, 0.3007000133483678, 0.04871347893967633, -0.023342620934760666, -0.22623738201316249, 0.1246646184166248, -0.08211801582193307, -0.49203020414292786, -0.14434389125089495, -0.09916749775283384, -0.43567264188836624, -0.06640208562760479, -0.19584680968719131, 0.462285957105725], [-0.22040082134509234, 0.4740633113548271, 0.055555204561182174, -0.4114634074417058, 0.4535200593074613, 0.5711580560648859, 0.3037254771694679, 0.2726198851366566, -0.2585519615841078, 0.5034330440409682, -0.5641540612665146, 0.3923607113652708, -0.23768053868002303, -0.12095348100980348, 0.10904335304101817, 0.44267503951812764, -0.27095033687129055, 0.10463863141730977, -0.04378506162710379, 0.14230007873616574, -0.3680722442038072, 0.3607792824292926, 0.05536932776250025, 0.4820034596011598], [0.4167586791291042, -0.31279324614157333, 0.5151034733192924, -0.03732221095163079, 0.144327495042242, -0.4326294833680183, -0.5140101541761082, -0.5400371082194264, 0.18322859174315004, -0.2358180330220736, 0.3943409146716968, -0.3243871861632537, -0.0031625548150878355, -0.3037250487088107, 0.3070674979910423, -0.3780199402064722, -0.022296823417606776, 0.5158675422855686, -0.31274184566669844, -0.3832099417513182, 0.3774210531096217, -0.1928297118042918, -0.05215714755305162, -0.2984759325131177], [0.015965504041296423, 0.09804334522564968, 0.09069629222211831, 0.13300134118240856, 0.17933531244065223, -0.019222637719871344, 0.21806721443067992, -0.05770545384731629, 0.17980503218135874, -0.026793430246941984, -0.25881296850911933, 0.26000388446392736, 0.16043164174593053, 0.08942903130497548, 0.11062926958254722, 0.22509613858923902, 0.34913858623097366, -0.03249665587891747, -0.1376462465456582, 0.26619048065796885, -0.11463638310683476, -0.04869337375148489, -0.05809610366702499, -0.23663659534044143], [0.5345867494879162, -0.43488633708642166, 0.45106953962918656, -0.20509040579720564, -0.21450821613524007, -0.17812792606660655, -0.0788905866347008, 0.13384047078156497, 0.4465459461506501, -0.08791748521814662, 0.3680299464842805, -0.4019244262566513, -0.06901234034045978, -0.08182489730730769, 0.04774197960938023, -0.0056294380550693315, 0.31625432306532514, 0.18356558774833012, -0.3205083398202446, 0.21917902975687004, 0.08824671799649529, -0.467807282238635, 0.2603894086088632, -0.06549049978749087], [-0.0806181410179519, -0.33008569344607563, 0.44577395097124006, -0.06367854976777697, -0.04763551755975195, -0.32320595025638366, 0.16567942818345766, -0.28599972039054955, 0.016091274006984374, 0.027487845351475776, 0.15883381353740908, -0.23130888951753523, 0.024845749376936503, 0.2607038264352371, 0.11382231068180186, 0.07771668529818627, -0.008796229170558837, -0.25346554161938634, -0.255967309463854, 0.06929445340675232, -0.25196589658231205, -0.27349684172914496, 0.28036842712834664, 0.011628496485247743], [0.14813139422677676, 0.23793580706047468, -0.24086952032345318, -0.1271419555135083, 0.07921272181473803, -0.12240055047886281, 0.3588819865938481, 0.246867525697437, 0.0207548883628247, 0.1114680554372319, 0.22099569880516676, -0.013335836107172053, -0.23102754170522982, 0.22405612066209224, -0.23413041336172447, -0.28153282288694303, -0.09198508031249827, 0.1327075432996479, 0.13953557845911507, -0.10055799710251771, -0.21268582452754692, 0.07413651436747598, -0.43786000301531364, -0.01992420351673931], [0.13430492741895553, -0.2736992778052329, -0.024823169078452185, 0.37059815963951787, -0.3151184903418766, -0.5670393758106641, -0.2455344560972242, -0.6668985596162963, 0.3621526073431424, -0.5524461982467308, 0.29047763366965806, -0.08851469761689636, -0.2782624645077505, -0.11549497105455314, 0.4659846228497068, -0.4248407763712753, 0.18644229508757584, -0.020923978686220007, -0.020224597754140036, -0.04856339151412565, 0.3940620830023653, -0.11577908379451186, 0.4138186988505035, -0.4858407326858844], [-0.00791260087986326, 0.1390673332623833, 0.3564308098513153, 0.000829308432704823, -0.16286475914966195, -0.27969531303893486, 0.14046206016457638, -0.06596674328196336, 0.1602838254057637, -0.44492674970319923, 0.4962223731871785, -0.41501128849912855, 0.010609875926334812, 0.24849966089907705, 0.16018318382469363, 0.013623136715841644, 0.3976721486579929, 0.21880510187785385, -0.0036364190238064127, 0.2138396063548001, 0.261258070468253, 0.18366094464813315, 0.3405953774452418, -0.3822165291204868]], "b": [[-0.015669980543833954, -0.04306802687209061, -0.0002916562329564681, 0.021703012004496952, -0.031268591719657554, 0.09739387769938888, -0.04087477597690312, 0.07647399438232398, -0.014720399261562026, 0.03713811939435665, 0.007432345758847925, -0.05186949863158186, -0.005966231154844979, -0.017727620778033432, 0.03501808411526427, 0.0023575174113748157, 0.006265659058984605, 0.014414676831155245, -0.01090823024554672, -0.011569090472006495, -0.032611203858402445, -0.05842206230994873, -0.029048232518056362, -0.11905516467647559]], "activation": "sigmoid", "w_init": "xavierUniform"}, {"type": "DenseLayer", "input_size": 24, "output_size": 2, "W": [[-1.1484052235210123, 0.913724028556579], [0.5226820065101067, -0.3796984201808877], [-0.8008370243107736, 0.6959186884701501], [-0.6590161769491416, -0.010206404406462748], [0.4368507303343652, -0.5270841737056287], [0.6190174208786413, -0.9853067730670034], [0.6627087329358076, -0.36341294775142885], [1.1160871930220717, -1.1537107163817626], [-0.39649805325548754, 0.848954260150801], [0.6585986674460729, -0.7878592868563391], [-1.1070699247533429, 0.9409437947377155], [0.5317740465032412, -0.5304473963398784], [-0.2019258147050484, -0.3473781888746592], [-0.18507415317313458, -0.08047773885324958], [-0.3351541381653129, 0.8639920637407396], [-0.08648229504774403, -0.7032510807509832], [-0.46908894806576545, 0.41251713604720086], [-0.39178160316919464, 0.5331524295320416], [0.002321470427244742, -0.222416193936324], [-0.23703218109869062, -0.5395762466379409], [-0.8803649981168361, 0.045545258355361634], [0.8092841862486092, -0.1551077534748771], [-0.7749729551926307, 1.0913306024283096], [0.6746199098883778, -0.8153669895613049]], "b": [[-0.14490820011720362, 0.1449082001172034]], "activation": "none", "w_init": "xavierUniform"}], "normalization": {"mean": [14.208841758241759, 19.326835164835167, 92.56975824175825, 663.3659340659341, 0.09628879120879122, 0.10550999999999999, 0.09042328725274726, 0.0497001054945055, 0.18112153846153847, 0.06275017582417583, 0.4087145054945055, 1.197063956043956, 2.91916989010989, 41.21023516483517, 0.006915367032967034, 0.025620356043956048, 0.032305889230769234, 0.011834327472527474, 0.020381775824175823, 0.0037776534065934067, 16.37098681318681, 25.66505494505494, 108.13145054945055, 892.3428571428572, 0.13193323076923077, 0.25901665934065937, 0.27713803736263737, 0.1161725956043956, 0.2904171428571428, 0.08418265934065935], "std": [3.5877033373034073, 4.373059793993258, 24.829069398475255, 362.89532339313917, 0.014204302245273703, 0.054813662979505115, 0.08292877782588133, 0.040079238292177896, 0.027602631222048177, 0.006983729156841554, 0.2873194535025765, 0.5588951425546324, 2.13166123049065, 48.11977777386588, 0.0029132469645184243, 0.018034527025261322, 0.031995772909142926, 0.00625771405199199, 0.007921061026044214, 0.0025302674685669883, 4.909371058825427, 6.204410549899669, 34.384936404220376, 583.3204836321144, 0.022549515096795137, 0.1629190706793953, 0.2152739404787926, 0.06719942135673804, 0.06091984043700133, 0.018338820523758678]}}