{"layers": [{"type": "DenseLayer", "input_size": 30, "output_size": 124, "W": [[0.11842369569089806, 0.25393301152519376, -0.16775056918743836, 0.208866730966214, 0.23800772979377596, -0.030650141844582156, 0.1805583467396315, -0.18288941231153083, 0.020154008450201558, -0.05031524575332909, 0.1172902426781507, -0.021425476065002547, 0.09839581216922323, -0.15245146813358224, -0.2196572957845357, 0.00019084172638437794, 0.1300027047275959, 0.08898339100282783, -0.09164000633203291, -0.052249232850795274, 0.1300929303108584, -0.1928928694562273, 0.077860838624664, 0.153902928857362, 0.21722386172972347, -0.18003412225175308, 0.11365567457474904, 0.12202667543128408, -0.16914943714294234, 0.060005864541549124, 0.05245586000099653, 0.11793981455437837, 0.018887982082782043, 0.09387648359401908, 0.1223263672963614, -0.11367586631972787, 0.1013434937783148, -0.03086253086775489, 0.06611432160568503, -0.00023395503404989592, -0.04028873525182987, 0.10328557665412351, 0.048099193803326, 0.024849969918572575, -0.13128338263275577, -0.18552209975855802, -0.05099521416595675, -0.16849001692502083, -0.13259238569550558, 0.20039945346684426, 0.046145420164722895, -0.07033349652661418, 0.18764242677036624, -0.1389111684547937, -0.25189856409307504, -0.27418150023058346, -0.016871091306056518, -0.26678906475606196, -0.04780898672869302, -0.11644535852438355, 0.1366915167547604, 0.1443749567924387, 0.11735360087768168, 0.011770835722848852, -0.10216626267877375, 0.04001608881156178, -0.036548905016345154, 0.12055443880425537, -0.17016275174524367, -0.11788219253374155, 0.23390029864844622, 0.09849624822417088, -0.0649748901446458, 0.14495909940278387, -0.08637184417228891, -0.07402779436545297, 0.21098552990061087, 0.19329199764786525, 0.1408086532934803, 0.01192872007684229, 0.03177736871347849, -0.0989631081834365, 0.14719798311657273, -0.1047595014493384, 0.11864216363510421, 0.16048116649271071, -0.12494689415067538, -0.11692114607369099, -0.052504123675652145, -0.05110933356070499, -0.015862129954347444, 0.09473829202909571, 0.06339783385175256, 0.09426983837639416, -0.009842156575240556, -0.05992563196884737, 0.1089917723225282, -0.04709655365761588, -0.1434276979271418, 0.09051925275585085, 0.21857944880734445, 0.03934523388783793, 0.07425256528332032, 0.0869480315304017, -0.005226966496414849, 0.051473832018557236, -0.07274418318392117, 0.19612118177969803, -0.14350075745467306, 0.19137499362912067, -0.11621849525137422, -0.2082324539084897, 0.025791574280400867, 0.09959550613936514, 0.021273191550944075, 0.1883681245063701, -0.11792138873125571, 0.011907960526667915, 0.06484460953914026, 0.11369660980295776, -0.0003218530502350815, -0.13100979879574826, -0.059143213625337525, -0.23909125432373726], [-0.21774975386180992, 0.21078256979106297, -0.00478124013007089, 0.09793644441897835, 0.25266209177622095, -0.023790747318789624, 0.0746733675957845, -0.21151110122757708, 0.11088657587065175, 0.014699316574794813, 0.19977540092628704, -0.06333823479442705, 0.18862937109680905, -0.2033234102163957, 0.14328805561239516, -0.18739842430010192, -0.182980053637051, -0.1513514552157718, -0.14574697106891346, 0.18083851139551588, -0.10348259449315612, -0.1671393762602022, 0.18272452441755374, 0.022413841259550794, 0.004262073591971889, 0.10337457482082786, 0.10284179387285888, 0.0829436065280577, -0.025690324662048365, -0.04119554344972573, 0.17768823016771937, 0.03644172263250777, 0.11676442797110831, -0.005669524683432955, 0.016682011410211132, -0.12261603205671445, -0.0530922232847932, -0.14030703320179688, 0.016612095525392362, 0.16946939415015552, -0.043347194383200366, -0.07253106648313956, 0.2577652764423451, -0.12735819406637008, -0.06631385364090922, 0.10962524440967339, -0.059727461408719096, -0.0444567575029114, 0.1223105437749601, 0.19900053485901217, 0.14106247512482908, 0.16002520612871735, 0.10450153787437819, -0.05442774135096006, -0.16900389728738976, -0.15502855577608465, 0.2064198661155182, -0.11979564898263617, 0.09648491362612202, -0.16036163707910855, 0.04713708761143365, -0.12154201980800235, -0.1051394599961162, 0.05517087879988313, -0.12384882044995173, 0.13848253590399437, -0.04073645718938803, -0.12231452990348668, -0.20361127515691835, -0.05250582214277753, -0.0036916384499164723, -0.10475673305111657, -0.14371639724989344, -0.1374222241026994, 0.012279250076909486, -0.18007335393452908, 0.11725807206175999, -0.16373502354038066, -0.08592859595841724, 0.06714083914482809, 0.21798614177673473, -0.15040473856072004, 0.18124879694385168, 0.09000058192279896, -0.08280383686547231, -0.1287266193969227, -0.11268632779111255, -0.17297564865299003, -0.08201153935830417, 0.014773650555259114, -0.21778976776641976, 0.29110446426804026, 0.14310659032848874, 0.21151136722563216, -0.09322325270462715, -0.0014179936211690931, -0.14672980134248578, 0.14096501904131858, -0.05899524558549722, -0.008046870134118199, 0.11246623429446007, -0.1633154542752459, 0.05089103851818938, 0.17423109912711374, -0.11297537681667834, 0.059141376272628686, 0.19094980258695404, 0.01755882832191728, 0.07529513344554463, -0.05549377769644881, 0.07595320738378925, -0.18903908127636238, -0.08271403730876213, 0.1303669576378814, 0.09727959797521682, -0.07247333065363991, -0.1401429692610643, 0.2206607419152337, -0.1533570266889387, -0.1620635911813105, -0.18279675554210179, 0.10238296979307503, 0.10423004488940318, -0.13160642610122159], [0.0035770694499742415, 0.047833190804465096, -0.07942153222660084, 0.039172639098386614, -0.02269662378019071, 0.13529511028778182, -0.04880518173067995, 0.012078280787960385, 0.08268780272649806, 0.20282098603542595, -0.025640920098536035, 0.19997972222916494, 0.09357089644928973, 0.190724698714644, 0.15452133776656718, -0.13459789191248767, -0.20640329331047574, 0.02273994097072652, 0.0756663354538853, 0.023081046337743952, 0.14039702113475727, 0.0709013745369034, -0.057820865821001655, -0.22780768111055302, -0.00027061418200506816, -0.18871097774736212, 0.04839785711039843, 0.026809871751322583, -0.08741245018077541, 0.1116462100078193, 0.02636840640440568, 0.0029920522140933115, -0.1945294293629039, 0.10958737828691135, 0.08261994874098151, -0.12573887664612698, 0.0764943687740257, 0.14326260769530158, -0.15350420744286356, -0.10063152788771443, -0.04949975321842146, 0.1520834968579076, -0.01845277539471319, 0.04862192966041241, 0.18939380092669067, -0.17356885959961296, 0.1827229523884773, -0.13465901005349765, 0.17228255921737864, 0.21786188188787234, -0.06738102794581768, -0.06331395096312517, 0.01770928068884354, -0.03234402376633784, -0.03788880950265382, -0.12573330397077612, 0.18404196588133015, -0.2393711986084876, -0.06867221924493153, 0.03448312420339126, 0.11542836620678484, 0.07913092173674482, -0.1136068398089776, -0.19815457752668467, -0.14911788276102686, -0.16899887813328843, -0.1657970572426978, -0.05939735618792885, -0.16672998342404, 0.014209858900155822, 0.019518539258500403, 0.033819449283229365, -0.10253757393110294, 0.1326839367949764, -0.22506180255128916, 0.11576361705517554, 0.14867942550617533, 0.13845518239870228, 0.08914763700327219, -0.2083005680574627, 0.057770845685299964, -0.22754882355027128, -0.05027882950954493, 0.023543611882758306, 0.20487401303363006, -0.14143934941165046, 0.1950180335747935, 0.03079918842488079, -0.09948603755928366, -0.00804983012088081, -0.018507849470156212, 0.09988446576544342, 0.025169485231797704, 0.10448499969444978, -0.23420155044776622, -0.08477825378610337, 0.02703896811241691, -0.13641432910521367, -0.010614753837188526, 0.18361805976487064, 0.18203622522172486, -0.14269633747974098, 0.00782215461148308, 0.1850498026040313, 0.06529759361814694, -0.13776347795734423, -0.07280352321422394, -0.1098480547782075, -0.062363215368608595, -0.1855576640284291, -0.04361620500261665, -0.1028485784844678, 0.13946288800626988, 0.16593600823714033, 0.12395233605823297, 0.024741293076206174, -0.2152358776714544, -0.018240050427372704, -0.1982106740625001, 0.1019315676767911, 0.0893530816486387, -0.0396042391348124, -0.0445474559745203, 0.04650840187136606], [-0.01489588426953148, 0.025101078013831896, -0.0475960843947325, 0.10846416104652644, 0.014777930808712212, -0.11726249361046137, -0.12817945067553935, 0.025264688610593968, -0.02061536765677571, -0.09511113074060691, -0.06394814890615196, 0.00560968860663435, 0.10447366482854188, 0.13135207001055527, 0.06013278482056652, -0.19246708363445256, -0.10143123488202181, -0.20448883258552172, 0.11591699402207087, -0.17358087987705687, -0.025440305650783066, 0.09222695459538847, 0.21365333383623633, 0.152356194819427, 0.08410413519415293, -0.13172257454502245, 0.16011568191586426, 0.18087359672744818, 0.13658954598402404, 0.03712034270148082, 0.21370886174973347, 0.09972845872061949, -0.08776189736701163, -0.1498475139216189, 0.111778505208799, 0.05670952915940098, -0.025259649739029225, -0.21019464238133506, 0.15203432151649393, -0.0811747074902852, -0.03008626499631103, 0.02414803283207265, 0.25347637281931895, -0.11372598665460477, -0.09973328363486748, 0.12379888879810624, 0.23703826357959762, 0.11666764992530798, 0.00972400406217275, 0.08194225461928378, 0.11940172111899201, 0.06463712249053606, -0.03286046481653291, 0.08693024499986743, -0.24064879925289961, -0.21459080680235584, -0.019967609946038984, -0.18092482727010106, -0.04352495145703979, 0.20549511559373296, -0.08918368849222005, 0.12420161413176026, -0.017692543554870724, -0.20878909824296632, 0.16671524108077088, 0.04255897877243123, 0.13596575058779717, -0.10247141513783016, -0.1622764009668143, 0.1005603447912593, -0.07507918387635261, -0.09003867262942059, 0.13987390467396305, 0.16407450551883002, -0.007164144260378143, 0.12645216150386146, 0.07927598214956655, -0.10565003405893796, -0.19885161767006473, 0.031913919908354786, 0.1079132878506765, 0.07632007602816407, -0.09618275427804562, 0.2120621716955649, -0.12813213512838442, -0.02054302598300978, -0.11426726707962669, -0.10061164314744135, 0.10511830141170274, -0.14243060773846336, 0.0046803583542448625, 0.10316664481065645, 0.14675324342005433, -0.0030764536282743135, -0.2229829234833109, 0.08023215208512127, -0.05633290830291017, 0.07309185149520239, -0.11348037452274652, -0.08278867228632834, 0.24904901367219653, -0.054359071842842034, -0.20801871209116013, 0.061539444399938, 0.07868676483717706, -0.07298543184374347, -0.05674232909988918, -0.008974844378620995, 0.0768970487140379, -0.09062164352494814, 0.18159411741432885, -0.09948317759886864, 0.06648398779605676, -0.14829356262314505, 0.16825776901805736, 0.1260180793084887, -0.06776232979437435, 0.19023832152404696, -0.17962662466193446, 0.015571042879462343, 0.07522819167673668, -0.12290128416815381, -0.04359873948276364, -0.019959077168264526], [-0.00998745717486301, -0.06535114671180091, -0.12074195583954257, -0.15253209197204984, 0.124369188511328, 0.1990712709461951, 0.05677776918905642, -0.1260904681831421, 0.1418462681709789, 0.003226551122365059, 0.12235331760115184, 0.1729664048580582, -0.0716194187767622, -0.1548435768171249, -0.0011867531019537413, -0.06115201692627327, -0.13298559965999704, -0.1193194592854886, 0.07083704857869166, 0.1534698500169842, 0.12542064994339097, -0.14011601895040185, -0.13323729385408792, 0.043869196336607345, -0.06194753365913772, -0.04315760125193535, -0.027906573105232698, 0.12427849344582356, -0.048190472329835594, -0.01214583203494738, -0.05667745386432313, 0.02610695717745115, -0.05017986476927799, 0.022962449305355702, -0.20260536101888513, -0.02680243105232464, 0.10230499060072532, -0.003931750060045424, -0.16710058888431467, -0.05166668198362524, 0.05138036347692646, 0.054442052260125266, 0.14656079743395198, 0.139160029923806, -0.013762803913443911, 0.09235188540512113, 0.19051803816822477, 0.1855540299210057, -0.1248577490713391, -0.052610719194907014, 0.10894855583627934, -0.03143908409960914, -0.13886316878697869, -0.05651941574207179, 0.03629415874560981, 0.013611903098485163, 0.19494265852446355, -0.004415708830477034, -0.16059188341718036, 0.12470046621824916, 0.07262510210803605, 0.04170120876912364, -0.1812362096280891, -0.11584685612795803, 0.00046722340086976827, -0.0682338876511792, -0.16033023305244673, 0.12683654049241622, -0.052079134385439665, -0.1251244523046792, 0.03122387236920097, -0.12445967957402215, -0.02977158553906476, 0.013976251549500636, -0.1545107380931617, 0.15071056988207113, -0.07446463997012866, -0.12307534769211838, 0.07485712523235609, -0.1755176626681358, 0.1288185363123225, 0.15851474703055002, 0.14314864173564462, -0.024075577404220762, 0.18516088606162276, -0.07799808672981332, 0.21841995622956614, 0.13013977660497045, 0.09850085493928372, -0.1170485090919273, 0.044268944872923, 0.001860852612127088, 0.06860923249127543, 0.105684293787766, -0.05740450090697128, 0.1929155248351854, 0.1893203271556511, 0.07242353083893667, -0.18971144990262628, 0.0687913030161849, 0.13139107255227217, -0.1571335053487131, -0.20206060948555815, 0.16186849189241612, -0.07786405900643795, -0.053531704117658334, -0.03267146351724442, 0.08795439124620034, -0.05057752712304251, -0.004804011632592919, -0.012109151206594271, 0.10426244179151267, 0.08299664103679986, 0.04095805465910836, -0.09534778222325585, -0.03660270410933886, 0.11931637503992398, 0.15670768907343996, -0.10931453835945248, -0.0009221924998150499, -0.05202838824809229, -0.08134357100103122, -0.14801321412998675, 0.050560228962882696], [0.07708349268072055, -0.12453887112989849, 0.22529668333897754, 0.015510955212286704, -0.010693777365184972, -0.17828834712811012, 0.15125597749213868, -0.004856094998288996, 0.18178765869773636, -0.12140615350229769, -0.19950318404579587, 0.03358559969899799, 0.009003226480703381, -0.052054278119346466, 0.11234015131490423, -0.19150877378995512, -0.014406522944382816, 0.12186491709583752, -0.0691682311325541, -0.09890638250120033, 0.11996354470573213, 0.07926827655480273, 0.14734551784772082, -0.033983843566558654, -0.07218650116500656, -0.021743470917913118, -0.003540698596166397, 0.03977372646785402, -0.005612264872028758, -0.1800581539887935, 0.009109232787973704, 0.15511159618572556, 0.15679509015135432, 0.19061907667604688, -0.09402768624888937, -0.023678806370870973, 0.056700621523227385, -0.08207834638023401, -0.11887834523518433, -0.027718662073324022, 0.2291985574078422, -0.15193663236309976, 0.14980247927971624, -0.11492297463305776, 0.09024836624176956, 0.0389880435574061, -0.10462358373505914, -0.18538676084261244, 0.17862596532307506, -0.17599147039761492, 0.00039309844389994955, -0.18735043000230447, -0.09259690512189526, 0.10454001280530163, -0.025652298208735894, 0.04105370555243369, 0.09494878035126478, 0.055727241209955446, -0.05509201653742552, 0.04737508242509343, -0.0066098630234272, -0.14426662314556513, -0.12369609715574086, -0.17465334514943084, -0.05443610852986824, -0.08646182866781561, -0.15943032892649542, -0.016076807937878898, 0.18605917282321466, -0.08694442797586877, 0.1106451367526549, -0.09220546571968319, 0.024637245629858598, -0.10217463508760294, 0.0809759167556305, 0.019463381523823636, -0.05480815485092131, 0.1447327192494519, -0.18628183845970864, 0.21908679611747872, 0.1690198366353427, -0.16262139314177876, -0.16965888721232233, 0.07197360382311732, -0.11116485710625662, -0.03176122864563191, -0.10653057745784911, 0.17046511512021895, -0.18748475567098774, 0.042545113547883436, 0.17861091855809832, 0.1192962888345152, 0.11168830077640488, 0.020558136823981984, 0.12050903991282592, 0.15037361712930308, -0.17821614939909677, -0.003757997453267367, 0.07637145505996103, -0.13395092116801913, -0.17285500798033665, -0.0011830793584796308, -0.1492402343110925, 0.13258807263392952, 0.08052729128674799, -0.021525470117489124, 0.03524118325726673, 0.14384298423145522, 0.09015651413796821, 0.11094836138146673, -0.06580009148036069, -0.07523030214300312, -0.1641877368631457, 0.08793658473027688, 0.106184923481411, -0.09626415337689728, 0.16171501274597835, -0.1092761073568588, 0.018109294980113898, -0.05854284028674373, -0.0035733215191898226, 0.18391535171175746, 0.051085389770758216, 0.11996590366987894], [-0.13747422582651422, -0.022850419300708254, 0.027136400153011712, 0.07050163357689608, 0.025356508166679635, -0.0028627543916324876, 0.05343374062171515, -0.08809992981092782, -0.06602070537700118, 0.11918101660505333, 0.09581938605444172, 0.2143399181919566, 0.008275884819798197, -0.1784993760789333, 0.04122537427864114, 0.0027699322795567507, -0.2633442153720212, -0.09685416951932149, -0.21500241948764193, 0.12562849070880525, 0.10069242644377045, 0.0432086969507157, 0.13711950435182566, -0.10888141792717979, 0.19125109941408286, -0.08728478288074301, 0.20292962163958084, 0.19664559212964594, -0.04082597473765746, -0.16279850291720213, 0.21090497375799644, -0.11819196113650629, 0.1149481355558684, -0.0670130302109967, -0.014794204036525618, 0.17107946476968738, 0.17564618475783655, 0.03012286925728099, 0.19430528568164487, 0.016089846929542843, -0.21323811361436285, 0.14626690039402634, 0.15227598491624872, 0.06306349077139482, 0.030719437043473637, 0.08899034474512131, 0.2137311962845679, 0.21445495723976318, 0.0172639035563659, 0.2440781824281698, 0.16087915149151172, -0.2168755723353985, -0.04547251278906463, -0.15153347595696132, -0.23214006966365017, -0.17441278156267323, 0.1774383995454129, -0.18581987342004813, -0.014756371897618163, -0.039978649505169196, 0.01457117147241832, 0.15211915127637876, -0.06207892014077446, -7.163715508038856e-05, -0.06944351283288462, -0.19951035076345344, -0.006487924014653677, -0.021348258568545515, -0.09818468102562089, -0.0888375938287389, -0.08947908664517398, -0.06251952686282145, -0.07334409235864317, -0.008987353461996547, 0.013712365378610973, -0.16665265490393708, 0.046559663794674355, -0.13694788008498382, -0.09366863689493975, -0.03701238588043151, -0.03130181743010441, 0.03081740519343807, -0.06108065048932907, 0.17405988284604515, -0.014254238628832816, 0.03719442708012786, 0.1890266831177398, -0.1679948459021104, 0.12698251229536406, -0.026032031801121475, -0.2300674491788155, -0.09681128824823527, 0.19258835474161065, 0.023158197176493023, -0.1558483208858821, 0.09491976073777544, -0.09791168307426931, -0.06798915250048321, -0.07747078750219537, 0.16819384839608437, 0.0578635205821323, 0.09531614621641182, -0.2122144054805472, 0.020693982567975343, 0.004019366220129504, -0.14477727023487882, 0.20573873574462218, -0.08067026274478242, -0.009414012321655119, -0.08035215516227273, 0.16536870579448604, 0.11453398584065672, 0.10072011051002709, -0.044470152023148864, -0.06159967324629525, 0.09754803910818452, -0.18493041379839945, 0.008958663425135162, -0.04655258525642544, -0.11260120961311734, 0.06101543433519416, -0.18916297823102382, 0.1361484883677924, -0.1483296287385775], [0.16074509885498783, 0.00743397093107372, 0.05180144985206102, 0.0020762086809672127, 0.2554614451459931, 0.09968810817527307, -0.010215725537828112, -0.06536679413358223, -0.02289457649776376, -0.15108186845209542, 0.11647772993742743, 0.04872077913969041, 0.22298758468566224, 0.1747357690672099, -0.14175827407791564, -0.2102690352477152, 0.03789480480657452, -0.14854629027585806, -0.02623708323420352, -0.17648803383413547, -0.012383622241308782, -0.1514852790072398, 0.07617459362735075, -0.09256533676178141, -0.08475039328869786, -0.036135029731519074, 0.01818871681031376, 0.028839175445551955, -0.023839175780948192, 0.12077494900693014, 0.22758876230059616, 0.0011430489883960334, 0.11230269922937802, -0.16373852494050473, 0.04180196090840408, -0.05198651038017093, 0.12464091877193191, -0.12812800543743402, 0.10547720565209126, -0.04028000271536993, -0.1832044367399739, 0.05360115409808316, 0.2519792311402336, 0.16834691245856234, -0.12343389821268114, -0.25235672373091805, -0.04895453345708348, 0.06761762732811487, 0.0733232192241962, 0.16632955417736991, 0.02120914266518037, -0.1587542834606811, -0.013009614924009467, 0.005642113732396065, 0.009612386385804356, -0.028785294404541736, -0.17616724751244733, -0.1723915602001995, -0.11851378898399599, 0.009886015839835283, 0.10756155644624789, 0.009581123841246179, 0.19048689031220423, 0.008026960921168275, 0.016701391485708712, -0.15507471178190135, -0.19588172503585546, 0.04288723528780275, 0.0897443852785671, 0.10265248826189234, 0.17182216155237007, -0.11901456309923819, 0.11672845997728408, 0.08680964066232477, -0.14197538834226875, -0.04980424343862838, 0.05805747540223171, -0.15048489493733874, 0.08408934874515664, -0.07394982780222198, 0.18725352949771845, -0.0055661153620196364, -0.0486917126428072, 0.23106976317198116, 0.0507940089010177, -0.004250384612333762, -0.018409400248705465, -0.05172372308648408, -0.14796384756333075, 0.007963509080674072, -0.16208935813984465, 0.2659885041931245, 0.19422488442520555, -0.03437618531374231, 0.062097613077753994, -0.09226281813939022, 0.20078988753747662, 0.07285000353374664, 0.07070231044852339, -0.022187610873246576, 0.22188759652626208, 0.016966106572871856, -0.024703615126592193, 0.09716777897706722, -0.08244072630189135, -0.0494832878126816, -0.027163450329555174, -0.06751275181930623, 0.022554144010628326, 0.07555778227387602, 0.06947809734258605, -0.08823445820792411, -0.03507886866181885, -0.11951548206976517, -0.15953899862177562, 0.17818648949116617, -0.21136979522309687, 0.20157921262599587, 0.07254733979141641, -0.043132038817031, -0.009769866155888941, -0.20759829094511734, -0.06357043149779484, -0.2501475110313332], [-0.14202060285765483, 0.14798844464661637, 0.19662435789850738, 0.05661986854451253, -0.029598963416126164, 0.05404348948800765, 0.11572079615978842, 0.1686808781309696, 0.048987901612863365, -0.18164960456129026, 0.12121139313114991, -0.03068758963414434, -0.03226672186668535, 0.09256207899748801, 0.12349159888043329, -0.16977786535671244, 0.0894165745361544, 0.17346381293081894, 0.0269411234641006, -0.11574444904046677, 0.04283544875672096, -0.09590910737458602, 0.13961156551194354, -0.04042531596658516, -0.0942138891979242, 0.012475294308070543, 0.09788193756786047, 0.08800804788847613, -0.03765054851230576, -0.062437965304880716, -0.10920329237600887, -0.13424758130348102, 0.05463200756948177, -0.10331243496387114, 0.16674289481988405, -0.16263447392047467, -0.16823799521913604, 0.16049235106557658, 0.10272191897939019, 0.04884894260839676, -0.033479750179925306, -0.14363462800356921, 0.06917646684220824, 0.04491940918200523, 0.09846054990807541, 0.18702547281390758, 0.036485653929131036, -0.1485318893112275, 0.10094283386261785, 0.03408280322443078, -0.014116477062390921, 0.187975348075788, -0.08582764524109555, -0.015561715869182804, -0.16201045932530536, 0.12636572769425364, -0.20321727185729038, -0.07386738051602404, 0.06859067976494561, -0.18364182490285455, -0.10621086033607874, -0.09628382886987714, 0.12461469326540545, 0.025486307284982444, -0.15944368268076337, -0.056027546655863035, 0.029637176836686967, 0.12840264806457014, 0.036457964215429566, 0.07720675591350672, -0.04215276934088011, 0.11743459696945617, 0.13345852953651993, 0.16656617629278328, 0.2087662419028735, -0.02476871407306903, -0.13922360446800092, 0.0628420014508214, 0.10787238674290751, -0.08830758853894224, 0.03610289990310351, -0.12140234759598519, 0.08466905537705183, -0.06948696437080394, -0.13254610885490592, 0.1284122497568268, -0.04793962496809209, 0.18802689199381953, 0.09950181042690179, -0.18971744861365916, 0.012507997640734448, 0.13351386858497175, -0.056331426990180344, -0.08311895446933647, 0.1580034694276675, -0.109606122083911, 0.044705363440394205, -0.1649662983952399, 0.009213773302920135, -0.01915329975490635, -0.026510352704809746, -0.1761281498659947, 0.07712275932494636, -0.1543087554158816, -0.15074634878454252, 0.09511371347535834, -0.008624090001529175, 0.11307053001854785, -0.152980245361588, -0.00884761419809756, -0.008136366693895015, -0.10468059314101841, -0.10177977621315423, 0.047560977091095635, 0.11311806252641018, -0.14258868231233007, -0.03371011161937135, -0.07046335935055154, 0.15936377303638738, 0.07869854835063829, 0.008273479405450953, -0.13449538053364113, 0.1365183928444974, 0.10896467974423618], [0.13932201653534285, 0.02783477645320351, 0.05001987110995018, -0.20211576914866206, -0.1529870987713364, -0.14847925823751745, 0.10381911420689245, 0.20466991013175664, 0.1317456726546478, -0.07549663212810231, -0.02519393229496786, 0.15938230478635504, -0.04237027182569643, 0.15248824366180988, -0.15526832407255003, -0.1916778323315615, 0.17445085662331708, -0.013344790385032711, -0.16182991932478888, -0.08318691655101654, -0.06775715196733205, -0.03852973723267581, 0.03550426391825651, -0.04058108437525768, -0.11617012622727359, 0.01947935230044755, 0.06023110658112073, -0.15350008782425892, 0.11142464454719347, 0.044002168756635075, 0.04217777378367137, -0.11111080242116225, -0.023026058777257868, -0.02063505746295224, -0.037294042489117295, 0.12567037673107093, -0.16288745826022877, 0.11317969559031954, -0.17890443752603724, 0.10478893334410003, 0.021198352177992607, -0.17182927105079962, 0.08565293381962971, 0.17233368334774893, 0.17016688800127253, 0.04711089936124747, -0.16620095907839347, -0.056310324288171267, 0.14614397275876134, -0.16900311391526487, -0.09108356456077259, 0.05024173777785585, -0.03915021770720068, -0.03731106171096398, 0.17729147688364782, 0.06375232051162279, 0.13028301542524626, -0.021398265692564464, 0.17316106914132637, 0.1698817439603215, 0.0557261587076635, -0.05343731740034132, 0.05199638353334216, -0.021807533324253843, 0.08660024762350908, 0.05434815831227177, 0.07005579354433955, -0.1455353310353983, -0.16663380376173967, -0.12079600216256699, 0.07073060688903875, -0.07349694787465191, -0.015147647833864497, -0.07827158057209331, 0.061274171440937684, -0.0999275765362084, 0.014722778123588468, -0.140961688559989, 0.11967438928059215, 0.1307533634988933, -0.10137405045725863, -0.059319440319534844, 0.006707840164385566, -0.008243469074047952, 0.08305479267057254, 0.11534600938601243, -0.034137048094397264, -0.15981920700543437, -0.11656520221117048, 0.1344081561597109, 0.10694773550999827, -0.04971521185981106, 0.04052401976415145, 0.17875472250574567, -0.05171971246514171, -0.14763976782367486, -0.15169303915339852, 0.09089960856918908, -0.01918472329362523, 0.16259427981022434, 0.12237254242443267, 0.1260037892973868, 0.13283119220993714, -0.20601343283200563, -0.13953997650317082, 0.05010572120612871, -0.09124705770456883, 0.11939476158946254, 0.010992729799122566, 0.031464658710074804, -0.08974545996739479, -0.030204069200148734, -0.13338901776516165, 0.043574605065441474, -0.1060729642168221, 0.15895715732194446, 0.07782905711378652, 0.13247635069598393, 0.20280397371229325, -0.08232968423544834, 0.19909640134247067, 0.027572662922320513, -0.06119220139733659, -0.17467801062855387], [-0.18100424590475125, 0.17546411517300628, -0.22574613544877142, 0.2630787455846604, 0.133187774880514, 0.14122149777794393, 0.212695501580451, 0.0764102776693849, 0.16908108012121092, -0.07382936713998269, -0.011904125362140063, 0.22565795169008485, 0.0041959597976132836, -0.02238484339085784, -0.03611732525536426, -0.13275396056953848, -0.16921478335690746, -0.14336120897512014, -0.12173000459287982, 0.21089888272448692, -0.045183770467518966, -0.1720606937003584, -0.09896274766300386, -0.21975980763530858, 0.0742591915024035, -0.053327956697106216, 0.001017782709359411, 0.009212528362195969, 0.007566648308028794, 0.03359867027595651, 0.19886799889101225, -0.06905659292198449, -0.19312062697650076, -0.044856165681559965, -0.12019011349022705, -0.2116969356363519, 0.04644966059463856, -0.041625086397912056, -0.029745887063322637, 0.015256754552659535, -0.21207872141849315, 0.17254304593639186, -0.006620032438779446, -0.22587811310418393, -0.08676481950869741, -0.2960187311718191, 0.2196100161193648, 0.08993298660215414, 0.19396098871745043, 0.047606483105256434, -0.047847456162220844, -0.10933070361762154, -0.05927429120227704, 0.15366894822906565, -0.06802381398898735, -0.2782785843236849, 0.04396039393556112, -0.33241178381441167, -0.07157548988930656, -0.11542518903868255, 0.031114666593909036, -0.01057873545796629, 0.1818516194513944, -0.14363098388688708, -0.02252330745066187, 0.14137617196382019, -0.0953209333936473, 0.0328850285265415, -0.2106231061904434, -0.1760279326165554, 0.032044183959027805, -0.008105658491132163, 0.17311873727990604, 0.12434237843511237, -0.11418974683113199, -0.14022713078652127, 0.24788693319703217, -0.1665066471571874, -0.23750900885363466, -0.30315340324963935, -0.046849419829106065, -0.08702208753538307, 0.16342306989619385, 0.2592030841020746, -0.09004538640719707, -0.005366158755339682, 0.30551643483766733, -0.16315162325484675, 0.14958078670539895, -0.16320151866048282, -0.3285248199038507, 0.061837339685735494, -0.04450393188870081, 0.04554941392975836, -0.19460559451669632, 0.15618733245025732, -0.06899130591272912, -0.03584301911933164, 0.2029446263222646, 0.32693484061705824, 0.30764462111441004, -0.18724866856877984, -0.05751817116520511, 0.027599661236204522, -0.09161944296155519, -0.01601814237051614, -0.14508278462726673, 0.19268933389952542, -0.00016400691167290803, 0.19105503279020963, 0.0131196116104925, -0.03202486106956887, 0.02807603346733335, 0.06640453754407473, -0.21266467273392678, 0.16062604281248463, 0.027075274133521173, 0.10240031211111277, -0.05526819407800574, 0.10371943456359949, -0.1933449765684256, -0.21312914378397532, -0.10049747785298443, -0.22350456633957377], [0.05209977100181869, 0.009701276995997165, -0.0759139751746322, -0.018743995271749907, -0.004425333449532536, -0.17298772122377123, 0.12183680703956352, -0.04911462621055989, 0.04162592834459847, -0.0850082918034733, 0.03512436032258428, -0.15185859265488824, -0.0637930400250095, 0.04261999050832352, 0.19903517413253757, 0.07685330856772732, 0.02600160607608347, -0.011054136462141819, 0.020979705655861946, -0.18607225527739138, 0.17546270451538265, -0.01059578988738404, 0.038281711693068377, -0.08178414646479748, -0.22602309370234214, -0.012648902447940735, -0.08874884720826842, 0.11160783784236647, 0.21059952182734, -0.1578246631239923, 0.13717147551752604, 0.16239102364717667, -0.019651901448467415, -0.008474853373909057, 0.03206835888476552, 0.19376739698664275, -0.1566660804379321, 0.009517962924989094, 0.002628712508200756, -0.1376008528518113, -0.07981288537784999, 0.18125559046671544, -0.16681583971417804, 0.15667823848198983, 0.025016482329458373, 0.0007546268414216694, 0.11573229318763456, 0.14701467527589904, -0.09875296234576339, -0.1388383516644863, -0.2295226150765927, -0.07596179022012971, 0.14912813213253875, -0.179027836799213, 0.015026001027994389, 0.018422519127312055, 0.08532143338476228, 0.17492034266049175, 0.12950082747103991, 0.18161497546511632, -0.08426199309810044, -0.07822126751012376, 0.06529625045189125, -0.17893184597474998, 0.14482632638681125, 0.009511230020762165, 0.045299584871889, -0.14547289218330375, 0.031846298837678436, 0.021439631109218857, 0.11943992989291205, 0.19632046697911065, -0.1417141897089871, 0.07174860642410374, 0.033580039171127604, 0.022474782809088267, 0.006129149615916357, -0.09790410158913518, 0.1832318837276494, -0.10627902115316677, -0.15923551596978092, 0.1506971008370218, 0.17074316120733052, -0.10846382217455197, 0.10495706868031425, 0.1126608548540163, -0.17906433745625394, 0.1236394209483623, 0.1743475018288319, -0.17916125322275883, -0.08910244078977773, -0.20368248406649497, -0.034235764668623644, 0.12029194420371858, -0.06080075855695263, 0.10169253502301588, -0.13395917296237947, -0.16769346609997174, -0.08517397370899069, 0.1329917580700109, 0.010683947422026744, -0.14959562307809038, -0.029384493515720596, 0.08444586012384248, -0.11571554003800869, 0.2078629984501428, -0.08253769572100604, 0.14889097093018855, 0.12742880398904652, -0.09824699635483088, -0.11522475020188336, 0.02343778800356116, -0.08365699105733614, -0.020151045584446015, 0.0747601857464763, -0.16692692255852803, -0.1172739563817073, -0.09478916327067886, 0.1916872701148005, 0.1240964595239731, 0.19728065943856485, -0.08603513354720695, 0.16481733920826896, 0.015885087706332287], [-0.09820870891664918, 0.067340994472418, -0.09382995529462292, 0.08671391755429692, 0.05893435253184712, 0.14409798902731707, -0.035223385247128335, -0.07656637485172672, -0.094926564825551, 0.05714924270160364, -0.007594846841087298, 0.12171500984015737, 0.12533379877182885, -0.11592672908110609, 0.09490901986300464, -0.12874996690042786, -0.1467401345403514, -0.09703056147437882, 0.12275926288691771, 0.11517320863985549, -0.10070872633609924, -0.19196437207253025, 0.2331834945064037, -0.1825155189811293, 0.25833032735436284, 0.04443532982989963, -0.013688971816036705, 0.15400875571583678, -0.17639365574007287, 0.11384069597113669, -0.048541487576912526, 0.18099227543451954, -0.06918129084023765, -0.15403728780920925, -0.20134492617200975, 0.005175329230943989, 0.22412073671526866, -0.2508041599806044, 0.1667990421740019, -0.04752192295572585, -0.046836416072990064, -0.07661208786090655, 0.08332143647747936, -0.19087411940226334, -0.13929821470638504, -0.18651503033525627, 0.1980578359413631, -0.09680366036295335, 0.1901310950768129, -0.10007802944628295, 0.2633125869977335, 0.08394300457834795, -0.11427415654730962, 0.10612203672184299, -0.1524140280013645, -0.08004805487069246, 0.20891196657640243, -0.30422008077508605, 0.09856125947759535, -0.1790316861105734, -0.10124779687851997, -0.10895168418787568, 0.0043916700970131, 0.0038722192548516585, -0.004820112926179792, 0.03309107792463637, -0.1484110347276267, 0.20217216463192328, -0.18503753089417033, -0.14601126001850276, 0.11062554923601944, -0.1066910749625525, 0.18517117252648052, 0.07466064403554222, -0.005255437957284161, -0.009550438180568903, -0.04601662121690282, 0.02916736114474397, 0.1435333499595991, 0.007239149644849354, -0.10710761368794905, -0.21689130637367465, -0.17612726773927803, 0.22668956814406999, -0.09361739869332038, 0.2088704394937162, -0.09301271586334357, -0.1482540476039436, 0.19619398622346695, 0.07297447109025694, -0.23340287515124403, 0.25212215521153925, 0.16557120253801372, 0.14050921208460732, -0.2564318108801158, 0.07282943005739441, 0.2079536031182024, -0.21626815227862006, -0.001677437940653074, 0.2632183418090927, 0.05451004115094009, -0.014008016677786724, -0.23928075045128072, 0.2452728188889732, 0.013105965127770203, -0.07291984865830692, 0.1850324320585734, 0.06460456097203936, -0.00392897239219562, -0.17562987137598762, 0.12279946619640396, -0.20537526632558636, 0.08106069492375904, 0.11514686384799125, -0.04617743377207534, 0.03407987884766075, -0.0974940791531402, 0.14376751742515007, 0.07646821578586996, -0.01700713271927696, -0.06328689898064145, -0.11845727848680183, -0.07022218356071988, -0.057703973054923655], [-0.21946460364168469, 0.009863019435760881, -0.18040053675730355, 0.209582685835947, 0.0015997405065774485, 0.13035908367862448, 0.16035773575162346, -0.12371226799568873, -0.016863886027293492, 0.08938426137944458, 0.20214557959142532, -0.03901302426900234, 0.13721083152181074, 0.04506341898999646, -0.14919305550248607, -0.02543674382673002, -0.2314541119980955, -0.06869233754543029, -0.19972671556271723, 0.0020510005850807754, 0.153942255725116, 0.10022306937917948, 0.04677589039449802, -0.24243818573214837, 0.02363018120234859, 0.009847190473503393, 0.0607945750767134, 0.036905677746272215, -0.19519643615301904, -0.1385674312351843, 0.23438586819097718, 0.21412788797213203, 0.005183491771734187, -0.21108429095119505, 0.1366065113843197, -0.010456739071852773, 0.24900681936763178, -0.1323645602339778, 0.04777540763811765, -0.018982475152094024, -0.255720607988674, 0.24178820448743127, 0.19450277565235657, -0.03275141776493375, -0.04180363591674289, -0.13547519462866464, 0.14603801090038437, 0.23221107732723575, 0.07962818376415032, 0.20256991350388964, 0.061509343074094905, -0.004242570665958905, 0.13385285013790374, 0.03571986128351274, -0.276239868138891, -0.22056417393983918, -0.18114557391130465, -0.1600076244124381, -0.1694508835575687, -0.13141755000008865, 0.08531749837655396, 0.12897140970993712, 0.06056750548962412, -0.07535424729346804, -0.03845785774495855, -0.07657132625509298, -0.19052112477673575, 0.14625973480626384, -0.05376951856847175, -0.0671982494873882, 0.18927198824521949, -0.0598076139945042, 0.0813477024561598, -0.0921038910309079, 0.12581289602444568, -0.055091046341689466, -0.13874265108162237, -0.22221921601633302, 0.08088415487912581, -0.03491906461939262, 0.04533665137595299, -0.1266178000602124, 0.051262476118094785, 0.0010962989769044233, -0.1352327557567492, 0.21483868372973927, -0.030688564590490245, -0.1280056202843532, 0.09765121599187283, -0.17396371132403346, -0.07126159479488627, 0.1601841020296363, 0.10622898932753282, 0.23252837411483743, -0.1929334720741896, -0.06447599393870497, 0.13166207523489093, -0.01439937856431229, -0.047779633372463846, 0.23554529696301044, 0.0671776972370998, -0.09511143132546193, -0.10345497388316698, -0.038164788154069616, 0.024712689465094508, -0.23641148123718653, -0.11374096211389703, 0.09369906767916127, -0.053014609836419924, -0.02151652890190204, 0.23049865771314865, -0.09362778461643631, -0.03653948935930244, -0.07187675909166066, 0.0715091381745501, -0.02093160194916047, -0.15302427377295266, -0.048726345308964504, 0.0722291563702706, -0.15101613752398502, -0.019603843513620735, 0.009225455196614014, -0.1501157922557234, -0.24963712679493072], [-0.15325876581673145, 0.18727175123098513, -0.15280190380234016, 0.17795880512073692, 0.057662606029940666, 0.06265702545659692, -0.03848814708519098, 0.1460806299763804, -0.17713366769194644, -0.12867558553005348, -0.045145156638161626, 0.17376894644768337, 0.023832741251308128, 0.03183619678432942, -0.04068215718366139, -0.15778153230414843, 0.05510341864061756, -0.057195288780877575, 0.005366522348492735, -0.0977225259946988, -0.0983375447236839, -0.16883257745257188, -0.07840624865444043, -0.12810476204631838, 0.0470046770725536, -0.02021621729881635, 0.02124360413593767, -0.09314764681467391, -0.05600941438110693, -0.18491232033505145, -0.0705516953090453, -0.040498978626972715, 0.11380053791125604, -0.13892608602827874, -0.05120077824557199, 0.07730823132243567, -0.14978994481257196, -0.1151734421924743, 0.08903670013164218, 0.12567184428929776, 0.2531677758748974, -0.01619600697311199, 0.16608526509062124, -0.16401839534750326, 0.08532025778536885, 0.03990357422684991, 0.10497365038854789, -0.14081532684312512, -0.011150938702258278, 0.08996833657429576, -0.04955843151706411, -0.15539535213702288, -0.077165562606122, -0.19715130320250804, -0.11057688624522473, 0.013104172523939271, -0.15621594378156967, -0.046750883420928424, -0.053730061590374766, 0.1310967588598753, 0.07351509529484143, -0.16620993496122036, -0.1377869144996496, 0.038258954239549677, -0.05941346921959874, 0.14253606325786097, -0.07334340056200186, 0.002512211827534675, -0.12952573969046735, 0.08802499914465717, 0.10687898123989227, 0.012175915860058588, -0.12283163210087102, 0.0978877071099519, 0.16138882204773797, 0.058224665614220565, -0.050452656800387206, -0.03779204297003208, -0.1716922545703835, 0.16417214589379955, 0.15470831696711143, -0.03252658297823568, 0.12598419938015915, -0.14868304179894618, 0.1929392573071128, -0.11627887298908575, -0.151287755449804, -0.05651711750667045, 0.06004608955819833, 0.11364545432598053, 0.017718077748913486, 0.2000368642693244, -0.05207949316062205, 0.16646962530721532, -0.09867515921491413, -0.1339907318695591, 0.2059815113685678, -0.15382968066047772, -0.13507185025033727, 0.00023433493683968308, 0.12089579424959862, 0.05582574678452472, 0.2015998995282537, 0.023302148791249585, -0.011688941342568713, -0.012806297965068188, -0.18227218333485024, -0.006117601358597935, -0.16234110782513886, 0.1237883932934703, -0.1365404975539109, -0.013358465316245403, -0.11419286290515385, 0.07421429029490498, 0.024703150604607923, -0.011641939098121494, -0.058043682788160356, -0.11089727266933011, -0.10016856544674749, -0.030828559211029137, 0.14626605831471795, -0.0976960582187087, 0.00677011879471433, 0.11141453183425379], [0.20209194209502865, -0.2542239146947141, 0.1377648253076547, 0.0689595555008708, -0.13513457036450557, 0.11986664149014913, 0.12359534735925153, 0.1318562600752714, -0.017822081035220025, -0.19798653499264926, -0.1694055649510218, 0.014338714963624571, -0.1854626797822866, 0.18263623831189096, -0.08077352199964609, -0.17903798249545191, 0.1816757926800448, -0.06736113614357546, 0.04285858921597085, 0.17105809337239103, -0.17468986943480094, 0.26936573309900474, -0.16208053792108873, 0.02203118504097682, -0.14715747949534982, 0.03651961741113818, -0.22076790802782228, 0.1425793524193675, -0.06457984006768874, -0.0922533655150646, 0.10025073854153034, 0.04520966290501704, 0.035013285878095005, 0.18033450788999913, -0.16530237893463562, 0.07907663463240552, -0.20759528868024538, -0.011795665453793704, 0.08893959298716103, -0.14702835304730313, 0.13022283503480328, 0.017818612550997245, -0.1341306772350061, 0.11285433278447586, -0.07420388933982106, -0.017268002303928203, 0.03808716987603637, -0.2129434582821084, -0.11597442740878557, -0.028629457258523408, -0.12523692023922245, 0.04564351438835328, 0.1048278891462156, -0.11322631297228683, 0.18740872002684308, 0.1744903378100635, 0.17008176509012665, -0.004775811837540091, 0.21216343138175542, -0.0486844268717725, -0.1275704648976204, -0.03543942362673395, 0.010409020274884623, 0.18425261792596237, 0.15037829174768202, -0.14229187281814093, -0.125818788374578, 0.05699939645214628, 0.08303630450096394, -0.08733584454685538, -0.11700192877317296, 0.13277952568043364, -0.18507187957870838, 0.016935582836595978, 0.02187463798530866, -0.022906208708990856, -0.1354328311623927, 0.143331719136346, 0.14185127346506596, 0.254987287987408, -0.17368643695316507, -0.1005929406747354, 0.14362008198456205, -0.168398966645059, 0.11994941187322554, -0.21845688397400229, -0.11789666812200145, -0.09256801720093294, 0.11282456598165937, 0.16431082540154593, -0.03833370846184462, -0.1975152403935651, -0.14803302434713303, 0.06696469947316636, 0.003584660224767791, -0.25352744182322895, 0.1309261023020038, -0.0779761166002666, 0.04958582828577844, -0.07648476692507655, -0.20401041436228018, -0.14723032475958275, 0.18047341285866925, -0.21982050049784516, 0.14409518963052398, 0.21781267573124802, 0.022987522755521832, 0.047292769858808696, -0.15714663358221026, -0.04331044875334766, -0.04343958762906764, 0.037785993379490054, 0.1177188652659697, 0.18754762172830097, 0.22094192725765266, 0.010738570904118793, -0.150446229307323, 0.045713968665210956, -0.1538059308216773, 0.17374401938857445, 0.21274111922066477, 0.22869438517638915, 0.13027440242765465, -0.01815189144147341], [-0.09802039295854892, 0.1707854761708756, 0.05639404971816458, -0.11905965587927503, 0.09642404222468334, 0.130035019360029, 0.023291211389385214, -0.1222267811102113, -0.1150443725308217, 0.02380369530667437, -0.15879532767163643, 0.030828232148978216, 0.05207282825311991, -0.06486189765065563, -0.1458673706701489, -0.09154219986855165, 0.05594968062969507, -0.019623526918693505, -0.08026623455722458, 0.010765207619330934, 0.14549400475564472, 0.14078675128587378, -0.12854098639323136, 0.12169202622399981, -0.13136411034538448, -0.043494675426159396, 0.10175499482274863, -0.12044573329081344, 0.1034118103894302, -0.008913238398245482, -0.10806327548414414, 0.10525531875989404, 0.1718541764983323, -0.03217750071443897, 0.16231027511783608, -0.10501806109304916, 0.15383059575942232, 0.11111534806613031, 0.10255442040367872, 0.033628682347405445, -0.016104246526021052, -0.12992420128663268, -0.07137271514829853, -0.022520270875928436, -0.15445685789010372, -0.02899886200689884, 0.07221059629827514, 0.02001777306647865, 0.1378913842730442, 0.014856004165779644, 0.20678305087189178, -0.07556898047329597, 0.06492607885392268, -0.05650988260030687, -0.07490594960414089, 0.16765604551846824, -0.014311434461720169, -0.07912143794893098, 0.00598233897562359, -0.022169808530852705, 0.06354243636633562, 0.17589744906411556, -0.1142226458320054, -0.18267644458714197, -0.1125781983152338, -0.1252775718567596, -0.08827997331710614, -0.03354048153260288, 0.12141432882165633, -0.14080092508450592, -0.0022772879915346745, -0.11020582644558129, -0.06882935739549984, 0.10987222765986984, 0.05030063679778128, -0.15928297847863682, 0.14861546686152932, -0.0544054130832594, -0.03099154305050035, 0.14491461879788642, 0.13298059667347864, -0.14720073716053145, -0.0996768643512883, -0.07617141903054336, 0.002173485054157615, 0.157161686268756, -0.014901278145074923, -0.07016495528841336, 0.18274871646109966, 0.15517056615035507, -0.048862536927187304, 0.16048257577354222, 0.15529605508258007, -0.18832875220607884, 0.051606297810514096, -0.21128306895968513, -0.1870898383965955, -0.10527355878359806, 0.0032243817439790343, -0.07128355036999737, 0.07277825881042405, -0.01688172530249947, -0.0014791031676804002, -0.05516552100485029, -0.1111144835573074, -0.033824553085895395, 0.03505879303190004, -0.0021084602791873745, 0.05015265608405509, 0.14796214275873032, 0.0006884065381713369, -0.061716617871706424, 0.16883425669057375, -0.19565845056901887, -0.016212023571506588, 0.1645827883320712, 0.02826630159536593, 0.14292528418995232, 0.14068462588417735, -0.13008363546561244, -0.10938488312233634, -0.08823485140351954, -0.11706910350702507, 0.11882184908043719], [0.0023101128005737423, -0.07834543686263797, -0.15312520182545125, -0.11507206780270432, 0.04885793519838098, 0.049444011986526516, -0.16014244510609016, -0.17577537864593218, 0.15965273852641265, -0.052318019538656474, -0.1391106168096815, -0.039068488474876324, 0.131519365344653, -0.19115453808182864, 0.04855379946885714, -0.041806834917047966, -0.057170496826287935, -0.0977880547124909, -0.1588618637206555, 0.0918009549693079, -0.014019857579158102, -0.14241590235307677, -0.03644470655435471, -0.04921043170800819, 0.09066877261465761, -0.16532497927524203, -0.1772641780261626, 0.17631396325297005, -0.16286627856847083, 0.025455023781749322, 0.07104778931538287, 0.01893110869271972, 0.09563965294021665, -0.08277774841025735, 0.049850934269576826, 0.017256464306086544, 0.026255119809508835, -0.027852031660870035, 0.16109638844826804, 0.05972270226043127, 0.10824065951891246, -0.16346408971552578, 0.13026216522092615, 0.1611031199041555, -0.0036530933667301055, -0.04907978518515418, -0.1458792034212729, 0.18439518037219396, -0.0918944995424091, -0.06802168883854035, 0.05056025907080912, -0.05632644165429046, 0.04110070472933256, -0.18830110021247176, -0.002633178732914821, 0.011809497308906881, 0.10130353594636944, 0.027269676104834276, 0.025466849749539538, -0.010712360222923382, -0.09627662817223945, -0.19637689966649152, -0.06382161682527562, 0.07716497587730393, 0.031605796086281376, 0.08355227814580701, 0.11511568083175111, -0.02242572307522909, 0.11116512372028768, -0.09508353730353802, -0.16580636429507392, -0.10145214452190157, 0.16346988802426216, -0.07393541327426398, -0.16089468248304192, 0.002711187724402483, 0.14159345148669192, -0.12165379714316532, 0.14487013675587188, -0.15417938269106693, 0.09401277829840511, 0.19767598876461578, 0.17500148418065128, -0.08037406694044198, -0.04184676767481155, -0.06913511825383833, -0.21888567277075732, 0.11050477821097474, 0.12295915871986067, -0.10132337156619636, -0.08403458679742645, 0.015410734743859187, 0.16263324755031594, 0.010556796219769862, -0.07757216780316967, -0.16482270942451382, -0.13296324038054688, -0.1693079693703763, 0.15515443497081116, 0.1849647733150773, -0.05434329160127506, -0.04288211900496788, 0.07282992998269039, 0.04541812750636596, 0.17294395528003295, -0.08342220881940447, 0.10737165536176775, -0.16878465499155268, -0.1289342441109559, -0.09158478358713121, -0.1862767204297794, -0.03738246200328363, -0.18218667916340903, -0.16548675018870215, 0.08166555545982628, 0.1504486482979823, 0.06906688908553019, 0.07982264251461488, -0.11832965365755228, -0.053141355251144405, -0.08171585560655237, -0.018641490780777804, -0.1250151334201233, 0.20155755613940385], [-0.13354399200589587, -0.14072291042540233, 0.20035064773158942, 0.1116609132658495, -0.06964830428074739, 0.10602359241060046, -0.1697733845634013, -0.10236240123931983, 0.059085073354632006, 0.012605327255378643, 0.03590667753791604, 0.014169846041382737, -0.1290784407029643, 0.09972986511061382, 0.19694014071010216, 0.1365704436620852, 0.18765731376620678, 0.21685617353735998, -0.09786501874303054, 0.041666122199519144, -0.13071016045646108, 0.17422920536948064, -0.17002421501424012, 0.12260003115977053, -0.04752590972783893, -0.04300641288199153, -0.211202758263572, -0.1905249501349981, 0.20737747370144194, -0.15858143332074887, -0.09688570384256555, -0.23512347704257525, -0.1594983442953502, 0.027117699981769883, 0.09034810926182055, -0.04058205295228221, -0.14848646884835948, 0.2579690095943005, 0.03525216106911154, -0.16899991221153643, -0.07326733762568953, -0.11175210464531615, -0.19080162545846688, 0.1983716137962984, -0.12316220566675957, 0.0471773487271555, -0.10873770726795831, -0.08871509377863154, -0.2329168329467866, -0.08458034857930459, -0.25378735166409516, -0.06861888147021218, -0.19885390178384735, -0.009481229154745923, 0.03228861547037209, -0.02690996015216926, -0.02385513622232186, 0.04980772418406747, -0.02531877997027916, -0.015282698874049374, 0.14868211495567615, -0.05636950614546754, -0.08522004906486876, -0.08531786347877547, 0.018833049214995703, -0.11196693815090074, 0.19088649676855732, -0.09060053073084579, 0.05394128997767568, -0.13809947486390134, -0.006738146857523446, -0.08183042362787193, -0.01795309487963405, -0.12120530764865567, 0.15275380464524055, -0.14627360416775675, 0.091413304290567, 0.044515416880586064, 0.22254802371020263, 0.2685377545397491, -0.14718250542235328, 0.24948178905125004, -0.18255888181736016, -0.1862514514396045, 0.05896490666733751, -0.009421709903564258, -0.1709705949511641, -0.12772902095926944, -0.11194439064903132, -0.16045046518995024, 0.08688407489642272, -0.24190240650668493, -0.12681087823222295, 0.04739760167879213, 0.11649618126643917, -0.019233982748574442, -0.013628816442869344, -0.06950425624235583, -0.06122387692591664, -0.1315399273412241, 0.015847876643815366, 0.042253817720302254, -0.06952093541295845, 0.08634215744109124, -0.08260163879753131, 0.20107187836934734, -0.013871940773269618, 0.08738760818721203, 0.08961335750262657, 0.152944960431919, -0.1533459926374559, 0.11982056837785812, -0.05868993453946444, 0.12628087335363872, 0.09641873974768955, -0.23479671555491505, 0.13894535599081903, 0.03899572786135885, -0.1765265201507373, -0.1436361109979676, -0.009969692438629246, -0.11753608702577055, -0.17327764035503332, 0.07489555885398277], [0.10782246002148092, -0.07830550064068756, 0.18361865728895355, -0.13931288529616873, -0.13290997029917564, -0.05163764742766415, 0.13173799913387374, 0.1484905661143733, -0.15264727571659448, 0.08188113957366304, 0.07589508122683175, -0.07672464019965479, -0.22677544342582812, 0.1538196353973652, 0.04826519303654595, 0.1181560787795032, 0.05456826018036953, 0.14469242639558855, 0.2186255538407199, -0.04762131275323127, 0.015705281070344357, 0.14603923433689164, 0.050263185287507894, 0.07539263972350785, -0.029684951017934082, -0.095003790965864, 0.06392106966451433, -0.11383147675482354, 0.12636519203274, -0.1282183480289065, -0.12628833823099658, -0.23288900406383253, -0.0011865125875272645, -0.12238057256937424, -0.0873977057489986, -0.09329195704795744, -0.016150190517539756, -0.017593663797343777, -0.004292520021518009, 0.09666200468380927, 0.21835324333482264, -0.19148444989836652, -0.1397620702982705, 0.02028772444590403, -0.17535794757731707, -0.0892212673631429, -0.1387256085692319, -0.03225415700945759, -0.02995549235382221, -0.0954073758561256, 0.03434421254533392, 0.0479820227572448, 0.02194812028368295, 0.1252379411132854, 0.019278937703977254, -0.022716668785761333, 0.035421530050738004, 0.14477432361060538, -0.020066148151110182, -0.11509854170435692, 0.05656709286815276, 0.061426109707138264, -0.0870498845155369, -0.08698191676396605, -0.08111050155421021, 0.026781632294059728, -0.0866009306545317, -0.15611910781796326, -0.05691842323762616, -0.1224023647806701, -0.15865918361893575, 0.14377403937278033, -0.12008435584737745, -0.1889473264018794, -0.05283970226428283, 0.1866955063925264, -0.08101856766526895, 0.027025222771681272, -0.10896594611398512, -0.02273372737177274, 0.08742511134718486, 0.19488679668625325, -0.10608668172112547, -0.0034173632209336465, 0.09116504405876102, -0.05241285104203501, -0.21921104347866796, -0.08988360479968019, 0.1296325505598421, 0.03941865396899845, 0.14877341364587182, -0.2485812920900861, 0.05022782754875606, -0.13613271409753458, 0.17063893606148703, 0.05871322578112653, 0.07795194890095722, 0.03806823439353246, -0.15875165426551513, -0.12728235057111673, -0.046642113064103714, 0.03874221828815199, 0.1548027419684484, 0.02918641359501179, -0.02043716899040776, 0.19561602033495426, 0.11168221994993509, -0.05291759742457315, 0.13202918737635225, 0.07623128323740132, -0.24332435139671912, 0.0838225679869875, 0.10171658972905402, 0.15296058617333044, 0.03920368590040762, -0.27498811924118405, 0.18093769482513894, -0.058050193807858363, -0.022155627877853853, 0.10552391686058009, 0.087538966691924, 0.07133449502172441, 0.16418869658412316, 0.3039781455874546], [-0.12782940861727124, 0.06605386255400067, -0.22544384126980924, 0.23846504047000394, 0.025561010485534576, -0.10060329717403287, 0.22193696958310827, -0.07618925560341734, 0.12123151682525857, 0.0390777257710433, -0.10566482185737726, 0.10650905538090032, -0.13686100407264956, -0.06272782031507504, -0.05940894523031647, 0.03185152552924932, -0.2623635437446492, -0.2714574835728111, -0.09091195702823732, 0.15066177751009582, 0.051195928471826906, -0.14416271545140283, 0.0822096109417417, 0.07629308568372276, 0.24382677349691062, -0.04613587745484248, 0.09053853177861944, -0.007344596496278332, -0.14157252380494478, -0.06870858138980551, -0.013768669969535975, 0.1937047828307247, -0.09158130175287936, -0.21230857002850304, 0.15539306919020374, 0.11254082733172428, -0.018067113316926006, -0.0008629881810286263, -0.07868636586920304, 0.09564722412286267, -0.2849546199691092, 0.07579737271420631, 0.19177012393027865, -0.014540223758533291, 0.013909911978675159, -0.25405185856911955, -0.019249600668369272, 0.09100108744780348, -0.013638898190466498, 0.23602238828037567, 0.11904630137323988, -0.06221630332470091, 0.1055395591395635, -0.09225702334297306, -0.14600507966080883, -0.177501620972532, 0.04141683752448674, -0.23661746381089382, -0.0692679934227944, 0.19184230443509695, 0.10552797800185285, 0.06308643929703502, 0.15759932197213977, 0.1323745292172399, -0.02727266527542863, -0.1389406988210236, 0.14031799766489483, -0.03545160603563487, -0.14909092066218643, 0.05006493493542278, 0.22986120263108686, -0.2153653109719614, -0.14037633315663173, -0.02711846278526381, 0.10014444443854872, 0.0787914597112233, 0.12564927235612572, -0.2075921048833742, -0.2112917878117108, -0.11865110538556779, 0.09143367401071684, -0.06220989566858472, -0.20476925843218233, 0.276365679412457, -0.05108822612853031, 0.20488695348651198, 0.2813125310204008, 0.13497597444138418, 0.07622536453217593, -0.005683021460161009, -0.1006497866264934, 0.34032417724688113, 0.07350019117079844, 0.007691107214420894, 0.025844929263800272, 0.08017326910573641, -0.1134222960407466, -0.04308038148159412, 0.09182361551487447, 0.30830887650413563, 0.2878042025747914, 0.14754192774596736, -0.03591764655499869, -0.09191990038509687, -0.1509295191869457, -0.10895319728765483, -0.02383928536276963, 0.12504135296582444, -0.17064087181620483, 0.1263527904446694, 0.0651667565080946, -0.24552297228391554, -0.18588108207895235, 0.0007317123883833755, -0.16088231916771778, 0.2556291728692476, -0.2975138802304566, 0.2248381631894127, -0.11596084694462849, 0.19943068517370868, -0.1035020875733876, -0.19997086859895366, 0.21230879819669388, -0.10330629564062989], [-0.033391719718132803, 0.10255014593451042, -0.20879329202525157, -0.01244930214304741, 0.057670885046167984, 0.031108726940317983, 0.02507656416286402, -0.03965217426935104, -0.058392388902959495, 0.06328009635683587, 0.049530492539022586, 0.06352368751810555, 0.19234121170206386, 0.041343158185325565, -0.2183632532574498, 0.12975949948467738, -0.07463589962283336, 0.047124230884115305, -0.04583870097079518, 0.14086733928168405, 0.08221498044628063, -0.1379978298478925, 0.11634714468169069, 0.009370602437007446, 0.26676321888169685, -0.22095179917193533, 0.14770631033778733, -0.07856891445431297, 0.02327186900218926, -0.1352499121149101, -0.12329033999676567, -0.06226786876586295, -0.10136909497345926, -0.00023665216817095864, -0.06901929121535999, -0.11013795323202626, 0.2925297082639885, -0.14286564500701535, -0.1998704533397809, -0.1259366530015707, -0.23430084123179273, -0.05166604779983063, 0.06347131551289918, -0.07170231826846489, 0.15670725899162116, 0.046401175287777895, 0.14139296465816442, 0.17719087276848103, 0.10684356257628641, 0.2821127115749705, 0.287883975072313, -0.04432996955055294, -0.03928477469216055, 0.027093655657492256, -0.10896001898453571, -0.242364384168702, 0.0720907211412433, -0.2775492044219813, -0.15569823593026444, 0.02198469672743701, 0.09806800209843583, 0.2222836233953275, 0.03129195581887723, -0.07412102780944449, -0.10983489251170066, -0.0920689147677034, 0.03481072772329613, 0.013203126628705474, -0.17248407743250377, 0.02324934692565503, -0.006638248523122665, -0.0221878807497739, 0.0492584543886604, 0.22148346511051376, -0.24263696156501552, 0.07936748024619039, -0.12361076430269713, -0.17693591483931514, -0.07651891442327882, -0.27051178765769684, 0.09168476452641086, -0.2749554122811764, 0.13863827047461635, 0.1439208633619804, -0.12885409297791012, 0.18844752007587448, 0.23677221945118426, -0.12340697898747695, 0.12657729009129048, -0.01770827461575722, -0.319560727943912, 0.03906316248296428, 0.08491080118482325, 0.03266234245398723, -0.04783010347685317, 0.1584161366681967, -0.05552196066694306, 0.03631681592955252, 0.137696267095618, 0.19227056743512125, 0.06657315758059755, -0.19833660647519247, -0.032458750509929274, 0.011708971356779025, -0.02238263125614994, -0.015456573136579116, 0.08002624130763367, 0.07320754647926396, -0.1666552114630281, 0.02617478488157068, -0.10652255717798825, -0.2834016500225126, 0.20288541724529538, 0.17002223791210427, -0.035233326643136685, 0.27690116574594315, -0.15849348525780552, 0.17341801964288087, -0.03056302019924088, 0.06095992267825418, -0.04452003270471997, -0.18013105064187343, 0.003435861439728875, 0.010201916719032889], [-0.20719035366712413, 0.23956101075308367, 0.13161709393578294, -0.04579570772744955, 0.26455237723655, 0.22294589465492168, 0.0977962351797838, -0.1731091402073629, 0.18912874378574965, -0.0329856790122679, -0.1271515667836147, -0.021670046584982623, 0.15884932371153787, -0.0242812508686637, 0.01440461200812019, 0.11045371422163988, -0.08663298283194124, 0.035716477895813295, -0.0317750303084919, 0.10810969600895227, -0.10076378858469885, -0.20526188679561486, -0.09827478284575591, -0.020029340458801583, 0.1485930544327347, 0.029509492401262546, -0.17128765962503378, 0.11774370285287668, -0.10390652045649532, 0.17689246111400672, -0.0329661397030146, 0.1395779214088754, 0.05565844408058586, -0.18645413818053844, -0.12155814620387938, -0.23525370326812556, 0.05819203235591757, -0.28008289957734867, 0.07556974692913637, 0.09457791484022395, 0.01901946781179885, 0.23642418130879184, 0.04907439075061354, -0.09208018302377105, 0.04359549139116856, -0.15618188841897945, 0.15687417165667336, -0.06914012845217259, 0.24674284742928096, 0.04965140997466858, 0.0223279837172376, -0.083098892139228, 0.13969517538669587, 0.14331700499314276, -0.297535974727271, -0.15542635780013062, 0.1720860742739109, 0.029805225451823878, -0.2254275799879421, 0.05554804240718823, 0.07463893537425635, -0.08548676993144709, -0.12946952026380423, -0.23964218572874424, -0.043965586778569786, 0.004096643557343416, 0.18170143612623887, 0.23792476306795368, 0.10516764982472543, -0.151135638489064, 0.2258186494253694, -0.16308664225826988, -0.03633162985221059, 0.007528712694941165, -0.1074688971624322, 0.18206335224189077, 0.1853085969195133, -0.09035714802502531, -0.18975195888488444, -0.0585916685195603, 0.11667141555653737, -0.14497893820684526, -0.09148597851221416, 0.22370385714304697, -0.11837133538531688, -0.1549678472978453, 0.24623436329350137, -0.14820998932659296, 0.2023264326383246, -0.04372672850140151, 0.028366972037948607, 0.11351524931690794, 0.018773883465288178, 0.14627724964752298, -0.2582777890451429, 0.10947935073146019, -0.0271820778103792, -0.04506815336050825, -0.0056473790108971045, -0.016624521544388666, -0.024615316795682806, -0.09207894715903607, 0.07520862624792717, 0.05116761074693202, -0.21195695424612865, -0.2106846552461889, 0.19351153301424084, 0.15935571031005763, -0.02171196242166713, 0.08361451600756137, -0.11460921715716361, -0.09917140649707398, -0.029297940629235127, 0.11700006925003585, -0.2000968619121699, 0.2850777373925257, -0.1188557390642721, -0.0034888234089218923, 0.1221476973084202, -0.1557171932946906, -0.19892410315204065, -0.03959061237904399, 0.10587526126764057, -0.2821045980535547], [-0.14925954013619405, 0.15832491215240468, -0.18359340912072664, 0.13107725785698682, -0.07473777136160216, 0.18870628450596058, -0.057439771682583456, -0.09486661452439032, 0.14388775281801172, 0.10286599978224556, 0.04584423622763339, 0.17234423788473222, 0.11401436359985774, 0.05116905048791552, -0.023329073353093328, 0.15604350662649027, -0.2574750151058887, -0.26432792608093786, -0.16978968655123491, 0.006398429762893911, -0.06191154261417615, 0.08146080074427225, 0.25554247895148424, -0.09733492537875106, 0.1366439355065776, -0.24132304684898928, 0.06057109207701398, 0.09874609613066122, 0.052693172578739955, -0.003545584238665782, -0.11069497779026505, 0.04768747111970217, -0.06965916831934446, 0.07146590454897102, -0.13423074724880676, -0.20449406195480227, 0.21482490102332955, 0.005579561204524495, 0.1710417348322192, -0.008265171617592085, -0.16207145373682894, -0.1382036037670978, 0.22730059544979775, 0.04917420510541863, 0.2102280448331936, -0.12511418485146425, 0.01947677952978229, -0.09269625951525977, -0.1172741420095204, 0.24833545314868855, 0.13052521454741425, -0.15690822337835716, 0.011220271103137211, 0.04166826889080053, -0.2661709477336354, -0.03897403201776761, 0.19705674216612923, -0.09924750555737409, -0.036308373913195184, 0.13534395811146133, -0.018074561277741753, 0.13336659060974917, 0.00827495925422124, -0.024223448519760046, -0.08172138406716793, -0.13870625307596499, -0.040159324225837414, 0.019096517223141242, -0.05349446856753252, 0.07997972778221289, 0.2597817491548568, -0.1290852009564924, -0.029867129994545823, 0.21410229315449603, -0.08719253189532715, -0.08981206177334387, 0.1340570875985194, -0.07206463604132557, 0.025688895073972182, -0.08172526801746534, -0.12978860082481727, -0.1535026074916073, 0.08672155502897066, -0.00830824670225118, -0.13123363005121896, 0.11056084897734218, 0.07245046348080773, -0.12669020725500427, -0.06962172137065534, 0.1448910196125515, -0.18110354833678177, 0.1508393807086409, -0.09192061225784966, -0.03877234996887159, -0.23598314148797897, 0.06857872017653467, -0.14053960456327239, -0.05087383538203185, -0.03882921489567646, 0.10917231394604486, 0.1904342948932955, 0.03553814648035785, -0.18513518702967544, -0.03002211928009679, -0.18856477220181658, -0.1600867292417452, -0.12788762723514233, 0.08109405886455412, 0.17233244876042653, 0.04401880422319286, 0.21595868484073563, -0.1758517631745237, 0.06117375396188418, -0.08112385043400488, -0.19943571130111662, 0.25115943584401923, -0.20706766766945506, -0.027184712522289285, -0.06554188239462126, -0.10999415628999859, -0.2349079910672205, -0.11670032019334718, 0.05733335521462245, -0.08547254990554401], [-0.009673023417751874, 0.05990002875792764, 0.10638303198409786, 0.027575960719751907, 0.03879271282250801, 0.14047434565514672, -0.12124698497000329, -0.22710372516423857, 0.03169954340529659, 0.19354405873155153, -0.024620105430279645, 0.16624697156248716, -0.09371627581901164, -0.03185297188945959, 0.02359815500146424, -0.013103415615730035, -0.2782396953570119, -0.2373441030323382, 0.059054912016788814, 0.19878902381836058, 0.16540085272593272, -0.16171790093129262, -0.039419663044380646, 0.051905097023292726, 0.26865549220256224, -0.19656728799582887, -0.04050571898136781, -0.02247349760994856, 0.031483464587285695, 0.15594073917786086, 0.15513827066229802, 0.16724906311923515, 0.11263887991983779, -0.088623612056509, 0.04243448106147181, 0.007633757186179487, 0.062147120002668706, -0.1321311488409584, -0.19214453434605205, 0.15798255319508953, -0.28337739548417645, -0.1425512562313456, 0.06115972648197353, -0.14632700353278025, 0.16879536954125632, -0.06257043995671097, -0.04613201774230544, 0.19808136841792648, 0.19921560234931643, -0.00440227812308803, 0.20663456063963884, -0.17261706828923645, 0.0643239835353603, -0.06112542818840064, 0.018910426268065113, -0.25152058795068916, -0.11958988404425436, -0.09535630731380891, 0.010342644409148595, -0.11801947128206261, 0.23531106292196582, 0.10527275449213111, 0.027376728825670996, -0.22694412730091754, -0.06235340348558552, 0.0020410013986491404, -0.055393013667120954, 0.18018166228938126, -0.17427396701820902, -0.12200366567709563, 0.2680282540965436, -0.17351777235759921, -0.1386978846599883, 0.106664341545131, -0.02449157216111227, 0.1763959220604566, -0.016852464466665502, -0.0530649000108939, 0.004469129100929404, -0.21508398063918388, -0.042560289965061365, -0.04016829429821076, -0.1512036017008055, 0.22010136748579745, 0.052675775809896186, -0.03477954561815009, 0.15850902892973529, -0.1056989908604142, -0.049863386311551086, -0.008425816698704743, -0.10646171079414057, 0.019207982423827288, 0.15472437089163077, -0.08271809947231687, -0.15745890036889934, -0.058893279275789745, 0.094945434396039, 0.011099772515393133, 0.19545186056270059, 0.3018853597466983, -0.06656229155036318, 0.10634504595436975, -0.037568312493874635, -0.09191856165663402, 0.10386961136473248, -0.219426640061175, -0.06876248340731547, -0.1295254829466968, -0.1294055279141639, -0.02985986533281994, 0.20661963399760155, -0.2686401048812052, 0.16125044755174434, -0.10055068419208053, 0.12814334453831897, 0.18844244194206902, -0.2356706012451777, -0.08511186898648654, -0.16270072159759932, -0.00880137704504498, -0.052695916104549954, -0.09622336589801055, 0.09749159969095743, -0.13714519605136682], [0.0019466022853488814, 0.22122486625508678, -0.18956711356027933, 0.06222533563550805, -0.029613694384457302, 0.022504793019258833, -0.015659863140545106, 0.011746134362650318, 0.19385589048532986, -0.045181698811009946, 0.0369721508330826, 0.18891752913218465, 0.1932570445785113, -0.04304373847345744, -0.1558028386069151, -0.12281683273950404, 0.12748954315603897, -0.18913153504844782, -0.005019847371866341, 0.11315579589399383, 0.1734506076439324, 0.20233544455210803, 0.1273961841113847, 0.04910147921242914, -0.052380835626965036, 0.08949306247535105, 0.09822905168147299, 0.001357312235403801, 0.10088613121714364, -0.02292917854798018, 0.09521356297033444, 0.1880813304048833, -0.1598928181387898, -0.0966004262061437, 0.12977725983918065, -0.14621700952370487, 0.021981503708459027, -0.02643199062469392, -0.13389846385739063, -0.1386233940804124, -0.18366413799269288, 0.05005950331813966, 0.08802719651258643, 0.18057017884045135, 0.13339163614857932, -0.13541573152392597, 0.11508462024538359, -0.07621461676379869, -0.02169384933930886, 0.16344219177450794, 0.03698062096028472, 0.01925287257901967, 0.1315401348976351, -0.019037097800860287, -0.11935090821872585, -0.09199966310532326, 0.14071327881628157, -0.011272761670176774, 0.14525848609655242, -0.02006485291064492, -0.084710847585885, 0.09863325854182413, 0.004843634859259974, 0.15118910775471914, 0.05829163470514877, -0.10852037090503391, 0.1778291242066573, 0.10022729032631118, -0.13045849865143488, 0.04468624183413241, 0.1729366506521154, -0.1359701211056192, -0.2013311244265679, -0.11142712954379151, -0.04943723632826245, -0.1370283171197762, -0.06215553788992777, -0.03251484037308658, 0.10467235345920463, 0.06238216903871392, 0.04804454184398801, -0.11197089798376145, -0.08701165276065242, 0.07182518407583244, 0.12367957809993459, 0.09618384437250432, -0.022432660582390376, -0.0677720894614703, 0.135701334089851, -0.11773787993799, -0.074033165212515, 0.09724967890596674, -0.08421857539510093, 0.09015072846291407, 0.027332896010318852, -0.18668298540094183, -0.09584190593914636, -0.11473517748278848, -0.1638040988562243, 0.1617467475246461, 0.1631322844016162, 0.1934025791378826, 0.14777424041832818, -0.025641745869879478, -0.1671686852217801, -0.13054614833199085, 0.0683826832317722, -0.06041698521692505, 0.1534422330404974, 0.09036526811007634, 0.13442038854211852, 0.10738689799415078, -0.15985958878038647, 0.1364635050141481, -0.16155185145905704, 0.1341471160833854, 0.062070593204734174, 0.06221499332377034, -0.15255908019660042, 0.05885697638966947, 0.1537801239304953, 0.09687775632194605, 0.04007350469826224, 0.0312415364013751], [-0.041872597218485325, 0.24494758238173764, -0.13010671203636665, -0.07416944793946895, 0.21343280240464765, -0.12745766472856512, -0.01584511367379325, -0.2425273667266015, -0.07960916828286385, 0.17089966064887277, 0.10081559165498234, -0.05159022495861373, 0.013621241696324728, 0.05916706872836414, -0.05531890085322755, 0.10325895914692704, -0.2294755364692186, -0.04835712087506364, -0.007500756260051949, -0.16526731482650123, -0.05088238935391633, 0.00996717635014319, 0.09210131944552438, -0.10836896947905979, 0.228697479234977, -0.07015580315628954, -0.08910072105200259, -0.10202823250715075, 0.010668220264570582, -0.1500920474339907, -0.061386497743497255, 0.025796906673705308, -0.013809796095155513, 0.15050378608738071, -0.08791321830298134, -0.039584007327520716, -0.04812238375941075, -0.0751493970461907, 0.04162665340298296, -0.04386536295620882, 0.07006930401371637, 0.21580508286674066, 0.06822941557461583, -0.2078873655163645, 0.10635208193370337, -0.1556706562727619, 0.17542330198430095, -0.008261089604461582, 0.003334481142269269, 0.2580703301600506, 0.15748715886380119, -0.12249630901556065, -0.014194661890432048, -0.1580250592727079, -0.09333008790591255, -0.2890675133240194, 0.004531496120752031, -0.07195899973838032, -0.0345495163786065, -0.17993410884411384, -0.028846972426564175, -0.14261254238425997, 0.05310362951882471, -0.008600490663380696, -0.11644078961010357, -0.1778013349824944, -0.05847248205175906, 0.06950937495069158, 0.09769392428156834, -0.024470485268417594, 0.16540264689739764, -0.18355321945427502, 0.04568204283305365, -0.11521607044030725, 0.11568332601066202, 0.029850563394299406, -0.05864581333645709, -0.21977118931423656, -0.2367843486924722, -0.2826614224209658, -0.028212328056097927, -0.17183960982942179, 0.12802124495605172, -0.10225365028209706, -0.06364275733783248, 0.1638605845021452, 0.13392928886438343, -0.11564693471968274, 0.006197112186676996, 0.12857585813086178, -0.2583002863940603, 0.055460680582282325, 0.23138535059187276, 0.10302871351633264, -0.13370663890867754, 0.22091193018209407, 0.21593078400763008, -0.2002818730732282, -0.09045058783296772, 0.049714239051090486, 0.07728947632641682, 0.02176694719459076, -0.0036733934277643995, 0.1383572479506422, -0.040695166465141625, -0.2192524741784326, -0.14074522241079307, -0.029819069742752773, -0.05529784477724613, -0.06365068864367555, -0.1348549405960154, -0.16035502647835514, 0.18155524748720264, -0.09398946496772587, -0.048368253287761176, -0.019578655923684553, -0.11429522522455753, 0.13866335770464314, 0.0847894476288711, 0.15452179126702295, -0.235931185891293, -0.13968082503386708, 0.10102842598733296, 0.03154143144010214], [-0.06766196405765641, 0.18891888887080774, -0.2196029127859555, 0.034229129770388965, 0.0808181564002759, 0.12992112627982186, 0.1317354920914319, -0.2170211682608739, -0.12857496780761163, -0.10262340763832094, 0.09371868433202847, 0.05444492885494714, 0.2075820230288436, -0.0793254998826452, -0.1570278192467696, 0.026897636141397063, -0.07275561983262398, -0.05530025011678711, -0.16063218463223924, -0.010792348457130941, -0.08930646313753518, -0.1727398597061939, -0.09327148592329189, -0.011201425992682264, 0.17673182825624645, -0.1822029694034763, 0.06305135255422475, -0.023276649691448874, 0.13024525358765254, 0.028170012366577235, 0.21155677288810473, 0.03489803741608514, 0.05691092697520382, -0.03619809805324482, 0.0502775684841553, -0.07145477691928574, 0.0008282923547250614, 0.033577653732521265, -0.06207731277033144, -0.1862480217919683, -0.2334733316472956, 0.19687409742729245, -0.03190514902011098, -0.03390610378586031, 0.09782977781849535, -0.20346167195451303, 0.14175676823126773, 0.1495988433990089, 0.1538479288028345, 0.2098864315555505, 0.22774911807433887, -0.04405772267796323, 0.10711613260645847, -0.1643723989692295, -0.031944611301836894, -0.22111829462223345, -0.16679377768473988, -0.31265703956131574, -0.18071708142659262, -0.04833836802242571, 0.12501241614724737, 0.05249207435032882, 0.06445050004332216, 0.06877978587401003, 0.0021538339121285103, 0.14443753799228387, -0.07245460058230148, 0.19208045442014135, 0.14875588812145676, 0.0026287406848893003, 0.0020026882433498584, -0.2291846719476635, -0.11193042598022025, 0.054569878805852984, -0.17682724582424014, -0.041759833712992446, 0.184191314863931, -0.07727399101934519, 0.05162810768785468, -0.11572370086910874, 0.09657860878291531, -0.22137092216662246, -0.047371213059353205, 0.14818909495107244, 0.1856193168944994, 0.06868525034103254, 0.21781615914200247, 0.10061465217110677, 0.12016313693310403, -0.057460757938935174, -0.00529216454329542, 0.26110001743340006, 0.003314624815823764, 0.18141663512541978, -0.2058283379103105, 0.23682712942549858, 0.1731536656755567, -0.0869029591425581, -0.09468866439291994, 0.2807725914857503, 0.18576096767950215, -0.2061953790575037, 0.09899512061313998, 0.17334697348094405, -0.024355365356435347, 0.02943590610279128, -0.16563706508751116, -0.1349637363236196, -0.19714033301322614, 0.18751322124699746, -0.07074645950436624, -0.14551522214541537, 0.05058064951624, 0.030203289130917358, -0.07239981596215675, 0.16742925973875325, -0.12728302868349048, 0.1730906180418284, 0.08828769849913971, -0.06429678801799392, -0.07137268523699561, -0.19455529691089257, 0.12231653026358265, -0.19786320001909177], [-0.09771448565556096, 0.10084211239477017, 0.03130293118125728, 0.057087250600878686, 0.12861884844786536, 0.10567067990845838, -0.08794150088678097, -0.09632125293893082, -0.05323360829249976, -0.1335999438322019, 0.1078885958401027, 0.08553083993279222, 0.22738855499945976, -0.032288955625386924, 0.11805283579229123, 0.07801980718466851, 0.02188243535811569, -0.18319734458055548, -0.1853202642109656, -0.12833514111141187, 0.00406155417686329, 0.12578700347725713, -0.04872460569685082, 0.11394799786446588, 0.20314714402106349, -0.15505237720876466, 0.21519291582029182, -0.14173687588113904, -0.02609827362243842, -0.17094111937494635, 0.05022641096654646, 0.09613814258115522, -0.023251001219073145, -0.14620737787071736, -0.1353425012778157, -0.10660910942656254, 0.22763107949837635, -0.12976348212214267, -0.07598914915845341, 0.02746728679905537, -0.06334096354783947, 0.12391616747758294, 0.154101010652135, 0.09885972853930106, -0.15613425424521252, -0.023115482597544576, 0.17158229966102712, 0.030990961923089252, -0.07981908772805922, 0.23710690388321826, 0.12318779128888079, 0.08993675126390815, -0.01616177088073254, 0.06409348931622844, -0.24620156412293523, -0.04552238226121648, -0.1460615905540545, -0.22478824159340136, 0.07538189274353393, -0.17240930629940143, -0.10187764783211478, 0.013295840185242925, -0.0628088300601052, -0.08299076233855321, -0.052255607190518194, -0.03563697620451757, -0.1611160889017629, -0.10085659504865609, 0.1676455302897385, 0.10573662960085506, 0.26738702795059627, -0.04773379013904871, -0.0026181808247998065, 0.15188927238082547, 0.08397463656746901, -0.19275473384731023, -0.04720572497289086, 0.056859699503528816, -0.20918474960263858, -0.2854718220221148, -0.06339521246592836, -0.14869735063965445, -0.03979665617305827, 0.2290764213355217, -0.0781507948651468, -0.05829439831077356, 0.2782874659640705, -0.1491512883613756, -0.15034352809792742, -0.024939403889410124, -0.17955436048732087, 0.23195455883525504, -0.008926775207514951, -0.13963385898282124, -0.09853632879866808, 0.23288952544394204, 0.12057050756763728, 0.050380812414423166, 0.14449576676801382, -0.0010420743781706476, 0.2356950757614044, -0.09475055036338548, -0.014929646845364115, 0.15255330905929002, 0.02323447548909769, -0.24934272160800489, 0.033171012471736004, -0.14701508848426043, -0.010427195549114409, 0.18455041594355528, -0.08218823166187945, -0.12703832651986857, 0.18524357743860068, 0.03288382095937584, 0.07599318638292211, 0.2361913991405295, -0.20472018359036126, -0.021526671429025656, 0.13285078597214853, -0.18887947206899922, -0.05074923772468256, -0.1641476836864174, 0.1966387237244392, -0.13741389481644764], [0.090974157343313, 0.04464506725438248, -0.19167387296282212, 0.23094134513987583, 0.08598260952325947, 0.007083927087568874, 0.15002205004339567, 0.1516122428568289, -0.14989063881700213, 0.04961314586247698, 0.14508276472694218, 0.15743992214989297, -0.0955288222588638, 0.12528336096110765, -0.09352625921738952, 0.1365397821705816, 0.16789562809881264, -0.14733921797212327, -0.1578021010036637, -0.09547340475052872, 0.12176489106652091, 0.032165725830522136, -0.004185799627961814, -0.03394650730460303, 0.16906996027801688, 0.0899824896780158, 0.10957808930263545, 0.051347407123923106, -0.015018489705538674, -0.01212115331052943, -0.15161410301695527, 0.06446308935379226, 0.00378113611478545, -0.09915173082656073, -0.10461458087022231, -0.1520185334954299, 0.06336717004751945, -0.01870840441235795, 0.1030832487382412, -0.04197994790707964, -0.09349805289761894, -0.08407418654173256, 0.05848145593675438, 0.04453302383439958, 0.04090082180590557, -0.18167307529178464, 0.1299537609291674, -0.0683581068795975, -0.1042639441529443, -0.018213655433621967, 0.05703608338349924, -0.17051948167877973, 0.09101181826894734, 0.1735224462171843, -0.12792681456249463, -0.15395150577087272, 0.08712752141406449, 0.029501756612973936, 0.0783513313015559, 0.14144517954023514, 0.03905768238455615, 0.026631632209311522, 0.09842685337275288, -0.13232538758746856, 0.1510737674140972, 0.010101715510579302, 0.04263929140323406, 0.09666872640545676, 0.1831446420658475, -0.05438337947343408, -0.06812940098101478, 0.020642286778135576, -0.1498559001832564, -0.04016379137150261, 0.12487562308577264, -0.045582229241710244, -0.17289066944469048, 0.0447529640327283, -0.20186063511561134, 0.12344661264060823, 0.1919334859152729, 0.1343321024859298, 0.1163495794318203, 0.18433969363060757, -0.05147476800703352, -0.014348475688992486, -0.054277516732484495, 0.17899882922852145, 0.20312004651643176, 0.0500886117992706, 0.13925836418863316, 0.0966854435623491, -0.02124748227730038, 0.06555204142162042, -0.19393776296754967, 0.16952027769490657, 0.1965276793832448, 0.0021352220375364162, -0.13081093944599345, -0.10375398975203078, -0.1390473401198272, 0.16876785316170173, -0.008753625385620621, 0.035244333688715664, 0.03783341386406769, 0.05882113318187594, 0.05767897296355277, -0.051977776745716686, -0.00610928690027784, 0.010755868241508601, 0.19958888790905788, 0.12842385963168224, -0.1875178939973629, 0.06668990624376843, -0.0607415665379774, -0.02530778082788248, 0.12262343825443352, -0.17645504588863833, -0.15125702290712878, 0.15052086796468614, -0.01000574291806836, -0.1004419923856982, -0.18089643095010455, -0.034762292870651856]], "b": [[0.008699774394745204, -0.021404841776493367, 0.011829886878084951, -0.010260486219668347, -0.019027420612840757, -0.006573019629758123, -0.0053073422225177625, 0.01184976919809486, -0.0011831866696460829, -0.006207839726886416, -0.009560919623060491, -0.03351746399926791, -0.015432716854087055, 0.0063335824806881385, 0.010147000905102687, 0.0029854039509597404, 0.019041964769041148, 0.029425313928362912, 0.005914947794635423, -0.004377241528111095, -0.006858737918322866, 0.00809109583762665, -0.002567598288599585, 0.007070439807693044, -0.03746584223975715, 0.025305134874440798, -0.01085899733118781, -0.003827001183973232, 0.0005521939831957738, -0.004263016006560582, -0.012006156828861931, -0.008112778614556499, 0.00032021643033012777, 0.0036844098515407117, 0.0012658419662239235, 0.0074390391735787995, -0.01815352180075956, 0.007959546125339279, 8.299491604607498e-05, -0.001945436071956152, 0.02428973072284534, -0.0020993637525305925, -0.03306618567068377, 0.006855257762705577, -0.01042712227829425, 0.012363040231326474, -0.014642496859934118, -0.0066553202518435505, -0.009767317039063375, -0.056756161855568185, -0.03245479862070565, 0.018952889011679897, -0.00024731043316281106, -0.0012117340961480827, 0.03721185420372169, 0.026767721884716895, -0.002322715382370154, 0.04608151236771274, -0.0038309842240214047, -0.0024839722984092366, -0.010035116723826426, -0.010648415630707246, -0.003477420072994366, 0.005817055355928171, -0.0019079904089483756, 0.0026753378125017628, -0.0017730316113618617, -0.005829434190193867, 0.004656818857523673, 0.0013213097855938921, -0.029391398566896144, 0.02303005621180122, -0.0031613221184242416, -0.003730403081112204, -0.0007255313433035633, -0.00012917990647050068, -0.014871780952197591, -0.00030771968669068134, 0.011185420353168787, 0.028678477503476983, -0.01457157003121866, 0.03049036779669998, -0.005465735760567346, -0.03198972307920842, 0.006741403621982246, -0.00404309903634967, -0.06079607686775012, 0.007702212269198344, -0.0109719262578002, -0.000836543117094703, 0.02078832969992464, -0.04050866593252012, -0.011713750389487123, -0.013419619766794094, 0.021161770326787312, -0.021068905381512376, -0.0075522846773736305, 0.005783281777029282, -0.008100466162449419, -0.021701005644974757, -0.02007483117707218, 0.008690744349959088, 0.00021534671381821238, -0.008120023255491342, -0.003395400719313782, 0.022738159768369078, -0.002160204176267149, -0.004421173123625987, 0.005249004045340147, -0.006264736301619556, -0.016296390039203943, 0.01791305729820978, -0.007016165697618302, -0.004472136685865932, 0.001834007863909957, -0.04162707113349469, 0.022328587754491102, -0.0036793185431807183, -0.0019376880046115832, -0.0024450022390291185, 0.013093112270096158, 0.0037844572153149787, -0.0077107819972202065, 0.00868912297946307]], "activation": "sigmoid", "w_init": "xavierUniform"}, {"type": "DenseLayer", "input_size": 124, "output_size": 124, "W": [[0.032695457731469306, -0.1687457534787608, 0.19483302706452324, -0.01913089287673216, -0.07149156867819464, -0.15292963461395898, 0.0316769805039912, -0.1886507194093673, 0.11595983280645165, -0.09494841870957531, -0.10165482226310744, 0.09068126069898363, 0.14018906545302798, -0.12996697950415828, 0.1519119452440439, -0.1391286350627737, 0.10123060231583128, -0.059370307584151724, -0.09942443454294494, -0.0748129155423338, -0.11232171554913724, -0.09947044899636445, 0.06892590697995786, 0.10543845184725671, -0.12989347830670123, 0.018303950119157752, 0.09814109115104461, -0.10679926232155293, -0.11419701004420652, 0.1197490582474343, 0.015702454249212256, -0.011872081746581895, -0.05022271815655175, 0.09412720696447505, 0.07980124338080789, 0.10402935901517221, -0.061671683995285186, -0.08691765840873308, 0.13590561751686692, -0.06010969609412527, 0.09544359632313575, -0.09742364475652672, 0.12230381785318228, 0.008066422456492497, -0.16293807721002468, -0.04727234530608002, 0.07406287351957229, 0.13215203625714875, -0.06827087201232392, 0.1847783917248935, -0.050943978333732744, -0.08099285658520497, 0.06852823091110712, 0.041499299776197804, -0.12471595798671413, 0.07318560024238975, -0.09658118965364576, 0.13459380247463834, 0.03222358012541717, 0.0587478810232246, -0.08181226368653136, -0.10756375476332707, -0.04551562107813875, -0.0830133537157574, 0.07349041654414475, -0.03709496793086937, 0.12703562374236657, -0.11466665507401008, -0.08209272587624372, 0.11217366359493526, -0.10928374691741327, 0.06404919629532638, 0.02643400062285308, 0.10096204712668078, 0.10632873044656625, -0.10054909597097175, 0.07612716628538348, 0.19491720885129352, 0.07542721452012836, -0.12697082385793515, -0.022944183822009998, 0.13154530169242296, 0.04614971247431843, 0.0359793025521315, 0.08201940557682691, 0.010067397611833262, 0.032176715043995836, 0.07513484751172649, 0.0360874999059445, 0.052681197562965625, 0.1419898430823925, -0.023768831250124058, -0.061980085556351476, -0.02038222141760108, 0.03355571651874968, 0.04494336152075232, -0.0018194608855987453, 0.07010447499912963, -0.030833168469004635, -0.12103979314186163, 0.0628311413143707, -0.10182320063163122, 0.053881325155763646, -0.06760926565451558, -0.12666753421391486, 0.006252230422865098, -0.03987468986315307, -0.06594705034661526, -0.20298293798620223, 0.11490029600068802, 0.08829524208442763, -0.13642558097597315, 0.05301040025731813, 0.04507857076769168, 0.03827475239049827, -0.05412454546478636, -0.18754210215875378, -0.022532703928662794, 0.006052804631562188, -0.07525203437747488, 0.10703824425349964, -0.04761920194418273, 0.016948391576509517, 0.15220347966997186], [0.006242741993805017, -0.12838774884721388, -0.1176309447411059, -0.1045615881633406, -0.030224090843762725, 0.08260459615223782, -0.11408383544493006, -0.007293305239623416, -0.05229192262547426, 0.01234461703660686, -0.0035906108727712495, 0.16730229824455217, -0.10049718939977006, -0.07148386103692962, -0.17500413030073833, 0.005369845690727754, 0.21553172085161154, 0.13355646913738667, -0.026223565097697205, 0.020872014202678833, 0.04637925444647266, 0.07971103873702232, -0.02832997408222807, 0.05629021740990081, -0.13173095594767745, -0.04099096316989544, -0.14342483830189914, 0.20412592670045115, 0.015612858988926618, -0.036555090114831275, 0.14466536438527053, -0.09807084962961966, 0.12958679250924246, 0.021478124963413326, -0.005735736905343158, 0.03235918429727773, 0.07425267990761915, -0.09103045935487131, -0.11832687156297621, -0.02437549857541947, 0.16780410557653688, 0.052260493820968465, 0.003108148420509926, -0.09412882627192075, 0.03870347945295692, -0.06000512608119084, 0.10580142355250723, 0.11121772989097312, -0.11670345689343996, -0.0605004298095137, 0.08987585468991288, 0.01107551658580504, -0.09497955573724831, 0.1119339845402533, -0.096411339975201, 0.11923534867164925, -0.12227916358117376, 0.025982417171231433, -0.1487747294349013, -0.17167165450145638, -0.13412108667058892, 0.19231493618329756, -0.13682369657472773, 0.14757382013411566, -0.02360767065289974, -0.1455521530268565, 0.06888357908003492, 0.00722690009661306, -0.10744370230490417, 0.13701635050833902, -0.024286835374739472, 0.1474936318205295, -0.10010734684729138, -0.06579810957956701, 0.04526401841392475, 0.009520449909166357, -0.029621979236749973, -0.06838515147729354, -0.04001654066702219, 0.046203601796541816, 0.0025725110621559067, -0.10548453605574024, 0.08406701026879294, -0.11019984865143921, -0.07143502724237055, 0.077995301527519, -0.07861509374035912, -0.004031617594890718, 0.009972027749563166, 0.03684676320710886, -0.12541882593212664, -0.07447662123833927, -0.04510279975964567, -0.12539218443303457, 0.10694082271350233, -0.10269851635855531, 0.04218197800853492, 0.01870164723206726, 0.1507038086728635, 0.0987243780621451, 0.021862898134103952, -0.028067559768269707, -0.020658468361231593, -0.06962633638019956, 0.13298164248489017, 0.19527932385676222, -0.07998198100839649, 0.1492893876740183, 0.17621455409443135, -0.12481896822801905, 0.07719633344240402, -0.08549772190405737, 0.18809709085628293, -0.14269616080666028, -0.053182834837531875, 0.13349353265842231, 0.018402250457908758, 0.1395565640003488, 0.07850007289218888, 0.022670475569712994, -0.05245636209368728, 0.12003961805006542, 0.1813091832295077, -0.15902564638288155], [-0.09625920951520758, 0.05248880077303645, 0.11960050901528879, 0.1227612691877876, -0.02523896816834102, -0.10181385988372148, 0.09713523082531368, -0.17901517856815344, 0.19864234720190208, -0.0366224797833086, -0.19908648861004982, -0.016125658414500577, 0.04679303168380923, -0.055810743364971216, -0.019940254453655073, 0.10155808037994109, 0.047882836410830666, -0.04924001455385523, -0.062187340151281495, 0.13408239870208025, -0.0034536330040825375, -0.1389730608586718, 0.09165215878308025, 0.03448936578948814, 0.13871925676353775, -0.02843710374855484, 0.15124431137109198, -0.03838774823321349, -0.07395707663876723, -0.027880822501404053, 0.036370283863035924, -0.15068219193428237, -0.12770211321304678, 0.12200390049233377, 0.1108282115673596, 0.09569739854344228, 0.0709047794829972, 0.04263994879282599, 0.006153003389249306, -0.08145875389813627, -0.05452869873085049, 0.01868184572166606, -0.11961038361443885, 0.10581056473644837, -0.02373872285631339, 0.09487406710603964, -0.07110917960286493, -0.1156756456401852, 0.12711653715114105, 0.17020060736006482, 0.14705839662109627, 0.05507284757476938, -0.12325306442237666, 0.04950267404807491, 0.026038823775731853, -0.05949913805213436, 0.10429493535101059, 0.2002313194714944, -0.055058060043018116, -0.05429084330520518, -0.016074247293814715, -0.10635657019637247, -0.06293941225481724, -0.1761312088606444, 0.015755331946944978, -0.014596783246971511, -0.07000774621376218, -0.09992255161804826, -0.008103716456425115, -0.031166142312379772, -0.023830640877651986, -0.01562836740973731, -0.11385387868015907, -0.14800488148341692, -0.03894455738170595, 0.00939297842723638, -0.01290908796124309, -0.06473344294985309, -0.004656072486730243, -0.11745650502324759, -0.09981025635594068, 0.05220102416644725, -0.13780976015262528, -0.047314072892095625, -0.09548124704788018, -0.06663755705911038, 0.09710789190465147, 0.09286914598161654, 0.06488584136400552, -0.11573794743221824, 0.07755382133038177, -0.0757603840630315, -0.11242069522067476, -0.1512684465736385, -0.10091244488117741, 0.13046414995606548, -0.05486174214439893, 0.06856930302744517, -0.059524352597889685, -0.1303463048107419, -0.12810848721630788, -0.08171666475976153, -0.004087578488678627, -0.08573405688557124, -0.08868074094300302, -0.047854560417868904, 0.044082130553325924, -0.03319384364667391, -0.18957265279314345, 0.1434248620979796, -0.030061681033208703, -0.15221222222064104, 0.00021397223455805998, -0.00732642826751568, -0.09051492927102248, 0.051414231468817455, -0.07955279923290282, -0.01300739092569002, -0.006159750944095833, 0.028963950103242285, 0.12314416536189633, -0.061762142868888745, -0.011229395104194856, 0.028845829810640954], [0.11685275024265719, -0.10024169706666959, -0.05883743105604746, 0.12985944825004622, -0.09637148149931352, -0.1129315241270086, -0.018619418316063147, -0.027861299413229915, -0.07756538025556128, 0.10969959553438592, -0.024057556698746794, -0.027002232591598098, -0.024405669477572445, -0.029668640388667945, 0.10314336615776477, 0.003433060879911147, 0.11696514591590132, -0.006489702588195624, -0.12148571941588192, -0.047266308561331204, 0.021654026467107727, 0.07052794642688615, -0.18527080074551625, -0.06532012484698825, 0.056821622851718274, -0.14919279777180858, 0.02099505591370163, -0.006004752693598244, 0.06719588131173801, -0.016828399836833388, 0.16333750962230986, 0.007028479989282452, 0.07899418816371193, -0.10906650003541016, -0.17074222289207033, -0.0707875455230546, 0.0852728779276922, 0.11495974457066065, 0.008713734225442233, -0.014397895427860805, -0.10438677864626512, 0.08371332945033415, -0.06540098370689691, 0.08395579874052264, -0.016868031791863164, -0.07767896573102612, 0.10648855336431402, -0.037918816360182364, -0.08052583351534989, -0.008468971169129985, -0.017649044758763027, 0.054454372054016265, -0.06392372403834581, -0.012268045056131648, -0.10716510045865427, -0.07614145085915958, -0.16155196611506106, -0.16834506935662888, -0.07210190117181803, -0.14489006087178136, -0.07982322866096846, 0.12839322844855613, -0.08870243700612125, 0.14540441344948152, 0.1151205280654261, 0.04521110228053641, -0.038171109460359405, -0.035436094564799424, 0.06838309317953943, -0.01486227554380755, -0.023044763908459744, 0.010163050382427612, -0.14829638784663526, -0.09940374489180887, 0.09679790083781557, -0.06187247874836538, -0.06672241905443689, -0.058201466973449446, 0.18293387059003086, -0.03309624127988284, 0.036423802058921186, -0.04239409306348408, -0.03966114240147977, 0.016154659480633767, -0.04812742550722976, -0.0979651431887966, 0.038885230401732765, 0.05669911152747831, 0.0777342388097519, 0.015298993163381557, 0.08935933342825479, -0.07425851026120382, 0.07506854107354063, 0.0054869391464966045, -0.025547026001824836, -0.04492600683891948, -0.10067929437611664, -0.07186920406297223, -0.09539832218793493, 0.14325730166781964, 0.028939566644539373, -0.0172449435888929, 0.1496603109041421, 0.16412881728412687, 0.07861713680686383, 0.11666550022704543, 0.09989353640442214, -0.020147183004676352, 0.04350357640797886, 0.06723137819709, -0.0069818576402756235, 0.16916948780192195, 0.1682781935608406, -0.15353500070310816, 0.08404460452253242, 0.10055791491444613, 0.020827085051631524, -0.12028873194897295, -0.01338178405217298, -0.12197030393186682, -0.10270671594598596, 0.0813229606317907, 0.051237963567811295, -0.04134883709175514], [0.0855625132795233, 0.13840374289254456, -0.15211958696899802, 0.08340959348634323, -0.10085486845074078, -0.13982665634159258, 0.13435068362225133, 0.18243650070361733, 0.0263441790108448, 0.1034674135389067, -0.11793981141066043, -0.03409649265765751, -0.011013206782460247, 0.0257449610057503, 0.11134067524926251, -0.03648847617411462, 0.0735385889660213, 0.07333209655472252, -0.12308053988207876, 0.0606111957407599, 0.09323066720842757, 0.023151664380939182, -0.21250492838368468, -0.036526335757696954, 0.10107548637677306, -0.006644070878411219, 0.10811172691099363, 0.1834767750155652, 0.14302919295331903, 0.11525920136397533, -0.09397804497996673, -0.1208500516147991, 0.09036303837916194, 0.048154997475052676, -0.11329288766202254, -0.06276146774054454, -0.15131629720696396, -0.0736647995184427, -0.15273490516239693, 0.09969040115429285, -0.10212498084067977, 0.024311347874194655, -0.10403380711371675, 0.006025053290036291, 0.03208390236595684, -0.04627180736769718, -0.03450288559920843, 0.08667374087921453, -0.06349065998917808, 0.10454519620233484, 0.07755970064418166, 0.15737104062454935, 0.07456696849211181, -0.15580109211803342, 0.07689478338798567, -0.07938036848454659, -0.06868683515064941, 0.009131599325513759, 0.14212234727203293, -0.017412133879639764, 0.023807915033823807, -0.05441737770278577, -0.14338831342629538, 0.04965583396218204, 0.0142094279753043, -0.027250579525199898, -0.01619304181001893, -0.011000262429660838, 0.1610478362194816, -0.012983763144363706, 0.1269389312876775, -0.1071222415892431, -0.10050631024209636, -0.12145217733411345, -0.1428766511018171, 0.12293075844281634, -0.02210468760382046, -0.17956592440494312, 0.09373130118975762, -0.035781289628676764, 0.13267110345773814, -0.05992309583120213, 0.14018071432100954, -0.0982020203185226, -0.09998044431970728, 0.09825754190091747, -0.0605245650422255, 0.1419933297927878, -0.06533058007314109, 0.08957616826286081, -0.11317839015090711, 0.12780763080663377, 0.08219184671831314, 0.15908437213218332, -0.061740537717351995, -0.10958648327795062, 0.14769320017402524, -0.07186263225463158, 0.17266704882209202, 0.179010250736624, 0.09503757781326919, 0.15510654336197752, 0.0956524700364628, 0.10956364232940333, -0.028419932390060205, 0.18222586078009628, -0.0934253978707092, 0.0375701083998562, 0.18783508180471362, -0.05163678191663964, -0.035992230245617096, 0.013232489494891343, 0.026789074022934026, -0.14670819076390113, -0.06332902498641826, -0.026913339484238942, 0.18776787834212028, -0.03470747217889496, 0.001351721312686207, -0.14013863022223172, -0.07785484094580976, -0.09568283220476581, 0.12181818808646826, -0.09667028929937062], [-0.030202620803345105, -0.11032175269105343, 0.06739179285421133, 0.03233231247534086, -0.07572277930394901, -0.032572851613911796, -0.016897701740277066, 0.04874177333271762, 0.08461958576099445, 0.08084917042148784, -0.08115411290789355, -0.1212967221037817, -0.08383838628229419, 0.07444490420134647, -0.13052881115791767, 0.10135457894285999, 0.01794676560453869, 0.07596412954895806, -0.054507955597308415, -0.04176432981978153, -0.05962248288195032, -0.1336759730698046, 0.032626822033650985, 0.12052549476847846, -0.10850044958822248, -0.02162535570809283, 0.12043828257505122, -0.030049242517770205, -0.10048660851696119, 0.1367576130240276, 0.04493864501678154, -0.07176539517792946, 0.13453879904778257, -0.061394821907175136, -0.0735474872811157, -0.006499887895985089, 0.03948693794001316, -0.17551118880824224, -0.04165974851038297, -0.006926932181723381, 0.11323749854208143, -0.029471002140689834, 0.0746650683606767, 0.14460764320463027, -0.019164911584305177, -0.05291362165901396, 0.13309017794344682, -0.030183156671301944, 0.01890429807907589, -0.04062824010351512, -0.09122772057108075, 0.12535125083102325, -0.08235036139314736, -0.02047069242483344, -0.14901785279013613, 0.1475131006878681, -0.15476245071679035, -0.09393102353055073, 0.1411634736450208, -0.15900204652909086, 0.09095153115122301, 0.06683537085742156, -0.028595508756634556, 0.15457750248237823, -0.05335116590156489, 0.05915007193392489, -0.06634223687042225, 0.08894113055514544, -0.033101596911044265, 0.14713713614696244, 0.06960430625877795, -0.12888718257262272, 0.10002055106926637, 0.0070925240031831285, -0.07576772609979886, -0.04610732201955076, -0.018874878708546507, -0.12938293251823252, 0.12462978819729492, -0.08287390959575885, -0.047301639536773965, -0.06398520932363305, 0.09061317035402536, -0.11808940467900234, -0.11272369951703183, -0.0005534448607631834, 0.012336509635904703, -0.04327393399745041, 0.020054130012587695, 0.1390292639767995, -0.04325610054703333, -0.08727959861816785, -0.1553903280965893, 0.0515374167069027, 0.095102496718278, 0.0040546702492045925, 0.09571187720397728, -0.022611770060703373, 0.11987480972688395, -0.04332940285407284, 0.06171023496722793, 0.04950545697510033, 0.034547153014588175, -0.054681903783012915, 0.11563338377098757, -0.07708148820652096, -0.01325661211167377, 0.1483510364728632, -0.06204856981943998, -0.1133264873613602, -0.08489865016793903, -0.10554989627135286, 0.10073396327804916, -0.015089286016299346, 0.10781263578480257, 0.08927458932245014, 0.14164677344984575, 0.1480685780178557, -0.13490399574361406, 0.13086240368115692, 0.005193373153082639, -0.155900982585013, -0.07110859271752597, -0.03931260413324679], [-0.07400694925245054, 0.014539085329697223, -0.17258382169055675, -0.09144761689358769, -0.061937196963987785, 0.052716829324002644, 0.10153569002670856, 0.018996708710602227, 0.09846710676378176, 0.11729209201255182, 0.09224035102631138, 0.1279252371594044, 0.039741166325577504, -0.12910996285649773, 0.07399839610880742, 0.028330914594959986, 0.04828954929174031, 0.058009819933617694, 0.11131972527374963, -0.031035790760462742, -0.09889821391998155, -0.08625810556394131, 0.12268734748729099, 0.0697866290834415, 0.039661658761619256, 0.030684467582747343, 0.07514955367155675, 0.06305365699495609, -0.06960361770332872, -0.0707473887034215, 0.13016420323605615, 0.058968742812738874, -0.04897755784547949, -0.11814618851494187, -0.0528463849849651, 0.05337664152113891, -0.14667435054378017, 