{"layers": [{"type": "DenseLayer", "input_size": 30, "output_size": 24, "W": [[-0.0941209336872325, 0.4655831123628359, 0.18454868853321726, 0.117335557408327, -0.30538799717141657, -0.29922334931042416, -0.41494106944389514, 0.35446912885909415, 0.00819953397085026, 0.17504032649224843, -0.422934839528577, 0.45325326735045324, 0.3851935217531279, -0.24884640636042768, -0.27196191336789366, -0.3365687747558577, -0.1579830156274002, 0.02309208430588891, -0.04561320530799754, -0.044364279916543355, 0.1503908065326407, -0.37202454683239583, -0.1312097978624408, -0.14290742524243277], [-0.1248131054620001, 0.26296614511051086, -0.19515017011626545, -0.02639404469302098, 0.06886480861416922, -0.45866964201798893, 0.10990370374629709, -0.041111593991498524, -0.239268223073999, 0.4479351313131967, 0.4032092385359665, 0.3932556593339753, -0.044654349528603345, -0.239677076110193, 0.09791830865597612, -0.033970118733108304, -0.49256507455847687, 0.016702048236209275, -0.6251347754815182, 0.2518719750630919, -0.17664706319408308, 0.0880438706910418, -0.351258570149742, -0.007877969314943738], [0.06014747004858915, -0.22160400253055612, 0.39732155609522035, 0.26924057964200104, 0.3951083489896571, 0.3584849718423719, 0.06702011121110771, 0.40580507621660367, -0.4512059751427419, -0.2750653456985435, -0.39674589024433277, -0.12263589327524975, -0.009582516198419296, -0.18802773966556258, 0.30205777240266884, -0.18047376125542336, -0.17580389786455894, 0.04036457285042235, -0.31886295170472395, 0.41610599890770494, -0.3346112590962325, 0.3894707794691304, 0.2904644305789243, -0.2910291299981195], [-0.432161491316819, 0.343386130364384, 0.16469049203451722, 0.22894907457393945, 0.2471741511436947, -0.3739832416261965, -0.16240432618123665, -0.3117481659196299, 0.25244986053596735, 0.10022621931796716, -0.14982783152383072, -0.3736790336231112, -0.08065513986326979, -0.16311089729521638, 0.2270285891679213, 0.06451066909241512, 0.35347298659858295, -0.0325360437875947, -0.35218776329197704, 0.32673690136696865, 0.27954000493890724, 0.00930814164778612, 0.25612452187904, -0.024147150008084983], [-0.01711793450567772, -0.12829475834013865, -0.4243575598134174, -0.38338715280852675, -0.4266770097911672, 0.06760370024413521, -0.22647486271599715, 0.24492631401457596, 0.3710004208995686, -0.25737532902205923, -0.05340509502749391, 0.26137844169805097, -0.09099101639151995, -0.5172311504402246, -0.11804334387253056, -0.25908030673204296, 0.4064845624975391, 0.2623953481771818, 0.07783549305835363, 0.4009127093571246, 0.23055784807815619, -0.23766904405410222, 0.2694867300533723, 0.04752519949768997], [0.3227973768141464, 0.3230214757365494, -0.1853258748056148, -0.4590551867165946, -0.24691560978742147, -0.08469209346428093, 0.3149213261618558, 0.3120296923833226, -0.5831177164828092, 0.10363104611914291, 0.014803673406777289, -0.17662575282056822, -0.29803893007165366, -0.031870751467528234, 0.3242560000335428, -0.13812507961978351, 0.09470750536250172, 0.22436359289966332, -0.10870709971978468, 0.3987542532342225, 0.4382125596972875, -0.1896493396113185, 0.12122192376812677, -0.17808876253854028], [-0.2165253519943795, -0.3756573244857617, 0.09809374300054223, 0.03840744063409215, -0.3982683469230809, -0.23373909255732647, 0.2592031708202778, -0.07183892569981391, -0.25675762207621905, 0.008884389141699506, 0.43936632087540517, -0.2092791500938702, 0.31612989156665133, 0.21568707503634194, -0.1670601875101503, 0.1581471022105457, -0.13166463554636573, 0.10291943447634293, -0.009575384632859828, 0.30638533474278945, -0.44646380318831874, 0.2916246306478223, -0.3433219683444794, -0.2899673236048291], [-0.42035951596591464, 0.1070921356707296, 0.14121037717181253, -0.4053525869513375, 0.010981168940591132, -0.260222436566632, 0.047596629553731194, -0.13400809587026444, 0.17721739691857977, -0.10186400317153514, 0.41123049458029387, -0.2947630077833503, 0.03903762995963695, -0.43115614468054003, 0.44480226743577983, 0.30679434248029597, -0.22296021322415185, 0.139254969429524, 0.2219713464007227, 0.2456986119917863, -0.007041699658246033, -0.2515501915236724, -0.44413704381761554, 0.33647301500496546], [0.34350260872514865, 0.03719602849095057, -0.1417124873311809, -0.21045072123728295, 0.1897992449740947, 0.30266829774447856, 0.2531041001628233, 0.13630559883144644, 0.0890961363983362, -0.4141965565452806, -0.2714755232199881, 0.3664960582786152, 0.1463655788178225, -0.5175009260208113, -0.25980521689158614, 0.13729510360376057, -0.4030467873438569, -0.32135031324744, -0.07504555894482595, 0.15439684450221153, 0.22295959892544776, -0.18313319189584865, 0.4118074123379053, -0.22435194488821833], [-0.17334362745517468, 0.14894614235424056, 0.15440925041914894, 0.1701601540478536, 0.13630402762823018, 0.043627502552319085, -0.2889823689240252, -0.21034827754081084, -0.21583168794231303, -0.14996484475315025, 0.48638675941321885, -0.06788129757717985, 0.2365745733704502, 0.19668857323012126, 0.1753601680814704, 0.04105037653408359, 0.08802013312528856, 0.03146297738933335, -0.26158926265440086, -0.10658858154275914, -0.1936344191644015, -0.3392845599168352, 0.16664016493971825, -0.2639174532284082], [0.3647756715258783, 0.3861298743625474, 0.3957654344121728, -0.14901722804196357, -0.4412138646376362, 0.35914956502223994, -0.11856276045897868, 0.6084830646083033, 0.43469693187588837, 0.2633854153858288, -0.1969378887922965, -0.12027073004903856, 0.47973075941564747, -0.2367654055401959, -0.2468909741666161, 0.009311105656355576, 0.3583859703009891, 0.16938009863521708, -0.03703862215165806, -0.21912967650158321, 0.06314928518572965, 0.4257859944366639, -0.4882722043070222, 0.026299513614343302], [0.38581494909174363, 0.11471797717996544, 0.1647256131579261, -0.008895329652306343, -0.1464429394303354, -0.2308319363445093, 0.32045798981073925, 0.17595660429103832, 0.28091178365349045, 0.4265475958527367, 0.004743674970229966, 0.0488195858586405, 0.11889624387153534, 0.2371067722909834, 0.16577690191537847, 0.24197256499964714, 0.3928579972366039, -0.14426822555961924, -0.1991403280389823, -0.47164115399983164, 0.22313845789736916, -0.36788350997717445, 0.23103097816138643, 0.05016042837539926], [-0.19455063624537236, 0.05422404293854544, -0.4066769346071009, -0.4810021730614109, 0.2800511997717926, -0.13248362142564024, -0.363423587094763, 0.11147782310083094, 0.21631461543743505, -0.2689747922580772, 0.10913354755248655, -0.3670402254436848, -0.29322111568658493, 0.047636266929677866, 0.050230349806413915, 0.09139932725402307, 0.21034707659331675, 0.43027475669915727, -0.021384657117853503, -0.09872292141494164, 0.27980127439490504, -0.20261245391459157, -0.058665865757794686, -0.3750314886944811], [-0.45240951075148456, 0.420617175882234, 0.3170289615831441, 0.16819279622573957, -0.08374778176087506, -0.3088789670325621, -0.3773116757076539, -0.07448254942821715, 0.05996240622687195, 0.1534926990219229, 0.13307312524633447, -0.21862324201827188, 0.5396088245913169, 0.14314328469256957, 0.09739371205364102, 0.043902454642840566, -0.10964871983486425, -0.238404779005183, -0.22328949564192452, 0.36470227574565917, -0.4560954507501434, -0.3602901813455195, -0.558705332591899, -0.4060069944680393], [0.29936690179703584, 0.19936827313660593, -0.03503054315579618, -0.38352480194595295, -0.011554987873092169, -0.04263714517603322, -0.39432090671894693, 0.13614475179628785, -0.09542411585168069, 0.11726405291564553, 0.052369664117846916, -0.3465744094704978, 0.054784862195157276, -0.0632695965150366, 0.029663150002648273, 0.3119552020944112, 0.12188840746722662, -0.35498666150506325, -0.2844789954638002, 0.1124722505709934, -0.3549101706980342, 0.015008107349659008, 0.3249499414623053, 0.05512382000339256], [-0.027630480413546418, 0.15204493050033896, -0.05911266065517727, -0.07348924129553941, 0.38617143402685383, -0.11093094491980782, 0.46507958730543014, 0.19769442219658545, -0.4126894451936913, -0.26813684818147654, -0.32657995251140365, -0.2992426056742613, -0.33960438458823355, 0.30112528072713357, -0.509447752052542, -0.12971860695731963, 0.382489166913141, -0.4256683421843009, 0.41421482277049676, -0.36627616499981563, -0.22848637163951865, 0.19510959907947995, 0.26652686801175396, 0.30840004367455115], [0.20207162000840093, 0.31516043363053253, -0.1807028857796457, -0.26780870201800133, 0.2214822487725878, 0.24380916627808408, 0.37660582235733187, 0.008883014591913431, -0.06614986622732029, 0.26345766834119266, -0.1806580250708395, 0.45839958347072807, 0.40805244208480207, -0.08023582322608062, 0.24471501635215756, 0.17781616052702473, -0.37849267542715, 0.33674948239590535, 0.04522153871086708, 0.3826384017523491, -0.14654804516351885, 0.3438172800722803, -0.20447232828285217, -0.46969994762968265], [0.4113433715917966, -0.37928021671264156, -0.176050304389697, 0.36274465029145964, 0.3825010112471536, 0.041641123602680005, 0.07169146396324158, 0.10275484505916853, -0.2419561682805414, -0.144870107462089, 0.14898630087982925, 0.32957024319111816, 0.4628358635514765, 0.1832029850167093, -0.3418039724166541, -0.04884355219327197, -0.38914261165749836, 0.06812176041609716, 0.041135458604820575, 0.43223048134525593, -0.049932504983812125, -0.3650812357224546, -0.18025853049747273, 0.1821902022958915], [0.1578191384093657, -0.3462325797949497, -0.4061385034307181, 0.1335207462977147, -0.37591866011237834, 0.22931153885723426, 0.13080969536506176, -0.4846365337300826, -0.5135144006188566, 0.5010373125896664, -0.1306083135159434, -0.04739635312635425, 0.46109324577298894, 0.26765521072978704, 0.4530601433962209, 0.1685212489186769, -0.019417766214111835, -0.37578964683644844, 0.20194569519659755, -0.056230766977536935, 0.0900816207698087, 0.3834804304411994, -0.08652760185838759, -0.06236650298257429], [-0.41659888758186203, -0.004316649501459625, -0.3964514193177637, -0.4349339289563579, -0.3528879969655501, 0.1310597784581784, 0.23615744190443103, -0.015601039182016777, 0.38323015749032646, -0.04637413812056738, -0.16183426325412184, 0.4059792433828284, -0.24518107646595616, 0.4699305464856724, -0.5255306263251135, 0.4317256966243809, -0.4233794862623241, 0.3467516913790982, 0.10148764883662861, 0.21788309427187416, -0.2940754240505181, 0.082932092166696, 0.42557385742512893, 0.008600372473978516], [0.09459020204939099, 0.23591769305206817, -0.04122147216783806, 0.18575534550549921, 0.08127452266534083, 0.3494691748131344, -0.4634460733753265, -0.11350714360885143, 0.40624286037008306, 0.30770997839798253, -0.02356124206237343, 0.07403153075541913, -0.09359119817151752, -0.3221479210670087, 0.026497850088146084, -0.18385380103202037, 0.053552585236880335, -0.3855681787954599, 0.3044533025301364, 0.6840035181862428, 0.11590256232463222, -0.010006954392881838, -0.33600927154299987, 0.28908781963394536], [0.02794816995373878, -0.30985695281713993, 0.44229416817612527, 0.32456915210296255, 0.3830228823743517, 0.12538311880073683, 0.04748486794384684, 0.207662631669185, 0.6700395930978951, 0.30615723135440565, -0.44858428583705484, -0.3630504020952546, -0.03396967310879535, 0.27919368804927547, 0.495912829475958, -0.34147018493553777, -0.10315728976126128, -0.14266862371617411, 0.05277129601901955, 0.36309509690133496, 0.2428064391740259, -0.04814915723275574, -0.43366472005907286, -0.198887142710021], [-0.4053160025960002, 0.3820349873882232, 0.2731986132036839, 0.4900110082804069, 0.44926958917406706, 0.04234584999338645, 0.19166948290680233, 0.4656007190523471, 0.28695817750137204, -0.24301839330710237, -0.020029352887653652, -0.3482142751131901, 0.5018838683050185, 0.09968782106596326, -0.2030372174686313, 0.10278990830939588, 0.10410419675232623, -0.1278057337053409, -0.45363576030916924, 0.39167109938555317, -0.022522197800458606, 0.20889310436739045, -0.0861458114756813, 0.32019574328311307], [0.019958442208562452, 0.1105219227070805, 0.3389328483427403, -0.03020126992955158, -0.3204837698590426, -0.4329505516519347, 0.15526455620857976, 0.19890137690536702, 0.18826190436519716, -0.29415471310153457, -0.31794827464974545, -0.47181961324089905, -0.028722972935806165, 0.02757471601888435, -0.03285312479655466, -0.11909218142405509, 0.33229941601373264, -0.15155724499085213, -0.11313547406519318, 0.4677641138762517, -0.13549922230176564, 0.07332244172423524, 0.1546121736325395, 0.4070763274048357], [-0.4014624179485336, 0.3846636214336423, 0.008505462275602772, -0.12558371496443083, -0.0400214295203775, 0.3948572762733727, -0.1301089756653688, 0.16787755657595244, 0.15885171045856006, -0.25007608830499245, -0.3887994791819516, -0.28925579091212367, -0.1125900003179639, -0.4348371355148143, -0.22657845724521944, 0.1923353254740936, -0.357410720705732, -0.17032993073380753, 0.29632272873496074, 0.21815864895786297, 0.0025295228386482066, -0.273141971849039, -0.41366701338314804, -0.4060889801641245], [-0.29693596746553497, -0.1763232103853684, -0.29020453881748914, -0.43163860263889353, -0.3444440469319637, -0.0593708451622998, -0.23312326615692427, -0.14079262940072554, -0.06550592170364987, 0.259523241160352, -0.34290694497452795, 0.37314680935767713, 0.1373142340166183, -0.1963003454022031, 0.23606557956397028, 0.39414202107667634, -0.36980611403197666, -0.16958682863512187, 0.26213475484632875, 0.19919999242525957, -0.33908843577132725, -0.2209942004488367, -0.16595854208245533, -0.02017662396484814], [0.04565388600284975, -0.06380278131049898, -0.0013583246904714907, 0.30632395226407466, -0.40927458199653316, -0.2712194638893175, 0.10390122494110399, 0.5000949144946082, 0.14728129094307207, 0.03869261749138527, -0.36433603017218935, 0.007913615348281932, 0.15114236832398237, -0.17224844259372465, -0.14585723733398603, -0.15174769055228599, -0.48904487013073095, -0.17150509864492033, -0.36446299072015026, 0.10870732019874733, -0.47492615965876767, 0.3645288975412551, -0.15503392905058333, 0.13587688936742354], [0.22024129370500298, 0.027361196727475282, -0.3684906087201335, 0.09841920592916703, 0.07299860811198178, 0.19755596644563836, -0.17081598741742718, -0.195128788760423, -0.17372310979320507, -0.158315488111983, 0.15782086652820107, 0.11338313361621227, 0.04134270347245025, 0.36166669255380135, 0.18416383437774186, -0.277206108629145, -0.4037426837544949, -0.30359069923360754, -0.2854977182645008, -0.06388190517936704, -0.3609370181759965, -0.1977915114949843, -0.37270062451025726, 0.33529102501851543], [-0.45862896252665564, 0.07592181161107114, -0.04441283389575661, 0.49576092808343336, -0.3445222713330009, -0.15275348825215887, 0.3452713716791382, 0.3430008999077521, 0.29005829220617657, -0.23148107050667577, -0.33705041365114113, 0.24731368471253792, 0.4614669828534646, -0.057095650609587066, 0.10121168587489064, -0.26894406482528704, 0.23030162669327506, -0.31121476066855774, -0.24976391894096528, -0.1508381427005734, 0.05878545418364368, -0.20483904377059714, -0.22270603555750002, 0.05160092560997905], [-0.2353339812205428, 0.08833770335823177, -0.2792458028296094, -0.05926847550292537, 0.016092147106548754, -0.4263895184068785, -0.13774600990403515, -0.37445134821310566, -0.3407772689812606, 0.49939006702236477, -0.07156731547497065, 0.27891996874790287, -0.2647662658668143, 0.2828712376835578, 0.14948994320210096, 0.09888619550279715, -0.07541850638904113, -0.03922790376624374, -0.2527338814718515, 0.3606843230568938, 0.18035685382940492, 0.4844130495384759, -0.5530708148294289, 0.2410563121624868]], "b": [[0.07355769368482185, 0.022474420302596835, -0.004146129509449712, 0.14889789708697568, -0.020530634143764215, -0.006775016387984041, 0.10174222913758764, 0.04585866900570725, 0.02280940782949115, 0.020980256121504254, -0.0060513253628062084, 0.05824423696923228, 0.02845085058521616, 0.10048130629894453, -0.07382904275844429, 0.08117103588163925, 0.058421455018828256, 0.01891922221453398, 0.12015838970022716, 0.23972652440346923, -0.031578428454784487, -0.055119738238296974, 0.3198606202511379, -0.053041609055090186]], "activation": "relu", "w_init": "heUniform", "optimizer": "sgd", "learning_rate": 0.05, "momentum": 0.9, "beta2": 0.999, "eps": 1e-08}, {"type": "DenseLayer", "input_size": 24, "output_size": 24, "W": [[0.5072983327754981, -0.31577351339761583, -0.44905181119543314, 0.15575173491710248, 0.006927046254657012, 0.336094324961916, -0.4184758426050353, 0.26732633179128706, -0.30586268390563254, -0.34098051552772346, -0.29978759985234893, 0.3977043458313943, 0.1656961965097955, 0.24737862866351157, -0.158299507693511, 0.37302278953254886, -0.10630751902124977, 0.31204162270829816, -0.17586190204018476, -0.08248336152946284, -0.09299923856625641, -0.19712055354222088, 0.23690415330576717, 0.11792083794364924], [-0.2839488131137875, 0.40745003696875726, -0.0870797037046435, 0.11459991011695962, 0.46688248061565535, 0.13001194601930133, -0.3040736494724697, 0.5484486695166124, 0.12537560342200202, -0.1070376098502207, -0.32897185852153116, 0.28379647895098925, 0.03780501554904367, -0.07776009667618283, 0.3839420238414521, 0.4322047150433537, -0.3483251202672488, -0.15439366723844494, -0.22074081333277604, 0.16357314686431068, -0.42422462250371035, 0.06917261652488199, 0.2653387180525132, 0.35157530964725486], [-0.1347688975597425, 0.34581934157307087, -0.38638329253338105, 0.40430868460715647, -0.3305617665862773, -0.0906299459323468, 0.3426627768176136, -0.16633986816028667, -0.2603602657174402, 0.295125416912175, 0.3323751093346741, 0.13616884644031527, 0.10526415992377068, 0.015739432971930273, -0.29186798288264204, 0.022400899770165277, -0.318108454427369, 0.40668716527343374, 0.08288720406265053, -0.1481451264128286, -0.02080695580723104, 0.44680643540160586, -0.3470279202732099, 0.09423553804881574], [0.03576503069237238, 0.12754339034212708, -0.48791097308451564, 0.4226614999027921, 0.47440445281732363, 0.07321530764974454, 0.2054093939646402, 0.5833365316896645, 0.20697073009000064, -0.29777328710934003, 0.21721826811712813, 0.10698158604313952, -0.12204276373884317, 0.2627996937209589, 0.4035970353238313, 0.558216186293552, -0.04876129120011277, -0.40132017328626, 0.46958079010407194, 0.3246391550294989, -0.38078483789516326, 0.4248007305855432, 0.36871606093310766, 0.0781022406360503], [0.1316867230517277, -0.08868221701738714, -0.4456823512594494, -0.13397479480857438, 0.26740495775310913, -0.49509980430978473, -0.20577782365561662, -0.031672387219515576, 0.03664442966197645, 0.4407694129283831, -0.0894723781275983, -0.13208533174156317, 0.23230200529682224, 0.04561940756032218, -0.25647077806658614, 0.020135749150770054, -0.358364924174773, -0.3229162521496985, -0.06017617809060509, -0.07535013386582667, 0.39910110636434104, -0.14785243709667037, 0.08009934595075868, 0.20112981471819663], [-0.4095387491932589, 0.16176864615552916, -0.31865852193252575, 0.41425338022421715, -0.3494036163311077, -0.08608578143219743, -0.42170658833460967, 0.4905778087414124, -0.013111077352608476, 0.10513687716718734, -0.4356590090364755, 0.29868177373772536, -0.2752257743072918, 0.5353265533772488, -0.24112081610582828, -0.3484243043428816, -0.4631433068563695, -0.004474886658936331, 0.0013779425953929295, -0.41434096864733905, 0.24259954562872862, -0.04730769755027984, 0.014314413738243728, 0.02139339543022044], [-0.030000078737128955, 0.05854600197180206, -0.3041517252642106, -0.3461764038665804, 0.331905389754349, 0.4393387747706167, -0.16234447333932112, -0.2203760310466585, 0.1269638949134795, -0.09210779054208301, -0.46323211634310624, -0.29271537927698194, 0.2698427419272117, 0.352034267459523, -0.45805430603852104, -0.22858315187135123, -0.2686452548960001, 0.17488202359113678, -0.5286290140012236, -0.3492301328590098, 0.26616707647622834, -0.334314558782262, 0.14780813661254258, -0.20778617982201128], [-0.3934001075849946, -0.24995975324599867, 0.2885551467767219, 0.3965465161877605, 0.3571757924011498, -0.09864827885563597, 0.21212868312374614, -0.1786353171577327, -0.20902158855848135, 0.4495346842633007, -0.46215423743325323, -0.4001427480181852, -0.33274710744614816, -0.5415358965311748, -0.3073601987898334, 0.18859305506509658, -0.07857544940750205, 0.4185570192071489, 0.2989169050813881, -0.19569729057633284, -0.2199031143315108, -0.11312831586328286, 0.08490012713826911, -0.2230924599425655], [0.077950078372443, -0.06753301511028346, 0.07590903593296432, 0.06830966713358694, -0.10585651248133565, 0.4611857237088978, 0.400131260883993, -0.10551329229426167, 0.3801342459557281, 0.11520366229859402, 0.5146980485850025, 0.22449748261785155, -0.2297083779810362, -0.7268771807285012, -0.2587391593939775, 0.3162655050136458, 0.13347821982614727, -0.22245452683627734, -0.2990916022335894, 0.22475649640811562, 0.5426703547309415, 0.04506830284596767, -0.32904460009838254, -0.3335319458233439], [-0.42747028183097674, 0.4216759832924615, -0.37675973864733386, 0.07065581441021317, -0.3303692390511525, 0.049361543273856896, 0.09730820810091884, 0.3115417157857653, -0.29575889906940894, -0.48399641605947086, -0.31755637461495406, 0.42877762314239537, 0.42594119326879204, 0.2762632740280321, 0.11973095202568297, 0.2219436830659993, -0.3236794146584275, 0.4157036936387154, -0.14263443886291394, -0.08966982542619911, -0.009475521079128121, -0.4711153165316871, -0.32983599237961686, 0.31014486211951664], [-0.392074351033531, 0.09961617536096426, -0.22536724426321778, -0.19203103411570024, -0.2609911925966158, -0.14900469138905936, 0.1736809635632006, -0.24788326166796296, 0.06656745382738276, -0.009614147185153684, 0.1852842973107284, 0.49802707900517956, 0.2566999996355882, -0.08601506901284187, -0.46655047043569575, -0.1926218448293948, 0.0967660237048086, -0.44294710209332516, -0.12458799710284725, 0.1554379766006792, -0.22697133691815563, 0.2881265674174138, -0.40418924984802934, -0.35753553365272195], [0.33960943585951014, -0.0101892096216657, 0.20283397584669885, -0.15829978558554914, -0.29182906909079687, 0.30724801406879354, 0.17924495200592236, 0.014362433783555836, -0.2331256694406883, 0.038652098799980605, -0.11427185226928084, -0.37023422099743963, 0.5470389089646958, 0.07183873647248369, 0.5860805509105645, -0.05133599257549582, -0.31437418995616145, 0.05374753999394588, 0.22047971109439307, 0.3438507962321317, 0.22392498698858068, 0.14353681228501344, 0.1853727252962275, 0.5037585469473816], [-0.25760615628876765, -0.006670337220287048, -0.2693313902808072, 0.5328768528181695, 0.5168223221623519, -0.4567496601825084, 0.2505016749527076, 0.5786777291121784, -0.32262767847806584, 0.1276886839203023, 0.4264732926145358, -0.4404098908095034, 0.1250985685797794, -0.343490934033158, 0.3994066192342378, 0.5319314782707051, 0.44495440597230634, -0.019763838115609396, 0.36630329051463834, 0.3166825904516902, -0.17173646864495423, 0.3571925883433388, -0.47059184366081785, 0.05341023626357751], [-0.19668089080475212, -0.37829771728842393, -0.4265762307469572, 0.1434016919100034, -0.24771607762012837, 0.2139949794761437, -0.522343810034385, -0.19006450244022027, 0.017753227311797386, 0.27522034546381735, -0.1729905296000649, 0.18637978576954356, 0.48441429908672035, 0.4293045320768514, -0.22951046563169444, -0.4857640254990089, 0.37137519706651123, -0.5019719725254417, 0.2577434598835116, 0.09920966991992855, 0.37067184422446964, 0.29174433555739143, 0.4887286877544326, -0.07596319135839208], [0.27897663395061895, -0.09376637402285452, 0.013774464929262249, 0.15183900997675373, 0.37152639108008007, 0.4835029294602684, 0.27675433561256224, -0.03584471437693363, -0.07657539646841541, 0.2618113395174925, -0.20459339432600795, -0.39874369676210475, -0.1197072798595864, -0.17034501549748843, -0.23014358973828378, -0.1637681652163252, -0.4579068103636381, -0.4698621307026075, 0.4559024733163502, -0.07493531848377603, -0.11885912576630767, 0.17579552459362857, -0.2775126315385044, 0.48186533053976666], [0.31949578122097355, -0.4115383149542186, -0.10638967375965465, 0.33720078021968053, 0.41931030037666833, -0.03770109751730248, 0.09360176099921594, -0.358173471487215, 0.4678195768920351, -0.27118339132203456, 0.4449112884876026, 0.18702415555323, 0.11125566184822613, 0.16762056160124236, -0.26151492207153226, -0.33181215912959644, -0.2793481769102135, -0.3169030172312994, 0.24514879680253757, -0.13880767134394306, -0.4664132239065248, 0.4643316950428686, 0.3764957515023042, 0.46624760668156257], [0.5805665894533069, -0.32126966365999415, -0.1058580750756484, 0.16035468118837698, 0.1536318024564262, -0.34817258652485056, 0.2237037658022999, -0.34226333471410214, -0.27638878509109055, -0.01641130089637072, 0.084027699819397, 0.1467339115135483, -0.37421157948603195, 0.6879815919389856, -0.21203551094330533, -0.41036731478938004, 0.38956309805497474, 0.4343565461432639, 0.2444805357195514, 0.37977088526771996, 0.0964659539987227, 0.03783699610967547, -0.4165178914702428, 0.02086253770248347], [-0.13619415872562868, -0.2420093740982343, 0.28732990807601777, -0.03469750081882987, -0.435710345432421, -0.2804234795071948, 0.18425329248560135, -0.4781143080295065, 0.36177523090538627, 0.03307238002733157, 8.986397997624108e-05, 0.12263004121481193, 0.28975731392341947, -0.12677517895788612, 0.17888545858776964, 0.146467007641344, -0.23209882649125407, 0.3931462748445774, 0.2432118702805554, 0.17613486079048393, 0.32940017579478015, 0.38564926003940625, 0.19948688898968697, 0.3250148884284731], [0.26189447431740054, 0.17618266871714788, 0.15062670782965087, 0.19318764210651168, -0.36204862607077554, 0.37973098592936655, 0.3388537741283991, -0.49959643316320407, 0.32574267924291284, -0.36551297274385464, -0.17049787604829647, 0.2996195275526883, -0.3031345730962828, 0.4590368409814674, 0.38638432129274863, -0.018302464411222175, -0.4932877403999749, -0.2004761763524236, 0.03829277292620809, 0.5146791785727358, 0.1047487520638401, -0.24669798075212382, 0.12850101241392617, 0.12008340432945336], [0.22898483289748556, -0.38888746373991995, 0.47975022593136385, 0.15538651486662755, 0.5726266731173588, -0.1501091336923974, 0.24725859846202602, 0.6845931116921256, -0.39478831821706095, 0.5416744045812422, 0.2727243873201135, -0.42578759739163596, -0.27215691106969375, -0.046040096038644986, -0.4438373699248674, 0.3934933557191495, -0.15411694304704326, 0.1733276649312527, -0.4681920870893562, 0.2718123476091427, 0.5276762168240293, 0.4776546197525572, 0.24784331609196372, -0.41296611328355237], [0.29476867232462467, -0.4667254731219182, -0.4301746207784598, -0.20668959893313102, 0.002270093218507601, 0.27382911504410257, 0.16294628889262314, -0.03349902324954234, -0.2268551037024427, 0.5009130739428473, -0.031665111871067145, -0.02871205258982897, -0.3692437459957151, 0.3971226005757343, 0.19835679982832236, -0.2536412367813521, -0.41732677210109637, 0.17171927976287085, 0.07935621214727163, -0.20971469386813016, 0.42301737050863, -0.34540722378101, -0.07122376929375877, 0.48295876951877875], [-0.06255048690497458, 0.13669010332053913, -0.10415548247835035, -0.19476391481271993, 0.4980579472864582, -0.09417840594911904, 0.3399674517601296, -0.18747881925964613, -0.29175749020695085, -0.453146479147594, 0.1822167890221752, -0.10318708894686926, 0.4018431101607286, 0.08108040876316645, 0.508027785669938, -0.19268006945836622, 0.37127961716931185, 0.26824585787267546, 0.2169675005534803, 0.37208522205313466, 0.2321933867644533, 0.12434449978847029, -0.37226087318583934, -0.42432460194124405], [0.5578616943948342, 0.11321491315233598, 0.265530359577764, -0.1832573022541807, -0.42555898625454797, -0.37878599318847883, 0.029289760041113045, -0.19009410294355034, -0.30809217484441265, -0.08153553431443206, -0.43921327015569234, 0.21740970592779688, -0.17432763858101363, 0.8336004001481426, -0.12107274965375443, -0.1567083285042361, -0.4877043699767522, -0.45480454318422076, -0.28672928575639695, 0.11603916631479484, 0.0013210288682052485, -0.22054138540801832, 0.18653972887783812, 0.5710891986076523], [0.2572217712974248, -0.45876872898577276, 0.05479871396445234, -0.3822141193394367, -0.22203094487004515, 0.4899506258915778, -0.33539477744394114, 0.04091702856675755, 0.1289497550723932, 0.2391004220579204, 0.10491322653885382, -0.4765607316715911, -0.1928273366439445, -0.014978915867470017, -0.4183383302499078, -0.06362156521848322, -0.46669362642577183, -0.425250824019249, -0.12817140152614132, -0.38955795955156985, 0.07389943140993274, 0.1966025222203975, 0.29701949262896943, -0.2871263948878556]], "b": [[0.0792374561604382, 0.004433616261508095, 0.1587740304202683, -0.019698458809759706, -0.002712368164408144, 0.0027507490473111396, 0.0014357249333829289, 0.07458592315598951, -0.00043735106735892507, 0.0693813050751981, 0.10908480108818452, 0.06315688016979037, 0.018457487490558026, 0.19495165946358237, 0.10454779431164386, 0.21780647554947327, 0.0026148162071266672, 0.03653173657297368, -0.16503210813033417, 0.020754312387901968, -0.03880059098144975, 0.0051558013767324705, -0.010710049972040621, 0.13838230307067564]], "activation": "relu", "w_init": "heUniform", "optimizer": "sgd", "learning_rate": 0.05, "momentum": 0.9, "beta2": 0.999, "eps": 1e-08}, {"type": "DenseLayer", "input_size": 24, "output_size": 2, "W": [[-0.031619015305346686, -0.6963305621011805], [0.12850478881861913, 0.21440118721191911], [-0.5583390272466061, 0.5261374183159379], [-0.5276600468838251, 0.12092766583636685], [-0.13495802969237838, 0.7149876728893787], [0.2489422716472709, 0.2668727435549485], [-0.21147023272826418, 0.36574553901758133], [-0.6526745475011525, 0.6276060499463562], [0.04471530955427815, 0.32017483656195117], [-0.2736664914405139, 0.36956247115534047], [-0.15394988434369583, 0.41194206703514175], [-0.17393289270644555, -0.6840850412724008], [0.08814643126531375, -0.6814985171419802], [1.0650424148571993, -0.9740448609069561], [0.5665888263597639, -0.25382777876952833], [-0.6122441068266797, 0.5840605296578584], [0.1594945637495253, -0.0025910717955102422], [-0.028792817187589737, 0.3033581463974852], [-0.06686683385286966, 0.29165549124090917], [0.45101496823170034, 0.17410388026202067], [-0.13954602164296057, 0.019316715003396604], [-0.6478965139283384, -0.24925257488668037], [-0.08360347482975843, -0.19609067991971169], [0.7756126861864204, -0.180171111011736]], "b": [[0.11905403658329915, -0.11905403658329912]], "activation": "none", "w_init": "heUniform", "optimizer": "sgd", "learning_rate": 0.05, "momentum": 0.9, "beta2": 0.999, "eps": 1e-08}], "normalization": {"mean": [14.151461538461538, 19.198527472527473, 92.13538461538461, 656.4410989010988, 0.09668342857142857, 0.10506386813186813, 0.08893961538461541, 0.049078391208791206, 0.18166395604395608, 0.06288652747252747, 0.3950428571428572, 1.184826153846154, 2.787816263736264, 39.31444395604396, 0.007029081318681319, 0.025365881318681317, 0.03201499758241758, 0.011814903296703297, 0.020003314285714287, 0.003807418241758242, 16.276799999999998, 25.518153846153847, 107.32617582417582, 881.4863736263736, 0.13300182417582415, 0.2568486153846154, 0.27505084395604396, 0.11576435384615384, 0.29042395604395604, 0.08430186813186813], "std": [3.518312203714506, 4.421630427100466, 24.22424113771626, 350.9618760218415, 0.01380516458952225, 0.052119098800370973, 0.08004353578610943, 0.03864625559543971, 0.026779707295100423, 0.007074924441549951, 0.26146929849099915, 0.5266232783650722, 1.8803114505167173, 42.57842085676324, 0.0030475661425779215, 0.01712919826915891, 0.031245193920620157, 0.0061919437598152004, 0.007049413701138266, 0.002705313454316671, 4.851551639594116, 6.247806164282087, 33.69076307839065, 575.0917325308293, 0.022264749134787484, 0.15427915175847193, 0.20905005431612175, 0.06517248819575973, 0.05731952832331106, 0.01777793235805744]}}