{"layers": [{"type": "DenseLayer", "input_size": 30, "output_size": 24, "W": [[0.007329920629239504, 0.08326426581177779, -0.04807035282060072, 0.2546451740959316, 0.22907236540032036, -0.033910738060038415, 0.28978795199352825, 0.07549760243192731, -0.03708192283418159, 0.09259902000136755, -0.10365742951726672, 0.015398695548016794, 0.17360080920603327, -0.17257343665211058, 0.07247411690113059, -0.04146053437551318, -0.08394445694613528, -0.33146508101253175, 0.13129920976031298, 0.06074373711890961, -0.03311262461240113, -0.11239817913112912, -0.22551136500399094, -0.15284458988436528], [0.3430942635752781, -0.1834805315514105, 0.2702148517640058, -0.047841202943934624, -0.02833243939494496, -0.3033946827937784, 0.07643483287279881, 0.14447637930812168, -0.027568772191011986, 0.347350892598353, -0.41876307841545984, 0.24350744016552842, -0.09078944787153957, -0.16715480879055808, -0.2590377988395387, -0.16379459773486538, -0.12831117768858152, -0.1133741598939403, 0.3948658980355565, 0.23192897705392732, 0.11560604350209977, -0.07486724775661634, -0.024990390923224897, -0.24330799881500823], [0.11947425526801456, -0.09494355523436325, -0.20139063404535365, 0.0365835439362996, 0.3627179100687883, -0.0980779105007413, 0.2721921240392815, -0.034087470321990526, -0.23970098028206455, 0.12119949534179962, -0.1448110725347792, 0.3782398058430038, 0.014687564675402361, -0.05822724937047597, 0.12009924831110683, 0.03251190343073529, 0.3723748398395342, 0.173452445543926, 0.10123707311437044, -0.2744500663460995, -0.037974911352883056, 0.018524726868895548, -0.24729212787680546, 0.22042170473162545], [0.1497794523716344, -0.028189681054934912, -0.003594534046338946, 0.18880182624640954, 0.28022383523332667, 0.2411572244502664, 0.11458214464221184, 0.02274007864802551, -0.21916711788100493, 0.10109200560860782, -0.25762952670706885, -0.00472587207949788, 0.024634886893637693, -0.09408021086035627, 0.004283894683819374, -0.07924806283740744, 0.38846984956286734, -0.02304060822835204, 0.14298946452994088, 0.3052864057328794, -0.005456807048627315, -0.10685364611161109, -0.059182882095375124, 0.10094371972132037], [-0.056873624513642626, -0.04937476743254317, 0.15783609278872596, -0.10942710402656916, -0.26063231624915106, -0.149972576469171, 0.019626984937225617, 0.05179990512046624, 0.15400956592428322, 0.15089170544940836, 0.11002056842066282, 0.24753982226252425, 0.22111142902399744, -0.2308110943693868, -0.008939542727550426, 0.042132386804903194, 0.169135575692061, -0.27707412546743165, -0.09750779666198468, -0.08140647789998257, 0.08911375135763962, 0.11521296670814539, -0.04520816275461986, 0.10604552392959732], [0.06723681287590215, -0.09630073419625437, 0.027889037063571005, -0.35859003656505645, 0.25410806447890644, 0.2057777856442803, -0.31687358520269276, -0.3599574542892274, 0.3816389094216817, 0.04882065351268335, 0.16064681464646458, -0.14666193450322035, 0.036941607576494555, 0.0848085501930545, -0.07572391699465096, 0.010932418710932508, 0.12517263953372568, 0.005998120833789859, 0.06562065249907646, -0.09204226616546654, 0.1710303602749676, -0.08595664751961643, 0.30765236818271224, 0.18780476673247465], [0.22664519881059622, -0.08468096068363287, 0.04910597335655049, 0.3934411981103236, -0.027546732720503418, -0.25906242459291073, 0.26170256705988804, 0.1637281508219779, 0.07081047355052343, 0.05360707917206399, -0.18892804360149207, 0.015879335425239532, 0.024753094318251068, -0.060370793000827885, 0.03858637828354777, -0.26883234854147425, 0.3216271920712674, -0.39531624305607255, 0.06089773866853426, 0.13028070625042099, -0.020438176777389152, 0.22036323633191074, -0.2951522473467452, -0.05781358713456835], [0.2736150627323332, -0.266877167605727, 0.021799563432372188, 0.2501064445081493, 0.24053911330275712, -0.03513589486593749, 0.10760705448184715, 0.2572128041100379, -0.018794458578283883, 0.0696431017097331, -0.3841364354830569, 0.1211282616604773, -0.0973353590706934, -0.17342895634875324, -0.02517514226108614, -0.2522453264533413, -0.10414176946846891, -0.024804288058346963, -0.0016845451496299588, 0.18674039632021935, -0.5094301542131944, 0.3502194442191111, -0.18839653299653392, 0.2538778970388165], [0.09759659784190194, 0.10415550016350154, -0.0052538343647752445, -0.23341416721186747, 0.27050219290234045, 0.08175795677253493, 0.1328802626312638, 0.23510002742802033, 0.055601224544425565, -0.0712173596219971, -0.4742522711620468, -0.19237173966994936, 0.2459492845836389, 0.2227802833970969, 0.18580943576366735, -0.08069045961258985, 0.2506591636198043, -0.38234316255525785, 0.13361955028200356, 0.2568436060933075, 0.20348022590444861, 0.03588995545660459, 0.11315226373455088, 0.06818290570128333], [-0.4679061993350241, -0.00669468034236105, 0.23185404577437788, 0.18896658310932613, -0.04652869537911221, -0.2723837271805998, -0.1628606647246729, -0.20476992778742598, 0.05921222469600528, 0.03553300081030998, 0.22606141803789592, 0.05319979187156166, 0.2931275127902521, 0.07991308729762456, -0.011802470351991173, 0.19597217939152226, 0.02388122347912992, -0.25230598599344584, 0.05666160185164622, -0.0847172832762338, 0.10765845426841505, -0.20613061358650892, 0.40615616505574453, 0.14742942198029893], [0.08013095701224372, -0.4972706630762174, -0.11615281986190291, 0.30830067035200487, -0.14959408715960038, -0.09641895062299484, 0.3244985697346074, 0.2976555747838509, -0.05567059207382356, -0.013473031354366945, -0.05411189711451965, 0.4021473025840711, -0.11478992585116018, -0.08594491077960328, -0.26488090481977844, -0.26602643119657404, -0.09354346291576843, -0.17474337155613792, 0.49689777922093653, 0.470795347162032, -0.3671828406229992, 0.5376565541510563, -0.6058502829690187, 0.21676396781730736], [-0.23194108360734053, 0.016093532892550035, -0.08482215247406538, 0.06399679936675541, 0.2835268578508243, 0.049534296363430486, -0.031383814091559464, -0.10761334403629316, 0.3170260950841088, -0.24755215466014358, 0.16488072832674394, -0.04791560406302798, 0.28937721647836734, 0.17825785050244086, 0.10045136914626096, 0.566547930842498, 0.08582936122000243, -0.03509220794501465, 0.08364023142321182, -0.22329153359483903, 0.4347236246756297, -0.024223331958280157, 0.07252510026530506, 0.08327338693952738], [0.021519742964636247, -0.16295887202869325, 0.47522493742603966, 0.1287379422376397, -0.011357245984792623, -0.1523374154529136, 0.3691061395396608, 0.4588268800308467, -0.11968456905078685, 0.16137228903928497, -0.055479307343424246, 0.25980015125312267, 0.007841902427651364, 0.0874818839907286, -0.5286142236927723, -0.10054514106296081, -0.09124079824943694, -0.4450240664389792, -0.12413208128186089, 0.4254454443690457, -0.40405922805794836, -0.04693214127721289, 0.06910513654208074, 0.1726692508463407], [-0.17884826113343277, -0.13287169965860493, 0.10719591505378501, 0.1391387976646205, -0.08911389368113354, -0.3109579301536389, 0.22067758050140032, -0.05647174481053869, -0.3006104360892947, 0.2153220882507051, -0.1531018519324713, 0.3131770015899631, -0.21446585431315937, -0.051535021024427564, -0.05274578732589342, -0.19978168124008155, -0.2702842756273344, -0.1422279204496504, 0.07322664342759214, -0.003069625257928362, -0.15323721975734203, 0.18597809390524198, -0.2603437486179838, -0.09490015604854773], [0.021473308201174858, -0.2786485476682927, -0.4390648519530781, 0.019349697927961314, 0.16497918458953917, -0.09669886614459167, 0.11766787903431015, 0.14306850640031762, -0.0271162757696547, 0.11768929767797913, 0.08480090662970553, -0.07454924106795909, -0.010920072348524114, 0.02223812472654673, 0.16826908739924576, 0.282197191112263, -0.03224921967827914, -0.3190413379654284, -0.2544040172396333, 0.08093947675454588, -0.1414287594875932, -0.012141680353231654, -0.19770338236272472, 0.16401822102128016], [0.030528762056665673, 0.1675665434929857, -0.14103595878589636, -0.0823846382417662, 0.08983639275669629, 0.1283590027787103, -0.06916441418382377, -0.46850178332989034, 0.10155322636207237, -0.0016282490239205583, 0.176394142609026, -0.30353659649859266, 0.2896784969984152, -0.12057965767266468, 0.11517026795756263, 0.0011945229473399356, 0.0793170090868132, -0.03770323548729961, -0.2509440852354924, -0.18265298582782868, -0.1710721411521858, -0.1795779103625112, 0.09093605918504698, -0.039388512769058304], [0.040083716779547134, 0.1029048454820603, 0.310837236794457, -0.16312197259026273, 0.09921700905455598, 0.3231448339273344, -0.011043455835178182, 0.17435912201400405, -0.4007746949933599, 0.02621740667806409, -0.08168506273847831, -0.31722531463646125, 0.07034869654829122, 0.38141668190430855, 0.16400614318620965, 0.07814799507450676, 0.248175577106229, 0.18776498736824648, -0.17734662708222365, 0.05311844501803783, -0.32386926511459185, 0.27419821315049664, 0.1975654220850087, 0.055897547517821874], [0.2591546606063299, -0.2913679310023317, 0.07644610495370298, 0.1330687795609165, 0.04109145041422185, -0.10034309511546771, -0.11870117276496463, 0.18960301408633176, -0.050205736561705544, -0.11609338070643802, -0.12963289421041946, -0.1979195475285966, -0.1930432430066579, -0.15840305774983024, -0.20818467697529622, 0.04855421254741249, -0.14535264458009223, 0.10599276303648036, -0.1168239773519496, 0.1071155054525001, 0.08718571419108843, 0.12183656349305234, -0.11026061317493564, -0.021649631731048922], [-0.30906341136992693, -0.025444471763956165, 0.110288482239342, 0.035970809596350475, -0.10184804967880451, 0.13799590237443324, 0.10312199606708776, -0.010176407389885737, 0.16291017844587652, -0.09528677268411263, 0.25391566854522757, 0.015878147147585082, -0.10455868473264546, 0.3122665362174818, 0.14586800400774352, -0.05305776124654451, -0.29001074106359126, 0.04664484404589115, 0.1093991090756702, -0.18577831931879696, 0.06087804390381568, -0.29437901235366604, 0.06704764500098348, -0.021789714734698297], [-0.3349828412125134, 0.278576592184521, 0.1407270498325153, -0.32062761545883894, -0.2426485777386356, -0.07504708892546168, -0.4076054869224915, 0.1087533910315229, -0.17133822625305764, 0.022474136886191962, 0.09660529639244123, -0.26758610771227886, -0.00449256897458855, 0.05973398914897068, -0.23918091081109188, 0.1252861473847828, -0.18888503527899436, -0.01420640495045272, -0.21027831282441659, -0.13951261912753032, 0.31611107584326564, -0.2830803777679889, 0.10386793075793437, 0.012482622845075798], [0.10470734618899323, -0.16418946363052653, 0.3056919899630833, 0.510122859358138, 0.0024159878923329598, -0.2242872562697298, 0.28012028274772355, 0.20754310975886747, -0.2918424232952841, 0.0942359002057647, -0.22842354756984862, 0.07006929109700372, -0.06656225264797266, -0.10894262599454983, -0.342886490947327, -0.5043485739620598, -0.16552372960164158, -0.6480197627121954, 0.4422735164743442, 0.18987360252052876, -0.21969091472316277, 0.06560796882456801, -0.1564699576230366, -0.24240752071464747], [0.10623556135436656, -0.08792309392046053, -0.23431061530156214, 0.4654867897598624, 0.32805520736249516, -0.03683873195730372, 0.5203362478355339, 0.16688863715429003, -0.4074399924218739, -0.007692646300417217, -0.3971293317360818, 0.31775213937419333, -0.007463002085076438, -0.10391579136439028, -0.4218346489173882, -0.5859627051217506, -0.059984174372020964, -0.07927812453769029, 0.08627671547060313, 0.3198924867227836, -0.3533515512344352, 0.35039773489844983, -0.27286781386494274, -0.06481798526445116], [0.13100142845880824, -0.2662608791318771, 0.020343679083373957, 0.47628680816999275, -0.010797101913247103, -0.1153018338502832, 0.3021579815125506, 0.04690898679080778, -0.49166095591307146, 0.05906978514987721, -0.08376501419609689, 0.11013857865104686, 0.0037319694978750744, -0.131330047511227, -0.10412793511784825, -0.07506459610741037, 0.11465214934468566, -0.3680110399965771, 0.17051232394166246, 0.199026637902619, -0.26551473639805145, 0.47301126622594103, -0.33512208294147594, 0.17442244398592327], [0.14407404640515173, 0.20625166829060632, -0.18199798121898478, 0.13093147758528556, 0.2529124499049368, -0.2818750210290791, 0.440761415264458, -0.0015739800216684862, 0.26694062399532786, 0.527269062342167, -0.08585056048475723, 0.46318966625432817, -0.009350459802127944, -0.24483909664715295, -0.3631936485917156, -0.19629370831692575, -0.12885888707712095, -0.4489198391125005, -0.05060732882534869, 0.36527247856677086, 0.05421642253329022, 0.08647466036469394, -0.24560122619329103, 0.30385151740631544], [0.4717559636329253, 0.12835052181360238, -0.33104575847127715, 0.33721948719958755, -0.031260250587991124, -0.0511442166801734, 0.34679004722965173, 0.19918997919688608, -0.5421381688541622, 0.36366862870375055, -0.1452189349153577, 0.4110932754661417, 0.34904276125963724, -0.2000445200423965, 0.23090955709377967, -0.3240361076599186, 0.3298572906400732, -0.18767493786707248, 0.38986516750456357, 0.3108726568619844, -0.04303935064123643, 0.12211668415850009, -0.1582814505461828, 0.24582072162313848], [0.08409451859945646, 0.009867376782410018, -0.2129082409853526, -0.07170725354403407, 0.04555866732816886, 0.0540565930445234, -0.21057722989538014, 0.18383946750840557, 0.09446377852833653, -0.23287367759588637, -0.07048779942655403, 0.3524055210338288, -0.21209433029875813, 0.0035566790782562904, -0.19432065207442004, 0.11217899842219171, -0.26999223691984126, 0.41176087436030795, -0.22021869887536547, -0.2281330131027324, -0.0011830268023297404, 0.02814494249152796, 0.23234135002863124, 0.3436340348428238], [-0.06409780639075459, -0.4746377463675804, -0.1959773984157587, 0.05611281484539488, 0.24590187832439317, -0.33876240195839064, 0.47594152592243494, -0.01948663914335793, -0.630930247133444, 0.30140580333606604, -0.08377932917994661, 0.03525726251904328, 0.1389606340711707, -0.3179620281825087, 0.03835695722475394, -0.04642101173247012, 0.30108693304074313, -0.11719609700690314, 0.6398195780654036, 0.3079492194915306, -0.030748960160563315, 0.009344388075573322, -0.19200715756176018, -0.09031501493004075], [-0.006392818873054321, -0.1625581182784636, -0.00624349137735962, 0.43706288021654277, -0.08856318517514636, -0.11233169215011336, 0.11049547458349981, 0.03354026932065366, -0.3740002387708034, -0.30139982994592934, -0.31891465160089527, 0.2806729479732798, 0.1632804850988874, -0.023245373515965638, -0.13246496634295318, -0.28607387661900535, 0.07825516622077928, 0.2554015766018299, -0.03345487259194528, -0.032572059554028816, -0.332576479691648, 0.38236721139242813, -0.4629528310576644, 0.043302032245179985], [-0.12244671987072098, -0.24030426234531208, 0.08508548236950454, 0.19117007798231497, 0.15187883406078995, -0.23299974739350318, 0.24746973679442186, 0.2094293225855808, -0.321801197841857, 0.3676077674770702, 0.001778527615723666, 0.16666417860373534, -0.12627935574230234, 0.3720209697968851, -0.2087454521329756, -0.26153602939975207, -0.02299534594374626, -0.18093619334688982, 0.068833374674807, 0.029953614777767583, -0.33245529832100446, 0.10288846445337205, -0.44851101057790654, -0.08964340561983469], [-0.12239798422278815, -0.11627149919974356, 0.5559713763572176, 0.1379942865058381, 0.0851767905259568, 0.22977737957220729, 0.17276511737432962, -0.06163959719573617, -0.1422026783084634, -0.12291493017655376, -0.01653279720337296, 0.2205299019883101, -0.22998045217229957, 0.2835961539419262, -0.3321767202619106, -0.14701022526588478, 0.18932801153327655, -0.011277604314624082, 0.1405027433230262, 0.10363080425748177, -0.3805482154235571, -0.10490046820449533, -0.22009010153884706, 0.08922214260642733]], "b": [[-0.061874306970990875, 0.0712544662342351, -0.009026152815417063, -0.03442516912550191, -0.026503958137852467, 0.007742646904677693, -0.08456445325067218, -0.03142456864884495, 0.07449570499268802, -0.031035783005624644, 0.04335526789445017, -0.04547780452900162, -0.015003226165138961, 0.006198485263394847, -0.05487063291952398, 0.11628519585396117, -0.02368470501664184, 0.020834295970049672, -0.058209744098418593, -0.06468773103756856, 0.02515584414888046, -0.031038695715365026, 0.042232860413810976, -0.019856849237407406]], "activation": "sigmoid"}, {"type": "DenseLayer", "input_size": 24, "output_size": 24, "W": [[-0.05438564546061774, -0.105768732972336, 0.11107897095624492, -0.23770485944621297, 0.17798849640852696, 0.13082138988021158, 0.059535692082053546, -0.19172464760142627, -0.2409617613346831, -0.04306090303777066, 0.13695651822786833, 0.26381617276449554, -0.1687189718460297, 0.013384662310161477, 0.43841140681405044, 0.20743565151180798, 0.18066441937997338, -0.6909315796453674, -0.16881267275746192, 0.03324479259138281, 0.13839550092118924, 0.04519879520911919, -0.2829783005015059, -0.010178899069244811], [0.2573177598969291, 0.04582105524177748, 0.08799126633267457, 0.21668417647002092, 0.12522957855474828, -0.23753551097433617, 0.047292027452489054, 0.07442614967767851, 0.2861632625724912, -0.04610736997041557, 0.23767793406346238, -0.14443058533885808, 0.12454235689302591, 0.05896538836764858, 0.2747111279280907, -0.02199019458792063, -0.3469733159748903, 0.39070048845186217, 0.10516461940987203, -0.35066858782220356, -0.29485708005464045, -0.14891770731741855, 0.07857142663917133, -0.027610918452116648], [-0.4760933470411018, 0.11246541863584907, 0.41024820499845205, -0.06237609124407712, -0.5950778371333604, -0.31332945900309256, 0.22467253615097146, 0.1583257052671951, 0.3761444666315423, 0.09750723600557602, 0.016325075291997122, 0.25187515913704395, -0.12424138693864617, -0.12672213110735403, 0.06502098949558012, -0.06766035055268549, 0.012245291600190231, -0.1376900558561724, 0.2410684637637744, -0.015711985547580694, 0.18415263691872757, -0.24013824830433997, -0.25965166297900677, -0.21349357708188135], [-0.02364399133746624, 0.12740481869061304, -0.4225640868983306, -0.34786903326307106, -0.251825761047834, 0.14655483460298546, -0.10206955749248671, -0.4565601281136379, -0.5489811801465059, 0.3079727416212099, -0.10832969518674675, 0.2186865288373874, 0.22431644939149428, -0.14786146904145994, -0.09882643700949051, -0.056188342745353746, 0.556144008716216, -0.5749158871234303, -0.4932627866502848, 0.29880128574703424, -0.15228277964972325, 0.07747393066133723, -0.06884195151962282, 0.16519606298749648], [-0.5725298373785046, -0.2066592317777248, -0.006804662797441865, 0.07232454386717259, 0.1949438353282334, 0.28251902181416433, -0.06821376249124471, -0.03844066909865354, 0.25891260798939447, -0.07381262085960133, -0.2363836357564099, 0.2685892808907043, 0.10634054587581951, 0.03760148575444645, -0.07886092932061946, -0.010066829329572341, -0.018636446347976763, 0.01813893558034468, -0.14158744141658286, -0.03508088268983365, 0.3553375661828641, 0.14467521218560175, -0.18221984721654877, -0.22953087844519254], [0.12711671170066016, -0.10273140821606873, -0.2350459096044284, 0.035292814113639256, -0.4438529964604267, 0.14971143211854765, 0.2020242993918724, -0.08059160141562649, 0.3989681788767834, 0.032835863476173704, 0.34796123068358586, -0.19771125247870863, -0.22640462422584207, 0.18139792214499567, 0.2833140210719992, 0.27876046459716614, 0.026862619363495023, 0.2758945811848151, 0.4376165629284838, -0.09057838690697899, -0.05418723933661973, -0.39457077283014674, -0.10006895786679813, 0.11087488102924258], [-0.2241678316861712, 0.11521139705166919, -0.18399941482628274, -0.5601441012850846, 0.05950761367906792, 0.10318931370840272, 0.44922351006756406, -0.5613360731833382, -0.23129169978053304, 0.13454347985993198, -0.49855155763268044, 0.29872202751967813, -0.06491579532315415, 0.06619314881688455, 0.0176262376595441, -0.19030625599025164, 0.49990285662128925, -0.44261065585753534, -0.22770359841204085, 0.7479141805593678, 0.5194173575045908, 0.3502893199823433, 0.13189274892376354, 0.4737917829841056], [-0.5605701321587662, -0.08954302222754794, -0.3532132431578144, 0.09557289736510965, 0.18228910742713772, 0.06335789512980082, 0.1173466364226126, 0.0752636674319904, -0.2036362497051173, 0.37322289247619705, -0.4388981311692829, -0.04205790752176197, -0.019594684348399158, -0.16539250496658045, -0.20965788444331224, -0.08377176073244263, 0.16365961253234476, -0.4902683355552249, -0.3221139280627964, -0.14288655211149065, -0.11518574167524408, 0.10582260710793936, -0.1836088132229524, -0.26983703506627177], [0.3762652392095065, -0.07219225705648852, 0.11170604839291771, 0.4867558548067873, 0.05497505106755773, -0.21930904708186563, -0.04244218625703023, 0.6675710518257777, 0.08945311945991256, -0.26712358302591593, 0.06599660496064969, -0.12315216015777546, -0.22294009910114013, 0.1046966061619458, -0.17533429114487536, -0.008452020667436952, -0.5907961690367778, 0.5624053559664288, 0.07469268215610307, -0.21631045499670865, 0.06541539758625713, -0.08666425274364098, 0.11870604411591179, -0.02996601258753705], [-0.20901137015422588, 0.1865405710587096, 0.22474083443698187, -0.29126882411075694, -0.016210305546756582, -0.12335070762905226, 0.09782946508004838, -0.3794422376762238, -0.11215922207257836, 0.10189989789887426, 0.4728927112110001, -0.1050005063830353, 0.48750081505610743, -0.39386020783068304, 0.011458757491192986, -0.11412282815919615, 0.343849378987365, -0.07592512611369379, -0.18384171575216496, 0.17994709051936486, 0.2103324609886902, 0.044061362664138244, -0.16673413597099304, 0.2739434477029235], [0.3875179810788825, 0.11291290108604596, -0.013357941397254082, 0.4217600893307781, -0.4497416882827244, -0.08483644070481872, -0.24558380507378957, 0.3336732440658918, 0.07079780352378322, -0.044571622260864835, -0.1478195610537235, 0.03729120839460293, -0.4137821698912249, -0.058998099044910636, -0.019376789676633525, 0.5372966229154604, -0.0026225330021038113, 0.47151020804730687, 0.647635419556267, -0.16879676779083982, -0.2332316290322844, 0.13615954349467885, -0.06539492463041167, 0.06711196223671641], [-0.2293587001508674, -0.11359882951229291, -0.5218064684696638, -0.2545089688713496, 0.14495108584747046, -0.043234671273023786, 0.24431944078853074, -0.014326408242368723, -0.7672671008085198, 0.17277755859243107, -0.15169321151220627, 0.42519190420036507, 0.1383479485015351, -0.10902122414205374, -0.1981951368487271, -0.3321288588127334, 0.22761912641282603, -0.2773926688728143, -0.39442905397740985, 0.28188037313969305, 0.3168785643205466, 0.2619229386350394, 0.11813206190905445, 0.190257639039322], [0.1707996395089963, 0.1098960067166448, -0.003035513546803898, 0.03445425867647948, -0.1895492168400164, -0.2604018262618239, 0.09571766056774346, 0.0007517281427241103, -0.045369162137515455, -0.053055480624309335, 0.17923257369944454, 0.034951739340422935, 0.11979645221111324, -0.04382818767243916, 0.3122230632337633, -0.28381491598170255, -0.06454542406262827, 0.12950201252511517, -0.10862267052965563, -0.0688916727571188, 0.10067068800606087, 0.06548770562269886, 0.0040415637587656525, -0.06566535035404689], [0.20043458640609993, 0.37262955336483516, 0.21168696199650577, 0.15531226596032482, -0.0895892049232353, 0.17541496160795464, 0.08225276834576349, 0.4161569971746442, -0.0227122124405453, -0.08751368050436907, 0.3723844874128607, -0.17546276585980322, -0.11127260715931729, 0.2738348305455064, -0.33652671885912205, -0.1482248866931533, -0.45980659042923494, 0.2273282043267173, 0.16342971818810056, 0.4770492263306475, 0.12186633071262504, -0.049873778365191274, -0.001445475661700877, -0.44996422618087356], [0.3046911936894017, -0.07611962288562704, 0.06942290264923798, 0.018583382293426952, 0.40799688532472156, 0.18295165406769373, -0.4465295709731969, 0.1893079448910673, 0.1326893986109058, -0.02014368197267692, 0.2802166859373144, -0.2610104719738555, 0.07550022108376603, -0.12350632134658453, 0.4188169222084169, 0.019646835694888592, -0.19904357127160793, 0.32510351918921493, 0.1994342553499097, 0.044094383845509004, -0.1593788636259378, -0.42915550471367686, -0.1175645006918424, 0.01648707443213636], [0.4224497659227267, 0.18990490109118927, 0.18184402580352493, 0.5214281076562458, -0.33987502250193063, -0.14089625887650076, 0.05408635343558894, 0.31675463283118954, 0.552575742961727, 0.017953204823657636, 0.33536204463883035, -0.1967235613681508, -0.17940874905753945, 0.10041160277311152, -0.09357034433830312, -0.23841523382885052, -0.24922739262074886, 0.38675997228651543, 0.3811754329328017, -0.14307745284482884, -0.3696627182111151, -0.38729898270153795, 0.017246560714682977, -0.05783211597636036], [0.15179821637755708, -0.22235199900632896, 0.296987470855837, -0.1171248751286273, 0.27045225477384993, -0.04674055529019531, -0.05770791794133546, 0.09018993713375285, 0.07392541120845267, 0.1073362157078478, 0.2015836419758504, 0.17712396370866207, 0.2036955959277938, 0.41426658566420405, -0.3254835987637971, -0.257378367304772, 0.018524848984317284, -0.24515505879525124, -0.11832944005225587, -0.2982757983816151, 0.09742896907182592, 0.0609784668887686, 0.05509825310511849, 0.5625922247746683], [0.2913009506934929, 0.2850561754479703, 0.11031908979791015, 0.2812440489358216, -0.1510066319649891, -0.12471880154622378, -0.21329364331283615, 0.08622736668571884, 0.14980233832727494, -0.3587949708070872, 0.0931347120988439, -0.048041734270888675, 0.1906840024085801, 0.16909234800969922, 0.1993064639394806, 0.2982393645421375, -0.5238012350414891, 0.14468536851364253, 0.11587408489789358, -0.2036855243845339, -0.49292657782539057, -0.17514517748629582, -0.1495031197783862, -0.4303915727759307], [-0.4843935142433445, -0.012502406995132697, -0.1535998789633165, -0.5415465841532491, -0.39895866891772425, -0.2996904225416323, 0.25533491577551, 0.013924909609465809, -0.3831155794100809, 0.05070822680874186, 0.11317138531414232, 0.20176405711389736, 0.4239434374837622, -0.1268052878056375, -0.044800990306593895, -0.281687685142564, 0.36862397848342726, 0.10392619701881027, -0.242097955305699, 0.2408556928770893, 0.07764586183457259, -0.022370816616672066, 0.21365370805463582, -0.02399987159244012], [-0.15806035382344466, 0.0211653728487921, -0.20422878884225543, -0.07733852279462661, -0.3365013057795443, -0.08600025665862283, -0.07332329996161183, -0.3687308461480649, -0.6986043047707795, 0.39559519676154037, -0.17318339720026701, 0.3879802534120139, 0.24050468868010894, -0.08879533677306703, 0.2357450599638305, -0.3102014179548264, 0.36348155625869333, -0.14854076227589197, -0.18510419814020632, 0.07581868011736763, 0.47769127275627565, 0.25350255804966976, 0.26986248912918015, 0.28718220408281137], [-0.09659542636462905, -0.12159439703536462, 0.3812110069137416, 0.5158250630045969, -0.07211019147969196, 0.1463765550894213, -0.12998390356921063, 0.1748412014187274, 0.4345185813306816, -0.10369649257492125, 0.17378418838277154, 0.14957430191511664, -0.0874491191909505, 0.30582224935837066, 0.278499440095752, -0.09942399351129061, -0.15629403513870668, 0.48671876964411936, 0.3120734425117458, -0.30672848967035127, -0.19418546757123073, -0.014256204939815777, 0.022900252670242746, 0.013364927780401353], [-0.08429473673568241, -0.024540399506741032, -0.45375069197299445, -0.286519860477826, -0.1678609119871804, 0.21373616016029473, 0.018921365743681685, -0.43947590748475557, -0.27247233327266124, 0.22920083075155515, -0.17309505403562608, -0.002919626416004352, 0.3485292989815137, -0.12734639056867816, -0.23535349319927693, -0.26319699142834346, 0.1499706423090992, -0.5228690042745544, -0.18694944854701467, 0.13015549981786786, -0.17560823940035278, 0.1457739785454607, -0.4521898943427115, -0.042240942962210176], [0.46814833513882487, 0.1797149116459129, 0.26454400274863277, 0.3188078307395481, 0.21002567760990246, -0.08364475354283582, -0.20407484251030378, 0.5389193487568842, 0.5772723655204279, -0.05708806116888006, 0.39575622813802674, -0.1653677888632079, -0.053151416419138994, -0.0672313856614461, 0.10633880800029655, -0.12854295273828492, -0.49618884999762053, 0.4550508014607899, 0.10525238791905768, -0.11187986972964219, -0.29315072740171294, -0.3251775867163276, 0.30717740950184586, -0.14541715275144346], [-0.015279684771220995, -0.09671112073592027, 0.0029510256663286974, 0.07074788738332032, 0.19095406594606149, 0.03736454395962575, 0.02344118730691361, -0.4293287532610832, -0.007538727402748247, -0.14986733072650008, -0.07865702239457234, 0.07118402169517367, 0.026872741149130065, 0.003560215037249504, -0.09359326346381458, -0.21461381125255447, -0.02755194319011617, -0.004760407322701472, -0.004922371762437463, -0.03301993350830797, 0.189772198391714, 0.42652075879687495, 0.07702459343260384, -0.12134450740441802]], "b": [[0.028252382143327266, -0.012905527056983475, -0.03095579296132239, -0.051704502292734704, 0.005905349212800617, 0.013696984109624385, 0.0031063254528384283, 0.010282027362230162, 0.07022839365540827, -0.0300264960404839, -0.11270802558989339, -0.0921668947776181, -0.028508933135160418, -0.020720315094171143, -0.02674720536207428, 0.03342468257452599, -0.013333894251529588, 0.05820764477920625, 0.03284686536700452, -0.011402745401475376, -0.04626710931765399, 0.02484486912382403, -0.01759286930049012, 0.004917754512359812]], "activation": "sigmoid"}, {"type": "DenseLayer", "input_size": 24, "output_size": 24, "W": [[0.01279478345923565, 0.36144121783394983, 0.362689061505352, -0.0053610631591853855, 0.026983399302781704, -0.36136470154805445, -0.10974202698474475, -0.5231638593062001, 0.04654335035341398, 0.009323579748046951, 0.16456299379930814, 0.2739306449485321, -0.6584228614572674, -0.5401849907299793, -0.260160085506389, -0.1191179722697202, 0.44909895531052263, -0.4250539714236946, -0.1157151789266812, 0.024409936224418026, 0.5872712269509309, -0.043359121371054694, 0.07226108765364098, 0.348164556071591], [0.016402294914152248, -0.15400795485160146, -0.054003260649965176, 0.08559768247565332, 0.01798427630114345, 0.019284607469724466, -0.10695002422286155, -0.04434487797406883, -0.09222041690755979, -0.07854237974370983, 0.2630229182289307, -0.07477696085601412, -0.23349057336200135, -0.16202897636528762, 0.08915538731562116, 0.0035732509310751268, 0.11720479930762341, 0.1506736897143244, -0.11690144137026708, -0.2644301553809416, -0.13759538025941934, 0.08883668786214555, -0.21597272101448609, 0.1073428222115301], [-0.059902148154605504, 0.2207970684054215, -0.08399177183464943, 0.14381167575346274, 0.30787447375296795, -0.02856408315951691, -0.11049272503071024, 0.0628423387711341, 0.030775771976028637, -0.3096495689543686, 0.23230402768804898, 0.15681516694990238, -0.2176555126715068, -0.29028674802536103, -0.1713641679144115, -0.3137507874861348, -0.06935298112956025, -0.12703212562114297, -0.19310304992444122, 0.28220455056712335, 0.3699965456593149, 0.10958772110628219, 0.09775733450301927, 0.34750001915007567], [-0.43784573431273177, 0.14686552510167825, 0.39101240178301605, 0.03176494274141843, 0.14430933883785824, -0.6752096157456925, -0.22464770716616916, 0.04037057834957511, 0.11363542610043909, -0.06900545841867597, -0.07157144600132723, 0.2867814167926355, -0.5481922870721498, -0.49481569695132277, 0.09015453443053786, -0.15684577987361487, -0.30966030854270427, -0.6041299811165065, -0.38860695180043886, 0.16659081690100347, 0.4725739357883595, 0.17301916006952883, 0.2323084223727953, -0.0035979758780539262], [0.009400358184966841, -0.10914635398360989, 0.1708634278302998, -0.1469716523418714, -0.03792811557434373, 0.27242834033693003, 0.19259985022342424, -0.20179824450794343, 0.35841935174592005, 0.057816101024852073, -0.25353037987882815, -0.04624074421848063, -0.1794415413266925, 0.07528316747483463, -0.0193186124553864, -0.08368321674916634, -0.3117101860607313, 0.034120394781298996, -0.2902292480784447, -0.10545979903908358, -0.1307419271627376, -0.16986215425665865, -0.038430016830688064, -0.20533662566425295], [0.043759407646297994, 0.014709439278061518, 0.04895934023639647, -0.05039127005496529, 0.245752854855969, -0.1565155433044133, -0.5039085965982826, -0.06898141500928678, 0.209764622036373, -0.3209817642175311, -0.09595725514990083, -0.05345479971896522, 0.0148115120980172, 0.28951662190131955, -0.1964785941582442, 0.12134209554812377, 0.2082700364781883, 0.15136807788975892, 0.14074862649070186, 0.46333930701003584, -0.18291737053394216, -0.36714949628865456, -0.1271643529979662, 0.19981613071191923], [-0.28845972639783835, -0.19330109748139584, -0.05760354680601823, 0.05353407757397113, -0.24396758532221152, 0.39920428043713413, -0.176132088541481, 0.011223625611616543, 0.10831998961174588, -0.08709266564897405, -0.40996991593382776, -0.2654928372338436, 0.13573695791397997, 0.002237781812576496, 0.10302648165561985, 0.14959701941610273, -0.22171483806021447, 0.1218129186006079, 0.024868499628759023, -0.018486941292059706, -0.3495709589173393, 0.11262346786416615, 0.024787554357369776, -0.19959377336989503], [0.019077551849448628, -0.04934783848749811, 0.11509948049216258, 0.1800907396005878, 0.2928205015837292, -0.4033681323026948, -0.056514380044826756, 0.01551321153327199, 0.41834564646909495, -0.046756095537226296, 0.021599762218591497, 0.12960117365014864, -0.4192989362045671, -0.41710729163103444, -0.21383408169668644, -0.6142124756054611, -0.07580389291441894, -0.1386269146505237, -0.2355335671816792, 0.02264250783007433, 0.5809371450799017, 0.4008650191294592, 0.07885233901536749, 0.07092620319554226], [0.09489213551779117, 0.06187109136839747, 0.2764878874313282, 0.2619970738793909, 0.14781538281537127, -0.5630516439722519, 0.2580488012056354, 0.14932889711872313, -0.12703268877887694, 0.12532423831915804, 0.40812881380160615, 0.29337969874136277, -0.666941446930658, -0.22029421196869153, 0.3295349498521982, -0.3946057758368709, -0.20826791493481073, -0.3787614859582545, -0.21043847819865408, 0.2557979710259326, 0.7362095024878345, 0.5080834371654498, -0.3946865381726976, -0.05227311231348552], [0.23615394982201468, 0.13380740930021837, -0.282091226788801, 0.12159184137637989, -0.21050146686896523, 0.15432464018443193, 0.26398462953626645, 0.132581329745842, 0.19114081219068374, -0.14090940790052905, 0.2739313952120317, -0.3367861306581799, 0.41006191017330357, 0.17756589805460374, -0.42477932247803785, 0.3495373843931569, 0.09249572878160628, 0.2306372540646783, 0.25159327906200957, 0.03590253524419783, -0.17312194947689563, -0.07229093583881079, 0.022050266663737033, 0.09616213080447096], [0.10882313913895564, -0.1001648857738139, 0.29372622570342805, 0.19897603417676096, 0.4190041075174022, -0.29606800934200433, 0.16865086574928512, -0.3519702242681056, 0.079479727619154, -0.18650592459901577, 0.006654549183375133, 0.20216553902002377, -0.07066334675009163, 0.2250661091820481, 0.19582309609248366, -0.17768019627644452, -0.06909829135849405, 0.0007760040632554775, -0.4061950674186357, 0.07943912588075436, 0.27593059452386937, 0.1013029752528495, 0.19923186371169666, 0.15261443696854593], [0.17091607961193023, 0.2960884277340802, 0.05946280895713997, -0.08400518142397158, -0.1888802351814586, 0.38235343000237737, -0.21096730806510822, 0.33941640855331046, -0.032616705350751, -0.2807461603986016, 0.30411330918228635, -0.005759325629944769, 0.792351585936455, 0.05398979241104662, -0.2686525902975196, 0.3166628032607449, 0.03300832785459196, 0.3025892785844071, 0.5657816610286238, -0.23872435238912265, -0.4935101711432611, -0.17186582878766635, -0.1087758022087772, 0.042075690618455314], [0.026628777677347594, -0.08070347519701007, -0.4095265184208694, -0.0581367705966672, -0.224358809780316, 0.07838092594193455, 0.0365697655948683, 0.045735450580836175, 0.32704136014377594, -0.03813834360366203, 0.02480155785793677, -0.16486506863340894, 0.25004981365037, 0.2557577587525821, 0.17565840852183193, 0.2675706841363155, -0.26525395149270575, 0.11567585584604959, 0.2918287327339818, -0.2226177712988601, -0.1848203567036655, -0.46237837240001883, 0.41053550499103525, -0.008386291255736021], [0.04878160194265261, 0.35267117616015864, 0.09850230858479427, -0.13274254194723606, 0.1925618726864903, -0.1383070434537751, 0.31209010360178446, 0.07762820930689768, 0.05031885316996071, -0.09039082619993649, 0.09742244784540964, -0.27057972997830937, -0.08719012495750744, 0.14431341986180085, -0.03979992814956521, -0.19115468183244924, 0.023819179170756405, -0.04905286873846371, -0.20176173439366935, 0.11465812397931263, -0.06461470594776113, 0.427859097971817, 0.1506761939979011, -0.02511312788974156], [-0.3401671183842291, 0.0933142302611638, 0.21791388734525768, 0.09767575479000419, 0.08263517052695694, 0.12103395215442894, 0.23446326530344455, -0.46765125547709707, 0.0436343923244191, 0.1636203085169576, 0.011106883232281078, -0.1331595961511833, 0.37870984895021825, -0.17851790728637418, 0.1740000820048333, -0.08164774794678241, 0.27578385701669034, -0.2738933157210684, -0.22218658369665248, -2.0091200690492265e-05, 0.04526437463395985, 0.09341111530150584, -0.6000377744320203, 0.24756507404724964], [-0.10973300684944769, -0.03404339766976343, -0.03769113609497151, 0.38045257718658737, 0.18641068496402918, -0.17431400345841994, 0.059405735443756165, -0.26714375680726826, -0.016232212729325814, -0.16847832591326276, 0.03319578223595089, 0.29381501008039085, -0.27666691105024677, -0.30643233142178367, -0.08376800618801254, 0.154726706206786, 0.13525402391332678, 0.0666873790870409, 0.015300857145553858, -0.12542328554519902, 0.1830604182615616, -0.11334679314868285, -0.0656851461999944, 0.20730190991663802], [0.2627212263228423, 0.21638372262044261, -0.4263187390031101, -0.1911873459299821, -0.24457735202185335, 0.46972953213834395, 0.1700919132561068, -0.07173345894527006, -0.19539851189596594, -0.14379344578568487, -0.1425704063681753, -0.3643837072154857, 0.5595180508927368, 0.33157836229904275, -0.07721493960175055, 0.6258914932575914, -0.12578034167501703, 0.4593405855497303, 0.3877088942304075, -0.033698390609869774, -0.5560415611391701, -0.4993435478351688, -0.16790578765577083, 0.16713261555510042], [-0.22961645542305295, 0.1731433664916607, 0.17951407979522166, -0.006941898459197262, 0.22305268714228443, -0.7349254650644116, 0.004803678716418066, 0.04314513063946402, -0.325713281358251, -0.25684083874608765, 0.46189110881357115, 0.5566356138566552, -0.5654775301820815, -0.2648702811621622, 0.03606751626626865, -0.9476372380015351, 0.20076300275706285, -0.5236573320252006, -0.014078990876906354, -0.06853258392921509, 0.5480255854113142, 0.7138929572788207, 0.05204637312318528, 0.3321116286843223], [0.42650787655437555, -0.12510609554833016, 0.2344355021629243, 0.22144090386210458, 0.2513859641949475, -0.37073799140436003, -0.08496450394472524, -0.1033271740643134, -0.21101028107000075, -0.12742338744252305, 0.1936561175251569, 0.5789022856661757, -0.5083718388604613, -0.4533287322517072, -0.17643119273111132, -0.3477828705377699, 0.0735369610859851, -0.19901421663333405, -0.4302501344235948, 0.1739201839690513, 0.6098557035860139, 0.07280386787986885, -0.33167379914596345, -0.12720687880538206], [-0.09607990845530207, -0.3731732428314496, -0.10365084424955985, -0.5427701593352272, -0.6018260899833141, 0.0357256034255144, 0.16616092054756595, 0.14973297304272623, -0.20988373268872834, 0.07120281473708333, -0.273326433601019, -0.2685383655265077, -0.01914976721637972, 0.024384201661544435, 0.15028799930542938, 0.5206558993082412, 0.044935285149525106, 0.3556828795414972, 0.3294110489596043, 0.03370603741140844, -0.48255081859191806, -0.1085261069577862, -0.022854359263485703, 0.05196574586063634], [-0.2341009004043513, 0.1417916651598362, -0.38748438645734035, -0.25805968435432225, 0.16558422929943822, 0.513493227459062, 0.345320107488812, -0.284320908253164, -0.12423938895772063, 0.09914536232642951, -0.0774573150024533, -0.3138733968591706, 0.3157345933238008, 0.2982876388521853, -0.08218559545934935, 0.13993182582496624, 0.018469408476586867, 0.03840672563377289, 0.2553552696452699, 0.18498054365452327, -0.48133062513887614, -0.3198110396395195, 0.008780510972222145, 0.11884602138505598], [-0.06486546992738595, 0.11597280590052735, 0.019617824763828406, -0.3697866409356027, -0.3968383827587296, 0.5202547930978229, 0.18561803894740922, 0.23687233494486098, -0.40570141520933856, 0.2684202303822369, -0.45175124124995614, 0.11354750238496858, 0.11021659474158389, 0.41760275090214427, -0.07893779305641183, 0.10324660925011342, 0.0058860892389501745, 0.23091048424143631, 0.18452106647133404, 0.16702946401425645, -0.2607289276392244, -0.1159715020916342, -0.2132544705350292, -0.02856709195236662], [-0.143021638275595, 0.03483332888656051, 0.10271016450370772, 0.1969471170806634, 0.1999004825559502, -0.09246200618986773, -0.06258491864247667, -0.034753229675737865, -0.18937418417328086, 0.3686005247728796, 0.007217634696102, -0.12966927588607435, 0.20249679108921817, -0.09156196317881364, -0.23395040807962808, 0.17493603212631964, 0.03841938847193862, 0.12432436320391123, -0.014124738003617921, 0.05269063839581941, 0.24807570457076078, 0.1692424164153243, -0.0024306374970542413, -0.04820212125023718], [0.1633624874779036, -0.37270682355637513, -0.23706703882713417, -0.1722902249964205, -0.04145075924594809, 0.42277378277402033, -0.037828293154379425, -0.21909354605702044, -0.07023672974018821, -0.32089133030671074, -0.3159410915552445, 0.019481586834489726, 0.30916013336022125, 0.10789855909711925, -0.31055573019603483, -0.15267628823047705, 0.16320226468159457, 0.04305576684242447, -0.0020478707059037927, 0.06558176320974281, -0.19669251150627945, 0.05839676982081315, -0.13323086510320267, 0.11919570335964733]], "b": [[-0.00294879288897791, -0.017701279764435595, -0.05629194557762351, -0.007550698896158563, -0.07714614780050132, 0.021985662595337643, -0.00934621374520791, 0.002883343896754386, -0.006809219684380336, -0.02423310411728181, -0.05445792405055423, -0.024009733810942655, 0.005031483350415467, 0.12908418007045847, -0.005005045616311499, 0.09312152591015009, -0.013729942013566969, 0.0034822082824192213, 0.004638138246710605, -0.016185293434027893, -0.08229100382262108, -0.10172431606528294, -0.00401192866727959, -0.020885995753648613]], "activation": "sigmoid"}, {"type": "DenseLayer", "input_size": 24, "output_size": 2, "W": [[-0.10563693529658871, 0.2671453617533939], [-0.07649861930714495, -0.3474939080946709], [0.6308445814035746, -0.5764636546189829], [0.325760365677491, -0.37382149856284214], [0.4920785158640247, -0.6487452542425283], [-1.3929076678792, 1.1172310283181788], [-0.4369985677422773, -0.1235962252401623], [-0.22371343681662892, 0.24905785310314466], [0.18034158141815743, 0.04125708389731698], [-0.01451089007771249, 0.41971579270893467], [0.6698058207162987, -0.16235736002533807], [0.5637851444571836, -0.8391381981879994], [-1.4035189436532074, 0.973077484807155], [-1.0674384025022758, 0.5936666638209859], [0.19339374144031063, -0.02698931568220407], [-1.2312315955106266, 0.8800598231597603], [0.05893302586375276, 0.05004551198108958], [-0.44583025125222653, 1.181040771405984], [-0.7815984565763558, 0.7017562314313561], [0.18073451746594874, 0.07862259446292211], [1.2009738219377246, -1.5006791132403414], [0.6391219038092363, -0.7864359978923943], [-0.011859093676776419, 0.019723922606241763], [-0.07171021322463887, -0.21510132021985062]], "b": [[0.019055517168623904, -0.019055517168623994]], "activation": "none"}]}