{"layers": [{"type": "DenseLayer", "input_size": 30, "output_size": 24, "W": [[-0.2948917250250299, 0.15576517582567426, -0.08578596490990134, -0.1261025769194941, -0.5688518981938249, -0.0743396686800144, -0.6200284385925988, 0.5167044085085538, 0.30467257677789666, -0.07715366293916494, -0.6455643010423333, 0.3854422939823438, 0.48464234712507354, -0.4791153006328007, -0.06523083446698616, -0.5175683671481934, -0.40122567702978457, -0.18781321920431981, -0.2378895082711337, 0.0014938422613669862, -0.08644373440379585, -0.5489943610575182, -0.3801090985135367, 0.06404836187004873], [-0.4310699881849026, -0.032768474425993004, -0.5936675309372588, -0.28568289783715056, -0.3031568321870843, -0.058607634686396286, -0.21932597910022864, -0.007223421014790787, -0.05149372918714062, -0.0020874546168404805, 0.004424707258965881, 0.1675399792960608, 0.11351343424488432, -0.6719369647106428, 0.4374806255285489, -0.40927357081905796, -0.6353516322721403, -0.28618022434120505, -0.6632023577368995, 0.6574687751105804, -0.4962611736795564, -0.12086440499770426, -0.42712543328032465, 0.41221730483916025], [-0.13405845078139905, -0.5255179641215005, 0.1357474220993744, 0.039979158529580866, 0.14108330828153764, 0.5779980369864001, -0.1344399223787426, 0.5625061778409871, -0.15564726205044654, -0.5279056819051767, -0.6194949480396518, -0.18790788093107313, 0.08192547798934485, -0.41864120776385966, 0.5075146164850849, -0.35828395724299483, -0.4142454502195049, -0.1687800401694496, -0.49422318390038156, 0.44892910841356154, -0.5605856615337246, 0.21516767845589743, 0.05718770866646903, -0.09449519614053434], [-0.6380680875300854, 0.028614945827876916, -0.1085210015741875, -0.01310638497766161, -0.026376900438007497, -0.13810123101858093, -0.35814785565805457, -0.15072952675939907, 0.5518191161628359, -0.15369830065074622, -0.3849751721509953, -0.42433582516095314, 0.021112225827805753, -0.393580900943519, 0.43071669425075604, -0.12626191128243192, 0.11405981333751507, -0.24842414125758905, -0.5202203053775564, 0.390381473984767, 0.047582773918778416, -0.17316755094039082, 0.0385252750838642, 0.20533852797444038], [-0.07732408108578007, -0.20618016601793254, -0.4136533428112219, -0.368298115458296, -0.3480323843103004, 0.14086668419659693, -0.2563104635263222, 0.13295753227836585, 0.45876959498321795, -0.2809147866493013, -0.1381331552566948, 0.20302049387629298, -0.06996436394028906, -0.34294558282611426, -0.025390056787951937, -0.4642575908667399, 0.3793765652146734, 0.1858927418913771, -0.026679717726161085, 0.26453590031853746, 0.15578924076674966, -0.2540823177529444, 0.22615181169976045, 0.20256028925177497], [0.32461965583789415, 0.23770126326164995, -0.13498407926720854, -0.32326536865425454, -0.1512228404986683, -0.0729466020213307, 0.18288948541620598, 0.35620098700756514, -0.3970834338672274, 0.02464773235726201, 0.03263751231990894, -0.1893279253647192, -0.3167106459327766, -0.08914614168092302, 0.40736025917938296, -0.18894081073992142, 0.11523690943471297, 0.23201300473450082, -0.16248745717982513, 0.242555233846298, 0.4084359858333727, -0.23824250422705395, 0.056889409427899836, -0.24818674409762664], [-0.45614192032262624, -0.6522188732222316, -0.14042329350132987, -0.18213602422508887, -0.6450759131355881, 0.04335443305095859, 0.0832615416506154, -0.023368587987128396, 0.04176333130827013, -0.2611950217454401, 0.145141684006273, -0.3020395347131083, 0.3778158264930038, -0.04343000022150106, 0.006161593516337147, -0.11708586735184526, -0.33573591000760344, -0.17419602512556726, -0.0776551526156208, 0.22926384707159236, -0.5552448809920041, 0.0903784376510798, -0.3536677300551163, 0.046864195581965896], [-0.6599843396950619, -0.1576488520936029, -0.09043482520449282, -0.6278637777061223, -0.27257147940541915, -0.021592952525807795, -0.12475330538520302, -0.08346934097880014, 0.4687229309542219, -0.36894262695231167, 0.084756256332634, -0.3806294538625869, 0.06891778334559903, -0.5968857420279616, 0.6348079812160632, 0.042637578666733664, -0.41314330886302864, -0.12447325305914902, 0.07668368026230173, 0.2583811169155001, -0.16610811593695873, -0.43104335307658087, -0.5880079239450702, 0.6566112024320747], [0.30285811396260304, 0.10983725259338928, 0.03843651321119631, -0.11341533373195067, 0.3648912041095857, 0.24951990357634518, 0.3096677471038488, 0.2255723664334982, 0.09663098165175842, -0.2804036248573681, -0.13467618196343556, 0.4093339710601501, -0.025579056830802156, -0.3268721350904118, -0.3596435422208149, 0.12319355243398118, -0.3225129744708852, -0.09187321029384318, -0.007010049340198808, 0.07446098523895696, 0.09202820102957075, -0.14604649109182508, 0.27991315109077497, -0.18554343521432856], [0.07918139705355863, 0.43238014434090505, 0.5171712038948328, 0.5773714822285912, 0.45969548808383504, -0.2199318995777606, -0.18245391012611747, -0.3134180933401719, -0.2871180383671732, 0.09127123123037247, 0.671798178203167, -0.02058534047840221, 0.13880648678372448, 0.34124643332838617, 0.008639895630430588, 0.16436684906643598, 0.3580800710523809, 0.20908304386002496, -0.08695897664940834, -0.13405189981052673, 0.0034207942617115123, -0.1444610894636274, 0.3401201016564513, -0.4293967183745102], [0.0904124485097288, 0.11393526692293111, 0.04343892566772361, -0.3709935601810675, -0.7765727727309272, 0.6821110932854623, -0.3031412964113066, 0.6420672255390542, 0.6347133773413688, -0.008855272440234298, -0.5225465001610675, -0.18716868319066302, 0.5528629866390902, -0.4681213806867389, 0.029522391118114447, -0.3107780696470831, 0.12740342780445937, -0.06657802190536033, -0.1722853832616966, -0.08305892044099483, -0.14238884314831765, 0.18806170208677686, -0.5827006999268244, 0.3940605877235728], [0.15693681272049356, 0.27926657133225624, 0.2423186703590397, 0.21215134374049627, -0.14141722890566683, -0.26007610034315404, 0.28991214060214043, 0.22864464901808018, 0.15318910013894912, 0.26059347026856355, -0.017957553665423488, 0.09945188080077179, 0.16526403851437976, 0.07674171674230781, 0.03277936715727652, 0.18961363952988608, 0.3877718212406735, 0.03469670729745562, -0.020324622303953113, -0.4525591712863664, 0.14872759803392901, -0.29116617199844663, 0.08679167123298301, 0.06134488556135869], [-0.41707255964465717, -0.16698609426642239, -0.6941200037939346, -0.6059270789682016, 0.010133577044132555, 0.1081381603358786, -0.5119921120718381, 0.1807124895464087, 0.36835314046622036, -0.5117326284950603, -0.13722483361253088, -0.40441408592210965, -0.23329818154851728, -0.2023477076418568, 0.29107730897477213, -0.17083218655031482, 0.01469989468293386, 0.282031728171668, -0.1584342460070501, 0.02928233061013726, 0.08209112375246526, -0.40256493907018026, -0.2330321551709633, -0.10487794146540885], [-0.7364688741349207, 0.12113580020607423, -0.01859930116363074, -0.07938455861121785, -0.44239375572808276, 0.018616366692338238, -0.560622939347796, 0.005622320683943631, 0.3200606011642531, -0.13172533920926405, -0.21665794942589817, -0.2678133762887723, 0.6470647048499478, -0.10608381793319395, 0.3685991866057551, -0.26285357719460517, -0.3358054146923159, -0.4984061344999235, -0.3613141168505439, 0.5251680845068101, -0.6729191152347325, -0.5943323250460097, -0.6874018802346615, -0.011079140225330552], [0.20002770065805436, 0.15711315914693083, 0.05089048970131336, -0.27261962009349155, 0.12465278669270496, -0.04126441301717936, -0.3120811866223013, -0.0022693200785911007, 0.008059762037657412, 0.07598611031138651, 0.017164493976524267, -0.37205445884068633, -0.01772650478000714, 0.02706843054100698, -0.0012032862855763746, 0.14839158065211977, 0.17329322212155687, -0.34442291153789256, -0.3204942778440485, 0.022323279563217193, -0.19137707094625564, 0.13242258983367244, 0.41078047841648035, 0.1572884637870059], [0.13874617746384216, 0.16939010666265172, 0.17930336330316474, 0.27943884309691913, 0.747557353016099, -0.23207813151506315, 0.4129837844924854, 0.2175374852960922, -0.32724455912740386, -0.2366713238842723, -0.09705758709839797, -0.2379655748283325, -0.48911674119454074, 0.2850542213102481, -0.591819607532173, -0.11970929404422963, 0.5597883122649102, -0.2359381098134469, 0.45804756076584, -0.5860239182296629, -0.0012954218479609837, 0.3025996875024116, 0.4171983287149778, 0.02245371168304358], [0.17229617620551127, 0.17414638963580206, -0.29240049176568267, -0.2649406642438154, 0.31763362164869613, 0.40220157864274336, 0.19525426888788866, -0.058386823376331595, 0.05654762616494287, 0.21498785824889385, -0.13184906790468384, 0.3696439956713544, 0.43928491492267546, -0.2177374235820824, 0.2509425765438816, 0.051482644311525265, -0.3842464814337105, 0.31490074912978094, 0.026658127164175684, 0.1605361466075314, -0.06657919691375089, 0.2654658340033432, -0.01880458033520961, -0.4281713611922387], [0.22671327813742567, -0.5035642288724326, -0.27278983894706405, 0.34158538730055144, 0.3641364552878313, 0.18026500955773456, -0.041045264614757195, 0.03827617894820415, -0.04865518486914789, -0.2921285368479699, 0.07326718082771004, 0.24853491198284902, 0.3860478149610607, 0.09907158712170813, -0.23513293526010026, -0.24229733566857095, -0.3842409645522212, -0.007477323363179617, -0.0829658881672623, 0.2754419117860564, -0.08600540222006281, -0.4463655067305241, -0.2648221901457214, 0.25758144720964593], [0.10309499076700447, -0.1489755968886093, -0.11839454598357586, 0.29758211968478565, -0.09544754289635174, 0.08342775859963966, 0.2758616149878427, -0.4522562862733178, -0.4043126537761989, 0.5101438539650661, 0.034019533909601024, -0.02479721474143968, -0.0076021663564876905, 0.38729193680813195, 0.20863296139621468, 0.20772173059837035, 0.003546161276769347, -0.12022576109276072, 0.3187428875930456, -0.046530408901503714, 0.08157494978123823, 0.4769898260360795, -0.10024242225427417, -0.05556195916329793], [-0.15029217133891457, 0.10501148940738506, -0.06189087856293333, 0.005246569228536038, 0.01784269138261925, -0.05751673477164892, 0.33163352775710714, -0.12755631912159945, 0.2863947612719299, 0.10748435699226278, 0.05158849032496335, 0.4810130757559014, -0.4144000520819077, 0.5538364621854222, -0.7029300697838621, 0.4909152831611957, -0.13930610737703997, 0.5327933505054133, 0.2511984072091959, -0.002246410552621175, -0.018440323615554463, 0.24643923131655357, 0.693753056656932, -0.26334544076830835], [-0.14626483856593733, -0.10117662051390652, -0.358660238448571, -0.1406470653035086, -0.24964523457606028, 0.6385591799593243, -0.6778459536180375, 0.03686973952028319, 0.7251227054212739, 0.05113148480293895, -0.3522167116623468, 0.04087264571798146, 0.040550788822780716, -0.5768022620463336, 0.24455817355819762, -0.4355758083046463, -0.21301100449986382, -0.6733336715376681, 0.2004650656241926, 0.7155033300672013, -0.06438737674191752, -0.21832229556883329, -0.4326668884630077, 0.6231930934241361], [-0.2834519330668264, -0.6272920015818719, 0.02730374205437434, -0.055560722109160986, -0.02747470156636502, 0.5985367437298413, -0.2669854443077356, 0.266772907369344, 0.7940948418497894, -0.09439608518593585, -0.8756321481196192, -0.5759249131021155, 0.2397997774177206, -0.09085819413485025, 0.77135705913113, -0.7240529252260897, -0.29733809507127773, -0.4777917807216601, 0.10504993968660167, 0.699735545698431, -0.039410763168458963, -0.318820865722593, -0.4179540927556709, 0.2850219424574635], [-0.6289476320014761, 0.06261540078624314, -0.01820594303092417, 0.21390369186573185, 0.1474613146341512, 0.3036676958379221, -0.015284915974456683, 0.6127725098822108, 0.5959107412937389, -0.5004187761331716, -0.32406303103383366, -0.3846382777561153, 0.6214016961898579, -0.17169223356684585, 0.00835359838870689, -0.11818383919322704, -0.15840622315940314, -0.3982661863866586, -0.5522003191149777, 0.40408809191010764, -0.20399910602656834, 0.009264457668098533, -0.21342088141832477, 0.6044204435472853], [-0.2261451686002532, -0.22459363832522874, 0.02334311122632617, -0.3400182865649932, -0.6571001259146841, -0.13560454199813207, -0.04477970046188903, 0.3390935499477415, 0.5142855259467847, -0.5494470013820109, -0.6507636084300005, -0.49631756350926787, 0.10407998400055092, -0.2273644361435789, 0.1815983895283096, -0.3697195242807926, 0.07726870271928915, -0.4406197106862005, -0.21008692610360702, 0.539715326473, -0.32872939110722055, -0.13879178515816537, 0.05483402612938148, 0.7675426488559943], [-0.5672043474039907, 0.10600470163489539, -0.21815614584960288, -0.4166998794881573, -0.2521448617355764, 0.602138259946574, -0.2881448751265167, 0.11471799587999557, 0.43869449315344117, -0.4546952666033029, -0.6273120637625018, -0.4618226305968077, 0.0031500090773351223, -0.5138686341619134, -0.03556682815884303, -0.1537927184748268, -0.4995680341840037, -0.44609013161394406, 0.09245669197670575, 0.18572435165937615, -0.12187994694851509, -0.4576247375982831, -0.5367934360164819, -0.07274735575064743], [-0.26903414829077876, -0.3355341819320265, -0.30244047181031597, -0.39328597277868615, -0.3497594573743222, 0.028060977629216634, -0.40572217327172094, -0.039973469989343535, 0.13253248287904576, 0.12848929672029588, -0.35729951203228555, 0.2699466883645611, 0.18602369132933183, -0.3747102225495041, 0.37945317325927314, 0.3305405562788205, -0.36664306339305686, -0.19998471419160455, 0.17755006590522762, 0.1678241285405139, -0.35761269361623477, -0.3338894316863175, -0.09156377825375898, -0.013023188220333217], [-0.13569452649547858, -0.35527796028847447, -0.27626590197363093, 0.0298871862464045, -0.6659513463435653, 0.03538421731599573, -0.10533751490980049, 0.5661541618591285, 0.4056946101419771, -0.20045358097710544, -0.6001389343973794, -0.15452545818713095, 0.27844460055773884, -0.48604572375092714, 0.03173459135734325, -0.38198280785155014, -0.6767116689767836, -0.45224874490003164, -0.4650773014152429, 0.07851320406641402, -0.573885495973682, 0.12928225175504154, -0.113754826298717, 0.4874099138271177], [0.022105921934252523, -0.23586569582069963, -0.5940994687413921, -0.16254839506091143, -0.20667841408251136, 0.43057005373931173, -0.31543513561827635, -0.11630227353058026, 0.12162543618571457, -0.36811328278730776, -0.1483728599373582, -0.004746226391621156, 0.09358456395520125, 0.20192957622333532, 0.33750649090158297, -0.4911618642100258, -0.5580224871397507, -0.578516286641604, -0.4388843109083629, -0.07279560133605983, -0.4946205946439075, -0.3959818731312061, -0.4968374939993867, 0.6347396843900023], [-0.5609470512061606, -0.13778838444234343, -0.16288668323715566, 0.2639883068788999, -0.4488323753879371, 0.06210874219776173, 0.18941544088655252, 0.5294497337168252, 0.5547746695340301, -0.3848548614312345, -0.3631659145746562, 0.061719631239266604, 0.4569959963058815, -0.11668590553852977, 0.21592882076352146, -0.37804098405442754, 0.04741931975312664, -0.3205662124158759, -0.3957694560567432, 0.16191953838743467, -0.26071043703694063, -0.40304360781487963, -0.41930015950317506, 0.3373421315802625], [-0.10338189049346158, -0.04885610599233191, -0.21252352179318335, -0.0046152654261335385, 0.14661060626134537, -0.36129366407088226, -0.2700258184547115, -0.2466379179510597, -0.2512218521093899, 0.46149703754018984, -0.08427010886241713, 0.23610727009496127, -0.13908534411431134, 0.14692983768461906, 0.2652949367522958, 0.013604061132678634, 0.03214796120811749, -0.09622757972564844, -0.21189712305626818, 0.2631722267167349, 0.20985470335117293, 0.4032685026274901, -0.31672776536173153, 0.24166386455099317]], "b": [[-0.04783113518963277, 0.08528743381157608, -0.12695892207128884, -0.0835835432715846, -0.1045729539995067, -0.1012789813090142, -0.003078695556567373, -0.018374299962481497, 0.045370749000935434, -0.0403405535924544, -0.0020806308968334356, -0.07118300532648963, 0.028688499416234154, -0.009170294947588422, -0.03518167249612662, -0.1552719348495533, -0.04197423120361373, -0.02546019087662359, 0.011611193191946085, 0.019630565302499913, -0.07972420609331528, 0.02765709019966381, 0.051930123066544306, 0.05840984402107574]], "activation": "sigmoid", "w_init": "heUniform", "optimizer": "adam", "learning_rate": 0.001, "momentum": 0.9, "beta2": 0.999, "eps": 1e-08}, {"type": "DenseLayer", "input_size": 24, "output_size": 24, "W": [[0.6325147684803223, -0.09086022757332458, -0.5234003630887544, 0.04560832741082679, -0.09799493967861171, 0.24658301875249258, -0.5478150841571741, 0.17114684591278728, -0.4353072270151536, -0.47598355463473074, -0.4581683073215206, 0.5215386058078808, 0.3239561244154253, 0.156564716886543, 0.04702167032650519, 0.24926426034844665, 0.22952637578714183, 0.18969639446278724, -0.27637327103649595, 0.0207297950612377, -0.23752470221130972, -0.020601663254679013, 0.11103853504147428, 0.15678014885273328], [-0.16807000955150406, 0.6624239445439353, -0.04508790697957839, -0.16305092933916684, 0.22892120165935964, -0.0013074934403386434, -0.5790769311338406, 0.376486427654556, 0.009553877503307823, -0.28871656687138003, -0.39199687282741125, 0.3673530346820234, 0.16961616007791314, 0.10343808397629431, 0.5717704526285525, 0.24397653464835775, -0.012695891559609013, -0.30790002202891725, -0.4684566933200166, 0.3363793613465219, -0.6773945367618319, 0.18306178701823883, 0.11421023525385601, 0.42940756426328636], [-0.07856137936182932, 0.4741849842965208, -0.32697178812322303, 0.19212630376533288, -0.49876725271717126, -0.1902786937156722, 0.14019855242100052, -0.40036163180430046, -0.3648808877008251, 0.13842412758609354, 0.18944709425590142, 0.18428185176564907, 0.2282754080159273, 0.10198964228530982, -0.12108826479590343, -0.19843831436963125, -0.05671143441073923, 0.316611215767772, -0.09500561019316638, -0.02135904889225526, -0.1973697228599424, 0.5385900956509925, -0.45936656631377715, 0.13077351649637203], [0.08516461063580366, 0.2957555360823087, -0.4181926737307092, 0.2129781648695439, 0.29501294045194987, -0.03238470674026248, 0.03793273238082488, 0.3733270711230263, 0.1178662157070939, -0.43619000472544023, 0.043745973779053204, 0.16784382300324016, -0.05460395578179568, 0.2941160835537818, 0.5633527644757969, 0.3845665238642051, 0.23232355156763465, -0.48141727198527906, 0.3023557453479345, 0.40742650137511405, -0.5385033982267096, 0.5064202152303292, 0.26034174696928425, 0.058488900515639285], [0.29973852775162785, 0.17263606529923733, -0.5478332952887951, -0.3674079802044007, 0.1114830836716573, -0.6073072033930769, -0.3688097991933179, -0.2367076285876682, -0.11339140355597317, 0.2622903979552625, -0.29749422732368724, 0.06366607852175543, 0.407381770021469, 0.09390730197662851, -0.07839893972610062, -0.18758639920230605, 9.822523786493867e-05, -0.4634686294725519, -0.23168431796871322, 0.0730507879361593, 0.2010699902543022, 0.05632902827508192, -0.06528353820711781, 0.297901564974892], [-0.7018928080629057, -0.030770501484774372, -0.08384710033107148, 0.5047495213097178, -0.2674453635226832, -0.06977949136606505, -0.36081963037925857, 0.6044693057494903, 0.09372215136648246, 0.17878439975770416, -0.19725210057134057, 0.0629387304862935, -0.4806248316005459, 0.291827378125981, -0.3556600957964369, -0.14761500049119378, -0.5987675463949361, 0.04612541345149134, 0.1308439934442185, -0.5711741621010348, 0.32398489052843177, -0.2852984497744063, 0.04304152092917373, -0.23600449279555272], [0.10828650303288322, 0.35851769047310267, -0.41651559297821095, -0.5387696702388985, 0.15229824502042175, 0.32015817961338205, -0.3376429478611064, -0.36242116904147226, -0.008136366877970891, -0.2569512704608909, -0.6150829675198372, -0.11639379086539506, 0.37341551192049066, 0.3042987604613205, -0.26446200418684157, -0.414511342486771, 0.10587649932330859, 0.02085390253391072, -0.720766948981181, -0.24598960378134876, 0.07162955106919011, -0.13872988493486732, -0.003913683184422054, -0.1022108601053806], [-0.6599112414547365, -0.4781888708242217, 0.4988407981545327, 0.4663698909836972, 0.4665413361649923, -0.07481358294601541, 0.29161535563356733, -0.12593011585388514, -0.04733841545394863, 0.5321433758482466, -0.2000434364179839, -0.6254851878722977, -0.5233353020186386, -0.6356014897992153, -0.44737600217734963, 0.29865655938316016, -0.2806106768602036, 0.5255574335391049, 0.4611208238273807, -0.3597079281121664, -0.11986643569301755, -0.4207230216540839, 0.1587976695918604, -0.4532430934353468], [-0.2090387933571235, -0.4658018571088786, 0.3999429784886307, 0.12808710094311015, 0.023456601051537986, 0.5331005329700148, 0.4643373016714634, -0.11987919077705395, 0.605898693965838, 0.2151811427718866, 0.7660183640692574, -0.006678382249524949, -0.3736730248323403, -0.7083580038767233, -0.43870080457407995, 0.3266293502045889, -0.18274068918462075, -0.033917317978830144, -0.13823963618000007, 0.06238430228762244, 0.6816152375639208, -0.3469794117733953, -0.20242829320338335, -0.5234186765792835], [-0.33040955684971124, 0.6104527693148946, -0.41069241330909234, -0.10426434707865144, -0.38492341521839135, -0.04130639013085088, -0.028233293290163636, 0.2296740321628784, -0.41719533361997085, -0.6028784634155138, -0.44648187080263924, 0.535950043124721, 0.47272806519642324, 0.20400778728647762, 0.2649750588181393, 0.06741557835913141, -0.022257352615699118, 0.2984643161968186, -0.288018990300014, 0.0019290590475474745, -0.16809988653785574, -0.31170087396353735, -0.4655676984739887, 0.3498573648628419], [-0.2195505976052561, 0.32218609758878014, -0.36460375123299843, -0.2966514517290025, -0.3797093290082991, -0.23487835171614913, 0.037240848999796815, -0.3327151456541825, -0.06993947339917513, -0.16517310419656134, 0.030679049964398946, 0.6545744829647894, 0.40085949586614233, -0.14814621043158657, -0.28735562064996306, -0.3732872669223788, 0.42064279386089304, -0.5740110475693335, -0.21164612420503645, 0.24415368487151995, -0.35834276189309794, 0.45225329663395447, -0.5261916528859033, -0.2636981102609705], [0.34336498859402725, 0.16786282688150497, 0.17701105557793564, -0.20745624690219772, -0.37767467098156976, 0.23933242141470112, 0.1631482602172034, 0.11779420772949159, -0.31471605852309786, -0.011822759401452306, -0.1957514601961823, -0.24888237326111726, 0.4984448631764379, -0.27810080288735495, 0.5852250790297315, -0.12197411375545515, -0.026160965752630015, -0.0440744922798265, 0.2148730344426089, 0.31602026580546144, 0.15614373627987305, 0.2531897833438091, 0.09311819156981875, 0.4354102712850287], [-0.49047986903373336, -0.2313474502496395, 0.005582905648890482, 0.550102721348086, 0.5449066737919801, -0.43493903748282825, 0.28062648552089187, 0.5607188459936003, -0.19902370302069838, 0.17912352437878784, 0.681341404088286, -0.6744122075708597, -0.033152831990969314, -0.3323187352742989, 0.3392219461261561, 0.6608167133613649, 0.28133761471860846, 0.06960431538474858, 0.4571696047486459, 0.17841792627083117, -0.11020726914273495, 0.05445120995244293, -0.431888335289477, -0.10674381037438387], [-0.06478210052592596, -0.13855273828556844, -0.5391242397537315, 0.0036167532588835274, -0.33830773100873734, 0.12768308593107794, -0.6223386239805418, -0.3182474884995385, -0.10203724688073589, 0.14399317653427857, -0.32426616576179834, 0.34863573294422817, 0.5571351236900818, 0.2585943631871381, -0.07916299628273628, -0.6171812868852415, 0.7005543263926857, -0.6125946115728496, 0.15973326682122743, 0.1790542243570807, 0.24075347659218485, 0.4857370051330601, 0.3603385536998388, 0.01642254514183819], [-0.006242356896897902, -0.36984248266219316, 0.28175375331615826, 0.24534720981838837, 0.5195771442541549, 0.5228834785397627, 0.39722609236985457, 0.09093184428825016, 0.08880335510262599, 0.3871221348748334, 0.03603481861993047, -0.6328572656686552, -0.3976844875479071, -0.38249024040535023, -0.34074670189994827, -0.04153148107025053, -0.6901555936202325, -0.3475135977127158, 0.642744031962193, -0.2794902981346808, 0.009719511345238359, -0.12543086829287278, -0.21156160332201276, 0.21072692942316545], [0.5348087072484027, -0.09467584466224678, -0.20685949565819786, 0.1464655987526806, 0.2270927508706354, -0.15261939080148537, -0.10695021294946956, -0.48726612221169285, 0.3243391913433874, -0.44737621447928866, 0.2647823506641652, 0.42028077706581185, 0.31704039090486624, 0.17984200869338873, -0.04346318429236324, -0.4905588891449099, 0.1110000538981137, -0.4737187670532782, 0.0277353400075032, 0.026330385917884617, -0.6795776079670055, 0.6946374693804487, 0.22090446855627133, 0.6263682890558046], [0.670260809470895, -0.11419827573775916, -0.18149052008436303, 0.07767651668560481, 0.03690951991123647, -0.4366322589476234, 0.13885319194452903, -0.3894203733235142, -0.4042271753924342, -0.09408854774751346, -0.022999120050765695, 0.2638250573214404, -0.25915973207056037, 0.49722676537781213, -0.06451983472694364, -0.48811908302664686, 0.705139694892116, 0.3372792850491364, 0.15892688559833282, 0.44427065010878464, -0.030068761990259294, 0.21723030929332016, -0.5403007894682841, 0.0476774890925842], [0.0839841708091581, 0.013489272674793877, 0.1266729235058342, -0.20426724455915088, -0.6026221720569933, -0.38182813145037886, -0.013849896988633313, -0.5560763418512896, 0.20807339829874466, -0.156500392243607, -0.15605374062136132, 0.3268318095920734, 0.4966283906532755, -0.012192133816305784, 0.37222911563990757, -0.07061970604643693, 0.12773021465112513, 0.24756492381098696, 0.07130822918052053, 0.31202133335650367, 0.13920282261700787, 0.5604035688574054, 0.06640001876966946, 0.5054795214369601], [0.387822853042095, 0.41943691436430774, 0.03997284830139262, 0.059637591056515525, -0.5156025664514648, 0.2823237921734313, 0.18458592862409645, -0.5935881205951643, 0.19071812942565491, -0.5138973519071833, -0.2872067142926392, 0.44825208646749903, -0.1857172058025353, 0.4504906269760728, 0.5161358280099885, -0.11931774790371348, -0.15491056928323055, -0.34156996135915, -0.09771434869473015, 0.621541041745453, -0.06945001149668956, -0.0722564632374518, -0.002683727328222217, 0.18992799998176735], [-0.05163133684214172, -0.7722030495159073, 0.5918666058606108, 0.25894120966928724, 0.7310464713620511, -0.04536109210717689, 0.3522539771915507, 0.6819886777306164, -0.1257693313310372, 0.6959997351475216, 0.5873346614002858, -0.7199811653822842, -0.5033075040924142, -0.03810854043221637, -0.6618205636441039, 0.38277639192797663, -0.4618214579433641, 0.3851377583131374, -0.22512964193961263, 0.0812709483298701, 0.6942891170300951, 0.08059949372137139, 0.42622522577249733, -0.6656337974458827], [0.41252421454764715, -0.28226187768321104, -0.5252729531132819, -0.34910127226247073, -0.16067037183501723, 0.18242015905988856, 0.012724954267375344, -0.1559520650696027, -0.34481241837907833, 0.37537181223354577, -0.16883663336453186, 0.10673550232338097, -0.2104608234727829, 0.4028848029242922, 0.35375574765743734, -0.38168450288367095, -0.11136277245933994, 0.06879276697829391, -0.04015729513453955, -0.10493407260323295, 0.27072039064918363, -0.20390686961784388, -0.19056617063894934, 0.5620558392614807], [0.07027366159163408, 0.33679381401884495, -0.1313461236569782, -0.4013787598545708, 0.3272121108840353, -0.1828980560213034, 0.2160627541323175, -0.36632700139648955, -0.40792965946196613, -0.5816414186781073, 0.07086370137694736, 0.011457891751751444, 0.45980994527001734, 0.08019783348961611, 0.6288509548531761, -0.40962802344208415, 0.665963241712685, 0.1628922444867499, 0.06692829653137636, 0.45906796524783905, 0.07648892170945881, 0.26137549624069695, -0.4973221382382187, -0.3550044531877614], [0.6426705604659032, 0.38498052977714275, 0.16567484554064157, -0.2130507618817045, -0.5660070932679554, -0.4744264063374726, -0.005302345017134627, -0.2109698181231427, -0.44553737320717335, -0.16724407746640393, -0.5965018564294075, 0.33153818873658525, -0.03743021783716603, 0.44722425797837456, 0.004270044132266882, -0.19603616883040692, -0.13491512904319344, -0.5631436127722295, -0.3233369106342994, 0.1384470532532361, -0.10216816886946832, -0.00767478803045194, 0.05778521900408986, 0.5411207812483918], [-0.0039353479329151215, -0.7322746920002543, 0.2911449917169584, -0.2859031289193721, -0.10606610397980826, 0.5374723410776738, -0.23418686898454508, 0.18327031742488642, 0.2860201713604472, 0.35343598996973297, 0.3664093345108773, -0.7336466956847132, -0.4337816973102764, -0.15567349639511988, -0.5418021827417524, 0.08715242129871316, -0.693852053444015, -0.28056861093751445, 0.046646141183423945, -0.5807088701506785, 0.18959918395187056, -0.12450398679579194, 0.3686461555162294, -0.5441924420185922]], "b": [[-0.07016534451010067, 0.020484167707563228, 0.16177484099940706, -0.06764572136977162, -0.031743559953485205, -0.04065008926450542, -0.05745492094462569, 0.026551315935553016, 0.00024172963307364016, -0.01018316292504021, 0.1097567313554039, -0.047650911697866054, -0.08227767289795439, -0.018413477330498085, 0.04898465250494517, 0.0632540732594509, 0.12000641305732575, -0.010542171195506617, -0.0641595500381866, -0.03309547967620036, -0.0684220028711359, -0.08483844261767302, -0.05037843173635736, -0.06604044590267988]], "activation": "sigmoid", "w_init": "heUniform", "optimizer": "adam", "learning_rate": 0.001, "momentum": 0.9, "beta2": 0.999, "eps": 1e-08}, {"type": "DenseLayer", "input_size": 24, "output_size": 2, "W": [[-0.16500896307127233, -0.5629406143352578], [0.354206017199308, -0.011300041168770371], [-0.7570263625636156, 0.7248247536329472], [-0.45248776663632884, 0.04575538558887255], [0.14530545795832894, 0.4347241852386727], [0.21739663416593885, 0.2984183810362807], [-0.14687779086263075, 0.3011530971519504], [-0.5699235356782384, 0.544855038123441], [0.014117672089878746, 0.35077247402635], [-0.13933182910102637, 0.23522780881585204], [-0.15637565405685053, 0.4143678367482956], [-0.2072503141788541, -0.6507676197999933], [-0.06987658677878525, -0.5234754990978797], [0.5468548906821207, -0.4558573367318756], [0.6927434859353278, -0.37998243834508966], [-0.4858836638185402, 0.4577000866497186], [0.45577540265422284, -0.2988719107002082], [0.04024318456792615, 0.23432214464196882], [-0.23824163992973613, 0.4630302973177774], [0.6132351641212526, 0.011883684372466346], [-0.2842463692735148, 0.16401706263395152], [-0.3132525486673878, -0.5838965401476294], [-0.19903939566263623, -0.08065475908683371], [0.540167586096634, 0.05527398907805651]], "b": [[0.06993958162754951, -0.06993958162754953]], "activation": "none", "w_init": "heUniform", "optimizer": "adam", "learning_rate": 0.001, "momentum": 0.9, "beta2": 0.999, "eps": 1e-08}], "normalization": {"mean": [14.151461538461538, 19.198527472527473, 92.13538461538461, 656.4410989010988, 0.09668342857142857, 0.10506386813186813, 0.08893961538461541, 0.049078391208791206, 0.18166395604395608, 0.06288652747252747, 0.3950428571428572, 1.184826153846154, 2.787816263736264, 39.31444395604396, 0.007029081318681319, 0.025365881318681317, 0.03201499758241758, 0.011814903296703297, 0.020003314285714287, 0.003807418241758242, 16.276799999999998, 25.518153846153847, 107.32617582417582, 881.4863736263736, 0.13300182417582415, 0.2568486153846154, 0.27505084395604396, 0.11576435384615384, 0.29042395604395604, 0.08430186813186813], "std": [3.518312203714506, 4.421630427100466, 24.22424113771626, 350.9618760218415, 0.01380516458952225, 0.052119098800370973, 0.08004353578610943, 0.03864625559543971, 0.026779707295100423, 0.007074924441549951, 0.26146929849099915, 0.5266232783650722, 1.8803114505167173, 42.57842085676324, 0.0030475661425779215, 0.01712919826915891, 0.031245193920620157, 0.0061919437598152004, 0.007049413701138266, 0.002705313454316671, 4.851551639594116, 6.247806164282087, 33.69076307839065, 575.0917325308293, 0.022264749134787484, 0.15427915175847193, 0.20905005431612175, 0.06517248819575973, 0.05731952832331106, 0.01777793235805744]}}