{"layers": [{"type": "DenseLayer", "input_size": 30, "output_size": 24, "W": [[-0.6226237305898148, 0.6068429075525748, 0.03746470333823427, 0.35778224151978494, 0.13627043213057932, -1.1132308027332125, 0.3280874736516748, 0.10770550197567977, -0.5911516437288864, 0.44532230197650663, 0.11836314010861669, -0.5861529685847683, -0.07800641104355055, 0.07588363320234907, -0.47545537594134235, -0.4853038649406982, -0.5944500338446547, -0.12844772902721727, -0.7285651222802921, -0.5659220990939724, 0.4544783893299929, 0.0669719342857802, -0.28197681034515615, -0.5323898702066919], [-0.905634267593657, 0.5052135634746723, -1.589771169946974, 1.0719122110993196, 1.092231468033267, 0.12244704492351495, 0.22299693309541652, -0.3059207550948411, -1.0972890245959466, 0.9721182035702921, -0.1155817396572248, -1.0508502063683471, -0.29929176712146266, 0.3947076536535299, -0.554279192088788, -0.6133720218490936, -0.6973642521576858, -0.6505880802685933, -1.0234594785910782, 0.12374235835846911, 0.5146362668370184, 0.2838668480945292, -0.20765874612897103, -0.6047139874060637], [0.0035476173469412907, 0.009861072539436043, 0.07314081648326687, 0.6066533528176578, 0.011153042288086019, -0.6285115604793179, -0.07959685129508232, -0.4850556128953651, -0.24222301840658148, 0.09984083029208472, -0.5253040325094679, -0.6772991479038962, -0.31697168326274455, -0.2475349914296743, -0.303157817352621, -0.11426579932236094, -0.48483702169714904, -0.40126730443247494, -0.19451814198427075, -0.5451777570721489, 0.6612040345508067, -0.11483228035744819, -1.011967737979082, -0.5435342263560148], [-0.35679560869468674, 0.8355166747195447, 0.2634722690430513, 0.24374874404973096, 0.6661154985072368, -0.22649558255585595, -0.21790283312944084, -0.7632173358751961, -0.5876397886647348, 0.49181776566192165, -0.6005473988134071, -0.24563887765232523, -0.2626981522537741, -0.09492944511855955, -0.279572594762652, -0.7778808231746549, -0.3645325223443562, -0.6618953626046553, -0.0976253865543054, -0.17055707153831662, 0.6272063737744284, 0.19410428372335367, -0.3587536062586122, -0.4608533009271782], [-0.5311093029852866, 0.10241046178964554, 0.17590958236168386, -0.12657962174445578, 0.07303896273955926, -0.5646209736356329, 0.27740127868106945, 0.17117400328559038, -0.5705729996964649, -0.25513599198479, -0.4119407337444383, -0.17004101205272878, -0.48131474413981873, 0.8723096529727505, -0.43152580333996143, -0.2504078956836579, -0.08356427672148697, -0.33600928631396637, -0.11418550006682504, 0.12930360196575633, 0.00677009610392151, 0.606718166918527, -0.2807069898679228, -0.5653891794488554], [-0.47717474124961656, -0.2485479221848503, -0.08905111584204932, 0.3571811851013338, 0.16311705594471973, -0.49720520675563595, 0.6129727900324471, -0.14854292478982128, 0.025653382856893822, 0.4197426800803599, 0.08902234001952333, -0.03883120396881585, -0.0017684511137554346, 0.09304709082392476, 0.17786954289824491, 0.20750631774820816, -0.02319956093542712, -0.2965073538127875, -0.45681048218150927, 0.03774238478716042, -0.15446708219962638, 0.5630369980587522, -0.6877611188545765, -0.2715571306735012], [-1.2091983257442105, 0.911869229184385, -0.6335065735075416, 0.5723650654007477, 0.8318127303218341, 0.015464201903153783, 1.1873051680238949, -0.44380760383500295, -0.7957946185826432, 1.3344160899062423, -0.5313813979368205, -0.8315543180709901, -0.9920080384947175, 1.3440109024836226, -1.195854571314851, -0.7169960134748752, -0.5135096061700059, -0.9694836612872858, -1.0833416171435601, -0.5580429748054938, 1.2974076300769402, 0.7086669833673732, -0.7883148492841258, -0.9678460735647217], [-1.0855218651676084, 0.23521166049211184, -0.32073852838399536, 0.9601240878377633, 0.4982533408170205, -0.40282251872659, 0.4289799765565228, -0.961533003801951, -0.6564354303244124, 0.8464087424122791, -0.3241078935154624, -0.9770727740534567, -0.7421568852756208, 1.2575273708947388, -0.7461135004058853, -0.7930852080911392, -0.5381254971527469, -0.8582260042167035, -0.981338181144162, -0.5052092528256209, 0.45615681329079105, 0.5317313579311105, -0.5784648817731947, -0.5382023944414502], [-0.10144157040709816, -0.3480653695475742, -0.8547500959141963, 0.1029684388887914, 0.11834529404971218, -0.5923851110975297, 0.11803320905225885, -0.06923359902118324, 0.2488408332071802, 0.5814467796332116, -0.6287418758470062, -0.17906918933927418, -0.23253534984422158, 0.2482598407601928, -0.20270916855644638, -0.011965739574172546, -0.17032814087911707, -0.12810810275489062, 0.3731091020676948, -0.04345223784701694, 0.23623146942916834, -0.07017431157213311, 0.31763864398398745, 0.15308223189939596], [0.20188463093374953, -0.7334684598166739, -0.38579437386503895, -0.47070095055029226, -0.2771715170236039, 0.0856357740494396, 0.5281306427662924, 0.4073307125497133, 0.3906072111926459, 0.1510230631703149, -0.35660161865493256, 0.14357089863673922, 0.282875455587005, 0.08849392786175478, -0.04627420437893595, 0.006506764710926679, 0.3414909767651499, 0.32886400347172495, 0.2697102070482361, 0.833754857504438, -0.36365918642823813, -0.027645301132356935, 0.33086188365285335, 0.09971032505833106], [-1.3748049111051712, 1.1203440820331012, -0.4371473103208603, 1.1072161942859218, 0.11223309614905279, -0.09707279407359395, 1.0546468329738565, -0.5518945281362635, -0.9335917228518796, 0.972253155497232, -0.10969618507786419, -0.9617023021956328, -1.2783501517510645, 1.0021336592955352, -0.8432387301414899, -0.40196320518716183, -0.3970755991141089, -0.4508263287752955, -1.298843712731732, -0.21393468578484753, 0.38965639487062825, 1.1854772676265135, -0.3916808785003581, -1.2236518256617084], [0.2831185053575176, 0.0310131764208161, -0.05953758329585214, -0.38512787536660475, 0.15606113763798027, -0.04709174254129382, -0.4014154631816714, 0.6428263264492304, 0.22421803628914036, 0.3169555065100083, 0.3233709791862933, -0.2774503139915761, 0.11061014491915414, -0.32866428586617313, 0.3202677221057721, 0.06622081059409056, 0.6899767091296103, 0.3481628073154288, 0.13277047013213847, -0.1825075265395407, -0.27574490970844245, -0.21941521075759252, 0.7856983316789142, 0.05269133407074436], [-0.683155966320965, 0.7764903079637511, -0.46201227438693726, 0.7693416703135735, 0.07189492503406572, -0.7262117410921035, 0.7016319001585912, -0.5101536440993091, -0.4856501257208871, 0.5765061721354584, -0.6602987281498003, -0.3992426326761703, -0.6127547497373165, 0.5123616987630004, -0.21083263109926573, -0.4209021867131818, -0.15740384475372304, -0.2699026663014437, -0.7574297567663317, -0.06860133903052741, 0.4169668659883121, 0.9936298365220835, -1.0823042577943949, -0.7000639125682226], [-1.2675226336369603, 0.5026621770444244, -0.5512175914139468, 0.871986438457202, 0.5450975765634617, -0.1004203071814127, 0.6483504353179069, -0.7328834911542026, -1.1144502198565034, 0.8076904821686826, -0.8255243415421779, -1.2434402651462741, -1.1200358204056973, 0.7812912837961935, -0.893198061226514, -0.8660900939120906, -0.13265544930611256, -0.661117388877849, -1.2425496483060097, -0.3404824690109247, 0.7927293714511437, 0.4788956425711805, -0.4204713284470355, -1.1772595771470038], [-0.3844282113807884, 0.4902377413328535, 0.26433325016076065, 0.29829728526958726, 0.23630210117132872, -0.42351753977380713, -0.46864376160631116, 0.06274237386814385, -0.4899862963620314, 0.06515734355094166, 0.7581924577214015, -0.5159059081761964, 0.11132535184057817, 0.6676244440134155, -0.17201242075108752, -0.011154613238443382, 0.1670830408022483, 0.018663343736905477, -0.4091759645581015, 0.45169163035860205, 0.7550672768278494, -0.31074250217659954, -0.07818437692569427, -0.7002889307820898], [0.12202969090091967, -0.38809057093208765, -0.5581626570012185, 0.16084498607609227, -0.16110692087268846, -0.42871014476509445, -0.6405486087521279, -0.21532802690067013, 0.4453269854293093, -0.49671382565018135, 0.4433046247385197, 0.5685051114902991, 0.5503879940268477, -0.25597230580455516, 0.911104026640647, 0.55082682837608, -0.5419635464950588, 0.34120014063020193, 0.35373224387389923, 0.3757201623607437, -0.027687910405220242, -0.22766552383448363, 0.15371680256036635, 0.42754505619488653], [-0.47587780709216754, 0.49324445307708265, -1.0961990728446314, 0.051512457354541547, 0.7687628182217493, 0.16620026836801505, 0.006586076908159472, -0.13649348127426564, -0.6522006757411201, 0.21176137085499713, 0.4056403201473011, -0.7969287723945173, 0.10423461835326507, 0.3317685721009785, -0.32885300042351595, -0.4313167327026193, -0.7644210744056648, -0.01487291130674459, -0.7010191204029146, -0.3278309017234517, 0.24328174426332352, 0.09131199721556016, 0.27939652095926826, -0.1997546293805029], [-0.17140496256573337, -0.18485243491233896, -0.14705000312741956, 0.5595998015058052, 0.0022062546509170958, -0.3918474832061171, -0.6754848259194607, -0.6418581568100977, -0.310179816903634, -0.05727517901161112, -0.22263939390542342, -0.08301469425321711, -0.20999111651866578, 0.8434733421698598, -0.2020786512316025, -0.31208019482589566, -0.4919749511166599, -0.5071255735221722, -0.41154047425270457, -0.42770538944739306, 0.11652424287721305, 0.3273645110367841, -0.4641673242102405, -0.1268323597437904], [0.32381744243815264, -0.3722618098809739, 0.08635755746371586, -0.47881533186732966, 0.19987221180628567, -0.11105772686311054, -0.11063092380007691, 0.4173317069101165, 0.741379318384875, -0.16258530469905305, -0.034955856998476365, 0.2631020695665976, 0.40029283187490433, -1.0920786679668089, 0.10279395433863965, 0.5139382091480316, 0.31103421585685087, 0.8070191954930299, 0.540885577936479, 0.21937887982529228, 0.3008930526164693, -0.40720111649319113, 0.8124795335622527, 0.7017949230772579], [0.3134139476295003, -0.5125904834250306, -0.372948625622889, -0.34582349543072755, -0.04956028312121727, -0.420060126059617, -0.35418971571429886, 0.3916701603793284, 0.291480315990328, -0.6933858032485672, -0.09015895398492532, 0.6602317019704087, 0.9205700575611252, -0.7608655920362151, 0.4000907986325399, 0.844047456646966, -0.3050165288545303, 0.5563462510081426, 0.6390170891169016, -0.2781687696230455, -0.31695618204440645, -1.0164496642340721, 0.06182937699761254, 0.24217452702527328], [-0.3714242964588862, 1.2685735131107896, 0.057546968963117104, 0.3037461341980878, 0.733766607552574, -0.2598192786860182, 0.8347256662147107, -1.1244702799910076, -0.785322861554321, 0.3674428143011881, -0.17387358652048146, -1.216175337068164, -0.824963049094903, 0.2963571540882812, -1.069798508378465, -0.9768382708024969, -0.6743541480393096, -0.5765103399058915, -1.153088477778481, -0.8646388502200466, 0.982599732657733, 0.5084712853251417, -0.9320298658087918, -0.9477925602427676], [-0.893347990989463, 0.610535861419978, -0.791928284040815, 0.5886626481829795, 0.6121386979279114, -0.05764211321254147, 0.6839963473310705, -0.9811247239818826, -1.0420340506614072, 0.7928015853776187, -0.1363572018940714, -0.8717512470389435, -0.8233166851164434, 0.6011826430815674, -1.1064249217166702, -0.6067793522748938, -1.2221156318154511, -0.25855995765822587, -1.068492163418857, -0.1356980612444356, 0.8224181071365829, 0.6998783434862822, -0.09340229685375062, -0.2474779693640485], [-0.654819281670938, 0.2851035903781446, -0.022037845557236115, 1.07632742813561, 1.1421272884429494, -0.39406248112595116, 0.3199306055377581, -0.7556599633472226, -1.0349645095155222, 0.4893600749457476, -0.17192593261699154, -0.6821941087224062, -0.42180537603906965, 0.3910366636675687, -0.8697657790288704, -0.5820835138502777, -0.5835128960064534, -0.34380200638077507, -1.1097146425886364, -0.466579036750777, 0.6821901962567124, 0.6441563533690664, -0.2698665859806345, -0.2670160021839254], [-1.1642654320188126, 0.88765316391153, -0.6402208740356343, 0.22104644248323774, 1.0580830557158203, -0.7748591085130255, 0.603639663824265, -0.42585678963426504, -0.5812503419029283, 0.5434890423503586, -0.0764646286095623, -0.9872295605479023, -0.7432766704503221, 0.22183715443263363, -0.4672497467025756, -0.3976798146576509, -0.33505811764765997, -0.4286676610816593, -0.8798923370478439, -0.40519111096741356, 0.3715474533386811, 0.7509161356064842, -0.2558326544701677, -0.6658706550215671], [-0.8419630519227078, 0.800439124187835, -0.012470964922403663, 0.908370542854521, 0.7013926915255497, -0.31283881168465544, 0.7442091279265697, -1.0861970620892059, -1.1247837543729615, 0.8979294394159951, -0.556345452694671, -0.8022935450217135, -0.9081042219713882, 0.9191642675252673, -0.6834511980499041, -1.2010985990226577, -0.8239791378183124, -0.383480121569845, -1.167857668829536, -0.5329991924663016, 1.0932801419551694, 0.6918765453350988, -0.5781464903001269, -0.8120568799619072], [-0.27663146320094334, 0.282159746559869, -0.6751915028928185, -0.06071105526601628, 0.29811169950998573, -0.37677776690989895, 0.17211471535717424, -0.44204895456017756, -0.5714974860142408, 0.5877019591597807, 0.02453505527989284, -0.6446910868046563, -0.3374880809606819, 0.451930060887357, -0.7709151120825022, -0.20567178643363307, -0.719598845730007, -0.6124897098868538, -0.2020338627418816, -0.18701122187160812, 0.0655843936895243, 0.16219746466104876, -0.15781429297763094, -0.614665741740482], [-0.6973265901479038, 0.9310232660457852, -0.9157333340815944, 1.0723815895818825, 0.8830334724684655, -0.12912359534726858, 1.3851026093482521, -0.5123399423410081, -0.8735900927642453, 0.6892171371206723, -0.9090870824368918, -0.9751742932430967, -0.7983593457442297, 0.711565461559188, -1.1550652549544378, -1.079143571423618, -1.224738934675186, -0.5890709148438936, -0.8357011706575711, -0.27620695095941605, 0.8982768232877844, 0.7081694196302705, -0.4211855643096144, -0.6185305823699871], [-1.0912014005161828, 0.5924384742735098, -0.8536043896681419, 0.8103935366689464, 0.8957219846786044, -0.9744283452345494, 0.6654547631383727, -1.065268648682219, -0.4745603053547109, 0.4381593148651471, -0.7531424115574975, -0.9954811722649392, -0.9666502595734362, 1.010325100629615, -0.43582404014916054, -1.0490651618585272, -1.4004062514153888, -0.7758885557393921, -0.4197523522572827, -0.1923550838697486, 0.6185878523869303, 0.42834913580274414, -0.3880035404683353, -0.8995880041991628], [-0.6341068981503835, 0.2774073771262734, -0.6472739510681966, 0.09406987079423121, 0.243510101130008, -0.40701808755442215, 0.4692774894828072, -0.1974840059634771, -0.7574087308209879, 0.2747596967667803, -0.47880041461038286, -0.24696387342366416, -0.488860889252806, 0.3262269547999793, -0.49356744766175326, -0.6244180071667819, -0.3655415096832593, -0.7463632627000258, -0.6750503849628019, 0.693423360720001, 0.7218469519713554, 0.9350931799773955, -0.1201400597238306, -0.605401470355234], [0.4842569646240147, -0.25633572106276636, -0.19466920470438087, 0.3050890911518409, 0.216186493320087, -0.22187564668224985, 0.12081159885335344, -0.11769468796492352, -0.2249262543520035, 0.392822893098354, -0.4542975491918584, -0.6715859438331295, 0.28074858128489844, -0.23020861583721322, -0.36937494716695113, 0.28013921084383436, -0.2953678082351006, -0.24480967764754172, -0.15392103452257702, -0.10889854816378865, 0.8002203526091038, 0.32910707417408014, -0.3446633984898817, -0.011879467130960837]], "b": [[0.032204941150810504, -0.262956328138399, -0.48121057252284183, 0.22692594306287953, -0.5830150669551866, -0.29669908569631265, -0.7306653412551912, -0.6059346810648633, -0.10086884351354704, -0.22499376753051778, -0.30278474631456087, -0.19415860572437393, -0.2358403337880583, -0.1902540689850581, 0.022286025897603493, -0.026755879424586147, -0.6436755062052151, -0.48353932752842305, 0.09778823845021532, -1.028059972674621, -0.3313447135264205, -0.2976807592814357, -0.6536542759332749, -0.026001214839383845]], "activation": "sigmoid", "w_init": "heUniform", "optimizer": "adam", "learning_rate": 0.05, "momentum": 0.9, "beta2": 0.999, "eps": 1e-08}, {"type": "DenseLayer", "input_size": 24, "output_size": 24, "W": [[-0.09359197906209278, 0.5162888155396654, -1.0782721361646481, -0.017699363310797734, -0.19422842873570467, -0.8178385151485419, -0.8341326161545481, -0.7672433187427681, -0.7232326245345809, -0.4933119136985995, -0.1402279316744162, -0.1824432228258386, -0.10214799951800718, -0.8560950389406972, 0.9076417924985345, -0.3275045776268177, -0.4490734237101949, -0.4093296139239925, -0.7268091008644967, 0.11503527020096732, -0.12510926725498026, 0.44780921862014783, -0.4127222116063636, 0.24830578572460454], [0.037530029247932487, -0.42106918959167716, -0.19812371932148223, -0.39433256179490267, -0.8267363126550544, 0.06805258609851568, 0.502183813338359, -0.7039618218239391, 0.005137534772517055, 0.2207237456094218, 0.7732920952151195, 0.3411661254179001, 0.06560007439833151, -0.5331687625460575, -0.02575594471033538, -0.030684056217451346, 0.6630657540048889, -0.22322786095916727, -0.2878738522958877, -0.9186420987125152, -0.49831116520032104, -0.9620029685236671, -0.7627401604887316, -0.044278140916507384], [-0.4829369422558152, 0.10588351706439059, -0.3627345466347288, 0.07402797191295371, -0.6664884032941922, -0.8427465892938437, -0.7823242453216025, -1.000593766374343, -0.7761522767938795, -0.21282047192022654, -0.5395168661251338, -0.29942422798242396, -0.2662950342332718, -0.3728759115440943, 0.4660495807181337, -0.22356961024936026, -0.1606012503945397, 0.045178265545466494, -0.322845650709518, -0.49009760558525906, -0.22160271165997042, -0.2614299584422748, -1.009626159250114, 0.20394041583774122], [-0.25077971624253786, -0.9051109564228933, -0.06849513176657762, -0.5070260183928046, -0.8386103052681068, 0.11113012691834084, -0.29077544921116827, -1.1872295226801959, -0.021328876230732614, 0.2742072880483558, 0.618323458417277, -0.20737923751353313, -0.02854223938602833, -0.2815370250505924, -0.067928939273303, -0.2329057259014272, -0.28205930871822604, 0.03153868424533593, -0.6102345151458585, -0.9239854862957901, -0.644795352738743, -0.6708967459445332, -0.08919926604975642, -0.5563688941810546], [0.27210169451909477, -0.7299231518888613, 0.14856293814912724, -0.6365344055885742, -0.7147307317518145, -0.14098364365631103, 0.21389751272460955, -0.22174385545065972, 0.08305522028626978, 0.3656071197998697, -0.09264010773625445, -0.015560268036241104, -0.35412665332938836, 0.024425926601630395, 0.04345908930470859, 0.1049242597167918, -0.3816415359133831, 0.16256374358065598, -0.6173198743216041, -0.43240335339910646, -0.6883950264464487, -0.3404193557682684, -0.4278374292469689, -0.7212306210984848], [-0.6196820088467103, 0.27971795170947394, -0.7774659588665945, 0.12174939789292202, -0.8324994427358442, 0.09979635606607941, -0.1519743501985967, -0.9259838730714604, -0.011725925283351748, -0.2619274660559174, 0.017287632936788176, -0.5158118323666134, -0.22965667073685994, -0.8971210169646602, 0.20438051249173378, -0.45870780704179864, -0.09712895020876455, -0.22233777724960171, -0.6760084712159078, 0.06797909761632508, -0.5334281772956138, -0.09491653890652932, -0.7207838729458401, -0.048081671331205625], [-0.32127907051057775, -0.5666456092168154, 0.3511858117286757, -0.391288566846863, -1.0883942059045744, 0.5432527550018809, 0.22576951633260692, -1.1562397834399964, -0.3853166755858935, 0.17550768824828122, 0.7151372078902032, -0.2818829970678997, 0.39858007091390013, 0.1327218760357178, 0.08842369431485934, -0.0788321651945268, 0.3312914829389835, 0.5096613302284962, -0.004738614561566555, -0.03088088095605751, -0.6936532978146446, -0.1423958370827835, -0.5725961945767998, -0.43090620502929616], [-0.767043921308281, -0.2737399400355394, -0.1852923236956494, -0.04091400944044009, -0.5204692046958257, 0.1321803696207119, 0.30579220649417727, 0.029108889824228337, -0.4994209631895421, -0.3475186301756651, -0.29083658093297227, -0.8677384841733394, -0.4959783511359527, -0.18431709254307643, 0.5940325034044813, -0.16932552983639254, -0.0945681736622407, -0.3984626119845764, -0.16747069310572493, -0.21120578652345687, 0.22929224299479245, 0.3855791085140713, -0.10242196776414093, 0.06448083177175479], [-0.39315326075988644, 0.3521753052799995, -0.5926167772209494, 0.9813299995100343, 0.051776260347723764, -0.7849586524834099, -0.16560926232394996, 0.13590252014669896, -0.45917031001779096, -0.4042930434486055, -0.8836580053951453, -0.9127209429856747, -0.5447644755499115, -0.05456632663722544, 0.6870783463407492, -0.3445906261149556, -0.5466463121989176, -0.8267505670166528, -0.6111211643406694, 0.755510393845312, 0.5917032626848803, 0.5946566244679934, 0.07322081452130307, 0.21712533844249235], [0.259061340705643, -0.5997234345117468, 0.5133297380138883, -0.789378289502347, -1.0664496347741796, 0.305892515398721, 0.4496972867824396, -0.9507162295755792, -0.5359036681685185, 0.2514417930562765, 0.11727788432424427, -0.40054145273646874, 0.17947905857701935, 0.1776670833047464, -0.4687389647476381, 0.02298305470752427, 0.07987538024489212, 0.014958751170007913, -0.57473537241741, -0.09691615881623723, -0.45222104637656435, -0.8805180016085327, -0.3676917075069867, -0.49694682442129395], [-0.35311520516156164, 0.16615665964738832, -0.17602365718895768, -0.48406224717601765, -0.09816652141968536, -0.7290234668841497, -0.23018933655072663, -0.6965389143856531, -0.10572236010275309, -0.028990500519060464, 0.1468728980634627, 0.0375567006971866, -0.4984791913221373, -0.2079947643005706, 0.4685207840245455, -0.06284873312547293, -0.040268270285866804, -0.3885272050586098, -0.36375025846029524, 0.0473737816695884, -0.2892563044740935, -0.24343797487577978, -0.8553603963192623, -0.17926590806161818], [-0.8693911340979591, 0.9243867141285114, -0.5397400112202712, 0.5910391772133207, -0.21382053070407994, -0.8292712945178056, -0.8737009500675443, -0.41038048399158517, -0.20934430103846743, -0.6874548900669443, -0.7049940321367212, -0.33939082643779694, -0.6999239948113221, -0.8809352270406232, 0.8258333324785915, -0.26235446514393684, -0.7012193099928047, -0.9610981920211719, 0.07567438255070616, 0.48691418068672165, 0.7792418627932258, -0.08674806708751726, -0.2651004337838888, 0.22694673915651306], [-0.9391551357472734, -0.010847767012570324, -0.9424440314403858, 0.4589340849716497, -0.004202249236166169, -0.4551657731448085, 0.0006667252723312454, -0.7234789212707069, -1.0335494780236785, -0.667420939982908, -0.44308576614780293, -0.18870457009198696, -0.1646310599596632, -0.45263942789154205, 0.03605330340976356, -0.34344293246514973, -0.5625596833238614, -0.3900072960038885, -0.632638539675117, 0.5251901842004697, 0.3963114782281011, -0.013845857008823407, -0.34023185845438264, 0.5452526451295358], [0.2381847292088909, -0.3346735127245575, 0.06078749828319634, -0.9208119053866356, -0.794147057815745, 0.34707148075205024, 0.2723003982525513, -0.24963595526520196, 0.3605952930585125, 0.3966633084218238, 0.5476420002227445, 0.12466620216155096, -0.022914878260613357, -0.2269827608855651, 0.05037645784433107, 0.46013497463400077, 0.5735836993098117, 0.07083086211976317, -0.40749253482257264, -0.9201868984350102, -0.8786354479851904, -0.13337512310771785, -0.30128170521719544, -0.5428356532956281], [-0.39875425024033845, -0.05932676946293659, -0.5012325244252365, 0.5539436832885948, -0.45242659587121165, -0.045242902705044226, -0.7470506450521012, -0.48362252460027993, -0.7834934090576188, -0.5711488408540478, -0.5072288648642431, -0.27740262605243354, -0.7597975136863422, -0.3170064214552469, 0.8365806377205368, -0.8156339718037042, -0.14753662226609413, -0.7700580851363426, -0.556099167980882, 0.26084732279943146, 0.5055439183093047, -0.022569951533378253, -0.4577420223480373, 0.19535761054450881], [-1.1000053127605873, 0.6469775399257965, -1.08735011649394, 0.1700385577781855, -0.3101522427227322, -0.7931847497879976, -0.34384453099811046, -0.8005696336187885, -0.31545519034279595, -0.6250727135195802, -0.4537377525714955, -0.25520565520079197, -0.9316940901154822, -0.4767567836309549, 0.10533638216886028, -0.21592840361398097, 0.05402581811457168, -0.1496125087356558, 0.038010882135945806, 0.39909349444525005, 0.13054517496077866, 0.14704891463385505, -0.5217832157930725, -0.02609841538112049], [-0.34107980076640065, 0.011836813128305722, -0.3609912259437282, 0.38711782392837735, -0.7167376707837019, -0.1517951905746039, -0.6649828635872448, 0.02593082452593646, -0.4264474648031484, 0.06021858920722651, -0.009506716043328738, -0.5184090667901012, -0.35094482568979485, -0.3680515758299322, 0.1616103287454236, -0.6931040766902695, -0.5134177532545025, -0.8102181410375716, -0.41809095101802923, -0.3340536222109587, 0.6261094464394051, 0.25934191999079553, -0.8552999919629798, 0.3795290270475547], [-0.2962417773431407, -0.25774215807935036, -0.5267711465930509, -0.21692522659811833, -0.07581621342733216, -0.39982455088734636, -0.18761985165508385, -0.10453639423924357, -0.7649511484675805, -0.12153221057945904, 0.03011654309806759, -0.5543804215206581, -0.2724020896310421, -0.6112830734110509, -0.2854941263787854, -0.6171768059476396, -0.46564858666044645, -0.0937159494686396, -0.21523294809321747, -0.22083929317062728, -0.3494204634601636, -0.03597998360419138, -0.5944412336222712, 0.01391242009037754], [-0.2851327481706275, 0.6349904867192554, -1.1759327327229212, 0.9036984875250716, -0.7140254729384259, -1.1276360397463183, -0.449730244839678, 0.12514385439176304, -0.9659533391015356, -0.8098703825394975, -0.2842327607515422, -1.0023610174933348, -0.6451087390969108, -0.5799057182466185, 1.1021002825410273, -0.6893769402379267, -0.5850136207271617, -0.8803638167410258, -0.44613016562288393, 0.676068821748066, 0.0035929945356994245, 0.5339870774927906, -0.08496248137446713, 0.2556828343225276], [-0.741746607908047, 0.25846751759393755, 0.0717708435610648, -0.1759850235711755, -1.032812845534794, 0.23310841638004712, -0.3594280698176559, -0.2640646152673347, -0.12567333885861268, -0.0774667140315501, 0.2721335956847695, -0.18628665826783322, -0.0543766984090752, -0.5524784866467819, -0.25630677360786086, -0.09554019957511499, -0.14710771226903066, 0.06280109882392367, -0.28306111315863464, 0.07731539204296815, 0.2549402333443334, 0.2714715123163329, -0.03783740272950416, -0.6152719780049131], [0.016384168298401704, -0.5479482146124603, 0.5335295167708489, -1.0779686716039716, -0.22972898982706733, -0.16783977430443708, 0.5406395253133973, -0.40670422216103824, -0.02240767415469091, 0.2852672905661274, 0.36733053781002284, -0.5062647719127128, -0.13176560597538936, -0.5683692022135974, -0.13348896729699597, 0.16183976475835005, 0.3886539325329268, -0.20625220602754316, -0.23214181049022833, -0.9418234306466028, -0.25912747795365354, -0.666271274377627, -0.5355108366805346, -0.6017468228118172], [-0.3389138836921418, -0.7681131302237149, 0.17325494899816116, -0.2528519608053237, -1.0309490665992311, 0.33834339128709806, -0.02120485777498391, -0.2650652612221402, -0.41503612165474046, -0.1790369663909211, 0.5196899411624177, 0.32812806145397716, 0.49109718867438473, -0.2596696980737714, -0.7425776131037969, -0.09324934737796908, 0.49391575662247983, 0.5850558916964463, -0.23155897213265472, -0.9249822543518035, -0.4221370909674504, -0.1347391586522881, -0.19470935337118087, 0.0705537661249452], [-0.9110435450950507, 0.010165606806024303, -0.19602616970825035, 0.2009443906379342, -0.9779401948711064, 0.22327272365121076, -0.35757932965093353, -0.2439883008655508, -0.5908902040982583, 0.35094337698419514, 0.189321729333951, -0.9720055940828339, -0.3911266676945684, -0.9052470163402672, 0.6467181677724075, -0.24376738584132576, -0.2901986001423186, -0.14650337009690115, -1.0227047424820435, 0.11384584641864601, 0.01258536488952297, 0.2985146796396653, -0.44027970063721544, -0.09040655958987878], [-0.2818419930479159, -0.16582030700750264, -0.5553846124052286, -0.2957760249782324, -0.5060820422749872, -0.46015108715042813, -0.12704035983116602, -0.6756271442514836, -1.1054065381163185, -0.6681326820360388, 0.003325764934804613, -0.3515469801901964, -0.7761003777405437, -0.34181004669318144, 0.5089245922948228, -0.9039151666690532, -0.6167439263037588, -1.1674954116314487, -0.2529817637213231, 0.13507899222854142, 0.6952843170788532, 0.47148402099978143, -0.8148401972357453, 0.14014083276115877]], "b": [[-0.3983653843652398, -0.35338263502618, -0.30912394367722723, -0.5382930919976138, -0.6455007372564863, -0.07686258010248398, -0.055955417203729714, -0.6506419250598495, -0.3479438784064744, -0.09378279629497038, 0.19471481595253096, -0.33704557813552377, -0.13854186321020337, -0.3472356261338799, -0.10942354667294285, -0.2802034727324628, -0.04526156717769404, -0.18295234394123558, -0.4459788745905438, -0.40412656641260936, -0.3155750630022904, -0.37995190349349917, -0.43567934761615984, -0.2999351407213537]], "activation": "sigmoid", "w_init": "heUniform", "optimizer": "adam", "learning_rate": 0.05, "momentum": 0.9, "beta2": 0.999, "eps": 1e-08}, {"type": "DenseLayer", "input_size": 24, "output_size": 2, "W": [[0.10120964044318224, 0.47206444045001833], [0.05644945388969795, -0.5400690905899967], [-0.2678772921771171, 0.2966674225161507], [0.49541131653352855, 0.03764154032454369], [-0.25897808385960297, -0.40340382745158615], [-0.3033909852287997, 0.6807950898440311], [-0.5291464036923246, 0.24438737976998373], [-0.005361337164906061, 0.06607337751797772], [0.053044335072366035, 0.5167699361773402], [-0.25234356059562457, 0.4589377603743469], [-0.5866877496714454, 0.6383237949766147], [0.24949869370528693, 0.5101210607556699], [-0.04418686541866427, 0.5501423303010373], [0.10395646386152266, 0.5790450227914686], [0.4895850318624204, -0.38408853533882953], [0.3134629449484553, 0.4082659105487369], [-0.31496803030239184, 0.3268816523001329], [-0.4742717920995827, 0.041040415502782215], [-0.2313293420287596, 0.08823979041599508], [0.34690066732284597, -0.8602926581076058], [0.6511475422570046, -0.20004155886550629], [0.49956203462337256, -0.5349801902816352], [-0.6165689537407198, 0.03967278983850175], [0.36631361878365104, 0.22315768909306893]], "b": [[0.04577233465903819, -0.045772334659038266]], "activation": "none", "w_init": "heUniform", "optimizer": "adam", "learning_rate": 0.05, "momentum": 0.9, "beta2": 0.999, "eps": 1e-08}], "normalization": {"mean": [14.208841758241759, 19.326835164835167, 92.56975824175825, 663.3659340659341, 0.09628879120879122, 0.10550999999999999, 0.09042328725274726, 0.0497001054945055, 0.18112153846153847, 0.06275017582417583, 0.4087145054945055, 1.197063956043956, 2.91916989010989, 41.21023516483517, 0.006915367032967034, 0.025620356043956048, 0.032305889230769234, 0.011834327472527474, 0.020381775824175823, 0.0037776534065934067, 16.37098681318681, 25.66505494505494, 108.13145054945055, 892.3428571428572, 0.13193323076923077, 0.25901665934065937, 0.27713803736263737, 0.1161725956043956, 0.2904171428571428, 0.08418265934065935], "std": [3.5877033373034073, 4.373059793993258, 24.829069398475255, 362.89532339313917, 0.014204302245273703, 0.054813662979505115, 0.08292877782588133, 0.040079238292177896, 0.027602631222048177, 0.006983729156841554, 0.2873194535025765, 0.5588951425546324, 2.13166123049065, 48.11977777386588, 0.0029132469645184243, 0.018034527025261322, 0.031995772909142926, 0.00625771405199199, 0.007921061026044214, 0.0025302674685669883, 4.909371058825427, 6.204410549899669, 34.384936404220376, 583.3204836321144, 0.022549515096795137, 0.1629190706793953, 0.2152739404787926, 0.06719942135673804, 0.06091984043700133, 0.018338820523758678]}}