{"layers": [{"type": "DenseLayer", "input_size": 30, "output_size": 24, "W": [[-0.16635533437853117, 0.405990556159883, 0.16050204547151214, 0.066342263455309, -0.34966831929811326, -0.29135415282852795, -0.38148607002844953, 0.5334820981223314, 0.1427200992991927, 0.11507200220826222, -0.496931186423891, 0.36519256467998995, 0.4095188961504053, -0.381760556927659, -0.23694777370928818, -0.34883764952210267, -0.31932670367334354, -0.11658366487522916, -0.23137990980871928, -0.03421578987548992, -0.03465805269727696, -0.4793966881967342, -0.285188136022872, -0.024826354426040045], [-0.1405737665413906, 0.302513143101377, -0.30213889501018765, 0.003555125772532897, 0.04639930303405858, -0.4173214387922513, 0.11498727030829321, 0.0270821022949974, -0.2981732406296581, 0.32503752061893276, 0.29339299463589524, 0.1945289874657077, -0.03223118666143241, -0.5425042808581512, 0.2177167440559042, -0.11905186357689454, -0.4497290496800857, -0.12751263735004462, -0.5987883856799029, 0.5262370039644755, -0.35606729810625554, 0.013784034172031265, -0.2816349270649949, 0.15345372846755834], [-0.011232386856432235, -0.28098296220890295, 0.3723498819186526, 0.2228784505857698, 0.35133217426913504, 0.3699357850017761, 0.10020328993177519, 0.5778589195490985, -0.31468064005871743, -0.3421895465509668, -0.47183224754147063, -0.20818919978844658, 0.00946186622435204, -0.3247709967577833, 0.3402934052581769, -0.19451922650275624, -0.33460879360838025, -0.09687638964375778, -0.487282659565573, 0.41139742619521136, -0.5119328061119344, 0.282005002098839, 0.15085276031029926, -0.17686479782682166], [-0.500031713872743, 0.2907410784587549, 0.14273373766971045, 0.1846036051570034, 0.20171870030376468, -0.36631397050806724, -0.11248363022572275, -0.13213536357513617, 0.38315825446590523, 0.041592825276694764, -0.22201712498730708, -0.4443974105019191, -0.055963007137542584, -0.2884763255860775, 0.2547088628670013, 0.0539496760230435, 0.20013970389009955, -0.16591945042335474, -0.5106116662669881, 0.3503415505384214, 0.0986935688723074, -0.10021717051678386, 0.13562175842467888, 0.09166636092272412], [-0.016365378590956877, -0.0162708978388606, -0.43474941389837546, -0.3501077165327071, -0.4315565183199553, 0.11272845773414068, -0.16068777942603452, 0.1805826228966928, 0.4453873012393483, -0.2566204647158344, -0.0955616512158306, 0.1567335066776307, -0.1604689581759513, -0.40419733710881267, -0.14857054129984137, -0.3692565066440742, 0.3724429245484027, 0.22889089726665335, -0.020829731831812935, 0.31355512273936054, 0.18852912098744629, -0.32571129227474493, 0.2362247959818337, 0.1200395450570791], [0.279693455809847, 0.310601729611699, -0.20135801834137285, -0.37962856409382184, -0.2612087429311445, -0.0450065298238948, 0.27162137287089017, 0.3145359850346011, -0.4293678293268336, -0.01756403863130473, -0.0326645920900681, -0.23204850505513422, -0.33304935117875084, -0.11974348490039953, 0.39267011978944383, -0.19316282700348966, 0.035741522268712335, 0.19564533107173362, -0.13324560135442406, 0.2916353946670034, 0.4005244572819076, -0.25669989925003883, 0.054415169531517725, -0.1699031385377337], [-0.25665307857371844, -0.37334588776792965, 0.060382540156552617, -0.01516216618331933, -0.4339526578110841, -0.1917579787415771, 0.3777635181094635, -0.0019132425360396067, -0.1899070411820449, -0.06520016599690714, 0.3707205581089296, -0.3166246902559432, 0.2745369803469043, 0.0706600667605625, -0.18425194617376453, 0.10653667781144688, -0.2259350127583893, -0.016143384270468568, -0.05860367226401802, 0.14503752921860014, -0.49953021287414023, 0.16383714622545759, -0.2541926862916276, -0.16627077524440692], [-0.4853479424416213, 0.12604399420659448, 0.1184660462005098, -0.44647781064867764, -0.03177779588657628, -0.23753386606858623, 0.14324659033504786, -0.017119786870487232, 0.2877645776777285, -0.17421512989586727, 0.31823221181981237, -0.4194867087269038, -0.004367498905276983, -0.5107474519976867, 0.4448491990425236, 0.2317730805701089, -0.3394728114782522, -0.004758796201525281, 0.05931112185795979, 0.18642938347346036, -0.12869934996768284, -0.39095274382704964, -0.5067232524737432, 0.48270830997543035], [0.3560274630040951, 0.054558751772098735, -0.17160446089579032, -0.15840638944672203, 0.2010037555879376, 0.37302230291397404, 0.3310981597676015, 0.13491705861800857, 0.07873695876664923, -0.3753436106814346, -0.21804608901373215, 0.37698041469161764, 0.05194186652120054, -0.3618085061294803, -0.3670002562631477, 0.13848437972102987, -0.38355803431110636, -0.20765375105490166, 0.06079968621528741, 0.0504748852138657, 0.14010925998561596, -0.19283406733590544, 0.24749277690364926, -0.2446290418136914], [-0.10870605432413867, 0.1940639742138588, 0.14202597290333552, 0.30723461632053595, 0.15773117429701913, 0.06366321303380278, -0.38067153552555716, -0.24161431401626934, -0.2112558509577297, -0.19902310064989093, 0.5077035422536854, -0.06266051769494693, 0.29406510043257483, 0.19695997792469286, 0.23217920999767805, 0.0026144340249243045, 0.18292345533737844, 0.09683864935202152, -0.1666533974992714, -0.02828539033201704, -0.1308944476900679, -0.3418089118290179, 0.21524121742280222, -0.33316490914651564], [0.3075011469664132, 0.48362232946350175, 0.3569857429291401, -0.1019331908080932, -0.46868139210607596, 0.3738904013620514, -0.04409335040105025, 0.711690516024638, 0.548492904531257, 0.24896536018190787, -0.26902676611767845, -0.24723120444443736, 0.49388693007537693, -0.42530238729556435, -0.20809597861794774, -0.07917169274888279, 0.24768475028236375, 0.03299788172550095, -0.19769226424620734, -0.14085983289045712, -0.06589901983521976, 0.23817483309500867, -0.5609641123126148, 0.18518509226542945], [0.3232387255263831, 0.20648256938576523, 0.17617097452276095, 0.18957046807473354, -0.1290308568582098, -0.19141223046518754, 0.27022838876118527, 0.24510642931571333, 0.3169863538873326, 0.36032836869894697, 0.03575747633326354, 0.017802558085147007, 0.290130410972786, 0.09441620626151777, 0.18093839000131468, 0.24161220701409594, 0.38120331383934203, -0.06652082014962371, -0.0656426690770808, -0.46342413432402185, 0.10356333641417778, -0.4227440697178648, -0.02316845255166879, 0.04871362554730529], [-0.2529908761664325, 0.12226633279370253, -0.43867951366064295, -0.4091670936207858, 0.25782822100648123, -0.1257331768479066, -0.3212965548561571, 0.2256718257317332, 0.3350536701974992, -0.3094242762428011, 0.05330029708259961, -0.466748559092126, -0.2673885648307033, -0.17219284104799765, 0.10168507758058229, 0.017279431291152163, 0.09575934693508897, 0.32537041133527195, -0.17380362622733866, -0.016094791573039818, 0.1383113683761148, -0.36469737611119024, -0.21459032735388062, -0.2539567348930864], [-0.4972238471812274, 0.46666638802702315, 0.282224660419456, 0.1760540703964597, -0.11349001827058801, -0.29430756411490105, -0.29106804931997443, 0.018343359075137816, 0.14303389204029607, 0.13278744441728024, 0.06756277497669178, -0.29298132800083393, 0.5432432711080646, 0.01379462033546591, 0.11633407139128539, 0.0027220802323886643, -0.20081334443500182, -0.3583843648500791, -0.3336856724387965, 0.4148145131999595, -0.5712529376933544, -0.5056610466082342, -0.5797943381201311, -0.28147856589997006], [0.30935992462124107, 0.23152893424236948, -0.016050955962326117, -0.3518017894570267, -0.0006277683237134393, -0.05424354391165577, -0.2840768023530742, 0.10889279433582615, -0.006091675306358922, 0.09342155497317157, 0.028736262046069536, -0.34903994443575925, -0.004788563995645559, 0.08875601897612878, -0.007888502815655053, 0.30832452508640934, 0.14219826010566658, -0.3788370075611596, -0.34936548130940276, 0.05178578886793907, -0.35138353697329056, 0.041119711860957406, 0.4356941840280679, 0.11008442341695902], [-0.03185054568004157, 0.04495785384887694, -0.06832650336911071, 0.008823158593430065, 0.4023463804835735, -0.08039762244491691, 0.39004089128964037, 0.16794946694078003, -0.30724177120327856, -0.37630253468229974, -0.2751677365026408, -0.33219649324495243, -0.3986348882058082, 0.25478321712651636, -0.4381771683684785, -0.1422948787515329, 0.3950100036801058, -0.33103665595869675, 0.45089970317111144, -0.47756008537197264, -0.20812343045085754, 0.19570892724590053, 0.3319679474769322, 0.2617133338883874], [0.22559341970860783, 0.26242464679974054, -0.21061218854893643, -0.30036791540931335, 0.22711711661292958, 0.2782413455336524, 0.4411440679947859, -0.1072853558923777, -0.05544999519210188, 0.25006768352911174, -0.13421408934803994, 0.38462534390882364, 0.3626760144185225, -0.10492968955005481, 0.21325650365898377, 0.20401576592848028, -0.35825606287121076, 0.3408795504034899, 0.06796290984498864, 0.2094263590187765, -0.13785779907789075, 0.31947579252105923, -0.008795880246241986, -0.43064847179317284], [0.3682891850597466, -0.36819896259301915, -0.18310141652372064, 0.397607205364783, 0.39065717130053945, 0.06671891167097385, 0.11888379852398795, -0.008136246669369553, -0.12005185366277536, -0.1771888374576184, 0.15128402990451262, 0.21717716818634106, 0.3462633597420224, 0.20480331369200147, -0.3595844593747983, -0.053764389529974636, -0.383767296165455, 0.019040034662882812, -0.03599859348567194, 0.23104264342381106, -0.11491494101853315, -0.4288639756032933, -0.2727427769510264, 0.26087759408248185], [0.1495417186206263, -0.4344601986930457, -0.3739178353646467, 0.16145310680831523, -0.3631699284566563, 0.30297376358172945, 0.1622890026170453, -0.5875780843889893, -0.4628830820830905, 0.4624431764517294, -0.012630923233944883, -0.001685018125923558, 0.17871874670250157, 0.47664301437844925, 0.37892212344437376, 0.2614378778847372, -0.010068763562273498, -0.21861909239335514, 0.41462111792920586, -0.15914360697738644, 0.06506798822560757, 0.4523026667057213, -0.13776153523501036, -0.0925133977516061], [-0.34414336455601097, -0.11966163687477126, -0.41196114380349774, -0.36259542443287046, -0.3221094621217478, 0.1490155427696449, 0.200951117313837, -0.16062768556078688, 0.3641159729893682, -0.08005944951916076, -0.10256721894688693, 0.44746142211660145, -0.30703861756763057, 0.5386839335139426, -0.5005240874736527, 0.45719421651623804, -0.30291360743457624, 0.44995769020903326, 0.2598617153382, 0.12237983058548742, -0.24009349667763435, 0.11754574007659628, 0.6609570318935475, -0.07937000788756932], [0.024419816689869672, 0.22183902351408136, -0.08400729489165389, 0.09742419848589115, 0.026808988957995043, 0.3673080581483053, -0.383682474030545, 0.11693173493310764, 0.5105398401616269, 0.2646775653183786, -0.1465987187386243, 0.0034650016882227627, -0.043032418929107565, -0.47801758408759526, 0.04063415462821408, -0.22404302981762203, -0.1180394834315072, -0.5703847578299343, 0.1610747372675236, 0.6835797391871793, -0.017638186799633075, -0.1578098299118532, -0.3472959355839666, 0.4278407939355269], [0.021026389209910637, -0.20694613275478072, 0.3310369884278729, 0.2803051467736433, 0.3601640626026444, 0.18464085564185267, 0.1318736448853144, 0.35346167744315804, 0.5259313692822613, 0.23729407112273326, -0.5654528043972858, -0.5571517417247072, 0.06684744156860453, 0.022762216150694133, 0.512494506160902, -0.39582773434837687, -0.085740730370222, -0.2859304808556561, 0.13369066826214387, 0.5769797557796434, 0.10483330688109406, -0.17045935283094152, -0.2726331297993094, -0.020170630356888184], [-0.4806174533470876, 0.362366447642084, 0.23475814707309903, 0.42671835257030416, 0.3969981899675298, 0.06057954937167366, 0.2600975766821189, 0.6820173839864949, 0.4109285181883853, -0.30660357104081637, -0.14016317121511349, -0.42215322101745323, 0.5478389729675996, -0.08457108614691021, -0.17618220075438562, 0.06513432141414394, -0.07066017278646736, -0.3040471116148277, -0.5862014232216378, 0.37263349262498086, -0.16210735968191878, 0.0654659655162947, -0.13311459203740034, 0.4492096025983853], [-0.04169794601779592, 0.0995128207816449, 0.2986444940752079, -0.10163354839425737, -0.37299340422019306, -0.41329640056076933, 0.24892470025218297, 0.40394174499589847, 0.2853733750381851, -0.33463057523411643, -0.4254395905836225, -0.5273796377516279, 0.014709602564912348, -0.11107854410065097, -0.02612933510652821, -0.14712124643037894, 0.17872991038327582, -0.3176006404056427, -0.2328851991715115, 0.48950743709947764, -0.2768967463666534, -0.0700491015854928, 0.15265977551320592, 0.5410737929679807], [-0.4206719852892807, 0.4970044766372363, -0.02289334085952034, -0.2159116402145037, -0.06452226077860355, 0.40919112828963056, 0.01659722804027345, 0.24307660468053274, 0.2809427295122168, -0.2900269880582138, -0.48241372316783626, -0.46399220171723343, -0.18906434327052704, -0.46355966067767734, -0.2535348858432587, 0.02876598554064287, -0.3967819997126907, -0.29579464388289195, 0.06507790737963662, 0.18886309583878622, -0.04173278465786474, -0.3877219062452925, -0.48424630575402106, -0.2469880285869312], [-0.30238554969183884, -0.21192055068920518, -0.33089225812595546, -0.4004738798465541, -0.3602009832668554, -0.01748253274548292, -0.27048378038572557, -0.06459991600647247, 0.04534990400105574, 0.13648927388583898, -0.38807032562270155, 0.23634866768299817, 0.14156892589939465, -0.3917659363936918, 0.3391297282082516, 0.33735187510125664, -0.400063264934889, -0.2011499971584765, 0.19795811142191896, 0.16815241174058404, -0.32798542924193513, -0.312691092251194, -0.08658562035803595, 0.01940477656910064], [0.038934045013861066, -0.058290152187635856, -0.07074350457581388, 0.20266303622954096, -0.44471707432070284, -0.216092579140157, 0.20614744692055362, 0.5925248757700953, 0.15537572903779223, -0.02438592585347978, -0.4106430700184769, -0.16882563199246423, 0.14522932525737908, -0.3949665465199015, -0.15712808938671344, -0.20016852982123698, -0.5335331841540226, -0.2846310041560983, -0.4577868674727022, -0.017668432393579844, -0.48615476064197005, 0.22003346023495757, -0.01863551457088673, 0.27803353702109557], [0.17228274349553901, 0.05757423537066928, -0.4147591204280712, 0.014180348388623594, 0.032363452132736885, 0.22514697699887354, -0.043179428231071126, -0.030604650607168975, -0.059781303166201775, -0.19910384474740878, 0.04927332294664472, -0.05534357637917629, 0.010558807145831139, 0.2595708731072236, 0.16143247155471901, -0.3351128576512436, -0.48314553145716205, -0.46927036234661046, -0.47657697642119357, -0.13820766074191723, -0.45441820068264616, -0.3500987378952287, -0.4300095852489965, 0.4902002450309124], [-0.4193184238239369, 0.03931811206483238, -0.11159674413324223, 0.4061118360003407, -0.3608998878260188, -0.0815932672232292, 0.42362876452008114, 0.4555176266911457, 0.333362944131116, -0.2468045299945175, -0.28503715650550066, 0.07936710616092492, 0.41153093270247804, -0.024685078726325083, 0.08036685495003526, -0.23023390793209353, 0.19240576338242404, -0.2907226582499549, -0.31650513917590567, 0.02549103092370488, -0.10199915160514844, -0.24339538839040678, -0.3669485483795861, 0.16683981644445187], [-0.180342914499039, 0.08054914620876923, -0.3285279334513612, -0.03417520443931156, 0.023107666935873933, -0.39591005587879713, -0.15178337247762053, -0.2802423615600597, -0.33673945103356595, 0.42704310638927667, -0.13543634678956593, 0.236368743803628, -0.2164778210181015, 0.14442444606608784, 0.2337897046586414, 0.05234916544716045, -0.0022472125465511847, -0.0678162475779287, -0.1760463084819261, 0.3086702471432714, 0.2558159108965405, 0.4169779195202023, -0.3167034583686052, 0.22982674789870516]], "b": [[0.02360400133747747, 0.01729840677120619, -0.01756357226722769, -0.018532810042086865, -0.025496286701729924, -0.021429265013272976, -0.028392963574329404, -0.047739348032746445, -0.01119656412766948, -0.008560074130695492, 0.010678133421031905, -0.02884734614693181, 0.0010902564475275683, 0.028754645469158582, -0.023813519279325353, -0.011247316380601119, -0.00754051238928185, 0.028678832849567328, 0.030525173048994294, -0.04425685600777314, -0.005326466587409765, -0.016983110856943855, 0.03450415884055518, -0.009621357815806298]], "activation": "sigmoid", "w_init": "heUniform", "optimizer": "nesterov", "learning_rate": 0.05, "momentum": 0.9, "beta2": 0.999, "eps": 1e-08}, {"type": "DenseLayer", "input_size": 24, "output_size": 24, "W": [[0.5059076826772524, -0.3401418984093281, -0.5231345639621965, 0.15897553262604605, -0.053223891142547136, 0.31811792890982593, -0.42700639013024233, 0.12050801942131989, -0.36444961564695555, -0.3994105338802968, -0.3742811564918154, 0.41404225294317965, 0.2420128150465342, 0.20147974462762375, 0.0816884006546455, 0.2624656348304926, -0.0906287914542356, 0.270661226168534, -0.11355078988620702, -0.02397912893855514, -0.07719998388518166, -0.17935601827823905, 0.21889368467496895, 0.09747687327862523], [-0.4131213663183122, 0.42304050106215657, 0.1803808449538089, 0.09657604454708926, 0.5209603707102348, 0.1267077561475312, -0.3426318928772407, 0.7598963611826863, 0.20624639302268216, -0.0970666494657738, -0.24576786522596708, 0.15205143537677435, -0.05368094582043852, -0.3094056049351291, 0.173841105168512, 0.5903263109114991, -0.37618985857446663, -0.12628162476473023, -0.20437807786167583, 0.05759507319139743, -0.46295935400816274, 0.024453562647210533, 0.25991307411982917, 0.16895707765972376], [-0.24823611278016092, 0.334543364352601, -0.1989921442170756, 0.3596889821690289, -0.3096443727630656, -0.10377953788195193, 0.30548852838466184, -0.14044130647445885, -0.2316618287745377, 0.2612502488387235, 0.2958967141271707, 0.05327291170600432, 0.07997849220928067, -0.16283329994610635, -0.36614495603521263, 0.042699570655300674, -0.3330082263827465, 0.44392794689748216, 0.09916601525253957, -0.20618539805776062, -0.05144143506421411, 0.4240732877766336, -0.35805926933622717, -0.04392423978103174], [-0.0229050783152765, 0.10975963763864484, -0.37928097504948854, 0.3537920205222092, 0.40768262852906323, 0.050255080815133676, 0.18436462312606192, 0.48863216166355744, 0.21020336690515137, -0.3566167329958892, 0.10690451573715593, 0.09780458941061007, -0.12127161403497289, 0.1717595247948349, 0.43127756470114986, 0.49993913060860146, -0.05453387823966057, -0.3840249644016115, 0.4930321364560875, 0.29754006340240485, -0.38878921927354704, 0.4049420361120529, 0.3565260091977578, -0.02783567839798549], [0.0836019496396729, -0.1074094518651265, -0.40181660262576774, -0.20136407063994433, 0.25899905965714853, -0.5116065820310896, -0.19536324677011266, -0.08993400669459167, 0.021908590844316872, 0.39965505977747423, -0.13843336983619295, -0.143430670737354, 0.22038036345423756, -0.05407512680439605, -0.21550061291668035, -0.016842158616616018, -0.35884164951151526, -0.33197487369395284, -0.015114240985412282, -0.08663808805941557, 0.39145431911786566, -0.14427336913051503, 0.06195609319728406, 0.11970412145528712], [-0.4765523163319593, 0.1552635487435736, -0.2961179339421663, 0.4162873264304416, -0.409918835283916, -0.10290057107884401, -0.4520902488922131, 0.45120741904669653, -0.023740253903448867, 0.06421380575038163, -0.4311418065220282, 0.2879783936763514, -0.2783277917809353, 0.4356536788493184, -0.19188340075243354, -0.30944007052742273, -0.45786944526888723, -0.04481336461415173, 0.03787377255282226, -0.41471270518187087, 0.248459379985552, -0.04554881826117623, 0.0037453353331378175, -0.04852183782325107], [-0.10765128062475911, 0.049647211415442545, -0.2555051872574681, -0.341974579466155, 0.28854580959529513, 0.41929441743701756, -0.1393027492845361, -0.21905032684247874, 0.13677257962977254, -0.12580777976654728, -0.4619149844543206, -0.31366372546341353, 0.1924795234033785, 0.1354176299989213, -0.42434567140598317, -0.24489432673154046, -0.2742802875360627, 0.1594115748318006, -0.4609423489408536, -0.42640201555894364, 0.29539313781259174, -0.34476500892881806, 0.1407030600461159, -0.2799999851842782], [-0.5600847103484367, -0.2253320478531211, 0.5379071803074825, 0.40990691336097823, 0.4761319674388186, -0.09168434760993276, 0.2058642809041758, 0.04213612282203505, -0.11893757657737192, 0.4798037736907709, -0.3572178525722345, -0.5740842839469659, -0.4879198236905849, -0.819486494317209, -0.5481621556315016, 0.4040543678462125, -0.105698546929317, 0.4667424913118791, 0.3471531290866585, -0.3525363448023299, -0.24711885842098466, -0.16146534317929287, 0.08818094353611815, -0.4583734733352213], [-0.04570355984425162, -0.056200005611783524, 0.3718649284737717, -0.001989176531748093, -0.03920807821142698, 0.4645593841322394, 0.3045312438097961, 0.006314668999281619, 0.4610690966341611, 0.08440890883997658, 0.5327143850295732, 0.12110978897301726, -0.2773503419233426, -0.857787723157438, -0.49259450320258674, 0.38936783282797843, 0.1060008542186159, -0.16087614597164393, -0.3290593100811419, 0.13465068246951753, 0.47745746557184093, -0.013142376478620627, -0.3309521597966125, -0.4677913380976662], [-0.5077604348301656, 0.4121554412784093, -0.2968654710793306, 0.05329620978877164, -0.24628881743061148, 0.04240280901106245, 0.1312310265518128, 0.38216881921008194, -0.2956398315976706, -0.49068686415182816, -0.3342476412270295, 0.38682833737141653, 0.33044572647620185, 0.03994037860144327, 0.117167167948047, 0.23877445875999365, -0.32706912081297024, 0.41635617373768746, -0.08907223116656565, -0.1438149448308559, -0.0026462717556168126, -0.4625390905618605, -0.35103192385660303, 0.1968836068714307], [-0.3295434992316536, 0.0787970799138891, -0.3798419249639091, -0.20991783021645563, -0.34970534057383346, -0.167591097716692, 0.1362289176613625, -0.4228245604698797, -0.01591895261732206, -0.0955444682316214, 0.10893196490984107, 0.556882722223426, 0.33353353018958587, -0.04845658203776855, -0.20258409031868135, -0.3899475740106085, 0.11888108283739475, -0.5035455434147819, -0.07850472928170796, 0.2295454466416569, -0.2172480421714825, 0.3020495541839836, -0.4284207902328921, -0.3009349394595534], [0.3573352683491547, -0.04286977640487795, 0.0173949315290562, -0.18144244165407117, -0.475343025705552, 0.27597611473249617, 0.21173830278682948, -0.1206139180107364, -0.33206135354341937, -0.031247522890588755, -0.2254309255123339, -0.21761767584830932, 0.5619533548733399, -0.04092080012690672, 0.7785385043277756, -0.2930910810650953, -0.2903055299256326, -0.04002007858658296, 0.32023614404944395, 0.39553966657133616, 0.269562987626767, 0.18158507755357695, 0.1600734877480774, 0.5294906734536566], [-0.3165602369393542, 0.0015239103123162732, -0.12788190071497355, 0.48628096153759764, 0.48036853254936585, -0.45957460265195144, 0.19926437427513985, 0.5472481256296448, -0.29385893122016365, 0.09861086744339916, 0.4787516383110907, -0.5167091141779578, 0.10907065476984197, -0.32464552267430585, 0.37788782318298225, 0.6137507008367339, 0.43648761617169873, 0.0020749580650238023, 0.3523820186472694, 0.27389409439189777, -0.2046918741352838, 0.3175060989910322, -0.4773769292179466, 0.0034651630667134354], [-0.14168501541773193, -0.41879602945516015, -0.5988735694171481, 0.08357298192264183, -0.3801355687341378, 0.18350238808955438, -0.5191023213022288, -0.48370731518886356, -0.06395447144743578, 0.17614932385294257, -0.2708090846549234, 0.3033349999928642, 0.5278827694523733, 0.4226870891180462, 0.061168660307751435, -0.7038858899775583, 0.3942546639827001, -0.5606964703562654, 0.3243679939486055, 0.18915860099303547, 0.40379576018919944, 0.32263135082994077, 0.46580249082346625, 0.029836645232377397], [0.21048934867704525, -0.0911707363290529, 0.14901409965759305, 0.12577962530933956, 0.3891755146832197, 0.4772786908445802, 0.2648852890488171, 0.03195615562093251, -0.05583215879205111, 0.25246400732432744, -0.20878136493051985, -0.4305654283133561, -0.22424505055469798, -0.3322742883290259, -0.24423832252250927, -0.1381703219689713, -0.46557117226869466, -0.4626873171944993, 0.4918440041286533, -0.14391725079694703, -0.13165810699513603, 0.1611233185480105, -0.29350652684693224, 0.3619512734930867], [0.32179937769329287, -0.43122105567275854, -0.0912685634698032, 0.3253017034529079, 0.325456343927843, -0.06386454255876448, 0.0762962165381259, -0.42170037409743794, 0.45014082426654434, -0.32678873693407534, 0.42014928764515636, 0.22536629162202565, 0.14201341030462278, 0.08958927185905655, -0.13038470975071098, -0.37044669641646905, -0.27603090006211295, -0.34984311435583065, 0.2748632479141998, -0.1133221885189499, -0.45736565945499574, 0.4635918185711402, 0.3629962186105142, 0.4753745695028007], [0.5483671829831378, -0.3455695047014299, -0.16184952787563558, 0.1858508164787985, 0.08670305143023091, -0.36943693717084364, 0.2579766813510191, -0.4023849725596311, -0.33331646962080325, -0.01985756832001909, 0.06061175391045688, 0.16291519425283058, -0.3446481593880654, 0.511725534778007, -0.06088209057360792, -0.45242582605368276, 0.4011691130653342, 0.4155613921975178, 0.32419879964622883, 0.39028815833610897, 0.1214825570815023, 0.06677744908051968, -0.4402548177826634, -0.019555867730724007], [-0.04809630301962389, -0.2676285297424157, 0.11483819091976195, -0.09325190578518222, -0.5712558548239883, -0.31302738575551287, 0.11589549193696987, -0.6147919985221838, 0.2769056758457361, -0.08728475184304646, -0.0710151773213967, 0.2141798864319691, 0.41211237842368675, 0.04705415184342943, 0.4059270804084375, -0.07185030479685754, -0.21725391085741846, 0.3225794523946683, 0.2574076809212622, 0.26425991805703813, 0.31753881350881386, 0.3814414863912051, 0.17875199816783455, 0.44985487028109133], [0.2985349597258842, 0.14458539589360206, 0.0015014068034043572, 0.15963314623520836, -0.5362413982553691, 0.33784095266135866, 0.3057438428453819, -0.69783037025803, 0.24086645432154818, -0.47618032684187755, -0.23582373193454292, 0.3973301400348857, -0.22436486735665373, 0.5434172073377541, 0.5866239812601283, -0.16600004512285715, -0.47678203169282957, -0.2836755126101945, 0.09386354599128081, 0.5992321215385347, 0.10907418328491478, -0.23025546056338517, 0.10628174937124325, 0.1780649038783359], [0.1172161571794724, -0.3659912942975365, 0.6080066156758585, 0.10781060045531182, 0.5870061001055815, -0.1571030657783121, 0.18525794602850276, 0.7864507213430882, -0.303609719075042, 0.5094641927628574, 0.31576860651313654, -0.5892089037136724, -0.40192104984076965, -0.17494729497434772, -0.6848551345150735, 0.4144745778889698, -0.18683778026662484, 0.19066433687390877, -0.39254817423603894, 0.15206555753707138, 0.48543998025360724, 0.41166270369684616, 0.25226586570291115, -0.6039458760704974], [0.3024009299903854, -0.4928409695553267, -0.5149681029353076, -0.2430576411591711, -0.10842539395167285, 0.2474137161773156, 0.12886628376643441, -0.1637713814445664, -0.2775787502691442, 0.44401257688329815, -0.09936274092596693, 0.026374143894858593, -0.281996470389704, 0.4070905493154583, 0.34804234235564596, -0.345510735481373, -0.4050050455739791, 0.14468292980042563, 0.1189128520829306, -0.15975887743416037, 0.41786321701900087, -0.3378361598711918, -0.09435595296093276, 0.5020731242509527], [-0.026790434215053654, 0.11248436637790211, -0.14218938266270542, -0.29310720985671157, 0.3515145821451637, -0.12714131618929903, 0.3470808017263993, -0.3708900737634143, -0.3425609552101007, -0.5405573196490758, 0.1135414602068582, -0.048935489781128154, 0.41190336957581797, 0.08424772941121315, 0.6239706016997097, -0.3918537215954535, 0.3761460856784952, 0.22864697194565714, 0.2629276946808299, 0.39867082415753335, 0.24286707989628145, 0.12337466337874946, -0.39253125721702953, -0.398791744767665], [0.5717129023596941, 0.07147719665163332, 0.08033200631426177, -0.14663369195654394, -0.6277214139845052, -0.42146153988399715, 0.0896709062609898, -0.4191448982852059, -0.4190384441370752, -0.14454598999739604, -0.5436165725892889, 0.2841517521405616, -0.053963417727953, 0.6610089002140308, 0.18648371614153164, -0.3234947082957709, -0.4611551056115369, -0.5233310194725327, -0.16601669801030583, 0.16888069964187336, 0.06184784770309915, -0.17956680938666889, 0.16136676956791945, 0.5687930311367871], [0.17797504629732264, -0.4440229025231399, 0.2090927323131615, -0.3718113536518655, -0.19114850273175843, 0.4853440993137953, -0.3414763339472105, 0.2174253031009446, 0.16865197256463949, 0.24279429510951953, 0.1437368228641693, -0.5806293514149085, -0.3021771174227032, -0.20124418722261664, -0.5316443734739792, 0.062263426773883274, -0.4837533792262781, -0.3799192024890026, -0.08358595589821383, -0.49797148807461267, 0.057936158540231056, 0.1575882912443286, 0.2934584388065537, -0.4451135213586855]], "b": [[-0.05059357748663816, -0.0051568990016950915, 0.1860516664343582, -0.04491760024973186, -0.05204254710666055, -0.030664398745549763, -0.03577021169082302, 0.09098321512670372, -0.0034790111760739637, -0.02272970542508694, 0.05329051654941288, -0.003538603220941271, -0.07258835553687495, -0.09962985044004273, 0.045431418964482474, 0.1343837605056654, -0.007062770466526844, -9.02102420049096e-05, -0.005614572314547448, -0.06300382702447015, -0.03553660183296236, -0.025855302669371107, -0.03238978599915911, -0.07789437811140361]], "activation": "sigmoid", "w_init": "heUniform", "optimizer": "nesterov", "learning_rate": 0.05, "momentum": 0.9, "beta2": 0.999, "eps": 1e-08}, {"type": "DenseLayer", "input_size": 24, "output_size": 2, "W": [[0.1303623956648961, -0.858311973071427], [0.00034109043976407406, 0.3425648855907739], [-0.8576824235074884, 0.8254808145768203], [-0.464960410068199, 0.05822802902074178], [-0.5542510515442114, 1.1342806947412125], [0.10216424344365269, 0.41365077175856746], [-0.034156728170547344, 0.18843203445986542], [-1.1160129024875756, 1.0909444049327783], [-0.10617296807263801, 0.4710631141888678], [-0.4418354765130123, 0.5377314562278368], [-0.33243283047973626, 0.5904250131711808], [0.21952914560148926, -1.077547079580336], [0.2717712439426946, -0.8651233298193594], [1.1142710004718577, -1.0232734465216102], [1.0076941499900007, -0.6949331023997626], [-1.0545940576209187, 1.0264104804520966], [0.11820457855867904, 0.038698913395336], [-0.18898749621834915, 0.4635528254282441], [0.24432222086371289, -0.019533563475672054], [0.7641061850583426, -0.13898733656462237], [0.043478387231373546, -0.16370769387093675], [-0.47734885239375474, -0.4198002364212636], [-0.08880896600264418, -0.19088518874682595], [0.968724426916569, -0.3732828517418793]], "b": [[0.031784150534678896, -0.03178415053467889]], "activation": "none", "w_init": "heUniform", "optimizer": "nesterov", "learning_rate": 0.05, "momentum": 0.9, "beta2": 0.999, "eps": 1e-08}], "normalization": {"mean": [14.208841758241759, 19.326835164835167, 92.56975824175825, 663.3659340659341, 0.09628879120879122, 0.10550999999999999, 0.09042328725274726, 0.0497001054945055, 0.18112153846153847, 0.06275017582417583, 0.4087145054945055, 1.197063956043956, 2.91916989010989, 41.21023516483517, 0.006915367032967034, 0.025620356043956048, 0.032305889230769234, 0.011834327472527474, 0.020381775824175823, 0.0037776534065934067, 16.37098681318681, 25.66505494505494, 108.13145054945055, 892.3428571428572, 0.13193323076923077, 0.25901665934065937, 0.27713803736263737, 0.1161725956043956, 0.2904171428571428, 0.08418265934065935], "std": [3.5877033373034073, 4.373059793993258, 24.829069398475255, 362.89532339313917, 0.014204302245273703, 0.054813662979505115, 0.08292877782588133, 0.040079238292177896, 0.027602631222048177, 0.006983729156841554, 0.2873194535025765, 0.5588951425546324, 2.13166123049065, 48.11977777386588, 0.0029132469645184243, 0.018034527025261322, 0.031995772909142926, 0.00625771405199199, 0.007921061026044214, 0.0025302674685669883, 4.909371058825427, 6.204410549899669, 34.384936404220376, 583.3204836321144, 0.022549515096795137, 0.1629190706793953, 0.2152739404787926, 0.06719942135673804, 0.06091984043700133, 0.018338820523758678]}}